<?xml version='1.0' encoding='utf-8'?>
<BIF VERSION="0.3">
  <NETWORK>
    <NAME>UNTITLED</NAME>
    <VARIABLE TYPE="nature">
      <NAME>0</NAME>
      <OUTCOME>0</OUTCOME>
      <OUTCOME>1</OUTCOME>
      <PROPERTY>weight = None</PROPERTY>
    </VARIABLE>
    <VARIABLE TYPE="nature">
      <NAME>1</NAME>
      <OUTCOME>0</OUTCOME>
      <OUTCOME>1</OUTCOME>
      <PROPERTY>weight = None</PROPERTY>
    </VARIABLE>
    <VARIABLE TYPE="nature">
      <NAME>10</NAME>
      <OUTCOME>0</OUTCOME>
      <OUTCOME>1</OUTCOME>
      <PROPERTY>weight = None</PROPERTY>
    </VARIABLE>
    <VARIABLE TYPE="nature">
      <NAME>11</NAME>
      <OUTCOME>0</OUTCOME>
      <OUTCOME>1</OUTCOME>
      <PROPERTY>weight = None</PROPERTY>
    </VARIABLE>
    <VARIABLE TYPE="nature">
      <NAME>12</NAME>
      <OUTCOME>0</OUTCOME>
      <OUTCOME>1</OUTCOME>
      <PROPERTY>weight = None</PROPERTY>
    </VARIABLE>
    <VARIABLE TYPE="nature">
      <NAME>13</NAME>
      <OUTCOME>0</OUTCOME>
      <OUTCOME>1</OUTCOME>
      <PROPERTY>weight = None</PROPERTY>
    </VARIABLE>
    <VARIABLE TYPE="nature">
      <NAME>14</NAME>
      <OUTCOME>0</OUTCOME>
      <OUTCOME>1</OUTCOME>
      <PROPERTY>weight = None</PROPERTY>
    </VARIABLE>
    <VARIABLE TYPE="nature">
      <NAME>2</NAME>
      <OUTCOME>0</OUTCOME>
      <OUTCOME>1</OUTCOME>
      <PROPERTY>weight = None</PROPERTY>
    </VARIABLE>
    <VARIABLE TYPE="nature">
      <NAME>3</NAME>
      <OUTCOME>0</OUTCOME>
      <OUTCOME>1</OUTCOME>
      <PROPERTY>weight = None</PROPERTY>
    </VARIABLE>
    <VARIABLE TYPE="nature">
      <NAME>4</NAME>
      <OUTCOME>0</OUTCOME>
      <OUTCOME>1</OUTCOME>
      <PROPERTY>weight = None</PROPERTY>
    </VARIABLE>
    <VARIABLE TYPE="nature">
      <NAME>5</NAME>
      <OUTCOME>0</OUTCOME>
      <OUTCOME>1</OUTCOME>
      <PROPERTY>weight = None</PROPERTY>
    </VARIABLE>
    <VARIABLE TYPE="nature">
      <NAME>6</NAME>
      <OUTCOME>0</OUTCOME>
      <OUTCOME>1</OUTCOME>
      <PROPERTY>weight = None</PROPERTY>
    </VARIABLE>
    <VARIABLE TYPE="nature">
      <NAME>7</NAME>
      <OUTCOME>0</OUTCOME>
      <OUTCOME>1</OUTCOME>
      <PROPERTY>weight = None</PROPERTY>
    </VARIABLE>
    <VARIABLE TYPE="nature">
      <NAME>8</NAME>
      <OUTCOME>0</OUTCOME>
      <OUTCOME>1</OUTCOME>
      <PROPERTY>weight = None</PROPERTY>
    </VARIABLE>
    <VARIABLE TYPE="nature">
      <NAME>9</NAME>
      <OUTCOME>0</OUTCOME>
      <OUTCOME>1</OUTCOME>
      <PROPERTY>weight = None</PROPERTY>
    </VARIABLE>
    <DEFINITION>
      <FOR>0</FOR>
      <TABLE>0.9259775755085686 0.07402242449143141 </TABLE>
    </DEFINITION>
    <DEFINITION>
      <FOR>1</FOR>
      <TABLE>0.8990130191938995 0.10098698080610045 </TABLE>
    </DEFINITION>
    <DEFINITION>
      <FOR>10</FOR>
      <GIVEN>0</GIVEN>
      <GIVEN>6</GIVEN>
      <GIVEN>8</GIVEN>
      <GIVEN>9</GIVEN>
      <GIVEN>1</GIVEN>
      <GIVEN>4</GIVEN>
      <TABLE>0.9741087235025764 0.025891276497423607 0.4749905421532706 0.5250094578467294 0.33980302402898155 0.6601969759710183 0.5763159093034022 0.42368409069659785 0.6955336226122536 0.3044663773877464 0.8909792393709922 0.10902076062900783 0.24356397777808383 0.7564360222219162 0.45140135687991967 0.5485986431200803 0.443069056900761 0.5569309430992391 0.5541897232175563 0.44581027678244367 0.38055975767964245 0.6194402423203575 0.7725236281192092 0.2274763718807908 0.3937244716258642 0.6062755283741357 0.3062395761908785 0.6937604238091215 0.5944257869705266 0.4055742130294735 0.26358031889414496 0.736419681105855 0.3531147892170631 0.6468852107829368 0.00946886093114475 0.9905311390688553 0.7911642859059917 0.20883571409400828 0.48916593880298476 0.5108340611970152 0.5700259279922703 0.4299740720077297 0.4375526663037253 0.5624473336962748 0.7630529982460612 0.23694700175393885 0.8698659784695193 0.13013402153048065 0.36474063789290145 0.6352593621070985 0.695391082938695 0.304608917061305 0.21275971460825446 0.7872402853917455 0.028152911079086757 0.9718470889209132 0.40367004820584534 0.5963299517941546 0.5673990066509262 0.4326009933490737 0.3871300776619779 0.6128699223380221 0.5089285227491593 0.4910714772508407 0.7108237202155225 0.28917627978447746 0.3757462721033829 0.624253727896617 0.6267458402456519 0.373254159754348 0.5187123854449693 0.4812876145550307 0.6039314161932402 0.39606858380675974 0.4185455088054349 0.581454491194565 0.46697530392199993 0.5330246960780001 0.27114391103366725 0.7288560889663327 0.37249845058349823 0.6275015494165018 0.4752535217273062 0.5247464782726937 0.490001988875655 0.5099980111243451 0.47015141454294923 0.5298485854570506 0.4410287859341257 0.5589712140658742 0.25083893586235556 0.7491610641376444 0.14115275870931904 0.858847241290681 0.614284088649407 0.3857159113505931 0.3711259438359728 0.6288740561640273 0.4095185851300372 0.5904814148699629 0.4262824020057315 0.5737175979942685 0.47969869368544016 0.5203013063145598 0.28361796134128087 0.7163820386587191 0.2407088945769099 0.7592911054230901 0.7499732761786466 0.2500267238213534 0.5850369724068644 0.41496302759313564 0.5947628073222532 0.40523719267774677 0.5315952411345881 0.46840475886541194 0.17818244205733122 0.8218175579426688 0.333619240325727 0.666380759674273 0.9963038750148685 0.0036961249851315287 0.48426432364729416 0.5157356763527059 0.25502976450012477 0.7449702354998753 0.6474084366797233 0.3525915633202767 </TABLE>
    </DEFINITION>
    <DEFINITION>
      <FOR>11</FOR>
      <GIVEN>6</GIVEN>
      <GIVEN>7</GIVEN>
      <GIVEN>3</GIVEN>
      <TABLE>0.9394590543300693 0.060540945669930755 0.17365427362591626 0.8263457263740838 0.19049848801285532 0.8095015119871447 0.28412215091845094 0.715877849081549 0.4827208826109139 0.517279117389086 0.20849248342132742 0.7915075165786726 0.9597307207114175 0.04026927928858247 0.05135959315548615 0.9486404068445139 </TABLE>
    </DEFINITION>
    <DEFINITION>
      <FOR>12</FOR>
      <GIVEN>0</GIVEN>
      <GIVEN>8</GIVEN>
      <GIVEN>10</GIVEN>
      <GIVEN>1</GIVEN>
      <GIVEN>4</GIVEN>
      <GIVEN>11</GIVEN>
      <TABLE>0.4581761573418319 0.5418238426581681 0.15099947893196117 0.8490005210680387 0.39174726186424425 0.6082527381357558 0.5988827552319836 0.4011172447680164 0.036955598063179405 0.9630444019368206 0.13268943558424087 0.8673105644157592 0.8551108918325688 0.14488910816743117 0.4835365240140958 0.5164634759859041 0.4566495488658336 0.5433504511341665 0.39015219820543134 0.6098478017945687 0.8849829960688477 0.11501700393115231 0.35736021442525806 0.6426397855747419 0.6034980293612877 0.39650197063871223 0.4819663862320457 0.5180336137679543 0.25735540197586265 0.7426445980241374 0.6077090791150792 0.3922909208849208 0.5503087728664436 0.44969122713355636 0.9042600714188768 0.09573992858112323 0.4053508144132033 0.5946491855867967 0.046881167700805276 0.9531188322991947 0.48024725356030357 0.5197527464396964 0.44186267446806565 0.5581373255319343 0.7277942875556915 0.2722057124443084 0.8990944540552567 0.10090554594474331 0.5244357950853089 0.47556420491469104 0.5529224497135942 0.44707755028640583 0.3994973929716661 0.6005026070283339 0.034321243161422446 0.9656787568385775 0.547569187769334 0.4524308122306659 0.7899263682254986 0.21007363177450147 0.6051093500329084 0.3948906499670915 0.4412804200270604 0.5587195799729395 0.5411694181838465 0.45883058181615344 0.9477618962407535 0.05223810375924655 0.47428162986194805 0.5257183701380519 0.39262224468894846 0.6073777553110515 0.6224175583689637 0.37758244163103627 0.41687333116861647 0.5831266688313836 0.9631412934297453 0.03685870657025469 0.5089008863927481 0.4910991136072519 0.15691376025880804 0.843086239741192 0.8605805916728151 0.1394194083271849 0.5391904808059005 0.4608095191940995 0.94469857773095 0.05530142226905001 0.7963714562927294 0.20362854370727054 0.6772286517341419 0.32277134826585807 0.7281403717086546 0.27185962829134536 0.48137244715874894 0.5186275528412511 0.2543471156443949 0.7456528843556052 0.963003640398381 0.036996359601619004 0.5888162423901155 0.41118375760988446 0.40105096590199574 0.5989490340980042 0.8699431475663258 0.13005685243367418 0.5431400257921953 0.45685997420780466 0.3688956419002486 0.6311043580997514 0.4886262686271865 0.5113737313728135 0.8884774478093833 0.11152255219061673 0.18984428445855467 0.8101557155414454 0.4464593136793531 0.5535406863206469 0.30998036685474556 0.6900196331452544 0.4505216120396464 0.5494783879603536 0.8995823355687692 0.10041766443123075 0.9876799649169026 0.012320035083097404 0.6946749549829057 0.3053250450170943 </TABLE>
    </DEFINITION>
    <DEFINITION>
      <FOR>13</FOR>
      <GIVEN>6</GIVEN>
      <GIVEN>7</GIVEN>
      <GIVEN>9</GIVEN>
      <GIVEN>10</GIVEN>
      <GIVEN>12</GIVEN>
      <GIVEN>1</GIVEN>
      <GIVEN>2</GIVEN>
      <GIVEN>11</GIVEN>
      <TABLE>0.5792842548120705 0.4207157451879294 0.36581431451955365 0.6341856854804463 0.7948824578309216 0.2051175421690785 0.6092261659164446 0.3907738340835554 0.69193993903142 0.30806006096857996 0.3802036875075193 0.6197963124924807 0.10399339739565305 0.896006602604347 0.7866991111509473 0.2133008888490528 0.6802991048094821 0.319700895190518 0.6750655393526381 0.3249344606473619 0.6482468582727321 0.35175314172726796 0.10366597994297486 0.8963340200570251 0.6418973113596106 0.35810268864038935 0.3135887579894708 0.6864112420105292 0.4660198637665638 0.5339801362334362 0.619988346431925 0.38001165356807487 0.29545019061355365 0.7045498093864463 0.4834957322782548 0.5165042677217452 0.7586974602984491 0.24130253970155088 0.49181086674412194 0.5081891332558781 0.4523880863321821 0.547611913667818 0.231097854106959 0.7689021458930411 0.45763361870723324 0.5423663812927668 0.30871530383871454 0.6912846961612854 0.7329901920460639 0.26700980795393603 0.5917727134173855 0.4082272865826145 0.648076101677941 0.3519238983220589 0.32615016620650256 0.6738498337934975 0.17139949633376228 0.8286005036662377 0.6109336774512735 0.3890663225487265 0.5524980881636118 0.4475019118363881 0.8219220616518108 0.17807793834818922 0.14926266060152704 0.8507373393984728 0.09156028625676244 0.9084397137432376 0.045290049694650426 0.9547099503053496 0.7871047892825546 0.2128952107174454 0.10177237887390855 0.8982276211260914 0.561950708190672 0.43804929180932795 0.5566632428669563 0.44333675713304366 0.5129939766522054 0.4870060233477946 0.5345910029298607 0.4654089970701393 0.5336294031167541 0.466370596883246 0.555073465464738 0.444926534535262 0.44658871585720444 0.5534112841427956 0.48986536333012815 0.5101346366698718 0.2841096433941764 0.7158903566058237 0.3060878542405946 0.6939121457594054 0.3667865720990342 0.6332134279009658 0.40910411860340157 0.5908958813965983 0.2268287810862805 0.7731712189137195 0.4706405712182915 0.5293594287817085 0.7010844541188817 0.2989155458811183 0.5814668250987922 0.4185331749012077 0.1065890742679834 0.8934109257320166 0.619699882571735 0.3803001174282651 0.11946052636244493 0.880539473637555 0.46159065748495093 0.5384093425150491 0.9461693336398863 0.05383066636011373 0.08070184462134453 0.9192981553786554 0.08327874730215241 0.9167212526978475 0.36858052267359653 0.6314194773264036 0.5001124505178697 0.4998875494821303 0.5536066939829413 0.44639330601705873 0.8657034718697336 0.13429652813026632 0.6935207121343252 0.3064792878656748 0.3011115610849289 0.698888438915071 0.5328377460522485 0.4671622539477514 0.34970557241398365 0.6502944275860163 0.4744641298527008 0.5255358701472992 0.5278964249534334 0.4721035750465667 0.4224759459711679 0.5775240540288322 0.5204091609249644 0.4795908390750356 0.19742849289426187 0.8025715071057381 0.624929799472133 0.37507020052786705 0.2936395952971128 0.7063604047028872 0.5210916168114622 0.4789083831885378 0.6862179606728029 0.31378203932719706 0.3298619756142504 0.6701380243857495 0.5202461556001038 0.47975384439989616 0.2185545928944859 0.7814454071055141 0.4910934600423787 0.5089065399576214 0.9638211199585457 0.03617888004145426 0.06499454463592341 0.9350054553640766 0.4594344033983526 0.5405655966016473 0.549414476208735 0.450585523791265 0.2802776615349126 0.7197223384650873 0.6674856063609846 0.3325143936390153 0.4510158394154275 0.5489841605845726 0.26433427623301964 0.7356657237669804 0.6856561981307213 0.31434380186927874 0.6568790872800033 0.3431209127199967 0.16737211463254065 0.8326278853674594 0.7743725306626289 0.22562746933737107 0.727267776367592 0.27273222363240784 0.415858942222959 0.584141057777041 0.16409199891418652 0.8359080010858135 0.2854767887240996 0.7145232112759005 0.5398052140565404 0.4601947859434597 0.6549806343552805 0.3450193656447195 0.454516157871125 0.5454838421288751 0.9928895396791954 0.007110460320804671 0.2688587941540063 0.7311412058459936 0.10138729928779225 0.8986127007122079 0.546566973110405 0.453433026889595 0.6501103740470676 0.3498896259529323 0.3223522459638799 0.6776477540361201 0.5423269074961596 0.45767309250384036 0.48714188431113314 0.5128581156888669 0.4074661773139424 0.5925338226860576 0.7093588820357084 0.2906411179642916 0.23399709099263435 0.7660029090073656 0.08828033733240001 0.9117196626676 0.8976980309190999 0.10230196908090003 0.2763326564428232 0.7236673435571768 0.5109594526514247 0.4890405473485753 0.13634020450182607 0.863659795498174 0.9299552039612207 0.07004479603877928 0.6615045702349878 0.33849542976501223 0.06988784517320958 0.9301121548267904 0.18154250698174762 0.8184574930182523 0.536727867372822 0.46327213262717803 0.1388162124258407 0.8611837875741594 0.2156769998202784 0.7843230001797216 0.5032087900693968 0.4967912099306033 0.4301215601507363 0.5698784398492638 0.16513987357352294 0.8348601264264771 0.6385645087055627 0.3614354912944373 0.5238119991269781 0.47618800087302193 0.8358568590722228 0.16414314092777715 0.5620314256511827 0.4379685743488173 0.12572354649057768 0.8742764535094223 0.26279041226274275 0.7372095877372572 0.9315161757533933 0.06848382424660669 0.5437774519729497 0.45622254802705026 0.7316310706840461 0.268368929315954 0.6243428878226331 0.3756571121773668 0.8690121331958871 0.13098786680411292 0.24245650108580244 0.7575434989141976 0.6919005712019082 0.30809942879809193 0.3448890457047184 0.6551109542952815 0.49393972385502355 0.5060602761449764 0.6131141113395859 0.3868858886604142 0.6669679614106124 0.3330320385893876 0.8563614429441999 0.1436385570558001 0.7048576411662818 0.29514235883371825 0.8504648473544523 0.1495351526455477 0.5283478148421524 0.4716521851578475 0.07555867920439031 0.9244413207956097 0.5556950888347272 0.4443049111652729 0.554774194585354 0.44522580541464596 0.5261592945883943 0.4738407054116057 0.7208280247231967 0.2791719752768033 0.4495896251974462 0.5504103748025537 0.5109061928850279 0.489093807114972 0.6339976203837807 0.3660023796162193 0.5041505922179225 0.49584940778207753 0.18544852607394935 0.8145514739260507 0.3133861205603735 0.6866138794396264 0.3377032208829711 0.6622967791170288 0.6129455658927718 0.3870544341072281 0.5431322343007048 0.4568677656992953 0.6272488001583756 0.3727511998416245 0.19071235280755994 0.8092876471924401 0.3603213623136921 0.639678637686308 0.4812337141455469 0.5187662858544531 0.6583117594007931 0.3416882405992068 0.45311697578857535 0.5468830242114247 0.7081002848092544 0.2918997151907456 0.9427111792309537 0.057288820769046275 0.5513547748640318 0.44864522513596816 0.49536009583488566 0.5046399041651144 0.4171885239529639 0.5828114760470361 0.4003340253469174 0.5996659746530827 0.31844975050864105 0.681550249491359 0.377432408289589 0.622567591710411 0.15008053608021396 0.849919463919786 0.46245058550424545 0.5375494144957547 0.9037279191529414 0.09627208084705867 0.8014511602450849 0.19854883975491525 0.47019092267467266 0.5298090773253274 0.696071452222606 0.30392854777739403 0.5356794865405141 0.46432051345948583 0.304641634878604 0.695358365121396 0.34899635815172003 0.65100364184828 0.8424865443153712 0.15751345568462874 0.5711165715599367 0.4288834284400633 0.7074887358838186 0.29251126411618145 0.3052083074821078 0.6947916925178922 0.5032223627965804 0.4967776372034197 0.3378704988413948 0.6621295011586051 0.6354502279926627 0.3645497720073372 0.9324061364477483 0.06759386355225187 0.4985633052293486 0.5014366947706513 0.4816481606664217 0.5183518393335783 0.6340422233406954 0.36595777665930457 0.12668411529414858 0.8733158847058514 0.44390695774787825 0.5560930422521217 0.42119106460597766 0.5788089353940223 0.5832794971291732 0.4167205028708267 0.432620569355109 0.5673794306448909 0.4353376606876074 0.5646623393123926 0.39396273345138877 0.6060372665486111 0.17775567621663577 0.8222443237833642 0.3424903690663277 0.6575096309336723 0.04816310542175179 0.9518368945782482 0.38304455464615267 0.6169554453538473 0.4370795786994775 0.5629204213005226 0.5922211331529987 0.4077788668470014 0.2648492992954085 0.7351507007045914 0.42021671192009463 0.5797832880799054 0.8286313647548719 0.1713686352451282 0.12728457161363377 0.8727154283863663 0.5888271610613772 0.41117283893862283 0.5524054049091234 0.4475945950908767 0.49547706597708474 0.5045229340229153 0.39361989975192263 0.6063801002480774 0.5858447589444264 0.4141552410555736 0.41274465932609133 0.5872553406739086 0.7378007970145894 0.26219920298541055 0.1380309353154041 0.8619690646845959 0.46508671591275985 0.5349132840872401 0.4939670220441931 0.5060329779558069 0.26173031482727027 0.7382696851727297 0.0586736149633141 0.9413263850366859 0.4650036003244319 0.534996399675568 0.681150327448106 0.31884967255189395 0.36607203799608146 0.6339279620039185 0.6616006715919841 0.33839932840801584 0.32290714976526197 0.677092850234738 0.5422077119382978 0.45779228806170225 0.6826104780755201 0.31738952192448 0.663219550150351 0.33678044984964906 0.5687123383324503 0.4312876616675497 0.7535539359603336 0.2464460640396664 0.7397606371211415 0.2602393628788586 0.40437932749692085 0.5956206725030793 0.7661657683709251 0.23383423162907505 0.7098864869198112 0.2901135130801888 0.25427021665562355 0.7457297833443765 0.11794767520298047 0.8820523247970196 0.1355479774726224 0.8644520225273776 0.24878112442575748 0.7512188755742425 0.9266311484432841 0.07336885155671591 0.6098884067216335 0.3901115932783665 0.5173311573196773 0.48266884268032273 0.8883365512240239 0.11166344877597607 0.1486422808168014 0.8513577191831986 0.5287781375802275 0.4712218624197725 0.5698301854932252 0.4301698145067748 0.5407662571250218 0.45923374287497815 0.5238056720263814 0.47619432797361866 0.561483891874407 0.43851610812559305 0.26017361853755167 0.7398263814624483 0.3327866692462019 0.6672133307537981 0.49098600635320006 0.5090139936467999 0.48802700108627967 0.5119729989137203 </TABLE>
    </DEFINITION>
    <DEFINITION>
      <FOR>14</FOR>
      <GIVEN>6</GIVEN>
      <GIVEN>7</GIVEN>
      <GIVEN>8</GIVEN>
      <GIVEN>12</GIVEN>
      <GIVEN>2</GIVEN>
      <GIVEN>3</GIVEN>
      <GIVEN>11</GIVEN>
      <TABLE>0.6006149148274221 0.3993850851725778 0.7524081505406948 0.24759184945930518 0.8875513207559885 0.11244867924401147 0.6187199751200073 0.3812800248799927 0.6961841942377226 0.3038158057622775 0.26625564399735563 0.7337443560026445 0.3959787324626033 0.6040212675373967 0.22283018642645006 0.77716981357355 0.40276635590563836 0.5972336440943617 0.6187160652051192 0.3812839347948807 0.7161869711933845 0.28381302880661546 0.7689032449912321 0.2310967550087679 0.32322193852063974 0.6767780614793603 0.48963509032892427 0.5103649096710758 0.7566570803898743 0.24334291961012564 0.41471865945035513 0.5852813405496448 0.7105441213513218 0.2894558786486783 0.570253605670912 0.42974639432908796 0.0189620051069231 0.9810379948930769 0.7048745161191873 0.2951254838808126 0.7386660239662746 0.26133397603372543 0.5076733492085991 0.49232665079140087 0.6638819342589591 0.3361180657410407 0.479285760521359 0.5207142394786408 0.4628243435158472 0.5371756564841528 0.49275653694935256 0.5072434630506475 0.3279588730785985 0.6720411269214014 0.7270572061204739 0.27294279387952614 0.7406513358495768 0.2593486641504232 0.25861375859067626 0.7413862414093237 0.47240004177765904 0.5275999582223411 0.5519147560067427 0.4480852439932573 0.6407713260145852 0.3592286739854148 0.4337075270348911 0.566292472965109 0.5768330389336386 0.4231669610663614 0.3136095789563208 0.6863904210436792 0.7886044149080896 0.2113955850919104 0.9145460567121394 0.08545394328786063 0.31218920016297963 0.6878107998370203 0.8456078061897577 0.15439219381024222 0.2838663447133427 0.7161336552866573 0.35722179502207024 0.6427782049779297 0.27426303229210663 0.7257369677078933 0.45271488081443134 0.5472851191855687 0.3653060368899964 0.6346939631100036 0.22708935125022273 0.7729106487497773 0.5381616024134424 0.4618383975865577 0.03475594632632211 0.9652440536736779 0.08937886514055535 0.9106211348594446 0.615196629865749 0.38480337013425103 0.4124920475064333 0.5875079524935667 0.10676918497664808 0.8932308150233519 0.5322670437615733 0.4677329562384266 0.4007113613491204 0.5992886386508796 0.41458237508784734 0.5854176249121527 0.3950845412929703 0.6049154587070297 0.3289797460262273 0.6710202539737726 0.473754115390277 0.526245884609723 0.9911863607698541 0.008813639230145892 0.39135455050665774 0.6086454494933423 0.47622864653072616 0.523771353469274 0.5267284071690254 0.4732715928309747 0.6036758874139934 0.39632411258600664 0.9662373056464649 0.03376269435353504 0.4829481426455813 0.5170518573544187 0.169064695063834 0.830935304936166 0.32481829644088434 0.6751817035591157 0.16040962623086943 0.8395903737691306 0.5916673221091612 0.4083326778908388 0.12853600916737096 0.8714639908326292 0.4455915004801625 0.5544084995198375 0.6161084158596764 0.38389158414032376 0.7583477543830205 0.24165224561697957 0.13019966855487058 0.8698003314451294 0.7209946182871305 0.27900538171286937 0.2911477323361478 0.7088522676638521 0.02714233458918365 0.9728576654108163 0.41472112004690953 0.5852788799530905 0.30699536827350815 0.6930046317264918 0.6909875183309744 0.3090124816690256 0.9764541451813435 0.02354585481865649 0.3817553567330464 0.6182446432669536 0.34739990685615074 0.6526000931438493 0.21474560014362043 0.7852543998563795 0.22408842239791255 0.7759115776020875 0.5341753706066229 0.4658246293933771 0.2512563458279553 0.7487436541720447 0.27615931325104803 0.723840686748952 0.966696487398488 0.03330351260151201 0.6660180328078673 0.33398196719213274 0.5185467129064664 0.4814532870935336 0.7487106769411932 0.2512893230588068 0.3014102479742525 0.6985897520257476 0.5282543918011349 0.4717456081988651 0.4659003549078922 0.5340996450921077 0.9537191036822343 0.04628089631776567 0.5658387503017843 0.4341612496982156 0.8756910120701661 0.12430898792983391 0.6272148659639372 0.3727851340360628 0.40319175684389197 0.5968082431561079 0.43216744415084385 0.5678325558491562 0.49902441781142143 0.5009755821885786 0.5767942166987778 0.42320578330122205 0.9952660172499062 0.004733982750093844 0.17406077003980905 0.825939229960191 0.4778078580228998 0.5221921419771003 0.8100740098073016 0.18992599019269846 0.5240868095686337 0.47591319043136626 0.7284932820501347 0.27150671794986525 0.15140793944043415 0.8485920605595658 0.6167406995286395 0.3832593004713605 0.5331969905634839 0.4668030094365161 0.01585285434700923 0.9841471456529908 0.30496797512162166 0.6950320248783783 0.583970913310975 0.4160290866890251 0.3427950251798026 0.6572049748201974 0.9717992332974127 0.028200766702587254 0.2061404087550888 0.7938595912449112 0.5662353873113645 0.4337646126886355 0.04796750246777756 0.9520324975322224 0.1069711723786209 0.8930288276213791 0.6996666673856743 0.3003333326143258 0.6133769880736677 0.3866230119263323 0.008766074379494563 0.9912339256205054 0.7987832990369211 0.20121670096307886 0.08440019144660611 0.9155998085533937 0.46838946188161484 0.5316105381183852 0.18718269789371067 0.8128173021062893 </TABLE>
    </DEFINITION>
    <DEFINITION>
      <FOR>2</FOR>
      <TABLE>0.4701044756556267 0.5298955243443733 </TABLE>
    </DEFINITION>
    <DEFINITION>
      <FOR>3</FOR>
      <GIVEN>2</GIVEN>
      <TABLE>0.7107386441486495 0.28926135585135054 0.7973448343240416 0.20265516567595837 </TABLE>
    </DEFINITION>
    <DEFINITION>
      <FOR>4</FOR>
      <GIVEN>1</GIVEN>
      <GIVEN>2</GIVEN>
      <TABLE>0.7195255490430743 0.28047445095692575 0.09138077914112565 0.9086192208588744 0.2877452705473251 0.7122547294526749 0.5980049997945435 0.4019950002054565 </TABLE>
    </DEFINITION>
    <DEFINITION>
      <FOR>5</FOR>
      <GIVEN>3</GIVEN>
      <TABLE>0.38036554954100227 0.6196344504589977 0.4486128227253808 0.5513871772746193 </TABLE>
    </DEFINITION>
    <DEFINITION>
      <FOR>6</FOR>
      <GIVEN>0</GIVEN>
      <GIVEN>1</GIVEN>
      <GIVEN>4</GIVEN>
      <GIVEN>3</GIVEN>
      <GIVEN>5</GIVEN>
      <TABLE>0.585018047606847 0.4149819523931531 0.9407556360805062 0.05924436391949386 0.18246764063290202 0.817532359367098 0.12407280075821947 0.8759271992417805 0.5909192823283352 0.4090807176716649 0.6201713316757639 0.3798286683242362 0.6407193040709944 0.35928069592900563 0.6551927626442745 0.3448072373557255 0.7124877527992914 0.28751224720070856 0.004906072209249148 0.9950939277907509 0.9516528922876267 0.04834710771237332 0.1108828369408664 0.8891171630591336 0.4759342837115853 0.5240657162884147 0.4700026663053617 0.5299973336946383 0.5320385979805002 0.46796140201949976 0.4914782955926724 0.5085217044073276 0.7658615465627296 0.23413845343727038 0.3865343707541317 0.6134656292458683 0.6072204096099416 0.39277959039005844 0.5542673324676515 0.4457326675323485 0.7802056318384344 0.2197943681615656 0.142716569588625 0.857283430411375 0.5157214409759695 0.48427855902403044 0.6315517073786342 0.3684482926213659 0.8218710216892899 0.17812897831070992 0.5540064593223597 0.44599354067764035 0.7156622455790427 0.2843377544209573 0.27451707551773136 0.7254829244822687 0.5777783237605939 0.4222216762394061 0.31489736350682107 0.6851026364931789 0.5406130894825528 0.4593869105174472 0.5084969044508707 0.49150309554912935 </TABLE>
    </DEFINITION>
    <DEFINITION>
      <FOR>7</FOR>
      <GIVEN>0</GIVEN>
      <GIVEN>1</GIVEN>
      <GIVEN>2</GIVEN>
      <TABLE>0.9554114414421645 0.044588558557835535 0.36216508843906425 0.6378349115609357 0.4031339176423046 0.5968660823576954 0.7414120500317671 0.2585879499682329 0.3061794715525518 0.6938205284474481 0.2376810346463707 0.7623189653536293 0.4351453972300549 0.564854602769945 0.4625640785567191 0.5374359214432809 </TABLE>
    </DEFINITION>
    <DEFINITION>
      <FOR>8</FOR>
      <GIVEN>0</GIVEN>
      <GIVEN>6</GIVEN>
      <GIVEN>1</GIVEN>
      <GIVEN>4</GIVEN>
      <GIVEN>5</GIVEN>
      <TABLE>0.31704325608242256 0.6829567439175774 0.5061415518934976 0.4938584481065023 0.5360289107701351 0.46397108922986485 0.2788917816141026 0.7211082183858974 0.5072692196125961 0.49273078038740403 0.7248406513033773 0.2751593486966228 0.48417984890578203 0.515820151094218 0.9336960404482314 0.06630395955176854 0.4950374834018349 0.504962516598165 0.5084440863531174 0.49155591364688256 0.6420279886009504 0.3579720113990495 0.49291282573860284 0.5070871742613972 0.5312007266345752 0.4687992733654248 0.5841905631549492 0.41580943684505073 0.31041093952916016 0.6895890604708398 0.5323060359711882 0.4676939640288118 0.765312251153946 0.234687748846054 0.08392379152067962 0.9160762084793204 0.9435253003108239 0.056474699689176094 0.3689746625189046 0.6310253374810953 0.37663543839230623 0.6233645616076938 0.6005714294913554 0.39942857050864466 0.9540736435712281 0.045926356428771804 0.5042271917523704 0.49577280824762965 0.6204101895857226 0.3795898104142775 0.7989336160537288 0.20106638394627113 0.2895399336088436 0.7104600663911564 0.5522771676966627 0.44772283230333726 0.7610605741360421 0.2389394258639579 0.5162429139279011 0.4837570860720989 0.5163315324883283 0.48366846751167175 0.5286999466383215 0.4713000533616785 </TABLE>
    </DEFINITION>
    <DEFINITION>
      <FOR>9</FOR>
      <GIVEN>0</GIVEN>
      <GIVEN>2</GIVEN>
      <GIVEN>5</GIVEN>
      <TABLE>0.6007396899253562 0.3992603100746438 0.23236012997894911 0.7676398700210509 0.45492565109911354 0.5450743489008864 0.3536718079762916 0.6463281920237085 0.9184723840689423 0.08152761593105769 0.4710157553128691 0.5289842446871309 0.6415129694868272 0.35848703051317277 0.8106680586468743 0.18933194135312564 </TABLE>
    </DEFINITION>
  </NETWORK>
</BIF>
