<?xml version='1.0' encoding='utf-8'?>
<BIF VERSION="0.3">
  <NETWORK>
    <NAME>UNTITLED</NAME>
    <VARIABLE TYPE="nature">
      <NAME>0</NAME>
      <OUTCOME>0</OUTCOME>
      <OUTCOME>1</OUTCOME>
      <PROPERTY>weight = None</PROPERTY>
    </VARIABLE>
    <VARIABLE TYPE="nature">
      <NAME>1</NAME>
      <OUTCOME>0</OUTCOME>
      <OUTCOME>1</OUTCOME>
      <PROPERTY>weight = None</PROPERTY>
    </VARIABLE>
    <VARIABLE TYPE="nature">
      <NAME>10</NAME>
      <OUTCOME>0</OUTCOME>
      <OUTCOME>1</OUTCOME>
      <PROPERTY>weight = None</PROPERTY>
    </VARIABLE>
    <VARIABLE TYPE="nature">
      <NAME>11</NAME>
      <OUTCOME>0</OUTCOME>
      <OUTCOME>1</OUTCOME>
      <PROPERTY>weight = None</PROPERTY>
    </VARIABLE>
    <VARIABLE TYPE="nature">
      <NAME>12</NAME>
      <OUTCOME>0</OUTCOME>
      <OUTCOME>1</OUTCOME>
      <PROPERTY>weight = None</PROPERTY>
    </VARIABLE>
    <VARIABLE TYPE="nature">
      <NAME>13</NAME>
      <OUTCOME>0</OUTCOME>
      <OUTCOME>1</OUTCOME>
      <PROPERTY>weight = None</PROPERTY>
    </VARIABLE>
    <VARIABLE TYPE="nature">
      <NAME>14</NAME>
      <OUTCOME>0</OUTCOME>
      <OUTCOME>1</OUTCOME>
      <PROPERTY>weight = None</PROPERTY>
    </VARIABLE>
    <VARIABLE TYPE="nature">
      <NAME>2</NAME>
      <OUTCOME>0</OUTCOME>
      <OUTCOME>1</OUTCOME>
      <PROPERTY>weight = None</PROPERTY>
    </VARIABLE>
    <VARIABLE TYPE="nature">
      <NAME>3</NAME>
      <OUTCOME>0</OUTCOME>
      <OUTCOME>1</OUTCOME>
      <PROPERTY>weight = None</PROPERTY>
    </VARIABLE>
    <VARIABLE TYPE="nature">
      <NAME>4</NAME>
      <OUTCOME>0</OUTCOME>
      <OUTCOME>1</OUTCOME>
      <PROPERTY>weight = None</PROPERTY>
    </VARIABLE>
    <VARIABLE TYPE="nature">
      <NAME>5</NAME>
      <OUTCOME>0</OUTCOME>
      <OUTCOME>1</OUTCOME>
      <PROPERTY>weight = None</PROPERTY>
    </VARIABLE>
    <VARIABLE TYPE="nature">
      <NAME>6</NAME>
      <OUTCOME>0</OUTCOME>
      <OUTCOME>1</OUTCOME>
      <PROPERTY>weight = None</PROPERTY>
    </VARIABLE>
    <VARIABLE TYPE="nature">
      <NAME>7</NAME>
      <OUTCOME>0</OUTCOME>
      <OUTCOME>1</OUTCOME>
      <PROPERTY>weight = None</PROPERTY>
    </VARIABLE>
    <VARIABLE TYPE="nature">
      <NAME>8</NAME>
      <OUTCOME>0</OUTCOME>
      <OUTCOME>1</OUTCOME>
      <PROPERTY>weight = None</PROPERTY>
    </VARIABLE>
    <VARIABLE TYPE="nature">
      <NAME>9</NAME>
      <OUTCOME>0</OUTCOME>
      <OUTCOME>1</OUTCOME>
      <PROPERTY>weight = None</PROPERTY>
    </VARIABLE>
    <DEFINITION>
      <FOR>0</FOR>
      <TABLE>0.9585786724720825 0.041421327527917474 </TABLE>
    </DEFINITION>
    <DEFINITION>
      <FOR>1</FOR>
      <GIVEN>0</GIVEN>
      <TABLE>0.6413118297174775 0.35868817028252253 0.46514196437764094 0.534858035622359 </TABLE>
    </DEFINITION>
    <DEFINITION>
      <FOR>10</FOR>
      <GIVEN>4</GIVEN>
      <GIVEN>2</GIVEN>
      <GIVEN>6</GIVEN>
      <GIVEN>8</GIVEN>
      <GIVEN>3</GIVEN>
      <GIVEN>5</GIVEN>
      <TABLE>0.16996773612141247 0.8300322638785875 0.43270534132667343 0.5672946586733266 0.7293675117281548 0.2706324882718452 0.7139727815851941 0.28602721841480594 0.8632303726124234 0.1367696273875766 0.21392117414499737 0.7860788258550027 0.42738124361193663 0.5726187563880634 0.47621270459298726 0.5237872954070127 0.5021384821038747 0.49786151789612526 0.2956006416254605 0.7043993583745395 0.6486434318356891 0.35135656816431093 0.4534681743929709 0.5465318256070292 0.4921710391017433 0.5078289608982567 0.4052435658609523 0.5947564341390478 0.4832044456285245 0.5167955543714755 0.6132927009524122 0.3867072990475879 0.21992493974793123 0.7800750602520687 0.10356024325223767 0.8964397567477623 0.9524561064308784 0.04754389356912161 0.48065073835640487 0.5193492616435952 0.564510825683104 0.43548917431689593 0.2191932286881184 0.7808067713118816 0.8080547093142242 0.1919452906857758 0.090822299472654 0.909177700527346 0.5574144256939066 0.44258557430609324 0.14495286365861834 0.8550471363413816 0.08040397602748378 0.9195960239725163 0.47341543571130407 0.5265845642886958 0.2057779186413775 0.7942220813586225 0.9835134704074502 0.01648652959254984 0.5968127255721428 0.4031872744278571 0.4896690634547807 0.5103309365452192 0.6235592052477053 0.37644079475229464 0.569877748700326 0.4301222512996739 0.560882128948278 0.4391178710517219 0.15645485995126332 0.8435451400487367 0.2464741794189847 0.7535258205810154 0.9662520712311183 0.03374792876888167 0.3289345455833914 0.6710654544166085 0.5337718323755962 0.4662281676244038 0.11623284097497255 0.8837671590250274 0.778558966439239 0.22144103356076092 0.8685610121261516 0.1314389878738484 0.025205636505714318 0.9747943634942857 0.521012381805625 0.47898761819437496 0.4335015235014224 0.5664984764985777 0.6964399477342107 0.30356005226578936 0.11699526742731153 0.8830047325726884 0.5341682342858084 0.46583176571419166 0.9912473517003368 0.008752648299663176 0.7615037396386292 0.23849626036137084 0.6205541849987624 0.37944581500123764 0.24629069535653078 0.7537093046434692 0.5138019966732578 0.48619800332674235 0.46704872256982427 0.5329512774301758 0.7166420106876694 0.28335798931233064 0.584760999164713 0.41523900083528686 0.24266110325849438 0.7573388967415056 0.2945975540984595 0.7054024459015406 0.37127661288385516 0.6287233871161448 0.4890796703456812 0.5109203296543188 0.15399831826352112 0.8460016817364788 0.4646163018201012 0.5353836981798988 0.4058861486083154 0.5941138513916847 </TABLE>
    </DEFINITION>
    <DEFINITION>
      <FOR>11</FOR>
      <GIVEN>7</GIVEN>
      <GIVEN>8</GIVEN>
      <GIVEN>5</GIVEN>
      <GIVEN>10</GIVEN>
      <GIVEN>9</GIVEN>
      <TABLE>0.363549778915064 0.636450221084936 0.6039662637065852 0.3960337362934149 0.31506022229600705 0.6849397777039931 0.12050673800300733 0.8794932619969926 0.521952618235428 0.47804738176457195 0.3075179753841412 0.6924820246158587 0.0008979548881818606 0.9991020451118181 0.036676596136924665 0.9633234038630754 0.4447580112066941 0.5552419887933059 0.7026509680623773 0.2973490319376228 0.2295582192869056 0.7704417807130943 0.3689869897536095 0.6310130102463904 0.36521068966412196 0.634789310335878 0.915988420961133 0.08401157903886698 0.5837460665869418 0.4162539334130581 0.40817537518647595 0.591824624813524 0.5886889352779361 0.411311064722064 0.9279150317887375 0.07208496821126255 0.5854326113332113 0.4145673886667886 0.5279991271847331 0.4720008728152669 0.8503824349398916 0.14961756506010837 0.2816093232648184 0.7183906767351815 0.27086929906263413 0.7291307009373659 0.46334446458073736 0.5366555354192627 0.5793247304375014 0.42067526956249857 0.44772882190555224 0.5522711780944478 0.5706958798187497 0.42930412018125025 0.2233779850684928 0.7766220149315072 0.4678310548120815 0.5321689451879186 0.27659705380504224 0.7234029461949577 0.12532725675013356 0.8746727432498664 0.971236707015806 0.028763292984194 </TABLE>
    </DEFINITION>
    <DEFINITION>
      <FOR>12</FOR>
      <GIVEN>4</GIVEN>
      <GIVEN>7</GIVEN>
      <GIVEN>2</GIVEN>
      <GIVEN>3</GIVEN>
      <GIVEN>9</GIVEN>
      <GIVEN>11</GIVEN>
      <TABLE>0.5458327716731409 0.4541672283268591 0.443576234515064 0.556423765484936 0.0005102477983634132 0.9994897522016366 0.8598125660578355 0.14018743394216443 0.42700677960304206 0.5729932203969579 0.6636633274481895 0.33633667255181054 0.44110269165959 0.5588973083404101 0.32089116560028963 0.6791088343997105 0.44968824177634914 0.5503117582236509 0.8394233622436718 0.16057663775632822 0.5643201071653916 0.4356798928346084 0.4387055616995535 0.5612944383004466 0.5588777526104438 0.4411222473895562 0.5988966804198462 0.40110331958015366 0.31619603918894534 0.6838039608110547 0.28888889400625445 0.7111111059937456 0.7550985266195304 0.24490147338046958 0.29948555787188785 0.7005144421281122 0.9879963363494526 0.012003663650547343 0.61761048261068 0.38238951738932003 0.20628670062115978 0.7937132993788403 0.38990647634911624 0.6100935236508838 0.4974519753212906 0.5025480246787094 0.4558791906420269 0.544120809357973 0.24593455167597836 0.7540654483240218 0.24402287137471385 0.7559771286252862 0.35371209938662784 0.6462879006133722 0.8120623681932203 0.1879376318067797 0.36770063737527503 0.6322993626247251 0.4527930890667047 0.5472069109332953 0.5438762726242818 0.4561237273757182 0.40161527700673255 0.5983847229932674 0.4889259951747206 0.5110740048252795 0.6901623463948838 0.30983765360511617 0.5532011833435877 0.44679881665641236 0.4429278357244136 0.5570721642755865 0.5705038576384064 0.42949614236159356 0.23001368343058184 0.7699863165694182 0.5325396704301767 0.4674603295698233 0.3840822470766721 0.615917752923328 0.574755034991484 0.42524496500851605 0.46615624404529243 0.5338437559547075 0.7740402612649715 0.2259597387350285 0.42587783867379686 0.5741221613262031 0.06345736318534755 0.9365426368146524 0.6199712844202153 0.3800287155797847 0.5967958086739639 0.40320419132603613 0.4629042388095595 0.5370957611904404 0.6308501293018397 0.3691498706981603 0.3328334541210199 0.66716654587898 0.20875909604910287 0.7912409039508972 0.8913309603389323 0.10866903966106767 0.7656920278253653 0.23430797217463475 0.4741147121669772 0.5258852878330228 0.8394425487673158 0.1605574512326842 0.5085855546731466 0.49141444532685336 0.05595086004541315 0.9440491399545868 0.21389554929851362 0.7861044507014864 0.19295980980456243 0.8070401901954376 0.5348700947442403 0.46512990525575965 0.963206935139118 0.036793064860881956 0.74031350292716 0.25968649707283986 0.01451481209040109 0.9854851879095989 0.5888657282354355 0.4111342717645645 </TABLE>
    </DEFINITION>
    <DEFINITION>
      <FOR>13</FOR>
      <GIVEN>0</GIVEN>
      <GIVEN>4</GIVEN>
      <GIVEN>2</GIVEN>
      <GIVEN>3</GIVEN>
      <GIVEN>12</GIVEN>
      <GIVEN>9</GIVEN>
      <TABLE>0.7520212686933332 0.24797873130666687 0.06525265815244118 0.9347473418475588 0.4598683659062836 0.5401316340937163 0.7284150985916908 0.2715849014083091 0.4846507494996388 0.5153492505003612 0.17502224628281401 0.824977753717186 0.4561909251921854 0.5438090748078146 0.9319952560580332 0.0680047439419668 0.202153023845252 0.7978469761547481 0.45585005594798705 0.544149944052013 0.8652357287724265 0.1347642712275735 0.5231885922651007 0.47681140773489916 0.026492872443612942 0.973507127556387 0.5696114588436373 0.43038854115636266 0.5426182996905049 0.4573817003094951 0.49039577796743905 0.5096042220325608 0.6266156078111383 0.37338439218886155 0.8991188672772761 0.10088113272272387 0.8870492456946403 0.11295075430535977 0.46567669884792307 0.5343233011520769 0.6842837613398622 0.31571623866013776 0.46620282997626994 0.5337971700237301 0.8842903876462016 0.11570961235379845 0.47360095909698546 0.5263990409030145 0.9433316974111794 0.05666830258882062 0.2966988189357678 0.7033011810642321 0.454001458686486 0.5459985413135141 0.3216480099432727 0.6783519900567274 0.45965180522423693 0.5403481947757631 0.419263238770619 0.5807367612293811 0.5281989258012969 0.47180107419870315 0.4919582912222077 0.5080417087777923 0.534507602116751 0.465492397883249 0.27231575838553673 0.7276842416144633 0.8767102116190603 0.1232897883809397 0.5785306988487657 0.42146930115123427 0.6324264530050405 0.36757354699495953 0.2972020187578443 0.7027979812421558 0.68274928646103 0.31725071353897 0.52031650643261 0.47968349356739015 0.0853675997398133 0.9146324002601867 0.11835321674419232 0.8816467832558076 0.8848031463074996 0.11519685369250057 0.75390492671077 0.24609507328922994 0.499056227379267 0.500943772620733 0.5460072072018038 0.45399279279819615 0.17505849546340643 0.8249415045365935 0.30853386653861997 0.6914661334613801 0.438017275308135 0.5619827246918649 0.6528677357014726 0.34713226429852745 0.49321816990967143 0.5067818300903285 0.5156339406548058 0.4843660593451943 0.9288336266783573 0.07116637332164263 0.16248731999916202 0.837512680000838 0.5453176203615357 0.45468237963846414 0.5457354319842338 0.4542645680157662 0.9893451506056269 0.01065484939437308 0.8356675409845992 0.16433245901540097 0.5925249751741639 0.40747502482583614 0.113909469555113 0.886090530444887 0.33545619471298804 0.664543805287012 0.48505888579055206 0.5149411142094479 0.3160945905082516 0.6839054094917484 0.5406647315509617 0.45933526844903827 </TABLE>
    </DEFINITION>
    <DEFINITION>
      <FOR>14</FOR>
      <GIVEN>1</GIVEN>
      <GIVEN>4</GIVEN>
      <GIVEN>7</GIVEN>
      <GIVEN>12</GIVEN>
      <TABLE>0.4532128173603751 0.5467871826396249 0.33632540682698264 0.6636745931730175 0.13306995392724597 0.866930046072754 0.5912755779307334 0.40872442206926657 0.5626792870877021 0.4373207129122979 0.4876086536489687 0.5123913463510313 0.7845542704348691 0.21544572956513097 0.7202600547546438 0.2797399452453561 0.2995579080868673 0.7004420919131327 0.6827788990925343 0.31722110090746564 0.8517587788974016 0.14824122110259824 0.9689118363402852 0.03108816365971469 0.7060217838765002 0.2939782161234998 0.8764989575713066 0.12350104242869339 0.5137585819032302 0.48624141809676963 0.4990363716452376 0.5009636283547624 </TABLE>
    </DEFINITION>
    <DEFINITION>
      <FOR>2</FOR>
      <GIVEN>1</GIVEN>
      <TABLE>0.8467512343865305 0.1532487656134695 0.7134046754283268 0.28659532457167325 </TABLE>
    </DEFINITION>
    <DEFINITION>
      <FOR>3</FOR>
      <GIVEN>2</GIVEN>
      <TABLE>0.4870740788106591 0.5129259211893408 0.48155448857815275 0.5184455114218472 </TABLE>
    </DEFINITION>
    <DEFINITION>
      <FOR>4</FOR>
      <GIVEN>0</GIVEN>
      <GIVEN>2</GIVEN>
      <GIVEN>3</GIVEN>
      <TABLE>0.7574309051820955 0.24256909481790445 0.4946523307033433 0.5053476692966568 0.3604705979285862 0.6395294020714137 0.4728198318423987 0.5271801681576013 0.36583428005188884 0.6341657199481113 0.5093459796318701 0.4906540203681299 0.4761249036196096 0.5238750963803903 0.7230022950062444 0.2769977049937557 </TABLE>
    </DEFINITION>
    <DEFINITION>
      <FOR>5</FOR>
      <GIVEN>4</GIVEN>
      <GIVEN>2</GIVEN>
      <GIVEN>3</GIVEN>
      <TABLE>0.4319751546668258 0.5680248453331741 0.9570027524579069 0.04299724754209311 0.4531081950488351 0.5468918049511649 0.8350601339115032 0.1649398660884968 0.2892738419986371 0.7107261580013629 0.5377689656194474 0.4622310343805526 0.3158497595107935 0.6841502404892065 0.871623928299233 0.12837607170076704 </TABLE>
    </DEFINITION>
    <DEFINITION>
      <FOR>6</FOR>
      <GIVEN>1</GIVEN>
      <GIVEN>4</GIVEN>
      <TABLE>0.47176769082815934 0.5282323091718407 0.5892450062302235 0.41075499376977653 0.20484000588107848 0.7951599941189216 0.23962050116340977 0.7603794988365902 </TABLE>
    </DEFINITION>
    <DEFINITION>
      <FOR>7</FOR>
      <GIVEN>0</GIVEN>
      <GIVEN>3</GIVEN>
      <GIVEN>5</GIVEN>
      <TABLE>0.7067530265680918 0.29324697343190814 0.30358339633037484 0.6964166036696251 0.954249173465346 0.04575082653465397 0.35607724277787534 0.6439227572221247 0.42256318136251636 0.5774368186374838 0.26442213225436423 0.7355778677456357 0.9385464770100055 0.06145352298999448 0.11766318784296602 0.882336812157034 </TABLE>
    </DEFINITION>
    <DEFINITION>
      <FOR>8</FOR>
      <GIVEN>1</GIVEN>
      <GIVEN>6</GIVEN>
      <TABLE>0.5413680621231765 0.45863193787682355 0.71918993515927 0.2808100648407302 0.5097732690223964 0.4902267309776036 0.8392033735676834 0.16079662643231674 </TABLE>
    </DEFINITION>
    <DEFINITION>
      <FOR>9</FOR>
      <GIVEN>6</GIVEN>
      <GIVEN>8</GIVEN>
      <GIVEN>5</GIVEN>
      <TABLE>0.5049616707683281 0.495038329231672 0.6919704238509894 0.3080295761490105 0.4326934969143385 0.5673065030856616 0.15803631155434375 0.8419636884456563 0.5266662513322049 0.4733337486677951 0.49392979173980645 0.5060702082601936 0.022304750884583835 0.9776952491154162 0.8047516475666038 0.19524835243339625 </TABLE>
    </DEFINITION>
  </NETWORK>
</BIF>
