<?xml version='1.0' encoding='utf-8'?>
<BIF VERSION="0.3">
  <NETWORK>
    <NAME>UNTITLED</NAME>
    <VARIABLE TYPE="nature">
      <NAME>0</NAME>
      <OUTCOME>0</OUTCOME>
      <OUTCOME>1</OUTCOME>
      <PROPERTY>weight = None</PROPERTY>
    </VARIABLE>
    <VARIABLE TYPE="nature">
      <NAME>1</NAME>
      <OUTCOME>0</OUTCOME>
      <OUTCOME>1</OUTCOME>
      <PROPERTY>weight = None</PROPERTY>
    </VARIABLE>
    <VARIABLE TYPE="nature">
      <NAME>10</NAME>
      <OUTCOME>0</OUTCOME>
      <OUTCOME>1</OUTCOME>
      <PROPERTY>weight = None</PROPERTY>
    </VARIABLE>
    <VARIABLE TYPE="nature">
      <NAME>11</NAME>
      <OUTCOME>0</OUTCOME>
      <OUTCOME>1</OUTCOME>
      <PROPERTY>weight = None</PROPERTY>
    </VARIABLE>
    <VARIABLE TYPE="nature">
      <NAME>12</NAME>
      <OUTCOME>0</OUTCOME>
      <OUTCOME>1</OUTCOME>
      <PROPERTY>weight = None</PROPERTY>
    </VARIABLE>
    <VARIABLE TYPE="nature">
      <NAME>13</NAME>
      <OUTCOME>0</OUTCOME>
      <OUTCOME>1</OUTCOME>
      <PROPERTY>weight = None</PROPERTY>
    </VARIABLE>
    <VARIABLE TYPE="nature">
      <NAME>14</NAME>
      <OUTCOME>0</OUTCOME>
      <OUTCOME>1</OUTCOME>
      <PROPERTY>weight = None</PROPERTY>
    </VARIABLE>
    <VARIABLE TYPE="nature">
      <NAME>2</NAME>
      <OUTCOME>0</OUTCOME>
      <OUTCOME>1</OUTCOME>
      <PROPERTY>weight = None</PROPERTY>
    </VARIABLE>
    <VARIABLE TYPE="nature">
      <NAME>3</NAME>
      <OUTCOME>0</OUTCOME>
      <OUTCOME>1</OUTCOME>
      <PROPERTY>weight = None</PROPERTY>
    </VARIABLE>
    <VARIABLE TYPE="nature">
      <NAME>4</NAME>
      <OUTCOME>0</OUTCOME>
      <OUTCOME>1</OUTCOME>
      <PROPERTY>weight = None</PROPERTY>
    </VARIABLE>
    <VARIABLE TYPE="nature">
      <NAME>5</NAME>
      <OUTCOME>0</OUTCOME>
      <OUTCOME>1</OUTCOME>
      <PROPERTY>weight = None</PROPERTY>
    </VARIABLE>
    <VARIABLE TYPE="nature">
      <NAME>6</NAME>
      <OUTCOME>0</OUTCOME>
      <OUTCOME>1</OUTCOME>
      <PROPERTY>weight = None</PROPERTY>
    </VARIABLE>
    <VARIABLE TYPE="nature">
      <NAME>7</NAME>
      <OUTCOME>0</OUTCOME>
      <OUTCOME>1</OUTCOME>
      <PROPERTY>weight = None</PROPERTY>
    </VARIABLE>
    <VARIABLE TYPE="nature">
      <NAME>8</NAME>
      <OUTCOME>0</OUTCOME>
      <OUTCOME>1</OUTCOME>
      <PROPERTY>weight = None</PROPERTY>
    </VARIABLE>
    <VARIABLE TYPE="nature">
      <NAME>9</NAME>
      <OUTCOME>0</OUTCOME>
      <OUTCOME>1</OUTCOME>
      <PROPERTY>weight = None</PROPERTY>
    </VARIABLE>
    <DEFINITION>
      <FOR>0</FOR>
      <TABLE>0.9747473254728695 0.02525267452713048 </TABLE>
    </DEFINITION>
    <DEFINITION>
      <FOR>1</FOR>
      <GIVEN>0</GIVEN>
      <TABLE>0.675414380566847 0.3245856194331529 0.6077322373830352 0.39226776261696483 </TABLE>
    </DEFINITION>
    <DEFINITION>
      <FOR>10</FOR>
      <GIVEN>0</GIVEN>
      <GIVEN>1</GIVEN>
      <GIVEN>8</GIVEN>
      <GIVEN>9</GIVEN>
      <GIVEN>3</GIVEN>
      <GIVEN>6</GIVEN>
      <TABLE>0.46312434212599385 0.5368756578740063 0.27822728404033364 0.7217727159596662 0.4262969126406068 0.5737030873593931 0.7418481314734848 0.25815186852651534 0.761759721558732 0.23824027844126802 0.4006956100680601 0.5993043899319399 0.7610802644888249 0.23891973551117507 0.5509984098274993 0.44900159017250074 0.7786370103308085 0.2213629896691915 0.18857334236840106 0.8114266576315988 0.7374461791130607 0.26255382088693935 0.4820442850300152 0.5179557149699848 0.7672233646788875 0.23277663532111237 0.5024484506661239 0.4975515493338762 0.15076571280154627 0.8492342871984537 0.35927054287562254 0.6407294571243775 0.7863672998344985 0.21363270016550154 0.8866800081289792 0.11331999187102086 0.4442114906176267 0.5557885093823733 0.6569685412701994 0.34303145872980056 0.10752219923773068 0.8924778007622693 0.16691448965837297 0.833085510341627 0.4237537219365295 0.5762462780634705 0.7099242269982162 0.2900757730017837 0.2921491888670579 0.707850811132942 0.11809748773764762 0.8819025122623524 0.4172762817189448 0.5827237182810553 0.9971571847361032 0.0028428152638968244 0.49857464739111645 0.5014253526088835 0.4152464088523934 0.5847535911476066 0.36565267388165223 0.6343473261183478 0.5003194155264107 0.49968058447358915 0.7824810680417876 0.2175189319582123 0.0944444708839912 0.9055555291160088 0.0032024460541393036 0.9967975539458607 0.5336616177661557 0.46633838223384433 0.3002120295159866 0.6997879704840135 0.39123464862091584 0.6087653513790842 0.5989500454519139 0.4010499545480861 0.818399987820909 0.18160001217909102 0.33042001645380253 0.6695799835461973 0.6577923388137684 0.3422076611862315 0.3394423866642442 0.6605576133357558 0.4034574854616001 0.5965425145383999 0.6920761680977052 0.3079238319022948 0.572968527788763 0.42703147221123705 0.4822360080160196 0.5177639919839804 0.6106740403984228 0.3893259596015773 0.40444946705557955 0.5955505329444204 0.33170262610152906 0.6682973738984709 0.7365376700944948 0.26346232990550517 0.5190305354832313 0.4809694645167686 0.5876984365231298 0.41230156347687025 0.33797195291808185 0.6620280470819181 0.5322352101883315 0.4677647898116684 0.6655788376750412 0.33442116232495883 0.32930335902261026 0.6706966409773897 0.3853421105300165 0.6146578894699836 0.4870022979924128 0.5129977020075872 0.36139535948160195 0.638604640518398 0.20335098114310843 0.7966490188568915 0.47886184744775373 0.5211381525522464 0.6364630479065821 0.36353695209341785 0.278275439676241 0.721724560323759 </TABLE>
    </DEFINITION>
    <DEFINITION>
      <FOR>11</FOR>
      <GIVEN>1</GIVEN>
      <GIVEN>2</GIVEN>
      <GIVEN>8</GIVEN>
      <GIVEN>9</GIVEN>
      <GIVEN>7</GIVEN>
      <GIVEN>3</GIVEN>
      <TABLE>0.8486808286466511 0.15131917135334894 0.4704723332807342 0.5295276667192658 0.9058246441093293 0.09417535589067076 0.6813184120266722 0.3186815879733278 0.3459491364030138 0.6540508635969862 0.7449707273750221 0.2550292726249779 0.20459971961796125 0.7954002803820387 0.38882534365044374 0.6111746563495563 0.5217291047612386 0.4782708952387614 0.49138313410085754 0.5086168658991426 0.7529433061192718 0.24705669388072812 0.5277867299691127 0.4722132700308872 0.756386759441144 0.243613240558856 0.6004559481082434 0.39954405189175646 0.6847326998831312 0.31526730011686876 0.19743742122784538 0.8025625787721546 0.6551475954453337 0.34485240455466626 0.1904242175905356 0.8095757824094643 0.42346212009108036 0.5765378799089197 0.09494462452453499 0.905055375475465 0.4286573852024665 0.5713426147975336 0.7326384550990761 0.26736154490092384 0.7275989614452005 0.2724010385547995 0.5776905303520481 0.422309469647952 0.9107752158274925 0.08922478417250741 0.5458289906516389 0.4541710093483612 0.7799436082746374 0.2200563917253626 0.9007283712738541 0.09927162872614594 0.008383903764814725 0.9916160962351853 0.3103652176156889 0.6896347823843111 0.5778346807226096 0.4221653192773904 0.3484100261072502 0.6515899738927499 0.8393899552966477 0.1606100447033523 0.3953411519807868 0.6046588480192132 0.6004727984329079 0.39952720156709204 0.4472306838867574 0.5527693161132426 0.8061484756367198 0.1938515243632802 0.4434726161663125 0.5565273838336875 0.1995098581194508 0.8004901418805491 0.15291637651919518 0.8470836234808048 0.29036863071268126 0.7096313692873187 0.3664064552271772 0.6335935447728229 0.4700687076064304 0.5299312923935696 0.5588901557327881 0.44110984426721195 0.5460224041941751 0.45397759580582475 0.31440237990312614 0.6855976200968739 0.22513243696401491 0.774867563035985 0.7782215199187597 0.2217784800812404 0.40271130835965824 0.5972886916403417 0.6888706444752345 0.3111293555247655 0.6186511022112174 0.38134889778878267 0.8464678062981051 0.1535321937018949 0.8578692214416487 0.14213077855835127 0.43071435994413676 0.5692856400558631 0.3678854217623425 0.6321145782376575 0.22306338389002808 0.7769366161099719 0.8471710771699085 0.15282892283009156 0.6701653513311379 0.3298346486688622 0.6850616491967917 0.3149383508032083 0.31390910297831476 0.6860908970216852 0.24429800071194113 0.7557019992880589 0.3635171333282428 0.6364828666717572 0.5244226475392895 0.4755773524607106 0.39846408380799325 0.6015359161920067 </TABLE>
    </DEFINITION>
    <DEFINITION>
      <FOR>12</FOR>
      <GIVEN>1</GIVEN>
      <GIVEN>2</GIVEN>
      <GIVEN>8</GIVEN>
      <GIVEN>9</GIVEN>
      <GIVEN>4</GIVEN>
      <GIVEN>11</GIVEN>
      <TABLE>0.5377073635796253 0.46229263642037466 0.4506280925098295 0.5493719074901705 0.4882064027429752 0.5117935972570249 0.8686686947876553 0.13133130521234473 0.021123360150833496 0.9788766398491665 0.22971916253057628 0.7702808374694238 0.7677009920135693 0.2322990079864306 0.9279549810796046 0.07204501892039539 0.4578936685412733 0.5421063314587267 0.47935176807060464 0.5206482319293954 0.6984144656709085 0.3015855343290916 0.5973544018448241 0.40264559815517587 0.965151861075799 0.03484813892420104 0.5157128396112458 0.4842871603887542 0.031631933031201 0.968368066968799 0.32821785020563565 0.6717821497943643 0.5168888543741399 0.4831111456258601 0.44676047114375955 0.5532395288562405 0.5587277241989205 0.4412722758010795 0.9711109059844043 0.02888909401559569 0.1708888352526968 0.8291111647473032 0.4705303953652496 0.5294696046347505 0.10888117393897329 0.8911188260610267 0.20297078662868395 0.7970292133713159 0.5335173361011916 0.46648266389880844 0.5006934124517844 0.4993065875482155 0.3211395560831547 0.6788604439168452 0.5568849791602406 0.44311502083975934 0.6643920835128829 0.3356079164871171 0.8045527942151856 0.19544720578481448 0.8700360507291001 0.1299639492708999 0.5329121845059753 0.46708781549402467 0.8130699921717256 0.18693000782827435 0.6558924590957343 0.34410754090426565 0.4053285617187657 0.5946714382812344 0.5635584150936783 0.43644158490632173 0.14196284916028176 0.8580371508397182 0.7299451761455045 0.2700548238544956 0.3655631758365205 0.6344368241634796 0.8304822004621593 0.16951779953784074 0.6008215119316676 0.39917848806833245 0.369817990883256 0.6301820091167439 0.7909674725307458 0.20903252746925421 0.3534838073956641 0.6465161926043359 0.46965298442656667 0.5303470155734333 0.1403077537071484 0.8596922462928516 0.8971745948127152 0.10282540518728481 0.5891464141839479 0.4108535858160521 0.16626640363601866 0.8337335963639814 0.004231708596362014 0.995768291403638 0.4389448341166522 0.5610551658833478 0.30576004517442945 0.6942399548255704 0.4321501673426389 0.5678498326573611 0.565589548231848 0.434410451768152 0.4716213548578145 0.5283786451421856 0.7676662958341637 0.23233370416583635 0.4208990353539296 0.5791009646460704 0.17274523935316732 0.8272547606468328 0.7445455287163465 0.25545447128365345 0.5091660172116765 0.4908339827883235 0.6134573249737979 0.386542675026202 0.11776845561863145 0.8822315443813685 0.9426741178014355 0.057325882198564514 0.8557275444929081 0.14427245550709186 </TABLE>
    </DEFINITION>
    <DEFINITION>
      <FOR>13</FOR>
      <GIVEN>1</GIVEN>
      <GIVEN>10</GIVEN>
      <GIVEN>11</GIVEN>
      <GIVEN>7</GIVEN>
      <TABLE>0.43655836334195547 0.5634416366580446 0.15203079406594205 0.847969205934058 0.18629289479132796 0.8137071052086721 0.6723641059160788 0.32763589408392124 0.6749275702229248 0.3250724297770752 0.3549391641229346 0.6450608358770655 0.8279892010902141 0.1720107989097859 0.11853725271436406 0.8814627472856359 0.3849565496616035 0.6150434503383965 0.9000635852932872 0.09993641470671281 0.904886029321995 0.09511397067800495 0.7991974456112824 0.2008025543887176 0.2853005645087544 0.7146994354912456 0.7446618700824376 0.2553381299175624 0.4316664423154716 0.5683335576845284 0.7250239713522763 0.27497602864772375 </TABLE>
    </DEFINITION>
    <DEFINITION>
      <FOR>14</FOR>
      <GIVEN>2</GIVEN>
      <GIVEN>5</GIVEN>
      <GIVEN>8</GIVEN>
      <GIVEN>9</GIVEN>
      <GIVEN>10</GIVEN>
      <GIVEN>4</GIVEN>
      <GIVEN>12</GIVEN>
      <GIVEN>13</GIVEN>
      <GIVEN>3</GIVEN>
      <TABLE>0.37476494559027895 0.625235054409721 0.5128231662286975 0.4871768337713025 0.6171002346357235 0.3828997653642765 0.5982504459750203 0.4017495540249797 0.2531537514101109 0.7468462485898891 0.21793201006283405 0.782067989937166 0.509734288946561 0.4902657110534391 0.9908924822673468 0.009107517732653175 0.38319106418056453 0.6168089358194355 0.5101460287732525 0.48985397122674745 0.38040813118915023 0.6195918688108498 0.3352241376663988 0.6647758623336012 0.5546455472726822 0.4453544527273177 0.9131740543314394 0.08682594566856064 0.453011876395655 0.5469881236043451 0.3832456158800397 0.6167543841199603 0.8657557151548105 0.13424428484518952 0.8474704522479083 0.1525295477520917 0.3618959654177692 0.6381040345822309 0.45511812326828627 0.5448818767317137 0.39721537133871054 0.6027846286612895 0.43734980047229216 0.5626501995277078 0.3260180785972764 0.6739819214027236 0.4352831202945633 0.5647168797054368 0.6530684553901289 0.34693154460987113 0.6040553906869716 0.39594460931302844 0.32495905821501514 0.6750409417849849 0.6391974333689883 0.36080256663101173 0.08881750551674363 0.9111824944832564 0.20204579810101314 0.7979542018989868 0.4160186507839683 0.5839813492160317 0.41322348437207046 0.5867765156279294 0.6289560905671381 0.371043909432862 0.5931232789877456 0.40687672101225436 0.5195146610501683 0.4804853389498317 0.661207824115198 0.338792175884802 0.33841205119412393 0.6615879488058761 0.8988685149651953 0.10113148503480475 0.2654207422332472 0.7345792577667528 0.4002942882210931 0.599705711778907 0.45253665332737386 0.5474633466726261 0.5219394449871233 0.4780605550128767 0.457889756651954 0.542110243348046 0.15382257918028042 0.8461774208197196 0.15964967146294232 0.8403503285370577 0.15541195626662482 0.8445880437333751 0.5792010522371229 0.4207989477628771 0.7179382560923211 0.28206174390767896 0.21430130802048325 0.7856986919795168 0.4601274933141047 0.5398725066858953 0.5386663178921847 0.46133368210781533 0.7917368393609646 0.20826316063903533 0.1602375962794859 0.8397624037205141 0.732794566887027 0.26720543311297296 0.34017222279665116 0.6598277772033488 0.6570127151124838 0.34298728488751623 0.764409521115275 0.23559047888472487 0.7048516479398105 0.2951483520601895 0.9988311799178992 0.001168820082100817 0.941507506184654 0.05849249381534602 0.25246834912388805 0.747531650876112 0.2835258223617185 0.7164741776382815 0.4573949853718759 0.5426050146281239 0.8097316575886296 0.19026834241137033 0.651025818212281 0.3489741817877189 0.8767056516840073 0.12329434831599276 0.780119318195414 0.21988068180458603 0.07859625801285054 0.9214037419871495 0.013402308733320555 0.9865976912666794 0.4279260723139769 0.5720739276860232 0.743489850805928 0.25651014919407217 0.2775899430842388 0.7224100569157611 0.476650709435215 0.523349290564785 0.34585291312172795 0.654147086878272 0.6238472667458618 0.37615273325413817 0.5718755769607392 0.4281244230392608 0.4764473787975676 0.5235526212024324 0.824439304608982 0.1755606953910181 0.3581328510893079 0.6418671489106921 0.6215949949688307 0.3784050050311693 0.6253525954779791 0.3746474045220209 0.6475867602593116 0.3524132397406883 0.42395206572158894 0.576047934278411 0.4684771386889571 0.5315228613110429 0.23710874405468657 0.7628912559453135 0.33410706800151524 0.6658929319984849 0.1714403783374362 0.8285596216625638 0.6905962344414553 0.3094037655585448 0.5148257523981217 0.4851742476018782 0.17826908239719308 0.821730917602807 0.6031114770365323 0.3968885229634676 0.41314881795388886 0.5868511820461111 0.546029768814413 0.453970231185587 0.823248782761881 0.17675121723811898 0.011930029871395251 0.9880699701286048 0.6591561786010289 0.34084382139897124 0.10106582206172925 0.8989341779382708 0.24263966450435978 0.7573603354956403 0.6895496734352925 0.31045032656470745 0.5940368809973249 0.40596311900267507 0.016575757523708486 0.9834242424762916 0.19730573717870173 0.8026942628212983 0.17150834502487555 0.8284916549751244 0.3059185623702975 0.6940814376297025 0.8019362120904977 0.19806378790950227 0.19018424478778903 0.8098157552122108 0.7598450824819696 0.2401549175180304 0.5703573653863434 0.4296426346136566 0.7991714237937647 0.2008285762062352 0.5275327126883217 0.47246728731167825 0.6268048642231058 0.3731951357768943 0.7351648889004158 0.26483511109958424 0.4467441341185056 0.5532558658814944 0.12415661763694799 0.875843382363052 0.4632850406500978 0.5367149593499022 0.25244260653913675 0.7475573934608633 0.4189958555064627 0.5810041444935373 0.40154667598368493 0.5984533240163149 0.981692048437083 0.018307951562917 0.31517110917745267 0.6848288908225474 0.747431861668709 0.252568138331291 0.5425553718067774 0.4574446281932226 0.8130425759537216 0.18695742404627835 0.6234619085953765 0.3765380914046235 0.8219859271149569 0.17801407288504306 0.4403122439450016 0.5596877560549983 0.3886677442324081 0.611332255767592 0.7294303337555866 0.2705696662444133 0.6953425980804097 0.30465740191959045 0.4701334303346328 0.5298665696653673 0.5717157685078336 0.4282842314921665 0.4637458970793205 0.5362541029206795 0.5584875793382768 0.44151242066172325 0.13011683750549466 0.8698831624945054 0.599772114536496 0.40022788546350396 0.6712109883321816 0.32878901166781843 0.6110770647231998 0.38892293527680016 0.7023249123158025 0.2976750876841974 0.3246635581624028 0.6753364418375973 0.7549168382199782 0.24508316178002174 0.30614848415343726 0.6938515158465628 0.901425700384475 0.09857429961552497 0.686298702011228 0.31370129798877194 0.2969884188181712 0.7030115811818288 0.4703804967862414 0.5296195032137587 0.871739667108533 0.12826033289146702 0.01522286998198045 0.9847771300180196 0.02198552931624443 0.9780144706837556 0.12206072315708345 0.8779392768429165 0.6889170491414838 0.31108295085851617 0.22128387975029368 0.7787161202497064 0.6235573883325007 0.37644261166749926 0.5358613073516107 0.4641386926483893 0.5772864259725028 0.4227135740274972 0.760364880344385 0.23963511965561504 0.7428796095161263 0.25712039048387375 0.4065751051645822 0.5934248948354179 0.6166976877183415 0.38330231228165845 0.6978514687462034 0.30214853125379665 0.3906285794541199 0.6093714205458802 0.5546914448636632 0.4453085551363368 0.4780012222113265 0.5219987777886734 0.834780428181871 0.16521957181812902 0.5547003612822472 0.44529963871775285 0.6834422938207613 0.31655770617923873 0.21256525417014832 0.7874347458298516 0.3572957668608232 0.6427042331391767 0.4996750160002949 0.5003249839997053 0.053887904865666234 0.9461120951343338 0.31447733491988233 0.6855226650801176 0.8870483621020332 0.11295163789796682 0.4989114610671883 0.5010885389328117 0.15612258405453666 0.8438774159454634 0.30085275252517985 0.69914724747482 0.6986828804780301 0.30131711952197 0.5145542856748465 0.48544571432515354 0.43701488100705077 0.5629851189929491 0.17358595491345266 0.8264140450865474 0.5310186686433375 0.4689813313566626 0.2926959107041675 0.7073040892958325 0.5131789973270133 0.48682100267298667 0.6147696402484356 0.38523035975156433 0.5261491834656749 0.47385081653432515 0.5031564172332424 0.49684358276675755 0.26846950454869684 0.7315304954513032 0.837344935050258 0.16265506494974202 0.7011344589959754 0.2988655410040246 0.8393814737274626 0.1606185262725373 0.3098715728706745 0.6901284271293254 0.7243797242452235 0.27562027575477654 0.5438272304302744 0.4561727695697255 0.8601741282859553 0.13982587171404467 0.07510077943398244 0.9248992205660176 0.9434909810232472 0.056509018976752735 0.3472102182381277 0.6527897817618724 0.34699893887264294 0.653001061127357 0.588447678233889 0.41155232176611095 0.7386086216147854 0.26139137838521465 0.35902795920007946 0.6409720407999205 0.43221601494120593 0.567783985058794 0.8288683013406034 0.1711316986593966 0.5931217537767572 0.40687824622324287 0.515434116732484 0.484565883267516 0.2424750297151024 0.7575249702848976 0.08561955180732936 0.9143804481926706 0.23839548820412904 0.7616045117958709 0.5560551714983536 0.4439448285016463 0.47361038474698136 0.5263896152530186 0.8111858434997825 0.18881415650021743 0.055084956221914005 0.944915043778086 0.7991056670320084 0.2008943329679917 0.30870713642387543 0.6912928635761246 0.5207958932696141 0.47920410673038605 0.4087160200094974 0.5912839799905025 0.682424937690325 0.317575062309675 0.6275667972084813 0.37243320279151865 0.2878170679152742 0.7121829320847257 0.46498044564087787 0.5350195543591222 0.5763238227504128 0.42367617724958717 0.4418910379861621 0.558108962013838 0.4803816556973521 0.5196183443026479 0.7585298028815417 0.24147019711845844 0.4399751743108495 0.5600248256891505 0.03977668112797515 0.9602233188720248 0.5745589753347381 0.42544102466526196 0.9587857381827739 0.04121426181722609 0.46270063116211296 0.537299368837887 0.18010977823554625 0.8198902217644538 0.21758909152728576 0.7824109084727142 0.6364930342689769 0.3635069657310232 0.47514866449382936 0.5248513355061706 0.04848014651730843 0.9515198534826915 0.49609994917551126 0.5039000508244887 0.24640582665179658 0.7535941733482033 0.18498902112693383 0.8150109788730662 0.25047611614923637 0.7495238838507636 0.3388808398325529 0.6611191601674471 0.5241781006949281 0.47582189930507185 0.21845764973369838 0.7815423502663016 0.5168685904350714 0.4831314095649285 0.8798042225048516 0.1201957774951484 0.963528029231898 0.036471970768102005 0.48161728519651265 0.5183827148034874 0.5096959748451857 0.4903040251548143 0.6226513075527986 0.3773486924472014 0.3759851246341977 0.6240148753658024 0.7372188012098814 0.2627811987901185 0.4680690669236423 0.5319309330763577 0.3059121491107806 0.6940878508892195 0.057495769161131804 0.9425042308388683 0.9931119974896765 0.0068880025103235055 0.5398106204435091 0.46018937955649075 0.441495946184604 0.5585040538153959 0.2800547220038197 0.7199452779961804 0.5493284619737069 0.45067153802629323 0.3088236081386515 0.6911763918613485 0.3187794398230817 0.6812205601769182 0.5527566726379872 0.44724332736201267 0.5269745936032615 0.47302540639673846 0.4703396432200001 0.5296603567799999 0.7001787137526561 0.299821286247344 0.3358358885298318 0.6641641114701682 0.9544906001184692 0.04550939988153082 0.06626453812269811 0.9337354618773019 0.12529047193218326 0.8747095280678168 0.9575875192483332 0.04241248075166685 0.19650009787144251 0.8034999021285575 0.9152700227752681 0.0847299772247318 0.10019717038675695 0.8998028296132431 0.4091418027961043 0.5908581972038957 0.40667699425760545 0.5933230057423944 0.692016513194153 0.3079834868058469 0.42550421184893655 0.5744957881510635 0.38526460204320656 0.6147353979567933 0.7013005895707609 0.29869941042923914 0.3960748195422957 0.6039251804577043 0.5700252433024494 0.4299747566975506 0.7801203571236155 0.21987964287638453 0.5438069067316507 0.45619309326834934 0.2425280578342561 0.7574719421657439 0.88915481924101 0.1108451807589901 0.3263215444879632 0.6736784555120368 0.5146176960653066 0.4853823039346935 0.3772995713890139 0.6227004286109862 0.47265574382641123 0.5273442561735887 0.39025024011828874 0.6097497598817113 0.3158140692202026 0.6841859307797975 0.5922491350855805 0.4077508649144196 0.33032592723317855 0.6696740727668214 0.4510004413793512 0.5489995586206488 0.5854286321309845 0.4145713678690155 0.6681398759267694 0.3318601240732305 0.1743244288693276 0.8256755711306724 0.131809114755302 0.868190885244698 0.6846170622820816 0.31538293771791837 0.565520058340414 0.4344799416595861 0.42893656248027845 0.5710634375197216 0.7656646471815003 0.23433535281849965 0.5320264020746872 0.46797359792531285 0.19588575067761224 0.8041142493223877 0.778244086995576 0.22175591300442402 0.5340394771280467 0.46596052287195333 0.3880431246506869 0.6119568753493131 0.32750282684619997 0.6724971731538001 0.8003544530886879 0.19964554691131206 0.5639080064264992 0.4360919935735007 0.49288988111594706 0.507110118884053 0.5635637722359562 0.43643622776404384 0.9391622976035027 0.0608377023964973 0.5596269119403016 0.44037308805969855 0.893332592931802 0.10666740706819798 0.7635740126953287 0.23642598730467132 0.18356430725177147 0.8164356927482285 0.7546733485554514 0.2453266514445486 0.48660051829507484 0.5133994817049252 0.3974093813107886 0.6025906186892114 0.8599762434939039 0.14002375650609614 0.6833521310965702 0.3166478689034297 0.5505244582392071 0.4494755417607928 0.37773492972504 0.62226507027496 0.6107580879521796 0.38924191204782044 0.333642961699743 0.6663570383002569 0.5940129156280797 0.4059870843719204 0.5446462695493501 0.4553537304506497 0.4412929881205353 0.5587070118794646 0.4283041196639643 0.5716958803360357 0.5261516678660695 0.4738483321339305 0.6574537036346525 0.3425462963653475 0.41708983485978623 0.5829101651402138 0.2448774017656157 0.7551225982343842 0.5716924141200572 0.4283075858799427 0.7572860751460196 0.2427139248539804 0.820777337964236 0.17922266203576404 0.45889449664243104 0.5411055033575689 0.02209318238002834 0.9779068176199717 0.19203225211848193 0.807967747881518 0.49122610795900307 0.508773892040997 0.5433242505740111 0.45667574942598876 0.4260059396121448 0.5739940603878553 0.782565057923456 0.217434942076544 0.03657167696216422 0.9634283230378358 0.8430235248843807 0.15697647511561927 0.5520410573038314 0.4479589426961686 0.6880111974911357 0.31198880250886424 0.8032909033823412 0.19670909661765867 0.5093060753458631 0.49069392465413686 0.5991720380261116 0.4008279619738883 0.20061862784529202 0.799381372154708 0.38086830122873844 0.6191316987712615 0.47783838461783895 0.522161615382161 0.5908149717381838 0.40918502826181624 0.46164234960156497 0.538357650398435 0.49948015192540607 0.5005198480745939 0.1997158072791757 0.8002841927208243 0.652557682574582 0.347442317425418 0.8246275046969375 0.1753724953030625 0.8013190793142155 0.19868092068578438 0.6600360715964834 0.33996392840351675 0.6230219367213166 0.3769780632786835 0.3298113419457707 0.6701886580542293 0.9617094643868636 0.0382905356131364 0.21420322037856837 0.7857967796214316 0.22108606779911524 0.7789139322008847 0.7924165751319145 0.20758342486808545 0.3118847081535303 0.6881152918464697 0.5917909339060267 0.40820906609397345 0.5676994537347809 0.432300546265219 0.903425948884858 0.09657405111514193 0.08100451702131649 0.9189954829786835 0.44728470221400113 0.5527152977859988 0.5301169727244395 0.4698830272755605 0.5781962553869 0.42180374461309994 0.5324940269735049 0.4675059730264951 0.4167477068809617 0.5832522931190383 0.5557448006901649 0.44425519930983515 0.6280095774120188 0.3719904225879811 0.6472635071439334 0.35273649285606656 0.5093969875474549 0.490603012452545 0.44890703579745456 0.5510929642025454 0.5229958083753279 0.4770041916246722 0.06771978691876457 0.9322802130812354 0.08689406010342296 0.9131059398965771 0.5616677745047808 0.4383322254952193 0.24925044249353911 0.750749557506461 0.541854632890993 0.45814536710900694 0.34978993225314947 0.6502100677468505 0.4512050645105591 0.548794935489441 0.37094634971782076 0.6290536502821792 0.4213850334216472 0.5786149665783528 0.7491271385204171 0.250872861479583 0.28336985206998405 0.716630147930016 0.5459853434808252 0.45401465651917483 0.7109892937446457 0.28901070625535424 0.5090320092164499 0.49096799078355025 0.2750199403748851 0.7249800596251149 0.09876872238934623 0.9012312776106538 0.5556307022288531 0.44436929777114687 0.46121440722155654 0.5387855927784434 0.547416678285761 0.4525833217142389 0.8694085330818513 0.1305914669181487 0.4861152645991029 0.5138847354008972 0.056742993429622045 0.9432570065703779 0.5799685697926619 0.4200314302073382 0.4439193603657312 0.5560806396342688 0.48839868581838974 0.5116013141816103 0.8027044845808394 0.19729551541916066 0.11770379040659976 0.8822962095934003 0.7380887032678898 0.2619112967321102 0.865194549530049 0.13480545046995096 0.061110985583591286 0.9388890144164087 0.21360267352980622 0.7863973264701938 0.46875765819937615 0.5312423418006239 0.2941773695384319 0.705822630461568 0.6829614652028759 0.3170385347971241 0.37278219893259706 0.6272178010674029 0.46497855784844294 0.5350214421515571 0.5524059050904084 0.44759409490959157 0.36183567448438747 0.6381643255156125 0.4541229791715587 0.5458770208284414 0.5142886761076174 0.4857113238923826 0.7736427412783222 0.22635725872167778 0.7820801085505377 0.2179198914494623 0.512734161817712 0.4872658381822879 0.5984710859346416 0.4015289140653585 0.8617743924970832 0.1382256075029168 0.4374623902032712 0.5625376097967288 0.3075155175081781 0.6924844824918219 0.6261095317862537 0.37389046821374633 0.5482277821051111 0.4517722178948889 0.2571345652183287 0.7428654347816713 0.2959419225734297 0.7040580774265703 0.5213425199132594 0.47865748008674064 0.5005162042672264 0.49948379573277357 0.45539785463771476 0.5446021453622852 0.40439014087284275 0.5956098591271572 0.5767419778735972 0.42325802212640284 0.6100056692325833 0.3899943307674168 0.650529710967223 0.349470289032777 0.5741822996080582 0.42581770039194183 0.5449618074728617 0.45503819252713834 0.7451859644664969 0.254814035533503 0.5473836589667329 0.4526163410332671 0.15908808778583072 0.8409119122141693 0.5755769241849619 0.4244230758150382 0.35728643126145576 0.6427135687385442 0.5166566097696561 0.48334339023034384 0.5893193029061383 0.41068069709386174 0.41787809660225195 0.582121903397748 0.3784075546864195 0.6215924453135805 0.21042471424062584 0.7895752857593742 0.12473353152974044 0.8752664684702596 0.4146542475551518 0.5853457524448482 0.3118587102896878 0.6881412897103122 0.658382736617495 0.34161726338250503 0.5412829885344012 0.45871701146559885 0.24542554579165224 0.7545744542083478 0.6715198175421091 0.32848018245789096 0.49174188015591985 0.5082581198440802 0.02206250649040041 0.9779374935095996 0.5259533232087356 0.47404667679126444 0.20632667125893472 0.7936733287410653 0.5269717107413687 0.4730282892586314 0.6826890594053805 0.31731094059461945 0.6108857012940977 0.3891142987059023 0.2650799661550728 0.7349200338449272 0.14675360891411215 0.8532463910858878 0.3795430642739848 0.6204569357260151 0.07735957497459128 0.9226404250254087 0.6184175759421328 0.3815824240578672 0.20215827419358207 0.7978417258064179 0.16092051528633944 0.8390794847136607 0.6576344676676532 0.34236553233234673 0.9631987747382821 0.03680122526171791 0.55944867877899 0.4405513212210101 0.680133951399281 0.31986604860071904 0.5164965624004249 0.48350343759957515 0.7668964126537989 0.2331035873462011 0.4934194410709133 0.5065805589290867 0.9006199459276872 0.0993800540723127 0.6373770374454318 0.3626229625545682 0.25407171775835685 0.7459282822416431 0.0595999852167033 0.9404000147832967 0.6004156628841815 0.39958433711581853 0.44233321534443815 0.5576667846555619 0.46668837854759443 0.5333116214524056 0.46250984677540113 0.5374901532245988 0.39725016649277256 0.6027498335072274 0.42610825831825244 0.5738917416817475 0.6208935399713409 0.3791064600286591 0.5817365904071221 0.41826340959287783 0.834880715358937 0.16511928464106296 0.46504725540283387 0.5349527445971662 0.24042279020759416 0.7595772097924058 0.5092087068207035 0.4907912931792965 0.08157537587466245 0.9184246241253375 0.21602585690112183 0.7839741430988781 0.35329288664207353 0.6467071133579264 0.5933730332695114 0.4066269667304886 0.9430280152843307 0.056971984715669305 0.48252129155521783 0.5174787084447822 0.09659356019708902 0.903406439802911 0.4355632889238627 0.5644367110761374 0.6251099171273573 0.37489008287264275 0.2653050671602617 0.7346949328397383 0.6356692458525892 0.36433075414741084 0.36258767990963825 0.6374123200903616 0.9419968572466006 0.05800314275339948 0.6920558182221623 0.3079441817778377 0.2599361908475683 0.7400638091524318 0.6657802305340448 0.3342197694659552 0.8854690543420926 0.1145309456579073 0.429603986542814 0.5703960134571859 </TABLE>
    </DEFINITION>
    <DEFINITION>
      <FOR>2</FOR>
      <GIVEN>0</GIVEN>
      <GIVEN>1</GIVEN>
      <TABLE>0.3838304917000373 0.6161695082999628 0.4400129468667595 0.5599870531332405 0.3797710844616822 0.6202289155383178 0.49051706651646776 0.5094829334835322 </TABLE>
    </DEFINITION>
    <DEFINITION>
      <FOR>3</FOR>
      <TABLE>0.2659675189591464 0.7340324810408536 </TABLE>
    </DEFINITION>
    <DEFINITION>
      <FOR>4</FOR>
      <GIVEN>1</GIVEN>
      <TABLE>0.4610450385689709 0.5389549614310291 0.7292213451122097 0.2707786548877903 </TABLE>
    </DEFINITION>
    <DEFINITION>
      <FOR>5</FOR>
      <GIVEN>0</GIVEN>
      <TABLE>0.7789527223889936 0.22104727761100634 0.47262421953908196 0.5273757804609182 </TABLE>
    </DEFINITION>
    <DEFINITION>
      <FOR>6</FOR>
      <GIVEN>4</GIVEN>
      <GIVEN>3</GIVEN>
      <TABLE>0.9584259536389182 0.0415740463610817 0.1037702983938058 0.8962297016061943 0.6472955429622674 0.35270445703773257 0.18342715080395228 0.8165728491960477 </TABLE>
    </DEFINITION>
    <DEFINITION>
      <FOR>7</FOR>
      <GIVEN>2</GIVEN>
      <GIVEN>5</GIVEN>
      <GIVEN>4</GIVEN>
      <GIVEN>6</GIVEN>
      <TABLE>0.4923063276161547 0.5076936723838453 0.6044131945443018 0.39558680545569824 0.43682219954422663 0.5631778004557734 0.25412893704236933 0.7458710629576307 0.6123238825122237 0.3876761174877764 0.2645195868031008 0.7354804131968993 0.15832146870785022 0.8416785312921498 0.9041606043340797 0.09583939566592026 0.7380866919236232 0.26191330807637675 0.4328464737461242 0.5671535262538758 0.3796333703389411 0.6203666296610589 0.2957074097079758 0.7042925902920242 0.6335395075052479 0.36646049249475215 0.5677241021378694 0.4322758978621305 0.6003546182793451 0.39964538172065495 0.6839258051504297 0.31607419484957033 </TABLE>
    </DEFINITION>
    <DEFINITION>
      <FOR>8</FOR>
      <GIVEN>0</GIVEN>
      <GIVEN>1</GIVEN>
      <GIVEN>3</GIVEN>
      <GIVEN>6</GIVEN>
      <TABLE>0.4597486467163296 0.5402513532836705 0.6934328143420958 0.3065671856579042 0.556455091390581 0.44354490860941903 0.5399560543925548 0.4600439456074452 0.807427869106999 0.1925721308930011 0.13133965284977797 0.868660347150222 0.481905987475463 0.518094012524537 0.05658105787308795 0.943418942126912 0.47979916163858466 0.5202008383614154 0.5221299410511986 0.4778700589488014 0.774716329484408 0.22528367051559192 0.4345345632307252 0.5654654367692747 0.386290603535824 0.613709396464176 0.40868340885745197 0.591316591142548 0.9518014743960619 0.04819852560393807 0.13839987616346067 0.8616001238365393 </TABLE>
    </DEFINITION>
    <DEFINITION>
      <FOR>9</FOR>
      <GIVEN>0</GIVEN>
      <GIVEN>8</GIVEN>
      <GIVEN>4</GIVEN>
      <GIVEN>3</GIVEN>
      <TABLE>0.24899573514934967 0.7510042648506504 0.042900254731369096 0.957099745268631 0.7143691088847545 0.28563089111524553 0.49528635292534173 0.5047136470746583 0.24072361582926838 0.7592763841707316 0.47103344679169307 0.5289665532083069 0.7717372028219703 0.22826279717802972 0.7984865239388025 0.2015134760611975 0.2832419093076003 0.7167580906923996 0.033006940706246685 0.9669930592937533 0.7320883851311809 0.2679116148688191 0.5242608360365294 0.47573916396347055 0.581553206062786 0.4184467939372139 0.6511380910664433 0.34886190893355673 0.419689009289731 0.5803109907102688 0.9002096666742989 0.0997903333257011 </TABLE>
    </DEFINITION>
  </NETWORK>
</BIF>
