<?xml version='1.0' encoding='utf-8'?>
<BIF VERSION="0.3">
  <NETWORK>
    <NAME>UNTITLED</NAME>
    <VARIABLE TYPE="nature">
      <NAME>0</NAME>
      <OUTCOME>0</OUTCOME>
      <OUTCOME>1</OUTCOME>
      <PROPERTY>weight = None</PROPERTY>
    </VARIABLE>
    <VARIABLE TYPE="nature">
      <NAME>1</NAME>
      <OUTCOME>0</OUTCOME>
      <OUTCOME>1</OUTCOME>
      <PROPERTY>weight = None</PROPERTY>
    </VARIABLE>
    <VARIABLE TYPE="nature">
      <NAME>10</NAME>
      <OUTCOME>0</OUTCOME>
      <OUTCOME>1</OUTCOME>
      <PROPERTY>weight = None</PROPERTY>
    </VARIABLE>
    <VARIABLE TYPE="nature">
      <NAME>2</NAME>
      <OUTCOME>0</OUTCOME>
      <OUTCOME>1</OUTCOME>
      <PROPERTY>weight = None</PROPERTY>
    </VARIABLE>
    <VARIABLE TYPE="nature">
      <NAME>3</NAME>
      <OUTCOME>0</OUTCOME>
      <OUTCOME>1</OUTCOME>
      <PROPERTY>weight = None</PROPERTY>
    </VARIABLE>
    <VARIABLE TYPE="nature">
      <NAME>4</NAME>
      <OUTCOME>0</OUTCOME>
      <OUTCOME>1</OUTCOME>
      <PROPERTY>weight = None</PROPERTY>
    </VARIABLE>
    <VARIABLE TYPE="nature">
      <NAME>5</NAME>
      <OUTCOME>0</OUTCOME>
      <OUTCOME>1</OUTCOME>
      <PROPERTY>weight = None</PROPERTY>
    </VARIABLE>
    <VARIABLE TYPE="nature">
      <NAME>6</NAME>
      <OUTCOME>0</OUTCOME>
      <OUTCOME>1</OUTCOME>
      <PROPERTY>weight = None</PROPERTY>
    </VARIABLE>
    <VARIABLE TYPE="nature">
      <NAME>7</NAME>
      <OUTCOME>0</OUTCOME>
      <OUTCOME>1</OUTCOME>
      <PROPERTY>weight = None</PROPERTY>
    </VARIABLE>
    <VARIABLE TYPE="nature">
      <NAME>8</NAME>
      <OUTCOME>0</OUTCOME>
      <OUTCOME>1</OUTCOME>
      <PROPERTY>weight = None</PROPERTY>
    </VARIABLE>
    <VARIABLE TYPE="nature">
      <NAME>9</NAME>
      <OUTCOME>0</OUTCOME>
      <OUTCOME>1</OUTCOME>
      <PROPERTY>weight = None</PROPERTY>
    </VARIABLE>
    <DEFINITION>
      <FOR>0</FOR>
      <TABLE>0.4913801667572492 0.5086198332427507 </TABLE>
    </DEFINITION>
    <DEFINITION>
      <FOR>1</FOR>
      <TABLE>0.6418441833662941 0.35815581663370594 </TABLE>
    </DEFINITION>
    <DEFINITION>
      <FOR>10</FOR>
      <GIVEN>0</GIVEN>
      <GIVEN>3</GIVEN>
      <GIVEN>8</GIVEN>
      <GIVEN>9</GIVEN>
      <GIVEN>1</GIVEN>
      <GIVEN>2</GIVEN>
      <GIVEN>4</GIVEN>
      <GIVEN>5</GIVEN>
      <GIVEN>7</GIVEN>
      <TABLE>0.22261837930361203 0.7773816206963879 0.6804170362394852 0.3195829637605148 0.49982632441830516 0.5001736755816948 0.5594097856863098 0.44059021431369016 0.43923482512798195 0.560765174872018 0.5992725321314502 0.40072746786854985 0.6876787408804502 0.3123212591195498 0.4478015509947597 0.5521984490052403 0.35026968594363556 0.6497303140563644 0.10051955155677782 0.8994804484432222 0.8516880567361764 0.14831194326382358 0.6699798115260484 0.3300201884739516 0.17942878411677743 0.8205712158832226 0.5531079556930739 0.44689204430692603 0.789266108535428 0.21073389146457197 0.792180362486286 0.207819637513714 0.3999211366108009 0.600078863389199 0.5530058378636618 0.4469941621363382 0.17956681497231144 0.8204331850276886 0.7316390017025133 0.2683609982974868 0.47402151089389855 0.5259784891061015 0.8700131967292621 0.12998680327073783 0.7611442427490076 0.23885575725099242 0.5471773297116604 0.4528226702883396 0.7375745847833364 0.2624254152166636 0.5841641500507718 0.41583584994922823 0.6009698170749991 0.399030182925001 0.43141818320269504 0.568581816797305 0.07588738310918855 0.9241126168908115 0.06583215113697566 0.9341678488630243 0.45857119445851907 0.541428805541481 0.6937509615554532 0.30624903844454676 0.7125619044620839 0.2874380955379161 0.7130507250238444 0.2869492749761557 0.8631830625389372 0.1368169374610628 0.4122176572169695 0.5877823427830305 0.4825900036412619 0.5174099963587381 0.7452269742568072 0.25477302574319277 0.697480149129201 0.30251985087079897 0.7210652328345986 0.2789347671654014 0.586693284627034 0.4133067153729659 0.31524280839186647 0.6847571916081335 0.14422892044979058 0.8557710795502094 0.8050966279383828 0.19490337206161726 0.4261263723341375 0.5738736276658625 0.5753339028601442 0.4246660971398558 0.45494378330158874 0.5450562166984112 0.92409620676898 0.07590379323102008 0.9997797016396381 0.00022029836036188983 0.012025630077515592 0.9879743699224844 0.21114042445171205 0.7888595755482879 0.15285609879514514 0.8471439012048549 0.6115991406576713 0.3884008593423287 0.8776642132137767 0.12233578678622321 0.4040347231783543 0.5959652768216457 0.8587236702968977 0.1412763297031023 0.4048588909834961 0.595141109016504 0.6104037491570496 0.38959625084295035 0.5385547869945901 0.4614452130054099 0.5804239025502769 0.41957609744972313 0.06295806057430836 0.9370419394256917 0.5408061899606457 0.4591938100393544 0.06061303735585934 0.9393869626441407 0.6321579430456165 0.3678420569543836 0.5624350881402688 0.43756491185973123 0.29832961013541454 0.7016703898645854 0.3055237217563618 0.6944762782436382 0.027586936360523805 0.9724130636394762 0.30910271604836015 0.6908972839516399 0.01482088594318181 0.9851791140568182 0.6851369925029529 0.31486300749704715 0.9028494485932229 0.09715055140677713 0.7645499870388363 0.2354500129611638 0.49557421582072647 0.5044257841792735 0.022328739503388238 0.9776712604966118 0.49719944221601975 0.5028005577839801 0.5042783017183974 0.49572169828160273 0.12401528367671093 0.8759847163232891 0.3922829930585377 0.6077170069414624 0.4151250116501741 0.5848749883498259 0.5397027661486473 0.4602972338513526 0.1613742160770493 0.8386257839229507 0.33227860435145895 0.667721395648541 0.6551273352305393 0.34487266476946066 0.6564018413924871 0.3435981586075128 0.45239602602528955 0.5476039739747105 0.4025253277229567 0.5974746722770433 0.2867781731739784 0.7132218268260216 0.945754363296653 0.05424563670334704 0.6735829494493462 0.32641705055065384 0.28219806944413084 0.7178019305558692 0.5644410465777718 0.4355589534222282 0.635836546182806 0.364163453817194 0.4689366186107684 0.5310633813892317 0.7697093807411314 0.2302906192588686 0.429477156237866 0.570522843762134 0.32735393052630285 0.6726460694736971 0.8238462946741553 0.17615370532584476 0.5474923297982865 0.45250767020171345 0.5852495425587271 0.4147504574412728 0.6460612183835208 0.3539387816164792 0.998876059798179 0.0011239402018210995 0.6562573860740398 0.3437426139259601 0.6050866865466406 0.3949133134533595 0.5576840099106147 0.44231599008938527 0.4055424557530248 0.5944575442469753 0.5368346938020703 0.4631653061979297 0.521995213605223 0.478004786394777 0.48149523921055526 0.5185047607894449 0.6025069247827167 0.39749307521728333 0.3672865903849113 0.6327134096150887 0.48428130552542903 0.5157186944745709 0.050194914948063524 0.9498050850519365 0.48329911987148205 0.516700880128518 0.3420030740608497 0.6579969259391503 0.7525500310930902 0.2474499689069099 0.5034257357947343 0.4965742642052656 0.44739954365580703 0.552600456344193 0.8139683676203251 0.18603163237967485 0.567690698017166 0.43230930198283396 0.9573280024046527 0.04267199759534732 0.3248394642255125 0.6751605357744874 0.036842710256838274 0.9631572897431617 0.7139697632365518 0.28603023676344824 0.39825448919356804 0.6017455108064319 0.6722983765138879 0.3277016234861121 0.16683438002761394 0.833165619972386 0.8261090462499514 0.17389095375004857 0.48225179275164276 0.5177482072483572 0.9451427622861598 0.054857237713840226 0.7106834936227139 0.28931650637728606 0.8563267832178241 0.1436732167821759 0.6531988485587767 0.3468011514412232 0.5219212627685481 0.47807873723145194 0.994123906224728 0.005876093775271938 0.7579606192381516 0.2420393807618484 0.16570078829385254 0.8342992117061474 0.47047218980856587 0.5295278101914342 0.7207318496873979 0.2792681503126022 0.7201856920410081 0.2798143079589918 0.8301635107827847 0.16983648921721525 0.3138373626464447 0.6861626373535554 0.4411466703445587 0.5588533296554413 0.5233203475680713 0.4766796524319286 0.6907820463806403 0.3092179536193597 0.4820019334382312 0.5179980665617688 0.205958167642078 0.7940418323579219 0.21402574233491264 0.7859742576650873 0.465278520963276 0.534721479036724 0.45117223702519765 0.5488277629748023 0.35203279801690185 0.6479672019830981 0.7649298054945816 0.23507019450541833 0.8816878713100817 0.11831212868991822 0.11215961021940186 0.8878403897805982 0.6294496237209185 0.37055037627908155 0.297367497444412 0.7026325025555881 0.9116925950909587 0.0883074049090413 0.5243122902047364 0.47568770979526365 0.0008259339888719218 0.9991740660111281 0.35318661283726305 0.646813387162737 0.6420528575790801 0.3579471424209198 0.3112712450594305 0.6887287549405695 0.9723688168155158 0.027631183184484223 0.6286142186812573 0.37138578131874256 0.06517232263717225 0.9348276773628278 0.5184761949585783 0.4815238050414216 0.30579117391708754 0.6942088260829125 0.2692358528607843 0.7307641471392158 0.12181673292086173 0.8781832670791383 0.7862580214731012 0.2137419785268988 0.7831182322969226 0.21688176770307738 0.6478774210383901 0.35212257896161 0.3292033880495076 0.6707966119504923 0.40150933144812223 0.5984906685518777 0.7496142826164274 0.2503857173835727 0.462581775492994 0.537418224507006 0.256655317058604 0.743344682941396 0.1653089176805466 0.8346910823194534 0.09945911093157654 0.9005408890684234 0.7662306886702228 0.23376931132977707 0.5294950943730813 0.4705049056269187 0.9918524278729723 0.008147572127027622 0.43616878390346553 0.5638312160965344 0.987687843873667 0.012312156126332949 0.7615599896441441 0.238440010355856 0.0428846614959581 0.957115338504042 0.5476368282481625 0.4523631717518375 0.38054833059113935 0.6194516694088605 0.31431665729451425 0.6856833427054857 0.47151014166327093 0.528489858336729 0.006695268016335872 0.9933047319836641 0.7997379916070516 0.20026200839294842 0.6172781775061417 0.3827218224938584 0.60527855376707 0.39472144623293015 0.8303309564913667 0.16966904350863332 0.4562283643125239 0.5437716356874761 0.57707034318167 0.42292965681833 0.8068235503531062 0.1931764496468938 0.48932744381426685 0.5106725561857332 0.213550226223831 0.786449773776169 0.40549371380221044 0.5945062861977896 0.6494590561130432 0.3505409438869567 0.42022756401926215 0.5797724359807379 0.691667752498241 0.308332247501759 0.4049951196834421 0.595004880316558 0.14488884720043543 0.8551111527995645 0.7967838255167575 0.20321617448324245 0.2575865163364528 0.7424134836635472 0.8995742597843853 0.10042574021561468 0.19138489620426966 0.8086151037957302 0.5806936368189057 0.4193063631810942 0.40265054112058546 0.5973494588794145 0.6108519464711868 0.3891480535288132 0.8859070855325926 0.11409291446740748 0.892414130312302 0.10758586968769791 0.7785846553783707 0.22141534462162923 0.603076344417628 0.396923655582372 0.6028510336756356 0.3971489663243643 0.4916308639849902 0.5083691360150099 0.5329152981275731 0.46708470187242684 0.8782078315819859 0.12179216841801407 0.805497648905943 0.194502351094057 0.6020524456615072 0.39794755433849277 0.7758808179201911 0.22411918207980888 0.18513811953559262 0.8148618804644074 0.9613304984988835 0.038669501501116504 0.6295024269951278 0.3704975730048722 0.675964845630379 0.32403515436962105 0.45454900883220806 0.5454509911677919 0.598926294806446 0.40107370519355395 0.47465949569467436 0.5253405043053256 0.6887002955277973 0.3112997044722027 0.7068350064543065 0.29316499354569364 0.2065746000048772 0.7934253999951227 0.4250774483645014 0.5749225516354987 0.33762191407782133 0.6623780859221785 0.4036603163871612 0.5963396836128387 0.6270941004675382 0.3729058995324618 0.6172658908735826 0.38273410912641737 0.570400390875156 0.42959960912484396 0.6416970675552596 0.3583029324447403 0.39042324145673696 0.609576758543263 0.5409352003022372 0.4590647996977629 0.5810672549303209 0.4189327450696792 0.7947022499470887 0.20529775005291123 0.6876596266563465 0.3123403733436536 0.8843289936938984 0.11567100630610162 0.2720727337372479 0.7279272662627521 0.6028797280145911 0.39712027198540883 0.6497242404003586 0.3502757595996414 0.21440008927945173 0.7855999107205482 0.48575793404170203 0.5142420659582979 0.4358615524623582 0.5641384475376418 0.4562895188277298 0.5437104811722702 0.6646532738407932 0.33534672615920674 0.3059468097825796 0.6940531902174204 0.1745643664617112 0.8254356335382889 0.5827211931302156 0.4172788068697844 0.8784576066552156 0.12154239334478445 0.4376607019314302 0.5623392980685699 0.2813039245163975 0.7186960754836025 0.3570630227833457 0.6429369772166543 0.5353133071817178 0.4646866928182823 0.4532334943913179 0.5467665056086821 0.5778612455730922 0.4221387544269079 0.17763112472797163 0.8223688752720284 0.46572201933088436 0.5342779806691157 0.051853275990391766 0.9481467240096082 0.7750868877630746 0.22491311223692545 0.3324381104899319 0.6675618895100681 0.5576786007156945 0.4423213992843054 0.688227682815224 0.311772317184776 0.15339207323928855 0.8466079267607115 0.3744315646777379 0.6255684353222623 0.25649154527411405 0.743508454725886 0.5775322096875822 0.42246779031241777 0.4774587524698815 0.5225412475301184 0.6928917158788557 0.3071082841211444 0.6967100107440714 0.30328998925592876 0.2404941580685524 0.7595058419314475 0.3528322000710028 0.6471677999289972 0.30551493416564435 0.6944850658343557 0.4866694397341598 0.5133305602658402 0.03836190527361549 0.9616380947263845 0.9553492013014157 0.04465079869858432 0.091850050930778 0.908149949069222 0.27188588253450635 0.7281141174654936 0.8122181184308591 0.18778188156914086 0.5934474957789452 0.4065525042210548 0.44369438061775485 0.5563056193822453 0.4922446272775129 0.5077553727224872 0.41889333387168765 0.5811066661283123 0.7091382563623512 0.29086174363764883 0.38188897167845515 0.6181110283215449 0.9563587370028916 0.04364126299710832 0.783072930666279 0.21692706933372097 0.1656779731607278 0.8343220268392721 0.4234067027308409 0.5765932972691592 0.5629667111167906 0.4370332888832093 0.713049005990615 0.28695099400938495 0.97735792970507 0.02264207029493006 0.05941061456035911 0.9405893854396409 0.011311827075385654 0.9886881729246143 0.2521275435181218 0.7478724564818782 0.9685108197878286 0.031489180212171376 0.24296816172614427 0.7570318382738557 0.5215490231933949 0.47845097680660503 0.928766397151548 0.07123360284845207 0.056830861113364516 0.9431691388866354 0.2579006135410639 0.7420993864589361 0.14984710235426582 0.8501528976457342 0.45622711442152364 0.5437728855784765 0.449047927282637 0.550952072717363 0.5122001491944669 0.4877998508055331 0.7089285000797891 0.2910714999202108 0.17478910515950077 0.8252108948404991 0.9182240392803431 0.08177596071965687 0.265543437031821 0.734456562968179 0.8195739163638941 0.18042608363610604 0.23932318262564975 0.7606768173743502 0.36435495070277707 0.6356450492972229 0.699150108259776 0.30084989174022403 0.23757094024300943 0.7624290597569906 0.515497267657941 0.484502732342059 0.7989616873175504 0.2010383126824497 0.48693171239282523 0.5130682876071748 0.9858843346968196 0.014115665303180385 0.7865867464720997 0.21341325352790036 0.6475527772271651 0.35244722277283486 0.7413916384784455 0.25860836152155453 0.5027481492990588 0.4972518507009413 0.7625571493944444 0.23744285060555556 0.4733356632577822 0.5266643367422179 0.6599435536816313 0.3400564463183688 0.44798012560354034 0.5520198743964596 0.4091931630556038 0.5908068369443962 0.5943257362638308 0.4056742637361692 0.42675036660239374 0.5732496333976062 0.41145568234886787 0.5885443176511321 0.9266691766409085 0.07333082335909152 0.4447512126217387 0.5552487873782612 0.3579589534761201 0.6420410465238799 0.20866624832100508 0.7913337516789949 0.3490800809614958 0.6509199190385042 0.6524698039041111 0.34753019609588887 0.8240064740730508 0.1759935259269491 0.10694377920215009 0.89305622079785 0.44269988689601714 0.5573001131039829 0.31281957565077434 0.6871804243492255 0.08006653977114347 0.9199334602288566 0.5009519141864539 0.4990480858135461 0.7434531546713248 0.2565468453286752 0.2823657830156568 0.7176342169843433 0.7852718692429239 0.2147281307570761 0.7091988590104934 0.2908011409895065 0.6073836000623779 0.3926163999376222 0.5612555002890612 0.4387444997109388 0.28987372613258 0.71012627386742 0.5528328405128089 0.44716715948719105 0.5071821820615384 0.49281781793846163 0.6975988273204908 0.3024011726795092 0.6527837204632735 0.34721627953672646 0.5787835384375899 0.42121646156241016 0.5861997922034269 0.41380020779657317 0.3261321438053668 0.6738678561946332 0.2755537054006507 0.7244462945993494 0.07639963730324613 0.9236003626967538 0.3447150798691013 0.6552849201308987 0.8013537543892345 0.19864624561076552 0.5693727845537744 0.43062721544622573 0.38633933001562065 0.6136606699843793 0.26160380317891674 0.7383961968210833 0.5163854459108278 0.4836145540891722 0.2239589240306743 0.7760410759693257 0.4172307369983683 0.5827692630016317 0.4542972105362532 0.5457027894637468 0.43410096542109133 0.5658990345789088 0.2735630556738782 0.7264369443261218 0.3531678681530711 0.6468321318469289 0.65056714774799 0.34943285225201 0.9782509998851204 0.021749000114879603 0.7198141237770251 0.28018587622297475 0.0049557001810134 0.9950442998189866 0.48922453029361523 0.5107754697063848 0.5169113902158009 0.48308860978419904 0.866702590779486 0.1332974092205141 0.687267970290743 0.3127320297092569 0.25109956655548465 0.7489004334445153 0.6424429940415 0.35755700595850004 0.21813105685270093 0.781868943147299 0.5274531101152805 0.4725468898847195 0.46105239357365563 0.5389476064263444 0.6652542740970057 0.33474572590299445 0.44188801503683306 0.5581119849631668 0.3259609142026963 0.6740390857973036 0.5133099532194779 0.486690046780522 0.7020944675106191 0.29790553248938084 0.5039754597956649 0.496024540204335 0.22765639243006058 0.7723436075699395 0.3986319182276044 0.6013680817723956 0.5543568876762156 0.4456431123237844 0.06672413279267153 0.9332758672073285 0.4331606787105465 0.5668393212894535 0.8294968329696919 0.17050316703030804 0.5383286498401586 0.4616713501598413 0.5537127471058291 0.4462872528941709 0.2666554516592 0.7333445483408 0.6173771763702331 0.3826228236297669 0.8012645562465782 0.19873544375342178 0.12350191512099556 0.8764980848790044 0.7219717970122094 0.2780282029877906 0.39360547401155926 0.6063945259884407 0.34888750140796226 0.6511124985920378 0.409237021917036 0.5907629780829641 0.3536850191769825 0.6463149808230174 0.2588640571892575 0.7411359428107425 0.6831911864009329 0.316808813599067 0.3067338490318554 0.6932661509681446 0.19097423298352983 0.8090257670164701 0.04690291244000114 0.9530970875599989 0.16550586810430998 0.83449413189569 0.5050813117772766 0.49491868822272356 0.4020412653903114 0.5979587346096886 0.8119123276818965 0.1880876723181035 0.3139849910300685 0.6860150089699315 0.6011026724494342 0.39889732755056584 0.37158795979114567 0.6284120402088543 0.33254436609891175 0.6674556339010882 0.4364585760382344 0.5635414239617655 0.4634008541281576 0.5365991458718424 0.2824578693144147 0.7175421306855854 0.8222905601741173 0.1777094398258827 0.2084154842293289 0.7915845157706711 0.7314456380077516 0.26855436199224836 0.02040914601229826 0.9795908539877017 0.8818200766289312 0.11817992337106872 0.38388652397809436 0.6161134760219056 0.8589059548859063 0.1410940451140938 0.17693329453005022 0.8230667054699498 0.18368100854215727 0.8163189914578427 0.5169601048826121 0.4830398951173878 0.9711251607064967 0.028874839293503287 0.5412293745326339 0.45877062546736624 0.3324410196778096 0.6675589803221905 0.4472251309756706 0.5527748690243293 0.4229754866036903 0.5770245133963097 0.6182891933208671 0.381710806679133 0.5913575520260558 0.40864244797394417 0.2975273442973972 0.7024726557026029 0.15133535124554665 0.8486646487544534 0.5786259136309203 0.42137408636907964 0.1333566090619386 0.8666433909380614 0.7119992660039319 0.2880007339960681 0.9254093568335633 0.0745906431664367 0.9733519826451373 0.02664801735486272 0.7660575676729597 0.23394243232704026 0.5794849072426247 0.42051509275737536 0.5330058000157162 0.4669941999842839 0.5765193428601775 0.4234806571398226 0.5102467523440829 0.48975324765591716 0.8597232212793294 0.14027677872067063 0.38736654965156947 0.6126334503484305 0.5204928879407136 0.47950711205928637 0.6791672533516115 0.3208327466483885 0.1993051542555267 0.8006948457444735 0.5084238374355015 0.4915761625644986 0.204177693771078 0.795822306228922 0.19853549907208004 0.80146450092792 0.41476228399534276 0.5852377160046572 0.334797678799251 0.6652023212007491 0.6245862398877141 0.37541376011228594 0.7842613328819701 0.21573866711802991 0.5756813779955643 0.42431862200443554 0.28724659690538923 0.7127534030946108 0.46815372541640965 0.5318462745835904 0.8448069904526225 0.15519300954737747 0.565163616300357 0.434836383699643 0.3879524239544804 0.6120475760455196 0.39553358404397393 0.6044664159560261 0.8283917834378839 0.17160821656211608 0.3941431621133673 0.6058568378866327 0.04553646378295146 0.9544635362170485 0.8685424923243414 0.13145750767565845 0.4910773824345587 0.5089226175654413 0.5314299681241336 0.46857003187586654 0.9074551045782194 0.09254489542178053 0.5380127310128944 0.4619872689871056 0.7575303466805332 0.2424696533194668 0.649183344789231 0.350816655210769 0.476272131596481 0.523727868403519 0.45340961939120844 0.5465903806087916 0.2120060995380111 0.7879939004619889 0.7961449924463738 0.2038550075536262 0.43106492418213843 0.5689350758178616 0.3722726074370575 0.6277273925629425 0.5279268195837957 0.47207318041620433 0.6094482856532554 0.3905517143467446 0.7759007331002092 0.22409926689979073 0.36659170550466036 0.6334082944953396 0.7120126341736995 0.28798736582630047 0.37917284263215617 0.6208271573678439 0.9474990797769085 0.0525009202230915 0.5957777685083011 0.40422223149169884 0.8874016098734311 0.11259839012656894 0.6875671591575006 0.31243284084249945 0.8319337898546102 0.16806621014538975 0.30603155666283804 0.6939684433371619 0.7015337652899587 0.29846623471004136 0.474243145594811 0.525756854405189 0.6458064996384241 0.354193500361576 0.659486985083823 0.340513014916177 0.18185022642844642 0.8181497735715536 </TABLE>
    </DEFINITION>
    <DEFINITION>
      <FOR>2</FOR>
      <GIVEN>1</GIVEN>
      <TABLE>0.7838163818402502 0.21618361815974974 0.22311856262178967 0.7768814373782104 </TABLE>
    </DEFINITION>
    <DEFINITION>
      <FOR>3</FOR>
      <GIVEN>0</GIVEN>
      <GIVEN>1</GIVEN>
      <GIVEN>2</GIVEN>
      <TABLE>0.46167377525267184 0.5383262247473282 0.3718925687929336 0.6281074312070665 0.5599616722705366 0.4400383277294634 0.38947423917162416 0.6105257608283758 0.4323728239306233 0.5676271760693766 0.49544235095682826 0.5045576490431717 0.5928561909948894 0.40714380900511055 0.26355718486056406 0.7364428151394359 </TABLE>
    </DEFINITION>
    <DEFINITION>
      <FOR>4</FOR>
      <GIVEN>3</GIVEN>
      <GIVEN>1</GIVEN>
      <TABLE>0.16627218278192346 0.8337278172180767 0.2583525667403021 0.7416474332596978 0.33289412351220793 0.6671058764877922 0.6050965844263422 0.3949034155736579 </TABLE>
    </DEFINITION>
    <DEFINITION>
      <FOR>5</FOR>
      <GIVEN>1</GIVEN>
      <GIVEN>2</GIVEN>
      <GIVEN>4</GIVEN>
      <TABLE>0.6179399989316577 0.38206000106834226 0.4549831443696625 0.5450168556303375 0.5364498724693556 0.46355012753064445 0.8576032522762496 0.14239674772375044 0.4945571586202103 0.5054428413797896 0.5073300364930109 0.49266996350698905 0.31472933522890373 0.6852706647710962 0.47506690559444453 0.5249330944055555 </TABLE>
    </DEFINITION>
    <DEFINITION>
      <FOR>6</FOR>
      <GIVEN>1</GIVEN>
      <GIVEN>2</GIVEN>
      <GIVEN>4</GIVEN>
      <TABLE>0.33626153386297825 0.6637384661370217 0.36655548710776115 0.6334445128922388 0.4579289470478712 0.5420710529521289 0.5433817090345521 0.456618290965448 0.09625409613883916 0.9037459038611608 0.9818365076639242 0.018163492336075816 0.22126799710169762 0.7787320028983024 0.978768166631078 0.021231833368921968 </TABLE>
    </DEFINITION>
    <DEFINITION>
      <FOR>7</FOR>
      <GIVEN>1</GIVEN>
      <GIVEN>5</GIVEN>
      <GIVEN>6</GIVEN>
      <TABLE>0.7150819453264943 0.2849180546735058 0.025737310468137868 0.9742626895318621 0.5400137309340132 0.4599862690659869 0.42902966714114205 0.5709703328588579 0.270421005493688 0.729578994506312 0.4417872993603523 0.5582127006396477 0.7697710938166963 0.2302289061833037 0.23610299070134533 0.7638970092986547 </TABLE>
    </DEFINITION>
    <DEFINITION>
      <FOR>8</FOR>
      <GIVEN>0</GIVEN>
      <GIVEN>3</GIVEN>
      <GIVEN>2</GIVEN>
      <GIVEN>4</GIVEN>
      <GIVEN>5</GIVEN>
      <GIVEN>6</GIVEN>
      <TABLE>0.5416229779946423 0.4583770220053577 0.712804643487848 0.287195356512152 0.7840041499512671 0.21599585004873284 0.3015535332271521 0.6984464667728478 0.7718842513230109 0.22811574867698917 0.5831955128410167 0.4168044871589834 0.4403985111293325 0.5596014888706674 0.29638572370769284 0.7036142762923071 0.10916363970528253 0.8908363602947175 0.2823088329327441 0.7176911670672558 0.54226780788372 0.4577321921162801 0.8776199527777259 0.12238004722227418 0.041858270326671346 0.9581417296733287 0.8757539428486739 0.12424605715132613 0.38872059307571655 0.6112794069242834 0.6550310624755107 0.34496893752448926 0.4304916549249677 0.5695083450750322 0.48997143364597473 0.5100285663540253 0.18524706855133763 0.8147529314486623 0.14019609974702552 0.8598039002529745 0.58765913025363 0.41234086974637 0.07509973567588624 0.9249002643241138 0.516304034492259 0.483695965507741 0.003306428818542378 0.9966935711814576 0.7950988722110832 0.20490112778891675 0.28960038148419914 0.7103996185158008 0.7741869025492791 0.2258130974507208 0.07649267043726105 0.923507329562739 0.7323911881419786 0.26760881185802143 0.5370504427473589 0.46294955725264103 0.16303426608186253 0.8369657339181374 0.37165221437643015 0.6283477856235697 0.18373407609675232 0.8162659239032477 0.5579893346938724 0.44201066530612765 0.07419968098246142 0.9258003190175386 0.49057929089730673 0.5094207091026932 0.807280079445048 0.19271992055495202 0.27696728693235106 0.7230327130676489 0.4265422355664462 0.5734577644335538 0.46622223345280694 0.5337777665471931 0.8586748686349195 0.14132513136508065 0.3045306259289688 0.6954693740710312 0.9033358371017314 0.09666416289826857 0.676207249560732 0.323792750439268 0.7238110473784675 0.27618895262153265 0.5937934883190388 0.4062065116809613 0.7117918981328688 0.28820810186713125 0.30276538590970115 0.6972346140902989 0.5822479142369191 0.4177520857630809 0.4696149054924976 0.5303850945075024 0.6973540008810468 0.3026459991189531 0.41515554243148617 0.5848444575685139 0.10487516044321783 0.8951248395567821 0.8026961894989681 0.19730381050103182 0.32497335398158533 0.6750266460184147 0.358122539277366 0.641877460722634 0.5905246380001381 0.40947536199986184 0.5099877370129008 0.4900122629870992 0.21256296367467536 0.7874370363253247 0.5734409436661997 0.4265590563338003 0.5123452851375084 0.48765471486249157 0.9053412048397557 0.0946587951602443 0.1995928601383355 0.8004071398616646 0.7356814940731847 0.26431850592681533 </TABLE>
    </DEFINITION>
    <DEFINITION>
      <FOR>9</FOR>
      <GIVEN>0</GIVEN>
      <GIVEN>3</GIVEN>
      <GIVEN>8</GIVEN>
      <GIVEN>2</GIVEN>
      <GIVEN>4</GIVEN>
      <TABLE>0.05547780988435045 0.9445221901156495 0.7456682798770193 0.2543317201229807 0.6181495241562267 0.38185047584377335 0.13800748316828554 0.8619925168317144 0.7729338527671444 0.22706614723285556 0.9648946099898388 0.03510539001016112 0.9153646532029832 0.08463534679701674 0.45350772595572464 0.5464922740442753 0.2988804894596064 0.7011195105403936 0.4510461634321835 0.5489538365678165 0.3547458161030276 0.6452541838969724 0.4760882575713049 0.5239117424286951 0.8287011676986403 0.1712988323013597 0.9209485317106304 0.07905146828936958 0.6491886614282745 0.3508113385717256 0.6927133731322938 0.30728662686770625 0.7258013667329776 0.2741986332670225 0.1454208362043523 0.8545791637956477 0.26121384058499214 0.7387861594150078 0.8566155347216405 0.1433844652783594 0.10262803811326893 0.8973719618867311 0.887544188876262 0.11245581112373808 0.3638292204701917 0.6361707795298083 0.16401140122373956 0.8359885987762604 0.4558555760781344 0.5441444239218657 0.3828624412679931 0.6171375587320069 0.45399737006792645 0.5460026299320736 0.7815909238592352 0.21840907614076477 0.7587167790652743 0.2412832209347256 0.20820969127997968 0.7917903087200203 0.9397296994883684 0.06027030051163159 0.377312755346196 0.6226872446538041 </TABLE>
    </DEFINITION>
  </NETWORK>
</BIF>
