<?xml version='1.0' encoding='utf-8'?>
<BIF VERSION="0.3">
  <NETWORK>
    <NAME>UNTITLED</NAME>
    <VARIABLE TYPE="nature">
      <NAME>0</NAME>
      <OUTCOME>0</OUTCOME>
      <OUTCOME>1</OUTCOME>
      <PROPERTY>weight = None</PROPERTY>
    </VARIABLE>
    <VARIABLE TYPE="nature">
      <NAME>1</NAME>
      <OUTCOME>0</OUTCOME>
      <OUTCOME>1</OUTCOME>
      <PROPERTY>weight = None</PROPERTY>
    </VARIABLE>
    <VARIABLE TYPE="nature">
      <NAME>10</NAME>
      <OUTCOME>0</OUTCOME>
      <OUTCOME>1</OUTCOME>
      <PROPERTY>weight = None</PROPERTY>
    </VARIABLE>
    <VARIABLE TYPE="nature">
      <NAME>2</NAME>
      <OUTCOME>0</OUTCOME>
      <OUTCOME>1</OUTCOME>
      <PROPERTY>weight = None</PROPERTY>
    </VARIABLE>
    <VARIABLE TYPE="nature">
      <NAME>3</NAME>
      <OUTCOME>0</OUTCOME>
      <OUTCOME>1</OUTCOME>
      <PROPERTY>weight = None</PROPERTY>
    </VARIABLE>
    <VARIABLE TYPE="nature">
      <NAME>4</NAME>
      <OUTCOME>0</OUTCOME>
      <OUTCOME>1</OUTCOME>
      <PROPERTY>weight = None</PROPERTY>
    </VARIABLE>
    <VARIABLE TYPE="nature">
      <NAME>5</NAME>
      <OUTCOME>0</OUTCOME>
      <OUTCOME>1</OUTCOME>
      <PROPERTY>weight = None</PROPERTY>
    </VARIABLE>
    <VARIABLE TYPE="nature">
      <NAME>6</NAME>
      <OUTCOME>0</OUTCOME>
      <OUTCOME>1</OUTCOME>
      <PROPERTY>weight = None</PROPERTY>
    </VARIABLE>
    <VARIABLE TYPE="nature">
      <NAME>7</NAME>
      <OUTCOME>0</OUTCOME>
      <OUTCOME>1</OUTCOME>
      <PROPERTY>weight = None</PROPERTY>
    </VARIABLE>
    <VARIABLE TYPE="nature">
      <NAME>8</NAME>
      <OUTCOME>0</OUTCOME>
      <OUTCOME>1</OUTCOME>
      <PROPERTY>weight = None</PROPERTY>
    </VARIABLE>
    <VARIABLE TYPE="nature">
      <NAME>9</NAME>
      <OUTCOME>0</OUTCOME>
      <OUTCOME>1</OUTCOME>
      <PROPERTY>weight = None</PROPERTY>
    </VARIABLE>
    <DEFINITION>
      <FOR>0</FOR>
      <TABLE>0.13557617392260005 0.8644238260774 </TABLE>
    </DEFINITION>
    <DEFINITION>
      <FOR>1</FOR>
      <GIVEN>0</GIVEN>
      <TABLE>0.8714472058715138 0.1285527941284862 0.3078892379877608 0.6921107620122392 </TABLE>
    </DEFINITION>
    <DEFINITION>
      <FOR>10</FOR>
      <GIVEN>2</GIVEN>
      <GIVEN>6</GIVEN>
      <GIVEN>4</GIVEN>
      <GIVEN>8</GIVEN>
      <TABLE>0.6020657096550092 0.3979342903449909 0.3759951231363755 0.6240048768636245 0.40477752825107755 0.5952224717489225 0.8763628867050899 0.12363711329491023 0.974734567777443 0.025265432222556946 0.09216022725931204 0.907839772740688 0.3436702664386571 0.6563297335613428 0.3752542286337753 0.6247457713662247 0.23784042870131278 0.7621595712986873 0.8512357991443527 0.1487642008556473 0.2441959589693715 0.7558040410306285 0.37514234731176116 0.6248576526882389 0.34387034843757364 0.6561296515624264 0.21117985315647753 0.7888201468435224 0.3632022542118851 0.6367977457881149 0.755685198838054 0.24431480116194612 </TABLE>
    </DEFINITION>
    <DEFINITION>
      <FOR>2</FOR>
      <GIVEN>0</GIVEN>
      <GIVEN>1</GIVEN>
      <TABLE>0.19087087814668333 0.8091291218533166 0.5477250546207669 0.45227494537923313 0.9780917639492209 0.02190823605077905 0.566596515654794 0.433403484345206 </TABLE>
    </DEFINITION>
    <DEFINITION>
      <FOR>3</FOR>
      <GIVEN>0</GIVEN>
      <GIVEN>2</GIVEN>
      <TABLE>0.8233776320765962 0.17662236792340383 0.4576290146216109 0.5423709853783891 0.35516134325211685 0.6448386567478831 0.19728715555842086 0.8027128444415791 </TABLE>
    </DEFINITION>
    <DEFINITION>
      <FOR>4</FOR>
      <GIVEN>1</GIVEN>
      <GIVEN>2</GIVEN>
      <TABLE>0.382126889612145 0.617873110387855 0.7458244613650237 0.25417553863497633 0.36908748405354685 0.6309125159464533 0.2539191873737345 0.7460808126262656 </TABLE>
    </DEFINITION>
    <DEFINITION>
      <FOR>5</FOR>
      <GIVEN>0</GIVEN>
      <GIVEN>1</GIVEN>
      <GIVEN>3</GIVEN>
      <GIVEN>4</GIVEN>
      <TABLE>0.706506338633116 0.2934936613668841 0.264075278247664 0.7359247217523359 0.524515973162484 0.475484026837516 0.8246147984710263 0.17538520152897372 0.9400148458156167 0.05998515418438333 0.36110734521869375 0.6388926547813063 0.1779963786256059 0.822003621374394 0.7697436529086772 0.23025634709132284 0.711771397266708 0.2882286027332919 0.5555677855436705 0.44443221445632963 0.048661645311729125 0.9513383546882709 0.3978389383901895 0.6021610616098105 0.6562317918101842 0.34376820818981574 0.7909682592864352 0.20903174071356484 0.2661035094807385 0.7338964905192615 0.4977532033703421 0.5022467966296579 </TABLE>
    </DEFINITION>
    <DEFINITION>
      <FOR>6</FOR>
      <GIVEN>0</GIVEN>
      <GIVEN>3</GIVEN>
      <GIVEN>5</GIVEN>
      <GIVEN>4</GIVEN>
      <TABLE>0.9870272525207497 0.012972747479250236 0.44890646979151605 0.551093530208484 0.8464204150264263 0.1535795849735737 0.3966849669901491 0.6033150330098508 0.9737405945733869 0.02625940542661307 0.4003709817569119 0.5996290182430881 0.8333449075178169 0.16665509248218316 0.7181620135254657 0.2818379864745343 0.5279150612712274 0.4720849387287725 0.5765812889523184 0.4234187110476817 0.5216885337618739 0.47831146623812626 0.2939622386790304 0.7060377613209696 0.11485422815212037 0.8851457718478796 0.4609499949299674 0.5390500050700325 0.5776522072188149 0.4223477927811851 0.37132751037504547 0.6286724896249545 </TABLE>
    </DEFINITION>
    <DEFINITION>
      <FOR>7</FOR>
      <GIVEN>1</GIVEN>
      <GIVEN>2</GIVEN>
      <GIVEN>3</GIVEN>
      <GIVEN>5</GIVEN>
      <GIVEN>6</GIVEN>
      <TABLE>0.36330053800682266 0.6366994619931774 0.339678074319856 0.660321925680144 0.37278284119201266 0.6272171588079872 0.08333951636782953 0.9166604836321705 0.14475438135984248 0.8552456186401576 0.5790510706222464 0.4209489293777537 0.6197497184318755 0.3802502815681244 0.5717625437097318 0.4282374562902682 0.45584414385137473 0.5441558561486252 0.29449282767983753 0.7055071723201625 0.6058743584462403 0.39412564155375973 0.545169306561903 0.45483069343809696 0.4779263007022079 0.5220736992977922 0.5768423620016804 0.42315763799831974 0.35594653335610676 0.6440534666438932 0.6562798282045772 0.34372017179542275 0.7638027068865461 0.23619729311345394 0.5485109369795077 0.4514890630204924 0.690408006650447 0.3095919933495531 0.5116746140539423 0.4883253859460576 0.29013207167481814 0.7098679283251818 0.26707042723601604 0.7329295727639841 0.6232656316287668 0.37673436837123314 0.5519608932827653 0.4480391067172348 0.9595400943297809 0.04045990567021902 0.07547213866826591 0.924527861331734 0.5284197404765221 0.4715802595234779 0.09952170500058244 0.9004782949994176 0.525165871784979 0.4748341282150211 0.5135226093090828 0.48647739069091717 0.8323862635409637 0.16761373645903635 0.8834731681245209 0.11652683187547912 </TABLE>
    </DEFINITION>
    <DEFINITION>
      <FOR>8</FOR>
      <GIVEN>1</GIVEN>
      <GIVEN>2</GIVEN>
      <GIVEN>3</GIVEN>
      <GIVEN>5</GIVEN>
      <GIVEN>6</GIVEN>
      <GIVEN>4</GIVEN>
      <TABLE>0.5531192401526241 0.44688075984737585 0.3805007368014829 0.6194992631985171 0.27530423836236545 0.7246957616376345 0.4435538658458841 0.5564461341541159 0.03978119508058464 0.9602188049194154 0.6471293371122724 0.3528706628877276 0.4227373391044678 0.5772626608955322 0.18834448011626762 0.8116555198837324 0.6919668343404032 0.30803316565959676 0.8233553524802646 0.17664464751973527 0.8078327305711679 0.19216726942883214 0.6528323911210245 0.34716760887897546 0.3341418150755662 0.6658581849244338 0.5066106667440572 0.4933893332559428 0.5957350939377486 0.40426490606225135 0.2523763783162044 0.7476236216837955 0.34645369500444534 0.6535463049955547 0.9626122778952202 0.037387722104779766 0.5392111292138241 0.46078887078617586 0.11717560104663899 0.8828243989533611 0.36639038367853743 0.6336096163214625 0.15646379045868788 0.8435362095413121 0.7225417900715397 0.2774582099284604 0.2887285884392086 0.7112714115607914 0.3298042193666592 0.6701957806333408 0.7239244171176075 0.2760755828823925 0.23097262564198814 0.7690273743580118 0.5662493339849644 0.43375066601503565 0.6179971205377096 0.3820028794622903 0.610685738612129 0.38931426138787095 0.5698350675917746 0.43016493240822545 0.7721848194682362 0.22781518053176372 0.6915508098409391 0.30844919015906097 0.06587928721860334 0.9341207127813966 0.49387628270280437 0.5061237172971956 0.3133545023568196 0.6866454976431804 0.7868297130278586 0.21317028697214135 0.13774274529234123 0.8622572547076588 0.10753469980797258 0.8924653001920274 0.5895995738725103 0.41040042612748967 0.540910258164641 0.4590897418353589 0.1473045799385168 0.8526954200614832 0.3468570715133794 0.6531429284866205 0.6216535867543598 0.3783464132456403 0.40379416777588956 0.5962058322241104 0.45249568194307455 0.5475043180569255 0.48887609757206935 0.5111239024279306 0.3597191611614156 0.6402808388385843 0.010152891645373236 0.9898471083546267 0.4830941097021471 0.5169058902978528 0.9559184030614784 0.044081596938521615 0.246036365467995 0.753963634532005 0.6790152482177723 0.32098475178222763 0.3653231299572371 0.634676870042763 0.4654141833561953 0.5345858166438048 0.7962400518256889 0.20375994817431106 0.5300387014482728 0.469961298551727 0.4249848618229279 0.575015138177072 0.9617909238999838 0.03820907610001618 0.23592388867208514 0.7640761113279148 0.46168304278090305 0.538316957219097 0.4420544599627589 0.5579455400372412 0.8817312622447561 0.1182687377552438 0.05380331098358384 0.9461966890164162 </TABLE>
    </DEFINITION>
    <DEFINITION>
      <FOR>9</FOR>
      <GIVEN>0</GIVEN>
      <GIVEN>5</GIVEN>
      <GIVEN>6</GIVEN>
      <GIVEN>7</GIVEN>
      <TABLE>0.5533433769118806 0.4466566230881193 0.859140981691514 0.14085901830848613 0.464349735240656 0.535650264759344 0.042983862720106215 0.9570161372798938 0.30054016945959117 0.6994598305404088 0.4481372080203052 0.5518627919796948 0.41303525627850474 0.5869647437214952 0.7880223039531548 0.2119776960468453 0.9164504811648908 0.08354951883510914 0.7066003079961425 0.29339969200385757 0.5631574530540121 0.43684254694598784 0.3030223488502473 0.6969776511497527 0.45125564830736986 0.5487443516926301 0.6230569239719379 0.3769430760280622 0.45682040575658783 0.5431795942434121 0.5740245913067556 0.4259754086932444 </TABLE>
    </DEFINITION>
  </NETWORK>
</BIF>
