<?xml version='1.0' encoding='utf-8'?>
<BIF VERSION="0.3">
  <NETWORK>
    <NAME>UNTITLED</NAME>
    <VARIABLE TYPE="nature">
      <NAME>0</NAME>
      <OUTCOME>0</OUTCOME>
      <OUTCOME>1</OUTCOME>
      <PROPERTY>weight = None</PROPERTY>
    </VARIABLE>
    <VARIABLE TYPE="nature">
      <NAME>1</NAME>
      <OUTCOME>0</OUTCOME>
      <OUTCOME>1</OUTCOME>
      <PROPERTY>weight = None</PROPERTY>
    </VARIABLE>
    <VARIABLE TYPE="nature">
      <NAME>10</NAME>
      <OUTCOME>0</OUTCOME>
      <OUTCOME>1</OUTCOME>
      <PROPERTY>weight = None</PROPERTY>
    </VARIABLE>
    <VARIABLE TYPE="nature">
      <NAME>2</NAME>
      <OUTCOME>0</OUTCOME>
      <OUTCOME>1</OUTCOME>
      <PROPERTY>weight = None</PROPERTY>
    </VARIABLE>
    <VARIABLE TYPE="nature">
      <NAME>3</NAME>
      <OUTCOME>0</OUTCOME>
      <OUTCOME>1</OUTCOME>
      <PROPERTY>weight = None</PROPERTY>
    </VARIABLE>
    <VARIABLE TYPE="nature">
      <NAME>4</NAME>
      <OUTCOME>0</OUTCOME>
      <OUTCOME>1</OUTCOME>
      <PROPERTY>weight = None</PROPERTY>
    </VARIABLE>
    <VARIABLE TYPE="nature">
      <NAME>5</NAME>
      <OUTCOME>0</OUTCOME>
      <OUTCOME>1</OUTCOME>
      <PROPERTY>weight = None</PROPERTY>
    </VARIABLE>
    <VARIABLE TYPE="nature">
      <NAME>6</NAME>
      <OUTCOME>0</OUTCOME>
      <OUTCOME>1</OUTCOME>
      <PROPERTY>weight = None</PROPERTY>
    </VARIABLE>
    <VARIABLE TYPE="nature">
      <NAME>7</NAME>
      <OUTCOME>0</OUTCOME>
      <OUTCOME>1</OUTCOME>
      <PROPERTY>weight = None</PROPERTY>
    </VARIABLE>
    <VARIABLE TYPE="nature">
      <NAME>8</NAME>
      <OUTCOME>0</OUTCOME>
      <OUTCOME>1</OUTCOME>
      <PROPERTY>weight = None</PROPERTY>
    </VARIABLE>
    <VARIABLE TYPE="nature">
      <NAME>9</NAME>
      <OUTCOME>0</OUTCOME>
      <OUTCOME>1</OUTCOME>
      <PROPERTY>weight = None</PROPERTY>
    </VARIABLE>
    <DEFINITION>
      <FOR>0</FOR>
      <TABLE>0.7316669158132183 0.2683330841867816 </TABLE>
    </DEFINITION>
    <DEFINITION>
      <FOR>1</FOR>
      <GIVEN>0</GIVEN>
      <TABLE>0.9480666675347128 0.051933332465287196 0.4894298014116754 0.5105701985883245 </TABLE>
    </DEFINITION>
    <DEFINITION>
      <FOR>10</FOR>
      <GIVEN>0</GIVEN>
      <GIVEN>7</GIVEN>
      <TABLE>0.5002079284702053 0.4997920715297947 0.2136478289617323 0.7863521710382677 0.18006296405146077 0.8199370359485393 0.26292487128112374 0.7370751287188763 </TABLE>
    </DEFINITION>
    <DEFINITION>
      <FOR>2</FOR>
      <GIVEN>0</GIVEN>
      <GIVEN>1</GIVEN>
      <TABLE>0.8811479518094245 0.11885204819057564 0.6624226035290485 0.3375773964709516 0.33405279547624006 0.66594720452376 0.6633122707496986 0.3366877292503014 </TABLE>
    </DEFINITION>
    <DEFINITION>
      <FOR>3</FOR>
      <GIVEN>1</GIVEN>
      <GIVEN>2</GIVEN>
      <TABLE>0.8173689017354978 0.18263109826450225 0.7202228944032851 0.27977710559671476 0.41260859741155703 0.587391402588443 0.3455237163873332 0.6544762836126669 </TABLE>
    </DEFINITION>
    <DEFINITION>
      <FOR>4</FOR>
      <GIVEN>0</GIVEN>
      <GIVEN>2</GIVEN>
      <TABLE>0.3828433979837887 0.6171566020162114 0.5932114259429208 0.40678857405707924 0.49770262289645406 0.5022973771035458 0.18908818961031085 0.8109118103896892 </TABLE>
    </DEFINITION>
    <DEFINITION>
      <FOR>5</FOR>
      <GIVEN>0</GIVEN>
      <GIVEN>1</GIVEN>
      <GIVEN>4</GIVEN>
      <TABLE>0.29973829796142637 0.7002617020385735 0.7782448468311546 0.22175515316884536 0.30044568570238206 0.6995543142976179 0.40511274515115614 0.5948872548488437 0.685127120622199 0.31487287937780106 0.4954982442322918 0.5045017557677082 0.638749275046581 0.36125072495341903 0.6633783648038939 0.33662163519610616 </TABLE>
    </DEFINITION>
    <DEFINITION>
      <FOR>6</FOR>
      <GIVEN>0</GIVEN>
      <GIVEN>1</GIVEN>
      <GIVEN>5</GIVEN>
      <TABLE>0.33483383976837194 0.665166160231628 0.5880111380099852 0.41198886199001483 0.7699213523328181 0.23007864766718186 0.09087133733061964 0.9091286626693803 0.6104444479893304 0.38955555201066966 0.4701878705464286 0.5298121294535715 0.10907334922947513 0.8909266507705249 0.7394773343161567 0.2605226656838433 </TABLE>
    </DEFINITION>
    <DEFINITION>
      <FOR>7</FOR>
      <GIVEN>0</GIVEN>
      <GIVEN>4</GIVEN>
      <GIVEN>6</GIVEN>
      <GIVEN>3</GIVEN>
      <TABLE>0.47581561113074206 0.524184388869258 0.7388248633025943 0.2611751366974058 0.37461750968896707 0.6253824903110329 0.8405663921306998 0.1594336078693002 0.4656687664804135 0.5343312335195864 0.16921907213054527 0.8307809278694548 0.5459629124939702 0.4540370875060297 0.45826739690613705 0.5417326030938628 0.6780195285201618 0.3219804714798382 0.5303196951589348 0.4696803048410652 0.4915719695902131 0.5084280304097869 0.8815387932743114 0.11846120672568858 0.6380307545547206 0.3619692454452794 0.3419232643012169 0.6580767356987831 0.6291188235615246 0.37088117643847535 0.7320953439788302 0.26790465602116975 </TABLE>
    </DEFINITION>
    <DEFINITION>
      <FOR>8</FOR>
      <GIVEN>1</GIVEN>
      <GIVEN>4</GIVEN>
      <GIVEN>5</GIVEN>
      <GIVEN>7</GIVEN>
      <GIVEN>3</GIVEN>
      <TABLE>0.2513688084177085 0.7486311915822914 0.282229670081938 0.7177703299180619 0.44727868500806095 0.5527213149919391 0.1490014496325487 0.8509985503674513 0.4893646577307777 0.5106353422692222 0.24802039749478733 0.7519796025052126 0.5492205206840497 0.45077947931595036 0.6274820274635476 0.37251797253645236 0.4339134933243955 0.5660865066756043 0.6314812479076746 0.36851875209232543 0.8070684919617738 0.1929315080382261 0.561095756845254 0.4389042431547459 0.4488193731954473 0.5511806268045527 0.20633043438914822 0.7936695656108518 0.023862869280555428 0.9761371307194445 0.3664410087677587 0.6335589912322412 0.6976679839001935 0.30233201609980653 0.7209716925353705 0.2790283074646296 0.6132202837920439 0.3867797162079561 0.025848208577319138 0.9741517914226808 0.3234630692658414 0.6765369307341587 0.25713245277671853 0.7428675472232815 0.4562861461490265 0.5437138538509735 0.6033739189365969 0.3966260810634031 0.15990544771972048 0.8400945522802796 0.9334914434325671 0.06650855656743287 0.5582685859245494 0.4417314140754506 0.5631639803753322 0.4368360196246679 0.7147722754480625 0.2852277245519375 0.3273666015755527 0.6726333984244472 0.6200690878677165 0.37993091213228336 0.4709521130547201 0.5290478869452799 </TABLE>
    </DEFINITION>
    <DEFINITION>
      <FOR>9</FOR>
      <GIVEN>0</GIVEN>
      <GIVEN>1</GIVEN>
      <GIVEN>5</GIVEN>
      <GIVEN>7</GIVEN>
      <GIVEN>8</GIVEN>
      <TABLE>0.5693790924885301 0.4306209075114698 0.42984408465922547 0.5701559153407745 0.6557041026927164 0.3442958973072837 0.9205043716788961 0.07949562832110386 0.4870302121637316 0.5129697878362683 0.5709997149264434 0.4290002850735566 0.5019016727253063 0.4980983272746938 0.723687425548499 0.2763125744515011 0.4832463795800499 0.5167536204199501 0.4071376441735738 0.5928623558264262 0.3438116978193241 0.6561883021806759 0.5281913373566062 0.4718086626433939 0.8475120985398092 0.1524879014601908 0.487859103000806 0.5121408969991941 0.5202580824820279 0.47974191751797207 0.09336697843013744 0.9066330215698626 0.38903705508145714 0.6109629449185429 0.7860609734741013 0.21393902652589866 0.6531091018108593 0.34689089818914065 0.22692861802566186 0.773071381974338 0.28088363289069024 0.7191163671093098 0.5975966444481711 0.4024033555518289 0.5461085273152103 0.45389147268478974 0.594068765470498 0.40593123452950197 0.42050269586066913 0.5794973041393309 0.5088961189763505 0.49110388102364955 0.038266805819757437 0.9617331941802426 0.7398051499342175 0.26019485006578247 0.15997166921449366 0.8400283307855063 0.5102669326456521 0.48973306735434774 0.5940625239586954 0.4059374760413046 0.563714142429361 0.43628585757063904 </TABLE>
    </DEFINITION>
  </NETWORK>
</BIF>
