<?xml version='1.0' encoding='utf-8'?>
<BIF VERSION="0.3">
  <NETWORK>
    <NAME>UNTITLED</NAME>
    <VARIABLE TYPE="nature">
      <NAME>0</NAME>
      <OUTCOME>0</OUTCOME>
      <OUTCOME>1</OUTCOME>
      <PROPERTY>weight = None</PROPERTY>
    </VARIABLE>
    <VARIABLE TYPE="nature">
      <NAME>1</NAME>
      <OUTCOME>0</OUTCOME>
      <OUTCOME>1</OUTCOME>
      <PROPERTY>weight = None</PROPERTY>
    </VARIABLE>
    <VARIABLE TYPE="nature">
      <NAME>10</NAME>
      <OUTCOME>0</OUTCOME>
      <OUTCOME>1</OUTCOME>
      <PROPERTY>weight = None</PROPERTY>
    </VARIABLE>
    <VARIABLE TYPE="nature">
      <NAME>2</NAME>
      <OUTCOME>0</OUTCOME>
      <OUTCOME>1</OUTCOME>
      <PROPERTY>weight = None</PROPERTY>
    </VARIABLE>
    <VARIABLE TYPE="nature">
      <NAME>3</NAME>
      <OUTCOME>0</OUTCOME>
      <OUTCOME>1</OUTCOME>
      <PROPERTY>weight = None</PROPERTY>
    </VARIABLE>
    <VARIABLE TYPE="nature">
      <NAME>4</NAME>
      <OUTCOME>0</OUTCOME>
      <OUTCOME>1</OUTCOME>
      <PROPERTY>weight = None</PROPERTY>
    </VARIABLE>
    <VARIABLE TYPE="nature">
      <NAME>5</NAME>
      <OUTCOME>0</OUTCOME>
      <OUTCOME>1</OUTCOME>
      <PROPERTY>weight = None</PROPERTY>
    </VARIABLE>
    <VARIABLE TYPE="nature">
      <NAME>6</NAME>
      <OUTCOME>0</OUTCOME>
      <OUTCOME>1</OUTCOME>
      <PROPERTY>weight = None</PROPERTY>
    </VARIABLE>
    <VARIABLE TYPE="nature">
      <NAME>7</NAME>
      <OUTCOME>0</OUTCOME>
      <OUTCOME>1</OUTCOME>
      <PROPERTY>weight = None</PROPERTY>
    </VARIABLE>
    <VARIABLE TYPE="nature">
      <NAME>8</NAME>
      <OUTCOME>0</OUTCOME>
      <OUTCOME>1</OUTCOME>
      <PROPERTY>weight = None</PROPERTY>
    </VARIABLE>
    <VARIABLE TYPE="nature">
      <NAME>9</NAME>
      <OUTCOME>0</OUTCOME>
      <OUTCOME>1</OUTCOME>
      <PROPERTY>weight = None</PROPERTY>
    </VARIABLE>
    <DEFINITION>
      <FOR>0</FOR>
      <TABLE>0.6729624308256349 0.327037569174365 </TABLE>
    </DEFINITION>
    <DEFINITION>
      <FOR>1</FOR>
      <TABLE>0.5917496431594417 0.4082503568405583 </TABLE>
    </DEFINITION>
    <DEFINITION>
      <FOR>10</FOR>
      <GIVEN>0</GIVEN>
      <GIVEN>4</GIVEN>
      <GIVEN>3</GIVEN>
      <GIVEN>6</GIVEN>
      <GIVEN>7</GIVEN>
      <TABLE>0.5004879222060189 0.49951207779398116 0.12202466158321155 0.8779753384167884 0.40929475093372264 0.5907052490662774 0.04792209658048625 0.9520779034195137 0.8814315889590937 0.11856841104090626 0.8464970044876293 0.15350299551237065 0.006630052913342442 0.9933699470866576 0.7928281653922509 0.20717183460774918 0.5063424601510598 0.4936575398489403 0.7931992105086274 0.2068007894913725 0.43423173891974326 0.5657682610802568 0.45159205545221653 0.5484079445477835 0.23542765994888112 0.7645723400511188 0.030890748322212558 0.9691092516777875 0.4456334751572112 0.5543665248427888 0.7729778643727913 0.22702213562720877 0.6055884296426414 0.3944115703573586 0.49169299790956905 0.5083070020904309 0.4116475399486082 0.5883524600513919 0.49829550345972023 0.5017044965402798 0.664813393770179 0.335186606229821 0.3344013702012338 0.6655986297987662 0.7564479296327807 0.2435520703672192 0.06840470321463794 0.931595296785362 0.09953028629010556 0.9004697137098945 0.45712975681112267 0.5428702431888773 0.5434903551509324 0.4565096448490676 0.5669128960138665 0.4330871039861335 0.6416240235480324 0.3583759764519676 0.0016954042877060076 0.998304595712294 0.0805579097261535 0.9194420902738465 0.3656064711180579 0.6343935288819421 </TABLE>
    </DEFINITION>
    <DEFINITION>
      <FOR>2</FOR>
      <TABLE>0.6574352935952422 0.34256470640475783 </TABLE>
    </DEFINITION>
    <DEFINITION>
      <FOR>3</FOR>
      <GIVEN>1</GIVEN>
      <TABLE>0.8442321742724002 0.15576782572759984 0.2068168039630496 0.7931831960369504 </TABLE>
    </DEFINITION>
    <DEFINITION>
      <FOR>4</FOR>
      <GIVEN>0</GIVEN>
      <GIVEN>1</GIVEN>
      <GIVEN>2</GIVEN>
      <TABLE>0.8838985893481945 0.11610141065180545 0.41668967029413784 0.5833103297058622 0.683211583877282 0.3167884161227181 0.6487323216684762 0.3512676783315238 0.8385863198175015 0.16141368018249833 0.8337266077249258 0.16627339227507418 0.8808881314318777 0.11911186856812224 0.9644005005863293 0.035599499413670695 </TABLE>
    </DEFINITION>
    <DEFINITION>
      <FOR>5</FOR>
      <GIVEN>0</GIVEN>
      <GIVEN>4</GIVEN>
      <GIVEN>3</GIVEN>
      <TABLE>0.33535323152863267 0.6646467684713673 0.5447150402456383 0.45528495975436173 0.6502009145562712 0.3497990854437289 0.12159160054874715 0.8784083994512528 0.5721692393204806 0.4278307606795194 0.4939345331952876 0.5060654668047124 0.35293952290035646 0.6470604770996434 0.15715144916649598 0.842848550833504 </TABLE>
    </DEFINITION>
    <DEFINITION>
      <FOR>6</FOR>
      <GIVEN>1</GIVEN>
      <GIVEN>2</GIVEN>
      <TABLE>0.7792566762401579 0.22074332375984212 0.598425763289718 0.401574236710282 0.7768078190164369 0.223192180983563 0.12299513936885605 0.877004860631144 </TABLE>
    </DEFINITION>
    <DEFINITION>
      <FOR>7</FOR>
      <GIVEN>4</GIVEN>
      <GIVEN>5</GIVEN>
      <GIVEN>2</GIVEN>
      <TABLE>0.7005541649495219 0.29944583505047806 0.1000519116934384 0.8999480883065616 0.1625193301350963 0.8374806698649037 0.6654191179499055 0.33458088205009445 0.781174590962291 0.21882540903770895 0.90670151588012 0.09329848411987998 0.3664929353245245 0.6335070646754756 0.3488446699161717 0.6511553300838284 </TABLE>
    </DEFINITION>
    <DEFINITION>
      <FOR>8</FOR>
      <GIVEN>5</GIVEN>
      <GIVEN>6</GIVEN>
      <GIVEN>2</GIVEN>
      <GIVEN>7</GIVEN>
      <TABLE>0.5058977384726733 0.49410226152732667 0.27688796822849143 0.7231120317715085 0.364162203208146 0.635837796791854 0.5963470200370247 0.40365297996297533 0.652553995770918 0.34744600422908195 0.5576350002092518 0.44236499979074817 0.529777385343174 0.47022261465682613 0.9279045582231081 0.07209544177689182 0.5122474924174489 0.48775250758255123 0.885587468640216 0.11441253135978398 0.2595957388370122 0.7404042611629877 0.4015556179761241 0.5984443820238758 0.8305778655951103 0.16942213440488968 0.39144197589067964 0.6085580241093205 0.3959661058907869 0.604033894109213 0.3858825985818032 0.6141174014181968 </TABLE>
    </DEFINITION>
    <DEFINITION>
      <FOR>9</FOR>
      <GIVEN>1</GIVEN>
      <GIVEN>2</GIVEN>
      <GIVEN>7</GIVEN>
      <TABLE>0.8465689071830184 0.1534310928169816 0.4194282987049495 0.5805717012950505 0.35877177711871333 0.6412282228812867 0.4758444698477059 0.524155530152294 0.14775369827988574 0.8522463017201143 0.2031825918805645 0.7968174081194355 0.6096935724206233 0.39030642757937667 0.5282708873571427 0.47172911264285744 </TABLE>
    </DEFINITION>
  </NETWORK>
</BIF>
