<?xml version='1.0' encoding='utf-8'?>
<BIF VERSION="0.3">
  <NETWORK>
    <NAME>UNTITLED</NAME>
    <VARIABLE TYPE="nature">
      <NAME>0</NAME>
      <OUTCOME>0</OUTCOME>
      <OUTCOME>1</OUTCOME>
      <PROPERTY>weight = None</PROPERTY>
    </VARIABLE>
    <VARIABLE TYPE="nature">
      <NAME>1</NAME>
      <OUTCOME>0</OUTCOME>
      <OUTCOME>1</OUTCOME>
      <PROPERTY>weight = None</PROPERTY>
    </VARIABLE>
    <VARIABLE TYPE="nature">
      <NAME>10</NAME>
      <OUTCOME>0</OUTCOME>
      <OUTCOME>1</OUTCOME>
      <PROPERTY>weight = None</PROPERTY>
    </VARIABLE>
    <VARIABLE TYPE="nature">
      <NAME>2</NAME>
      <OUTCOME>0</OUTCOME>
      <OUTCOME>1</OUTCOME>
      <PROPERTY>weight = None</PROPERTY>
    </VARIABLE>
    <VARIABLE TYPE="nature">
      <NAME>3</NAME>
      <OUTCOME>0</OUTCOME>
      <OUTCOME>1</OUTCOME>
      <PROPERTY>weight = None</PROPERTY>
    </VARIABLE>
    <VARIABLE TYPE="nature">
      <NAME>4</NAME>
      <OUTCOME>0</OUTCOME>
      <OUTCOME>1</OUTCOME>
      <PROPERTY>weight = None</PROPERTY>
    </VARIABLE>
    <VARIABLE TYPE="nature">
      <NAME>5</NAME>
      <OUTCOME>0</OUTCOME>
      <OUTCOME>1</OUTCOME>
      <PROPERTY>weight = None</PROPERTY>
    </VARIABLE>
    <VARIABLE TYPE="nature">
      <NAME>6</NAME>
      <OUTCOME>0</OUTCOME>
      <OUTCOME>1</OUTCOME>
      <PROPERTY>weight = None</PROPERTY>
    </VARIABLE>
    <VARIABLE TYPE="nature">
      <NAME>7</NAME>
      <OUTCOME>0</OUTCOME>
      <OUTCOME>1</OUTCOME>
      <PROPERTY>weight = None</PROPERTY>
    </VARIABLE>
    <VARIABLE TYPE="nature">
      <NAME>8</NAME>
      <OUTCOME>0</OUTCOME>
      <OUTCOME>1</OUTCOME>
      <PROPERTY>weight = None</PROPERTY>
    </VARIABLE>
    <VARIABLE TYPE="nature">
      <NAME>9</NAME>
      <OUTCOME>0</OUTCOME>
      <OUTCOME>1</OUTCOME>
      <PROPERTY>weight = None</PROPERTY>
    </VARIABLE>
    <DEFINITION>
      <FOR>0</FOR>
      <TABLE>0.4677199060685146 0.5322800939314855 </TABLE>
    </DEFINITION>
    <DEFINITION>
      <FOR>1</FOR>
      <TABLE>0.22069472763547704 0.7793052723645231 </TABLE>
    </DEFINITION>
    <DEFINITION>
      <FOR>10</FOR>
      <GIVEN>8</GIVEN>
      <TABLE>0.49184983839111507 0.5081501616088848 0.4637087998316717 0.5362912001683282 </TABLE>
    </DEFINITION>
    <DEFINITION>
      <FOR>2</FOR>
      <GIVEN>0</GIVEN>
      <TABLE>0.5595682163445335 0.44043178365546654 0.4440183385608669 0.5559816614391331 </TABLE>
    </DEFINITION>
    <DEFINITION>
      <FOR>3</FOR>
      <GIVEN>2</GIVEN>
      <GIVEN>1</GIVEN>
      <TABLE>0.7896171927779099 0.21038280722209013 0.6659888154270639 0.334011184572936 0.5348866989247663 0.4651133010752337 0.5654655016890542 0.43453449831094587 </TABLE>
    </DEFINITION>
    <DEFINITION>
      <FOR>4</FOR>
      <GIVEN>0</GIVEN>
      <GIVEN>2</GIVEN>
      <TABLE>0.41328172834443727 0.5867182716555627 0.3935145193213126 0.6064854806786873 0.6958937252116201 0.30410627478838 0.3022575035682327 0.6977424964317674 </TABLE>
    </DEFINITION>
    <DEFINITION>
      <FOR>5</FOR>
      <GIVEN>2</GIVEN>
      <GIVEN>3</GIVEN>
      <TABLE>0.17814265907847412 0.8218573409215258 0.1142071660294415 0.8857928339705585 0.534155034317809 0.46584496568219097 0.26389003873418865 0.7361099612658113 </TABLE>
    </DEFINITION>
    <DEFINITION>
      <FOR>6</FOR>
      <GIVEN>0</GIVEN>
      <GIVEN>2</GIVEN>
      <GIVEN>3</GIVEN>
      <TABLE>0.7525137545372405 0.24748624546275957 0.8327478314570417 0.16725216854295832 0.5460157817190024 0.4539842182809976 0.6582467702007269 0.34175322979927303 0.5113463218429927 0.48865367815700744 0.16154818165117868 0.8384518183488212 0.03743461778522234 0.9625653822147776 0.9203375118265841 0.07966248817341595 </TABLE>
    </DEFINITION>
    <DEFINITION>
      <FOR>7</FOR>
      <GIVEN>1</GIVEN>
      <GIVEN>3</GIVEN>
      <GIVEN>5</GIVEN>
      <TABLE>0.5350187112664415 0.46498128873355843 0.8753077733965855 0.12469222660341452 0.8182186244854016 0.18178137551459836 0.6578823035009571 0.34211769649904283 0.8403498067642589 0.15965019323574117 0.565700424484582 0.434299575515418 0.5552730398661792 0.44472696013382085 0.6533343987782892 0.34666560122171075 </TABLE>
    </DEFINITION>
    <DEFINITION>
      <FOR>8</FOR>
      <GIVEN>0</GIVEN>
      <GIVEN>6</GIVEN>
      <GIVEN>1</GIVEN>
      <GIVEN>3</GIVEN>
      <GIVEN>7</GIVEN>
      <TABLE>0.3559356540388898 0.6440643459611102 0.48392081027048756 0.5160791897295125 0.9151192206454788 0.08488077935452121 0.15895592649278 0.84104407350722 0.4241165397269205 0.5758834602730796 0.3148586927806099 0.68514130721939 0.48093689331081374 0.5190631066891862 0.2025990063219099 0.79740099367809 0.35690100940678293 0.643098990593217 0.19128939744800527 0.8087106025519948 0.4349329870176492 0.5650670129823508 0.33330866099607365 0.6666913390039263 0.5955579508431531 0.40444204915684684 0.19735043089904514 0.8026495691009549 0.49955280807948754 0.5004471919205125 0.46790734447444626 0.5320926555255537 0.45070259219611253 0.5492974078038875 0.4781451669470124 0.5218548330529876 0.5047497166747866 0.4952502833252133 0.6665326741563701 0.3334673258436299 0.4826454697576594 0.5173545302423407 0.0891716715240118 0.9108283284759883 0.906998571370929 0.09300142862907104 0.9108095093572853 0.08919049064271475 0.40739874916049895 0.592601250839501 0.32143364458491597 0.6785663554150839 0.17112953742396722 0.8288704625760328 0.5455768588418048 0.4544231411581952 0.26609138136522104 0.733908618634779 0.8273415474073226 0.17265845259267742 0.41475380640184073 0.5852461935981592 0.15578027538162073 0.8442197246183792 </TABLE>
    </DEFINITION>
    <DEFINITION>
      <FOR>9</FOR>
      <GIVEN>4</GIVEN>
      <GIVEN>3</GIVEN>
      <TABLE>0.5516448012403256 0.4483551987596744 0.49346527725930905 0.5065347227406909 0.2148316455956789 0.7851683544043211 0.8747679748465523 0.1252320251534477 </TABLE>
    </DEFINITION>
  </NETWORK>
</BIF>
