<?xml version='1.0' encoding='utf-8'?>
<BIF VERSION="0.3">
  <NETWORK>
    <NAME>UNTITLED</NAME>
    <VARIABLE TYPE="nature">
      <NAME>0</NAME>
      <OUTCOME>0</OUTCOME>
      <OUTCOME>1</OUTCOME>
      <PROPERTY>weight = None</PROPERTY>
    </VARIABLE>
    <VARIABLE TYPE="nature">
      <NAME>1</NAME>
      <OUTCOME>0</OUTCOME>
      <OUTCOME>1</OUTCOME>
      <PROPERTY>weight = None</PROPERTY>
    </VARIABLE>
    <VARIABLE TYPE="nature">
      <NAME>10</NAME>
      <OUTCOME>0</OUTCOME>
      <OUTCOME>1</OUTCOME>
      <PROPERTY>weight = None</PROPERTY>
    </VARIABLE>
    <VARIABLE TYPE="nature">
      <NAME>2</NAME>
      <OUTCOME>0</OUTCOME>
      <OUTCOME>1</OUTCOME>
      <PROPERTY>weight = None</PROPERTY>
    </VARIABLE>
    <VARIABLE TYPE="nature">
      <NAME>3</NAME>
      <OUTCOME>0</OUTCOME>
      <OUTCOME>1</OUTCOME>
      <PROPERTY>weight = None</PROPERTY>
    </VARIABLE>
    <VARIABLE TYPE="nature">
      <NAME>4</NAME>
      <OUTCOME>0</OUTCOME>
      <OUTCOME>1</OUTCOME>
      <PROPERTY>weight = None</PROPERTY>
    </VARIABLE>
    <VARIABLE TYPE="nature">
      <NAME>5</NAME>
      <OUTCOME>0</OUTCOME>
      <OUTCOME>1</OUTCOME>
      <PROPERTY>weight = None</PROPERTY>
    </VARIABLE>
    <VARIABLE TYPE="nature">
      <NAME>6</NAME>
      <OUTCOME>0</OUTCOME>
      <OUTCOME>1</OUTCOME>
      <PROPERTY>weight = None</PROPERTY>
    </VARIABLE>
    <VARIABLE TYPE="nature">
      <NAME>7</NAME>
      <OUTCOME>0</OUTCOME>
      <OUTCOME>1</OUTCOME>
      <PROPERTY>weight = None</PROPERTY>
    </VARIABLE>
    <VARIABLE TYPE="nature">
      <NAME>8</NAME>
      <OUTCOME>0</OUTCOME>
      <OUTCOME>1</OUTCOME>
      <PROPERTY>weight = None</PROPERTY>
    </VARIABLE>
    <VARIABLE TYPE="nature">
      <NAME>9</NAME>
      <OUTCOME>0</OUTCOME>
      <OUTCOME>1</OUTCOME>
      <PROPERTY>weight = None</PROPERTY>
    </VARIABLE>
    <DEFINITION>
      <FOR>0</FOR>
      <TABLE>0.4855368617253614 0.5144631382746385 </TABLE>
    </DEFINITION>
    <DEFINITION>
      <FOR>1</FOR>
      <GIVEN>0</GIVEN>
      <TABLE>0.06784206213409606 0.932157937865904 0.49913247616707107 0.500867523832929 </TABLE>
    </DEFINITION>
    <DEFINITION>
      <FOR>10</FOR>
      <GIVEN>0</GIVEN>
      <GIVEN>1</GIVEN>
      <GIVEN>2</GIVEN>
      <GIVEN>3</GIVEN>
      <GIVEN>6</GIVEN>
      <GIVEN>8</GIVEN>
      <GIVEN>9</GIVEN>
      <GIVEN>7</GIVEN>
      <TABLE>0.3319528601171594 0.6680471398828407 0.5420833549939662 0.45791664500603374 0.696047821191236 0.303952178808764 0.8467974836194975 0.15320251638050256 0.7496824622676995 0.25031753773230037 0.8059084750226907 0.19409152497730936 0.48206148952235156 0.5179385104776485 0.5718204901077809 0.42817950989221915 0.9741495120348455 0.025850487965154576 0.03703216775079441 0.9629678322492056 0.7945840288828036 0.2054159711171964 0.5660468058931222 0.4339531941068778 0.5343866332539042 0.46561336674609577 0.5396557724760166 0.46034422752398346 0.7645089227094538 0.2354910772905462 0.19710184001743922 0.8028981599825608 0.4677282274718569 0.5322717725281432 0.2989207681459238 0.7010792318540762 0.15280885397186947 0.8471911460281305 0.3038104670328792 0.6961895329671207 0.4247770486786583 0.5752229513213418 0.5239701105660437 0.4760298894339563 0.5012362300286608 0.4987637699713393 0.22347842960031516 0.7765215703996848 0.6571590471919541 0.3428409528080458 0.5507256302340082 0.4492743697659918 0.5637622530845207 0.4362377469154793 0.3810969796090525 0.6189030203909475 0.20214887574252513 0.797851124257475 0.11932836483249437 0.8806716351675057 0.40123576442932984 0.5987642355706702 0.09237502547469482 0.9076249745253052 0.36676124188655396 0.6332387581134461 0.5685831222545027 0.43141687774549725 0.7646554184098444 0.23534458159015562 0.9819382083173108 0.01806179168268916 0.5020413841265002 0.4979586158734999 0.7409395459801514 0.2590604540198485 0.5920053452605889 0.4079946547394111 0.5702637721428777 0.4297362278571223 0.467811599452771 0.532188400547229 0.08731044745933775 0.9126895525406623 0.4259225154747537 0.5740774845252463 0.7807667733767611 0.21923322662323882 0.049332838744105836 0.9506671612558941 0.46198917007502693 0.5380108299249732 0.812809752057325 0.18719024794267508 0.5059579197513198 0.4940420802486801 0.4006805743141956 0.5993194256858043 0.5092777325549834 0.4907222674450167 0.5709532317006687 0.4290467682993313 0.7279621139265203 0.2720378860734797 0.7024479616861716 0.29755203831382854 0.6533159168391275 0.3466840831608726 0.31115467548077713 0.6888453245192229 0.4482260440504138 0.5517739559495862 0.43917052485869024 0.5608294751413098 0.5002759160785093 0.4997240839214907 0.1782941080751711 0.8217058919248289 0.27495166642007085 0.7250483335799291 0.7050488735831772 0.2949511264168228 0.9145973982212879 0.085402601778712 0.7130544789690719 0.28694552103092813 0.6135950677142399 0.3864049322857601 0.5309977446796409 0.4690022553203591 0.7133757700629556 0.2866242299370445 0.3239498369488596 0.6760501630511403 0.32797697447300567 0.6720230255269944 0.6948640209684226 0.30513597903157746 0.47444661938700916 0.5255533806129908 0.44290116621141723 0.5570988337885828 0.6028994783430449 0.3971005216569551 0.36351884009562074 0.6364811599043793 0.5439280971363061 0.4560719028636939 0.6297871724821077 0.37021282751789236 0.4963907759786452 0.5036092240213548 0.5108341962621811 0.4891658037378189 0.5672575349544506 0.4327424650455493 0.5258819362630268 0.4741180637369732 0.6049407102533861 0.3950592897466139 0.958069918330032 0.041930081669968006 0.365542515386385 0.634457484613615 0.8821351628359658 0.11786483716403413 0.39661389180187673 0.6033861081981233 0.5158062837100769 0.4841937162899232 0.4102169276103575 0.5897830723896424 0.480809560593222 0.5191904394067781 0.08832508157413413 0.9116749184258659 0.9113753223174167 0.08862467768258336 0.5092393102210195 0.49076068977898046 0.20349970432196565 0.7965002956780344 0.5103052097075734 0.48969479029242663 0.675119342841751 0.324880657158249 0.5757260527363266 0.42427394726367323 0.4774584119306604 0.5225415880693396 0.3904795651565643 0.6095204348434357 0.5003287834361355 0.49967121656386454 0.48256431230360236 0.5174356876963976 0.38529407635640917 0.6147059236435909 0.39454765106958134 0.6054523489304187 0.5760182464813278 0.42398175351867207 0.5821094087701257 0.41789059122987426 0.9681105253362845 0.03188947466371551 0.612944015693509 0.38705598430649096 0.5454747675486096 0.4545252324513905 0.9049175416314232 0.09508245836857677 0.5615715877576656 0.4384284122423345 0.37638834685849953 0.6236116531415006 0.05486094126528818 0.9451390587347118 0.25993134919063604 0.7400686508093639 0.1396544382692526 0.8603455617307474 0.8852699043057936 0.1147300956942065 0.4221233181879164 0.5778766818120837 0.4310729896937847 0.5689270103062153 0.6577049764117318 0.3422950235882682 0.47989676164701245 0.5201032383529876 0.6162168675301117 0.3837831324698883 0.4431664970390955 0.5568335029609045 0.8328109612775326 0.1671890387224673 0.525667928561357 0.474332071438643 0.5669573012601952 0.43304269873980483 0.3649211137662152 0.6350788862337847 0.5319257176475651 0.46807428235243487 0.010195375144233836 0.9898046248557661 0.9120392339610476 0.0879607660389523 0.4828949860969469 0.5171050139030531 0.6470870690842362 0.3529129309157638 0.41869808871812453 0.5813019112818756 0.18960748867380095 0.810392511326199 0.5118111288961126 0.48818887110388737 0.34604350093807845 0.6539564990619214 0.47447281220898546 0.5255271877910146 0.45251284272043296 0.547487157279567 0.1833158257185797 0.8166841742814203 0.8314065784725656 0.16859342152743442 0.3668017608467515 0.6331982391532485 0.8568365814804005 0.14316341851959943 0.6960003502276954 0.30399964977230465 0.3760562949492049 0.6239437050507951 0.5290904147098578 0.4709095852901421 0.13097832531673675 0.8690216746832633 0.5651964020024758 0.4348035979975243 0.6017431105684197 0.39825688943158044 0.3997351807432077 0.6002648192567924 0.5103310619639732 0.48966893803602685 0.7874621535821787 0.2125378464178211 0.6766134251408076 0.3233865748591924 0.5383992794205406 0.4616007205794593 0.511583344714966 0.488416655285034 0.33635494678031735 0.6636450532196826 0.8588353569717848 0.14116464302821521 0.6795555001931542 0.3204444998068457 0.44063852677428983 0.5593614732257102 0.16641289427009215 0.8335871057299078 0.33812161553412984 0.6618783844658701 0.45085809067392607 0.549141909326074 0.45421630509193417 0.5457836949080658 0.010885021364069623 0.9891149786359303 0.305164742588616 0.694835257411384 0.33904504191252427 0.6609549580874757 0.48629942731953324 0.5137005726804668 0.3051076408916447 0.6948923591083552 0.8627778717885212 0.13722212821147883 0.2749521431457989 0.725047856854201 0.9621310309522968 0.03786896904770317 0.694857286194137 0.30514271380586294 0.9246016744500918 0.07539832554990822 0.669835043653215 0.33016495634678494 0.7304783847053452 0.26952161529465474 0.491327385321017 0.508672614678983 0.6381508876975844 0.36184911230241557 0.7445792234466305 0.2554207765533695 0.5820522147210039 0.4179477852789962 0.6461734761137129 0.35382652388628705 0.6869589924191782 0.31304100758082176 0.27660355588214625 0.7233964441178538 0.11519671690289458 0.8848032830971054 0.5569103060727428 0.4430896939272571 0.4070221734070337 0.5929778265929662 0.1514049083418564 0.8485950916581436 0.5366246441314533 0.46337535586854667 0.24195085440026817 0.7580491455997318 0.42621488676662406 0.573785113233376 0.44199300137765596 0.5580069986223439 0.5354268351023476 0.4645731648976525 0.23454071799036078 0.7654592820096392 0.4227928629395237 0.5772071370604764 0.456436294585129 0.543563705414871 0.4255606861733954 0.5744393138266046 0.5834185641181954 0.4165814358818046 0.7948782024162139 0.20512179758378626 0.0875104180391597 0.9124895819608403 0.00290898430832641 0.9970910156916736 0.32135123015855926 0.6786487698414406 0.4428466636649779 0.5571533363350221 0.984772053205771 0.015227946794228958 0.7641525405121407 0.23584745948785932 0.49688727727832976 0.5031127227216702 0.40016025175291453 0.5998397482470854 0.568028291701844 0.43197170829815595 0.6822594180931433 0.3177405819068567 0.19294443332028044 0.8070555666797194 0.4877807221217248 0.5122192778782753 0.5618153469502964 0.4381846530497036 0.2484336962765759 0.7515663037234241 0.41460696751489573 0.5853930324851042 0.881180476994244 0.11881952300575606 0.36708548104678534 0.6329145189532146 0.24774867807245685 0.7522513219275432 0.5553316917190961 0.4446683082809039 0.5534851309186701 0.4465148690813298 0.39687090083539583 0.6031290991646042 0.08419247026647692 0.9158075297335231 0.4691942302849151 0.530805769715085 0.7875188136438647 0.2124811863561352 0.6830400929492189 0.3169599070507811 0.33271304406471597 0.6672869559352841 0.04308714999755716 0.9569128500024429 0.788792489902905 0.211207510097095 0.5237317036797312 0.4762682963202688 0.3819528059013544 0.6180471940986455 0.009958735274060184 0.9900412647259398 0.6386500930680127 0.3613499069319874 0.34538259278059036 0.6546174072194096 0.5992807115911403 0.4007192884088598 0.5079879268679262 0.49201207313207385 0.5426810111356686 0.45731898886433137 0.5297792998097859 0.4702207001902142 0.1570757059215473 0.8429242940784527 0.621444330432932 0.37855566956706793 0.3282077698274351 0.6717922301725648 0.5157847804430973 0.4842152195569027 0.9451589181232565 0.054841081876743504 0.8207009106541849 0.1792990893458152 0.04598515878311985 0.9540148412168802 0.4178797326066197 0.5821202673933804 0.5211558153535001 0.47884418464649986 0.6382402825654555 0.36175971743454455 0.3694290093652259 0.6305709906347742 0.030893819486297453 0.9691061805137026 0.3326962377585458 0.6673037622414542 0.5357612021053909 0.4642387978946092 0.5018269562840398 0.49817304371596016 0.4915517402381481 0.5084482597618518 0.4901178970526242 0.5098821029473757 0.5420010701031523 0.4579989298968477 0.12751632140922223 0.8724836785907778 0.5111590828965318 0.4888409171034683 0.23514029169239098 0.764859708307609 0.5330522676941374 0.46694773230586273 0.1199725010344746 0.8800274989655255 0.48035001393639326 0.5196499860636067 0.36102348599667694 0.638976514003323 0.8069788449843119 0.19302115501568812 0.043780444720034624 0.9562195552799654 0.23448730026381207 0.765512699736188 </TABLE>
    </DEFINITION>
    <DEFINITION>
      <FOR>2</FOR>
      <GIVEN>0</GIVEN>
      <TABLE>0.6046076690878355 0.39539233091216464 0.9390210742062504 0.06097892579374963 </TABLE>
    </DEFINITION>
    <DEFINITION>
      <FOR>3</FOR>
      <GIVEN>0</GIVEN>
      <TABLE>0.5258566839958844 0.4741433160041157 0.4156220070960901 0.5843779929039099 </TABLE>
    </DEFINITION>
    <DEFINITION>
      <FOR>4</FOR>
      <GIVEN>0</GIVEN>
      <GIVEN>2</GIVEN>
      <GIVEN>3</GIVEN>
      <TABLE>0.46804409527579305 0.531955904724207 0.21349828191526496 0.786501718084735 0.27695784323308353 0.7230421567669165 0.5049451755093173 0.4950548244906828 0.9508815078221978 0.04911849217780222 0.3506653866370714 0.6493346133629286 0.45390022155672916 0.5460997784432708 0.6651777389693079 0.3348222610306922 </TABLE>
    </DEFINITION>
    <DEFINITION>
      <FOR>5</FOR>
      <GIVEN>0</GIVEN>
      <GIVEN>1</GIVEN>
      <GIVEN>2</GIVEN>
      <GIVEN>3</GIVEN>
      <TABLE>0.4721508419621391 0.5278491580378609 0.6404445790733378 0.3595554209266621 0.8587130464943248 0.14128695350567516 0.6962531736585406 0.30374682634145933 0.7847155210004644 0.21528447899953562 0.5506990448750079 0.44930095512499213 0.4939122644524637 0.5060877355475364 0.10780100034328038 0.8921989996567197 0.3277269835901066 0.6722730164098935 0.2603204072943595 0.7396795927056404 0.6670409551218578 0.33295904487814226 0.6595711350027155 0.3404288649972845 0.9393767233608861 0.0606232766391139 0.8751632097328745 0.12483679026712548 0.6107626138146124 0.3892373861853877 0.2801222685398603 0.7198777314601398 </TABLE>
    </DEFINITION>
    <DEFINITION>
      <FOR>6</FOR>
      <GIVEN>0</GIVEN>
      <GIVEN>1</GIVEN>
      <GIVEN>2</GIVEN>
      <GIVEN>4</GIVEN>
      <GIVEN>5</GIVEN>
      <TABLE>0.42132895237828866 0.5786710476217114 0.8932185601320258 0.1067814398679742 0.2310532867395881 0.768946713260412 0.4268162652424926 0.5731837347575074 0.45906415061613587 0.5409358493838641 0.3136107508404474 0.6863892491595526 0.395649481916452 0.604350518083548 0.34177999873797055 0.6582200012620295 0.32598312991091905 0.674016870089081 0.691570344402395 0.30842965559760505 0.019782767358081123 0.9802172326419188 0.6980453792728449 0.3019546207271551 0.4664043080343288 0.5335956919656712 0.4419621872829231 0.5580378127170769 0.9193947749804721 0.08060522501952798 0.6388846300693792 0.36111536993062077 0.38654652901242836 0.6134534709875717 0.3774901983350575 0.6225098016649425 0.6793377656484788 0.32066223435152114 0.9057448120445969 0.09425518795540308 0.5649496647246884 0.43505033527531156 0.5265873346579745 0.47341266534202553 0.2065022201738079 0.7934977798261921 0.6291327316356475 0.3708672683643524 0.5650087594147181 0.43499124058528194 0.3998192136966816 0.6001807863033184 0.5585517863364662 0.44144821366353376 0.852011425878091 0.14798857412190902 0.9516488284583507 0.04835117154164921 0.6181719026759367 0.3818280973240633 0.24213593970211814 0.7578640602978819 0.4222418648298924 0.5777581351701075 </TABLE>
    </DEFINITION>
    <DEFINITION>
      <FOR>7</FOR>
      <GIVEN>1</GIVEN>
      <GIVEN>3</GIVEN>
      <GIVEN>4</GIVEN>
      <TABLE>0.44732134952525904 0.552678650474741 0.5909889254168359 0.4090110745831641 0.2544326251595023 0.7455673748404977 0.7927926054932264 0.2072073945067736 0.657278295149846 0.3427217048501539 0.9003246170905372 0.09967538290946287 0.46129652480269107 0.5387034751973088 0.6207983675748738 0.37920163242512617 </TABLE>
    </DEFINITION>
    <DEFINITION>
      <FOR>8</FOR>
      <GIVEN>0</GIVEN>
      <GIVEN>4</GIVEN>
      <GIVEN>5</GIVEN>
      <GIVEN>6</GIVEN>
      <TABLE>0.5926226164696945 0.40737738353030545 0.4304184219182166 0.5695815780817833 0.19059523175130003 0.8094047682487 0.2095693664711001 0.7904306335288999 0.8875702243646858 0.11242977563531419 0.7664244999528056 0.2335755000471943 0.24470810469643975 0.7552918953035602 0.5723202263778344 0.42767977362216564 0.4839715750130264 0.5160284249869735 0.44521318009116506 0.554786819908835 0.5400121618345922 0.45998783816540784 0.49023089544282067 0.5097691045571793 0.5515684202913278 0.4484315797086722 0.6342752308129346 0.3657247691870655 0.023297706525702355 0.9767022934742977 0.4275904085709246 0.5724095914290753 </TABLE>
    </DEFINITION>
    <DEFINITION>
      <FOR>9</FOR>
      <GIVEN>0</GIVEN>
      <GIVEN>3</GIVEN>
      <GIVEN>4</GIVEN>
      <GIVEN>8</GIVEN>
      <TABLE>0.35455250895125895 0.6454474910487411 0.49466648636452354 0.5053335136354765 0.6085971970194773 0.3914028029805227 0.49243886543995713 0.5075611345600428 0.7389834581857037 0.26101654181429634 0.29684811897864305 0.703151881021357 0.4109414502016825 0.5890585497983174 0.6032236845790078 0.3967763154209922 0.5898260108802953 0.41017398911970476 0.7350693668036681 0.26493063319633176 0.2541452179760969 0.745854782023903 0.5189167957513549 0.4810832042486451 0.9006060999005897 0.09939390009941027 0.6211992135038077 0.3788007864961924 0.5229551531965843 0.4770448468034158 0.4151505617378695 0.5848494382621305 </TABLE>
    </DEFINITION>
  </NETWORK>
</BIF>
