<?xml version='1.0' encoding='utf-8'?>
<BIF VERSION="0.3">
  <NETWORK>
    <NAME>UNTITLED</NAME>
    <VARIABLE TYPE="nature">
      <NAME>0</NAME>
      <OUTCOME>0</OUTCOME>
      <OUTCOME>1</OUTCOME>
      <PROPERTY>weight = None</PROPERTY>
    </VARIABLE>
    <VARIABLE TYPE="nature">
      <NAME>1</NAME>
      <OUTCOME>0</OUTCOME>
      <OUTCOME>1</OUTCOME>
      <PROPERTY>weight = None</PROPERTY>
    </VARIABLE>
    <VARIABLE TYPE="nature">
      <NAME>2</NAME>
      <OUTCOME>0</OUTCOME>
      <OUTCOME>1</OUTCOME>
      <PROPERTY>weight = None</PROPERTY>
    </VARIABLE>
    <VARIABLE TYPE="nature">
      <NAME>3</NAME>
      <OUTCOME>0</OUTCOME>
      <OUTCOME>1</OUTCOME>
      <PROPERTY>weight = None</PROPERTY>
    </VARIABLE>
    <VARIABLE TYPE="nature">
      <NAME>4</NAME>
      <OUTCOME>0</OUTCOME>
      <OUTCOME>1</OUTCOME>
      <PROPERTY>weight = None</PROPERTY>
    </VARIABLE>
    <VARIABLE TYPE="nature">
      <NAME>5</NAME>
      <OUTCOME>0</OUTCOME>
      <OUTCOME>1</OUTCOME>
      <PROPERTY>weight = None</PROPERTY>
    </VARIABLE>
    <VARIABLE TYPE="nature">
      <NAME>6</NAME>
      <OUTCOME>0</OUTCOME>
      <OUTCOME>1</OUTCOME>
      <PROPERTY>weight = None</PROPERTY>
    </VARIABLE>
    <VARIABLE TYPE="nature">
      <NAME>7</NAME>
      <OUTCOME>0</OUTCOME>
      <OUTCOME>1</OUTCOME>
      <PROPERTY>weight = None</PROPERTY>
    </VARIABLE>
    <VARIABLE TYPE="nature">
      <NAME>8</NAME>
      <OUTCOME>0</OUTCOME>
      <OUTCOME>1</OUTCOME>
      <PROPERTY>weight = None</PROPERTY>
    </VARIABLE>
    <VARIABLE TYPE="nature">
      <NAME>9</NAME>
      <OUTCOME>0</OUTCOME>
      <OUTCOME>1</OUTCOME>
      <PROPERTY>weight = None</PROPERTY>
    </VARIABLE>
    <DEFINITION>
      <FOR>0</FOR>
      <TABLE>0.8071997995250844 0.19280020047491556 </TABLE>
    </DEFINITION>
    <DEFINITION>
      <FOR>1</FOR>
      <GIVEN>0</GIVEN>
      <TABLE>0.4871652280801033 0.5128347719198967 0.5599461631638716 0.4400538368361284 </TABLE>
    </DEFINITION>
    <DEFINITION>
      <FOR>2</FOR>
      <GIVEN>0</GIVEN>
      <GIVEN>1</GIVEN>
      <TABLE>0.36784201053665544 0.6321579894633446 0.38401287902693226 0.6159871209730677 0.5420537655892793 0.4579462344107207 0.5770197507783867 0.42298024922161315 </TABLE>
    </DEFINITION>
    <DEFINITION>
      <FOR>3</FOR>
      <GIVEN>0</GIVEN>
      <GIVEN>1</GIVEN>
      <TABLE>0.11347192829558167 0.8865280717044183 0.1766036750269532 0.8233963249730468 0.22313759761230495 0.7768624023876951 0.4991657135887451 0.5008342864112548 </TABLE>
    </DEFINITION>
    <DEFINITION>
      <FOR>4</FOR>
      <GIVEN>1</GIVEN>
      <GIVEN>3</GIVEN>
      <TABLE>0.7168307619626506 0.2831692380373494 0.5633390913597276 0.4366609086402724 0.7386597082748464 0.26134029172515366 0.6833421295557857 0.31665787044421434 </TABLE>
    </DEFINITION>
    <DEFINITION>
      <FOR>5</FOR>
      <GIVEN>0</GIVEN>
      <GIVEN>1</GIVEN>
      <GIVEN>4</GIVEN>
      <TABLE>0.29164774103967833 0.7083522589603217 0.23607417105635847 0.7639258289436416 0.6034374320216886 0.3965625679783114 0.6834834145896804 0.3165165854103196 0.4328400403240407 0.5671599596759593 0.1566209964892508 0.8433790035107492 0.47720746143470644 0.5227925385652936 0.5011406540778127 0.49885934592218734 </TABLE>
    </DEFINITION>
    <DEFINITION>
      <FOR>6</FOR>
      <GIVEN>1</GIVEN>
      <GIVEN>2</GIVEN>
      <TABLE>0.39644664471204377 0.6035533552879562 0.8931537981838796 0.10684620181612035 0.9830667698885641 0.0169332301114359 0.5041199915967236 0.49588000840327645 </TABLE>
    </DEFINITION>
    <DEFINITION>
      <FOR>7</FOR>
      <GIVEN>0</GIVEN>
      <GIVEN>2</GIVEN>
      <GIVEN>3</GIVEN>
      <GIVEN>5</GIVEN>
      <GIVEN>4</GIVEN>
      <TABLE>0.7472989162662173 0.25270108373378275 0.5545117202080907 0.44548827979190936 0.2010776784758388 0.7989223215241612 0.22860533157730578 0.7713946684226941 0.47954928374577066 0.5204507162542293 0.8390793344524556 0.16092066554754436 0.4136271968583267 0.5863728031416733 0.5754099341689617 0.42459006583103837 0.3265082970908029 0.6734917029091971 0.19508296218251814 0.8049170378174818 0.661167791471572 0.3388322085284281 0.16309162205762817 0.8369083779423718 0.6512645090808348 0.34873549091916517 0.4982371451015715 0.5017628548984284 0.5758962420437779 0.42410375795622207 0.07568255167697148 0.9243174483230285 0.3528260744493239 0.6471739255506761 0.34544399401341574 0.6545560059865843 0.5378125457518876 0.4621874542481123 0.44677948546763546 0.5532205145323645 0.5767251016205734 0.4232748983794265 0.6388284750745621 0.3611715249254378 0.9098976739794173 0.0901023260205827 0.9964583258972823 0.0035416741027176814 0.2705165070133703 0.7294834929866297 0.4416846041462361 0.5583153958537639 0.34659567097571053 0.6534043290242895 0.23980988877531778 0.7601901112246822 0.4712479795121206 0.5287520204878794 0.3842029829562752 0.6157970170437248 0.37191918021371173 0.6280808197862884 0.5654771047693028 0.4345228952306972 </TABLE>
    </DEFINITION>
    <DEFINITION>
      <FOR>8</FOR>
      <GIVEN>0</GIVEN>
      <GIVEN>1</GIVEN>
      <GIVEN>2</GIVEN>
      <GIVEN>3</GIVEN>
      <GIVEN>7</GIVEN>
      <GIVEN>4</GIVEN>
      <GIVEN>6</GIVEN>
      <TABLE>0.4030319110020033 0.5969680889979968 0.25650286279979206 0.7434971372002079 0.5481566877415336 0.4518433122584664 0.822206626042715 0.17779337395728495 0.06475443805649676 0.9352455619435033 0.46920527313980037 0.5307947268601997 0.9322435822387807 0.06775641776121934 0.35036789067336555 0.6496321093266344 0.09388070348697437 0.9061192965130256 0.08387150866549149 0.9161284913345085 0.28002004133836744 0.7199799586616326 0.4552307549913676 0.5447692450086323 0.5029500293215707 0.49704997067842926 0.7141622851918403 0.2858377148081596 0.8446602232070941 0.15533977679290592 0.4309984482256414 0.5690015517743586 0.6857765568321594 0.3142234431678405 0.5644783001717911 0.4355216998282089 0.42373759934242655 0.5762624006575735 0.24615153861973094 0.7538484613802691 0.448982140386436 0.551017859613564 0.3535061449490292 0.6464938550509709 0.6258646947364228 0.3741353052635772 0.6619471674453136 0.3380528325546865 0.05574406414051513 0.9442559358594849 0.4311608604899556 0.5688391395100443 0.5764178666776866 0.4235821333223134 0.0907955579696232 0.9092044420303768 0.42287145621594846 0.5771285437840515 0.20866370890103375 0.7913362910989663 0.9621579442322804 0.037842055767719616 0.6904182009592924 0.3095817990407076 0.2229386019388982 0.7770613980611019 0.6200278239711482 0.37997217602885186 0.3262950344986981 0.6737049655013019 0.7440384758532479 0.25596152414675205 0.2294472766306577 0.7705527233693424 0.926806952634408 0.07319304736559197 0.7542852770222043 0.24571472297779567 0.6551759745759677 0.3448240254240323 0.8747885953194648 0.12521140468053513 0.8359633282608875 0.1640366717391125 0.5336115433023749 0.4663884566976251 0.9161403277285995 0.0838596722714005 0.32767337956240633 0.6723266204375937 0.12156754762764181 0.8784324523723582 0.0761696212816779 0.9238303787183221 0.14085266631179014 0.85914733368821 0.22335346018754387 0.7766465398124561 0.7595950317518863 0.24040496824811378 0.2928550282743897 0.7071449717256103 0.44603040909769515 0.5539695909023048 0.9265567634764661 0.07344323652353395 0.9057163905267372 0.09428360947326275 0.4840773535762782 0.5159226464237218 0.8520396131066522 0.14796038689334792 0.10795016132308145 0.8920498386769186 0.1035157149926024 0.8964842850073976 0.885444157203447 0.1145558427965529 0.9752802339879146 0.02471976601208533 0.4862602959783003 0.5137397040216998 0.5523839664279087 0.4476160335720913 0.7376952871702971 0.26230471282970297 0.2836741096736098 0.7163258903263902 0.5524681511184856 0.4475318488815144 0.5847955987188395 0.41520440128116054 0.2945837454203984 0.7054162545796016 0.9986930433683456 0.0013069566316543633 0.23177032665836383 0.7682296733416362 0.7675738270123782 0.23242617298762183 0.8498377228961729 0.15016227710382707 0.5449173157791087 0.45508268422089126 0.2338541764016693 0.7661458235983306 0.4479014786384963 0.5520985213615038 0.2656888228677026 0.7343111771322974 0.5367048075546954 0.4632951924453046 0.27130755959738007 0.7286924404026199 0.35268506813310074 0.6473149318668993 0.9465843077025365 0.05341569229746357 0.7447855099356113 0.2552144900643888 0.5339533999134788 0.46604660008652116 0.6589010147076638 0.3410989852923362 0.35660977871995647 0.6433902212800435 0.9213097896010848 0.07869021039891519 0.6169202851517361 0.3830797148482639 0.4717134717365837 0.5282865282634164 0.4542479478341984 0.5457520521658016 0.1328658297984039 0.867134170201596 0.6727732763642906 0.32722672363570937 0.565108795132031 0.43489120486796906 0.1409423047265167 0.8590576952734833 0.16212875903096247 0.8378712409690375 0.793522169278905 0.206477830721095 0.5216377242133974 0.47836227578660256 0.6794479330358117 0.3205520669641882 0.5162629637521432 0.48373703624785674 0.6406710772401334 0.3593289227598668 0.5473389330349774 0.45266106696502256 0.5436976591040087 0.4563023408959912 0.09788694678851781 0.9021130532114822 0.36194602233532436 0.6380539776646756 0.060655648416774975 0.939344351583225 0.7745850561299564 0.22541494387004352 0.4494474781372384 0.5505525218627617 0.212370447608352 0.787629552391648 0.3127793004177987 0.6872206995822013 0.08966743154908066 0.9103325684509194 0.49250577563409575 0.5074942243659043 0.9777128411571276 0.022287158842872364 0.17379992203288883 0.8262000779671111 0.20783922547865988 0.7921607745213401 0.0672468213501196 0.9327531786498804 0.730449229051412 0.2695507709485882 0.749318372903393 0.25068162709660696 0.8683579522610286 0.1316420477389713 0.6412523267115295 0.3587476732884704 0.6070921923667639 0.39290780763323613 0.22730246553365502 0.772697534466345 0.5219987157543531 0.47800128424564686 0.14259734275163988 0.8574026572483602 0.20780840584397448 0.7921915941560256 0.8089307713451034 0.19106922865489653 0.02559222635386186 0.9744077736461382 0.5595087587672907 0.4404912412327093 0.5486267303606545 0.4513732696393455 0.7297435385438902 0.27025646145610993 0.37452424707026677 0.6254757529297331 0.30187433889478227 0.6981256611052177 </TABLE>
    </DEFINITION>
    <DEFINITION>
      <FOR>9</FOR>
      <GIVEN>1</GIVEN>
      <GIVEN>8</GIVEN>
      <GIVEN>4</GIVEN>
      <GIVEN>6</GIVEN>
      <TABLE>0.4222089685148174 0.5777910314851827 0.20125082824670312 0.7987491717532968 0.28707119087746064 0.7129288091225393 0.6973153979463238 0.30268460205367625 0.37045730727758924 0.6295426927224107 0.4921922158320258 0.5078077841679742 0.739796522459055 0.260203477540945 0.533937704461577 0.4660622955384231 0.06558565842219077 0.9344143415778092 0.854941286333963 0.14505871366603693 0.8858647160796812 0.11413528392031885 0.9816356398304376 0.018364360169562416 0.5253255354288823 0.4746744645711178 0.6003451310756829 0.399654868924317 0.9276887575340609 0.07231124246593912 0.4556960653572833 0.5443039346427166 </TABLE>
    </DEFINITION>
  </NETWORK>
</BIF>
