<?xml version='1.0' encoding='utf-8'?>
<BIF VERSION="0.3">
  <NETWORK>
    <NAME>UNTITLED</NAME>
    <VARIABLE TYPE="nature">
      <NAME>0</NAME>
      <OUTCOME>0</OUTCOME>
      <OUTCOME>1</OUTCOME>
      <PROPERTY>weight = None</PROPERTY>
    </VARIABLE>
    <VARIABLE TYPE="nature">
      <NAME>1</NAME>
      <OUTCOME>0</OUTCOME>
      <OUTCOME>1</OUTCOME>
      <PROPERTY>weight = None</PROPERTY>
    </VARIABLE>
    <VARIABLE TYPE="nature">
      <NAME>2</NAME>
      <OUTCOME>0</OUTCOME>
      <OUTCOME>1</OUTCOME>
      <PROPERTY>weight = None</PROPERTY>
    </VARIABLE>
    <VARIABLE TYPE="nature">
      <NAME>3</NAME>
      <OUTCOME>0</OUTCOME>
      <OUTCOME>1</OUTCOME>
      <PROPERTY>weight = None</PROPERTY>
    </VARIABLE>
    <VARIABLE TYPE="nature">
      <NAME>4</NAME>
      <OUTCOME>0</OUTCOME>
      <OUTCOME>1</OUTCOME>
      <PROPERTY>weight = None</PROPERTY>
    </VARIABLE>
    <VARIABLE TYPE="nature">
      <NAME>5</NAME>
      <OUTCOME>0</OUTCOME>
      <OUTCOME>1</OUTCOME>
      <PROPERTY>weight = None</PROPERTY>
    </VARIABLE>
    <VARIABLE TYPE="nature">
      <NAME>6</NAME>
      <OUTCOME>0</OUTCOME>
      <OUTCOME>1</OUTCOME>
      <PROPERTY>weight = None</PROPERTY>
    </VARIABLE>
    <VARIABLE TYPE="nature">
      <NAME>7</NAME>
      <OUTCOME>0</OUTCOME>
      <OUTCOME>1</OUTCOME>
      <PROPERTY>weight = None</PROPERTY>
    </VARIABLE>
    <VARIABLE TYPE="nature">
      <NAME>8</NAME>
      <OUTCOME>0</OUTCOME>
      <OUTCOME>1</OUTCOME>
      <PROPERTY>weight = None</PROPERTY>
    </VARIABLE>
    <VARIABLE TYPE="nature">
      <NAME>9</NAME>
      <OUTCOME>0</OUTCOME>
      <OUTCOME>1</OUTCOME>
      <PROPERTY>weight = None</PROPERTY>
    </VARIABLE>
    <DEFINITION>
      <FOR>0</FOR>
      <TABLE>0.2552378288459585 0.7447621711540415 </TABLE>
    </DEFINITION>
    <DEFINITION>
      <FOR>1</FOR>
      <GIVEN>0</GIVEN>
      <TABLE>0.47969098369230007 0.5203090163076999 0.827230113044458 0.17276988695554193 </TABLE>
    </DEFINITION>
    <DEFINITION>
      <FOR>2</FOR>
      <GIVEN>0</GIVEN>
      <GIVEN>1</GIVEN>
      <TABLE>0.6351638708620244 0.3648361291379757 0.9964681959283701 0.0035318040716299385 0.45951204998073875 0.5404879500192612 0.37872486868797184 0.621275131312028 </TABLE>
    </DEFINITION>
    <DEFINITION>
      <FOR>3</FOR>
      <GIVEN>2</GIVEN>
      <TABLE>0.4530303176902305 0.5469696823097695 0.5268995793537776 0.4731004206462223 </TABLE>
    </DEFINITION>
    <DEFINITION>
      <FOR>4</FOR>
      <GIVEN>1</GIVEN>
      <GIVEN>3</GIVEN>
      <TABLE>0.6285543212766247 0.37144567872337525 0.6072338405622225 0.39276615943777743 0.3183194915923365 0.6816805084076635 0.39730235322366464 0.6026976467763354 </TABLE>
    </DEFINITION>
    <DEFINITION>
      <FOR>5</FOR>
      <GIVEN>2</GIVEN>
      <GIVEN>3</GIVEN>
      <TABLE>0.17303107883653057 0.8269689211634694 0.15077696779108118 0.8492230322089188 0.4476989487335744 0.5523010512664256 0.6994603083639609 0.30053969163603905 </TABLE>
    </DEFINITION>
    <DEFINITION>
      <FOR>6</FOR>
      <GIVEN>0</GIVEN>
      <GIVEN>2</GIVEN>
      <GIVEN>3</GIVEN>
      <GIVEN>5</GIVEN>
      <TABLE>0.546258799815344 0.45374120018465613 0.5518062292304171 0.448193770769583 0.04445789079787895 0.955542109202121 0.5213935166749055 0.47860648332509453 0.5759960763087656 0.4240039236912344 0.59967903693349 0.40032096306650994 0.7172692307219888 0.28273076927801116 0.7323290513395704 0.2676709486604296 0.6552397844637543 0.34476021553624575 0.3792163487318502 0.6207836512681498 0.07470022455070757 0.9252997754492924 0.570473490474513 0.42952650952548693 0.4495303716912703 0.5504696283087297 0.6723701592341744 0.3276298407658256 0.39667782798235673 0.6033221720176433 0.22765848069995712 0.7723415193000429 </TABLE>
    </DEFINITION>
    <DEFINITION>
      <FOR>7</FOR>
      <GIVEN>1</GIVEN>
      <GIVEN>6</GIVEN>
      <GIVEN>5</GIVEN>
      <TABLE>0.9517720736713948 0.04822792632860514 0.7388770896882828 0.26112291031171725 0.5198831384162103 0.4801168615837898 0.6130250377409173 0.3869749622590827 0.29755483467048505 0.702445165329515 0.5714174969999987 0.4285825030000014 0.5153788406225711 0.4846211593774289 0.21950950000606637 0.7804904999939335 </TABLE>
    </DEFINITION>
    <DEFINITION>
      <FOR>8</FOR>
      <GIVEN>0</GIVEN>
      <GIVEN>1</GIVEN>
      <GIVEN>2</GIVEN>
      <GIVEN>6</GIVEN>
      <GIVEN>4</GIVEN>
      <TABLE>0.5014375708849222 0.4985624291150776 0.7823633072134043 0.2176366927865957 0.48741508080734913 0.5125849191926509 0.31008861064762044 0.6899113893523795 0.9041000350305616 0.09589996496943844 0.21424432809042623 0.7857556719095737 0.38188851998705914 0.6181114800129409 0.4799419375564861 0.5200580624435139 0.3660329445196883 0.6339670554803117 0.38473735337312903 0.6152626466268709 0.3461773330030582 0.6538226669969417 0.7822081672365501 0.21779183276344996 0.7152546895266532 0.28474531047334695 0.4578282248103854 0.5421717751896146 0.2959993169954948 0.7040006830045052 0.6609865064535962 0.33901349354640375 0.5360639344866519 0.4639360655133481 0.6563059775785799 0.34369402242142016 0.7687524112705892 0.23124758872941073 0.6416606395153887 0.3583393604846113 0.5108952774709673 0.4891047225290326 0.8308079668126314 0.16919203318736867 0.38457012882967834 0.6154298711703218 0.18620052256043804 0.8137994774395619 0.533080358032965 0.46691964196703495 0.6181765453043696 0.3818234546956305 0.6796003185751309 0.32039968142486913 0.47485435537065646 0.5251456446293434 0.9631397951307749 0.03686020486922517 0.8427710956064773 0.15722890439352263 0.26649547972070114 0.7335045202792989 0.7813791817392353 0.2186208182607647 </TABLE>
    </DEFINITION>
    <DEFINITION>
      <FOR>9</FOR>
      <GIVEN>0</GIVEN>
      <GIVEN>1</GIVEN>
      <GIVEN>2</GIVEN>
      <GIVEN>5</GIVEN>
      <TABLE>0.05025357193077183 0.9497464280692282 0.2045101954212752 0.7954898045787248 0.509987144362188 0.49001285563781205 0.98705867324415 0.012941326755850057 0.23280952656360893 0.7671904734363911 0.8175801646997711 0.18241983530022884 0.5348694886422453 0.46513051135775474 0.49534367549731345 0.5046563245026866 0.08938880613368795 0.9106111938663121 0.10296678874511393 0.8970332112548861 0.4986048093259724 0.5013951906740275 0.20678157828856047 0.7932184217114394 0.5034484125304438 0.4965515874695562 0.4524391252923335 0.5475608747076665 0.5192153661092421 0.4807846338907579 0.45294043211513657 0.5470595678848634 </TABLE>
    </DEFINITION>
  </NETWORK>
</BIF>
