<?xml version='1.0' encoding='utf-8'?>
<BIF VERSION="0.3">
  <NETWORK>
    <NAME>UNTITLED</NAME>
    <VARIABLE TYPE="nature">
      <NAME>0</NAME>
      <OUTCOME>0</OUTCOME>
      <OUTCOME>1</OUTCOME>
      <PROPERTY>weight = None</PROPERTY>
    </VARIABLE>
    <VARIABLE TYPE="nature">
      <NAME>1</NAME>
      <OUTCOME>0</OUTCOME>
      <OUTCOME>1</OUTCOME>
      <PROPERTY>weight = None</PROPERTY>
    </VARIABLE>
    <VARIABLE TYPE="nature">
      <NAME>10</NAME>
      <OUTCOME>0</OUTCOME>
      <OUTCOME>1</OUTCOME>
      <PROPERTY>weight = None</PROPERTY>
    </VARIABLE>
    <VARIABLE TYPE="nature">
      <NAME>11</NAME>
      <OUTCOME>0</OUTCOME>
      <OUTCOME>1</OUTCOME>
      <PROPERTY>weight = None</PROPERTY>
    </VARIABLE>
    <VARIABLE TYPE="nature">
      <NAME>12</NAME>
      <OUTCOME>0</OUTCOME>
      <OUTCOME>1</OUTCOME>
      <PROPERTY>weight = None</PROPERTY>
    </VARIABLE>
    <VARIABLE TYPE="nature">
      <NAME>13</NAME>
      <OUTCOME>0</OUTCOME>
      <OUTCOME>1</OUTCOME>
      <PROPERTY>weight = None</PROPERTY>
    </VARIABLE>
    <VARIABLE TYPE="nature">
      <NAME>14</NAME>
      <OUTCOME>0</OUTCOME>
      <OUTCOME>1</OUTCOME>
      <PROPERTY>weight = None</PROPERTY>
    </VARIABLE>
    <VARIABLE TYPE="nature">
      <NAME>15</NAME>
      <OUTCOME>0</OUTCOME>
      <OUTCOME>1</OUTCOME>
      <PROPERTY>weight = None</PROPERTY>
    </VARIABLE>
    <VARIABLE TYPE="nature">
      <NAME>16</NAME>
      <OUTCOME>0</OUTCOME>
      <OUTCOME>1</OUTCOME>
      <PROPERTY>weight = None</PROPERTY>
    </VARIABLE>
    <VARIABLE TYPE="nature">
      <NAME>17</NAME>
      <OUTCOME>0</OUTCOME>
      <OUTCOME>1</OUTCOME>
      <PROPERTY>weight = None</PROPERTY>
    </VARIABLE>
    <VARIABLE TYPE="nature">
      <NAME>18</NAME>
      <OUTCOME>0</OUTCOME>
      <OUTCOME>1</OUTCOME>
      <PROPERTY>weight = None</PROPERTY>
    </VARIABLE>
    <VARIABLE TYPE="nature">
      <NAME>19</NAME>
      <OUTCOME>0</OUTCOME>
      <OUTCOME>1</OUTCOME>
      <PROPERTY>weight = None</PROPERTY>
    </VARIABLE>
    <VARIABLE TYPE="nature">
      <NAME>2</NAME>
      <OUTCOME>0</OUTCOME>
      <OUTCOME>1</OUTCOME>
      <PROPERTY>weight = None</PROPERTY>
    </VARIABLE>
    <VARIABLE TYPE="nature">
      <NAME>3</NAME>
      <OUTCOME>0</OUTCOME>
      <OUTCOME>1</OUTCOME>
      <PROPERTY>weight = None</PROPERTY>
    </VARIABLE>
    <VARIABLE TYPE="nature">
      <NAME>4</NAME>
      <OUTCOME>0</OUTCOME>
      <OUTCOME>1</OUTCOME>
      <PROPERTY>weight = None</PROPERTY>
    </VARIABLE>
    <VARIABLE TYPE="nature">
      <NAME>5</NAME>
      <OUTCOME>0</OUTCOME>
      <OUTCOME>1</OUTCOME>
      <PROPERTY>weight = None</PROPERTY>
    </VARIABLE>
    <VARIABLE TYPE="nature">
      <NAME>6</NAME>
      <OUTCOME>0</OUTCOME>
      <OUTCOME>1</OUTCOME>
      <PROPERTY>weight = None</PROPERTY>
    </VARIABLE>
    <VARIABLE TYPE="nature">
      <NAME>7</NAME>
      <OUTCOME>0</OUTCOME>
      <OUTCOME>1</OUTCOME>
      <PROPERTY>weight = None</PROPERTY>
    </VARIABLE>
    <VARIABLE TYPE="nature">
      <NAME>8</NAME>
      <OUTCOME>0</OUTCOME>
      <OUTCOME>1</OUTCOME>
      <PROPERTY>weight = None</PROPERTY>
    </VARIABLE>
    <VARIABLE TYPE="nature">
      <NAME>9</NAME>
      <OUTCOME>0</OUTCOME>
      <OUTCOME>1</OUTCOME>
      <PROPERTY>weight = None</PROPERTY>
    </VARIABLE>
    <DEFINITION>
      <FOR>0</FOR>
      <TABLE>0.07149511235853213 0.9285048876414679 </TABLE>
    </DEFINITION>
    <DEFINITION>
      <FOR>1</FOR>
      <GIVEN>0</GIVEN>
      <TABLE>0.5078973782269842 0.4921026217730157 0.5109531070420875 0.48904689295791237 </TABLE>
    </DEFINITION>
    <DEFINITION>
      <FOR>10</FOR>
      <GIVEN>1</GIVEN>
      <GIVEN>6</GIVEN>
      <GIVEN>8</GIVEN>
      <GIVEN>3</GIVEN>
      <TABLE>0.5513424358667836 0.44865756413321645 0.5670797918607533 0.4329202081392467 0.2490913418150175 0.7509086581849825 0.42374665110365556 0.5762533488963444 0.6450201505226086 0.35497984947739136 0.5857151224876044 0.41428487751239557 0.23297765276827917 0.7670223472317208 0.5195771032901454 0.48042289670985466 0.13556688356244972 0.8644331164375503 0.6216548964086646 0.37834510359133544 0.36290836191724024 0.6370916380827597 0.27035714597141836 0.7296428540285816 0.6118557056602353 0.3881442943397648 0.44070810959600093 0.559291890403999 0.15345386952851223 0.8465461304714876 0.9262614890524725 0.07373851094752747 </TABLE>
    </DEFINITION>
    <DEFINITION>
      <FOR>11</FOR>
      <GIVEN>1</GIVEN>
      <GIVEN>7</GIVEN>
      <GIVEN>8</GIVEN>
      <GIVEN>2</GIVEN>
      <GIVEN>3</GIVEN>
      <GIVEN>5</GIVEN>
      <TABLE>0.0482744774420392 0.9517255225579608 0.9947885527905053 0.005211447209494761 0.25924759308611317 0.7407524069138869 0.6633396688758758 0.3366603311241242 0.4268456373310248 0.5731543626689752 0.4620823962674224 0.5379176037325775 0.44413137054897617 0.5558686294510239 0.4962775178569256 0.5037224821430744 0.7949950749451897 0.20500492505481024 0.7023251189183983 0.2976748810816016 0.6187832864179155 0.3812167135820845 0.7613135383558025 0.23868646164419752 0.5038228963590767 0.49617710364092327 0.5271542834161222 0.4728457165838777 0.6477844795316542 0.35221552046834576 0.7813968806233167 0.21860311937668336 0.4469267660672755 0.5530732339327246 0.636594229595334 0.3634057704046661 0.9484695239464578 0.0515304760535422 0.4449142808125133 0.5550857191874867 0.6458375535135518 0.35416244648644823 0.8515028790930852 0.1484971209069148 0.9817200401355417 0.018279959864458312 0.009030151950996467 0.9909698480490036 0.7946227153510496 0.20537728464895041 0.5939234287444649 0.4060765712555351 0.7463487749819083 0.2536512250180918 0.34042631096139403 0.6595736890386059 0.7914688037384127 0.2085311962615872 0.6115891005202754 0.3884108994797248 0.4831370085352782 0.5168629914647218 0.5657873996636777 0.4342126003363223 0.3005706944486303 0.6994293055513697 0.6892825858341789 0.31071741416582116 0.30466767471938777 0.6953323252806123 0.5688412484592363 0.4311587515407637 0.6443404224680178 0.3556595775319821 0.7343794983767227 0.2656205016232773 0.4631920263314606 0.5368079736685394 0.9581137536129524 0.04188624638704762 0.9958709440975108 0.004129055902489228 0.3931497329005563 0.6068502670994437 0.5774624294261357 0.42253757057386443 0.5103209969543144 0.48967900304568557 0.4585903046587731 0.5414096953412268 0.21745218365057545 0.7825478163494245 0.408432908058034 0.5915670919419661 0.25466021125211913 0.7453397887478809 0.5254716951917325 0.4745283048082676 0.9194721132159691 0.08052788678403085 0.4630207217984681 0.5369792782015319 0.34716513264706467 0.6528348673529354 0.5336976038038376 0.4663023961961623 0.4712210017202514 0.5287789982797486 0.19443807227672277 0.8055619277232772 0.673968982367953 0.326031017632047 0.7203008954779514 0.27969910452204855 0.41848827597451344 0.5815117240254866 0.7989937710852216 0.20100622891477823 0.024172779908960437 0.9758272200910396 0.3896306587927796 0.6103693412072204 0.554694115324885 0.445305884675115 0.10376535500340198 0.896234644996598 0.7442959148488192 0.25570408515118087 </TABLE>
    </DEFINITION>
    <DEFINITION>
      <FOR>12</FOR>
      <GIVEN>1</GIVEN>
      <GIVEN>11</GIVEN>
      <GIVEN>3</GIVEN>
      <GIVEN>5</GIVEN>
      <TABLE>0.2010786473325044 0.7989213526674956 0.1787045432586593 0.8212954567413406 0.2171250680941669 0.7828749319058331 0.31470642261719595 0.685293577382804 0.3787482119675743 0.6212517880324258 0.44939984239105063 0.5506001576089494 0.49815331359421433 0.5018466864057856 0.18961081170694383 0.8103891882930562 0.25748148769043916 0.7425185123095609 0.5556776907371004 0.4443223092628995 0.17048894957012314 0.8295110504298768 0.34670456493128504 0.6532954350687149 0.12102936869591198 0.8789706313040879 0.6732160562253529 0.32678394377464715 0.7953650207234959 0.20463497927650404 0.48110591158641147 0.5188940884135885 </TABLE>
    </DEFINITION>
    <DEFINITION>
      <FOR>13</FOR>
      <GIVEN>0</GIVEN>
      <GIVEN>6</GIVEN>
      <GIVEN>8</GIVEN>
      <GIVEN>10</GIVEN>
      <GIVEN>12</GIVEN>
      <GIVEN>4</GIVEN>
      <TABLE>0.7085593910281707 0.2914406089718293 0.06954557197917682 0.9304544280208231 0.721119661459203 0.2788803385407969 0.8025649114391897 0.1974350885608103 0.09502713877358428 0.9049728612264157 0.11548408047080834 0.8845159195291916 0.4528053068080263 0.5471946931919737 0.5073653101386171 0.49263468986138303 0.8142847429048214 0.18571525709517853 0.13951747681792642 0.8604825231820735 0.9514210880375423 0.0485789119624577 0.9687215146905808 0.03127848530941924 0.26364306172250673 0.7363569382774933 0.4710156932703397 0.5289843067296603 0.32405295173641296 0.6759470482635871 0.5676230933403215 0.4323769066596786 0.25700483032255356 0.7429951696774466 0.6736111727005049 0.3263888272994951 0.6064815991022956 0.3935184008977044 0.8527242195684313 0.14727578043156875 0.7356716584946039 0.26432834150539614 0.6497074698820959 0.3502925301179041 0.9626189611082866 0.03738103889171339 0.929807699033187 0.07019230096681295 0.5735867763844693 0.42641322361553075 0.529129146706757 0.4708708532932429 0.5921461277770754 0.40785387222292446 0.5855968528985294 0.4144031471014706 0.8175812328165974 0.18241876718340255 0.060686723990525535 0.9393132760094745 0.7636401988424031 0.23635980115759694 0.509252246895106 0.49074775310489416 0.27469032513011005 0.7253096748698898 0.9608575202382199 0.03914247976178012 0.31562227260121967 0.6843777273987804 0.11337299662415119 0.8866270033758488 0.2967724719159562 0.7032275280840438 0.4699561033589728 0.5300438966410272 0.43857388038545597 0.561426119614544 0.777575066907218 0.22242493309278197 0.8601590772327501 0.1398409227672499 0.7116446230484562 0.28835537695154373 0.8378235384101054 0.16217646158989463 0.6744150712299165 0.3255849287700835 0.9211493900440793 0.07885060995592076 0.37170218692427565 0.6282978130757243 0.3507470286414386 0.6492529713585614 0.9177249243275714 0.08227507567242862 0.2473618079257265 0.7526381920742735 0.36300449906814874 0.6369955009318513 0.17297801270852392 0.827021987291476 0.676019652695624 0.3239803473043758 0.45464640413832164 0.5453535958616783 0.76602220727085 0.23397779272914992 0.5163166166320452 0.48368338336795486 0.6918507106043625 0.3081492893956375 0.6246355485640052 0.3753644514359949 0.5041904684986215 0.49580953150137846 0.6202154222664455 0.3797845777335544 0.15862240497331495 0.8413775950266851 0.5135640153404366 0.4864359846595635 0.06432352169277482 0.9356764783072252 0.06107403299857841 0.9389259670014216 0.0012559421212350159 0.998744057878765 </TABLE>
    </DEFINITION>
    <DEFINITION>
      <FOR>14</FOR>
      <GIVEN>0</GIVEN>
      <GIVEN>6</GIVEN>
      <GIVEN>13</GIVEN>
      <GIVEN>10</GIVEN>
      <GIVEN>11</GIVEN>
      <GIVEN>12</GIVEN>
      <GIVEN>4</GIVEN>
      <GIVEN>5</GIVEN>
      <TABLE>0.30870200065394743 0.6912979993460526 0.0067856224377029544 0.993214377562297 0.41424622019916496 0.5857537798008351 0.5292243627241442 0.4707756372758558 0.5594067696902046 0.4405932303097954 0.3618989155683627 0.6381010844316373 0.26297181229380723 0.7370281877061928 0.46610343858018166 0.5338965614198183 0.5779118511819563 0.4220881488180437 0.2577783119511766 0.7422216880488234 0.8555051532739916 0.1444948467260084 0.46991056786470153 0.5300894321352986 0.7673619597513339 0.2326380402486661 0.6013603718538348 0.39863962814616516 0.25495597275833115 0.7450440272416688 0.6696517632842256 0.33034823671577435 0.8003480050958299 0.19965199490417007 0.6589988982608094 0.3410011017391906 0.9418880541449698 0.05811194585503017 0.9223068406475038 0.0776931593524962 0.5048379526266641 0.4951620473733358 0.44340949045421263 0.5565905095457873 0.6744878167372369 0.32551218326276316 0.019385943248713306 0.9806140567512867 0.44669643344878607 0.5533035665512138 0.766092571979586 0.23390742802041395 0.010114412048260855 0.9898855879517392 0.36526931997378315 0.6347306800262169 0.8383618037633156 0.16163819623668443 0.05150052718430057 0.9484994728156995 0.2624887099403488 0.7375112900596512 0.1646039172073367 0.8353960827926633 0.7728657658986773 0.22713423410132255 0.45619252345507877 0.5438074765449212 0.4881344148453861 0.511865585154614 0.412254972316897 0.5877450276831029 0.5528931045182646 0.4471068954817354 0.4172939837164975 0.5827060162835025 0.006045346379550572 0.9939546536204494 0.367421843347634 0.632578156652366 0.36807438871784315 0.6319256112821569 0.19815269861106907 0.8018473013889309 0.8211757820442147 0.17882421795578532 0.26479128950125647 0.7352087104987435 0.32645942569561565 0.6735405743043843 0.8769072036687262 0.12309279633127385 0.35273802294705503 0.647261977052945 0.4615221618184454 0.5384778381815545 0.649521819704104 0.35047818029589595 0.5705712889343673 0.4294287110656327 0.6742103116751078 0.3257896883248922 0.46609787964321786 0.5339021203567822 0.9426741523900801 0.057325847609919885 0.3963450467603918 0.6036549532396082 0.3936561666896007 0.6063438333103993 0.43584898643014275 0.5641510135698573 0.982268102071839 0.017731897928160996 0.47528040623040385 0.5247195937695962 0.5323117082997939 0.4676882917002062 0.5105767637958811 0.4894232362041188 0.387458933272613 0.612541066727387 0.333258689082939 0.6667413109170609 0.507435889019171 0.4925641109808291 0.17504652178787616 0.8249534782121238 0.29488814652414563 0.7051118534758544 0.13128674947388602 0.868713250526114 0.7670526343749997 0.2329473656250002 0.5972818626928819 0.4027181373071182 0.8873501240286666 0.11264987597133339 0.7225555201333649 0.27744447986663506 0.005324270147670527 0.9946757298523294 0.7885924677153031 0.2114075322846969 0.5586883087841035 0.4413116912158966 0.2813410757174879 0.7186589242825121 0.39481205214680465 0.6051879478531954 0.011526497641364078 0.988473502358636 0.5124315795464233 0.48756842045357685 0.17079694312579133 0.8292030568742086 0.31254884682695 0.6874511531730501 0.5284833469687655 0.47151665303123447 0.3204759558623895 0.6795240441376106 0.5094719975480331 0.490528002451967 0.3261702808424219 0.673829719157578 0.6572739146235985 0.3427260853764014 0.39481287002906634 0.6051871299709336 0.10556428111306077 0.8944357188869392 0.8574406871011276 0.1425593128988724 0.743925099543292 0.256074900456708 0.39179915557233763 0.6082008444276624 0.5964785300517854 0.40352146994821464 0.2909020509752416 0.7090979490247584 0.4039576256275691 0.596042374372431 0.3649197411870955 0.6350802588129045 0.3242798374706441 0.675720162529356 0.8805887819987028 0.1194112180012972 0.8237434086409213 0.17625659135907867 0.2594901144008119 0.7405098855991882 0.6917508938402187 0.30824910615978124 0.7099287142355138 0.29007128576448626 0.4394147570288065 0.5605852429711935 0.45737424177211 0.54262575822789 0.49793850561059544 0.5020614943894046 0.37540163818098277 0.6245983618190173 0.6677993700137029 0.3322006299862971 0.9073826283550799 0.09261737164492016 0.5503152474613082 0.44968475253869167 0.7242371616390588 0.2757628383609411 0.19385853695001412 0.8061414630499859 0.9791375555257823 0.020862444474217704 0.45158610071654437 0.5484138992834556 0.5789752817168584 0.42102471828314175 0.0069936924804689035 0.9930063075195311 0.6406877248490208 0.3593122751509793 0.7786572973672037 0.22134270263279632 0.5503120003073462 0.44968799969265383 0.0045762910870054815 0.9954237089129945 0.35207758790661364 0.6479224120933864 0.5408961658166684 0.4591038341833315 0.3216713340596728 0.6783286659403271 0.9207645163521663 0.07923548364783371 0.8487886119318884 0.1512113880681116 0.7839868886885755 0.2160131113114245 0.9034683295606033 0.09653167043939674 0.7322170025215196 0.2677829974784804 0.9841483500057645 0.015851649994235505 0.6511086936486892 0.3488913063513107 0.7963952851978016 0.20360471480219844 0.7135012581560233 0.2864987418439768 0.6526718404611392 0.3473281595388607 0.43731801402795495 0.5626819859720451 0.4716053202564075 0.5283946797435926 0.6409274714871175 0.35907252851288257 0.2239987611170152 0.7760012388829848 0.4832562309609248 0.5167437690390753 0.7845972503481194 0.2154027496518807 0.5920828646586349 0.4079171353413651 0.3095085136843335 0.6904914863156666 0.2835009623877479 0.7164990376122521 0.7773533542544805 0.22264664574551954 0.6974253594474438 0.3025746405525562 0.3289128061722198 0.6710871938277801 0.47098793709161996 0.5290120629083801 0.6730245627483432 0.3269754372516568 0.31493446337731423 0.6850655366226857 0.9574491760792635 0.042550823920736475 0.9493376105723089 0.05066238942769112 0.33986537442716885 0.660134625572831 0.5819222535598161 0.41807774644018386 0.7400820441981499 0.25991795580185 0.5481444428356751 0.4518555571643248 0.6938674322434787 0.3061325677565213 0.5240157721510339 0.4759842278489661 0.3994213162778041 0.6005786837221959 0.1089752230625709 0.8910247769374291 0.18169005959684215 0.8183099404031579 0.49414838037282266 0.5058516196271774 0.5233147073987657 0.47668529260123427 0.5249680880075261 0.4750319119924738 0.7318831707849524 0.2681168292150476 0.6150207953689686 0.38497920463103147 0.6034383280444968 0.3965616719555033 0.1050960573196255 0.8949039426803745 0.8566310674918184 0.14336893250818156 0.2942097265204108 0.7057902734795892 0.3183837720115944 0.6816162279884057 0.9529885091826894 0.04701149081731063 0.21864985213552426 0.7813501478644758 0.7150357018782644 0.2849642981217356 0.40449378687090115 0.5955062131290989 0.37939186485304327 0.6206081351469568 0.5951782877822381 0.4048217122177619 0.3894533100949863 0.6105466899050137 0.7086211136838249 0.29137888631617503 0.1479042240256294 0.8520957759743706 0.4190772870707247 0.5809227129292753 0.3685144059164705 0.6314855940835296 0.5184750629366742 0.48152493706332583 0.8098534970999544 0.19014650290004578 0.23650402658987654 0.7634959734101234 0.10638855522477643 0.8936114447752236 0.8102697488861885 0.1897302511138114 0.03415017128685501 0.965849828713145 0.6148137990715102 0.38518620092848976 0.936023574395268 0.06397642560473209 0.45265024553557015 0.5473497544644299 0.5348617233594201 0.4651382766405799 0.46580292544609686 0.5341970745539032 0.3913585489696842 0.6086414510303159 0.4228653726755491 0.577134627324451 0.9881712281609227 0.01182877183907732 0.3148502364520638 0.6851497635479362 0.39681481328935075 0.6031851867106492 0.5059088080228863 0.4940911919771137 0.03533148846121401 0.964668511538786 0.2897545711040514 0.7102454288959487 0.31636053105126744 0.6836394689487326 0.6508301629860332 0.3491698370139668 0.5500646061305983 0.4499353938694016 0.7969693727920908 0.2030306272079092 0.21324170346865726 0.7867582965313428 0.24998576370432174 0.7500142362956782 0.3196456647815264 0.6803543352184737 0.716752256727651 0.283247743272349 0.1414699483150316 0.8585300516849684 0.961771958792506 0.03822804120749403 0.6423587476544618 0.3576412523455382 0.5510299075707459 0.4489700924292541 0.5402601940548153 0.4597398059451847 0.7431015681181613 0.2568984318818386 0.7160207132880788 0.28397928671192124 0.6181697536236819 0.381830246376318 0.4673244535450764 0.5326755464549237 0.3974469956111194 0.6025530043888806 0.9514564209838317 0.048543579016168355 0.055999721701807184 0.9440002782981928 0.5192765823468457 0.48072341765315435 0.8699621961547307 0.13003780384526928 0.5091966645482477 0.49080333545175225 0.7828125675551314 0.2171874324448687 0.14141157429029433 0.8585884257097057 0.5106854666117284 0.4893145333882717 0.5705398817125552 0.42946011828744474 0.6789907551917467 0.3210092448082533 0.45486289240820693 0.5451371075917931 0.4642870819152698 0.5357129180847302 0.6767206121994868 0.3232793878005133 0.4558393942778811 0.5441606057221189 0.48357626891770633 0.5164237310822938 0.6154762845601564 0.38452371543984365 0.5193932886304048 0.48060671136959526 0.2031892805482131 0.7968107194517868 0.5863715840393328 0.41362841596066724 0.7579389522182728 0.24206104778172724 0.5217505918827143 0.4782494081172856 0.33355725620327425 0.6664427437967257 0.7249838769121877 0.2750161230878123 0.5392274283130333 0.46077257168696667 0.9115584921395822 0.0884415078604178 0.7491640428152809 0.25083595718471924 0.6361686536683782 0.36383134633162195 0.14597035690340415 0.8540296430965957 0.9063602742827287 0.09363972571727125 0.3921345885885837 0.6078654114114164 0.38047527451866453 0.6195247254813355 0.4673213589684826 0.5326786410315173 0.3227603786723363 0.6772396213276637 0.630883138296984 0.36911686170301605 0.43356763770883644 0.5664323622911636 0.5122974530438179 0.48770254695618215 0.2948459408402918 0.7051540591597082 0.005068032621922675 0.9949319673780773 0.3340103965043045 0.6659896034956955 0.5912660011048332 0.4087339988951669 0.7059658884782898 0.29403411152171033 0.8962239083983882 0.10377609160161187 0.5045745159106625 0.4954254840893375 </TABLE>
    </DEFINITION>
    <DEFINITION>
      <FOR>15</FOR>
      <GIVEN>0</GIVEN>
      <GIVEN>6</GIVEN>
      <GIVEN>13</GIVEN>
      <GIVEN>14</GIVEN>
      <GIVEN>9</GIVEN>
      <GIVEN>12</GIVEN>
      <GIVEN>2</GIVEN>
      <GIVEN>3</GIVEN>
      <GIVEN>5</GIVEN>
      <TABLE>0.5810133711543337 0.41898662884566623 0.49934721552620565 0.5006527844737944 0.8204238749380941 0.17957612506190582 0.3202336634037415 0.6797663365962584 0.313251043561188 0.6867489564388121 0.5451794229087904 0.45482057709120965 0.7243669217560137 0.27563307824398625 0.5659945356926385 0.43400546430736153 0.5540182469024953 0.44598175309750476 0.610898468928567 0.3891015310714329 0.6151962014500916 0.3848037985499085 0.4666617256521637 0.5333382743478362 0.3672251627284326 0.6327748372715675 0.5690854314681596 0.4309145685318404 0.8143691828686443 0.1856308171313556 0.4400587362427738 0.5599412637572262 0.22094065782560152 0.7790593421743985 0.6935498948453356 0.3064501051546645 0.3809346169088561 0.6190653830911439 0.5458829770400421 0.454117022959958 0.6618617049225625 0.3381382950774375 0.7392052317938972 0.26079476820610287 0.5879971919434522 0.4120028080565476 0.12064291296024275 0.8793570870397572 0.2634555166748806 0.7365444833251193 0.7432437951555592 0.25675620484444084 0.3693588369029342 0.6306411630970659 0.08340270538711986 0.9165972946128801 0.3300708908862126 0.6699291091137873 0.041821519443688955 0.958178480556311 0.132046327490624 0.867953672509376 0.02764998728929609 0.9723500127107039 0.9208937048284604 0.0791062951715396 0.5522459608490167 0.44775403915098333 0.861230689145447 0.13876931085455302 0.42075536200114916 0.579244637998851 0.08059627912879831 0.9194037208712017 0.5341645189606394 0.46583548103936057 0.4383759138186687 0.5616240861813314 0.3879263272121869 0.612073672787813 0.39084159235461885 0.6091584076453811 0.7633987876631234 0.23660121233687667 0.6749391504868627 0.3250608495131373 0.33089115978605627 0.6691088402139437 0.7254914308426458 0.27450856915735417 0.8016790322596712 0.1983209677403288 0.25474118887738134 0.7452588111226187 0.5577095123103186 0.4422904876896815 0.7466214458277444 0.2533785541722557 0.442712278824287 0.557287721175713 0.8766178747647394 0.12338212523526071 0.9062337268043908 0.09376627319560911 0.287023863412143 0.7129761365878571 0.6398815682482076 0.36011843175179226 0.1390889727034272 0.8609110272965728 0.32331137994277986 0.6766886200572202 0.5825747456177757 0.41742525438222433 0.4018185214314507 0.5981814785685494 0.2612885279610793 0.7387114720389206 0.4669527460801305 0.5330472539198695 0.6333730828820096 0.36662691711799045 0.09123557393634096 0.908764426063659 0.09871974815242852 0.9012802518475714 0.6015275352938865 0.3984724647061135 0.5485949735603083 0.45140502643969166 0.9374856790147994 0.06251432098520061 0.5016643890737861 0.4983356109262139 0.6199978668890418 0.38000213311095815 0.8908837196217637 0.10911628037823634 0.5039636816666135 0.49603631833338646 0.5499853293941329 0.45001467060586714 0.491405053156372 0.5085949468436279 0.38903021997261544 0.6109697800273846 0.5930774933891617 0.4069225066108383 0.6359475534672295 0.36405244653277047 0.6558169730500711 0.344183026949929 0.6238205949776674 0.37617940502233255 0.2284449092523198 0.7715550907476803 0.37048025281570524 0.6295197471842948 0.41929200232846126 0.5807079976715387 0.2824929053037917 0.7175070946962083 0.764902995151305 0.23509700484869486 0.46117258251173576 0.5388274174882643 0.5858769530473048 0.4141230469526953 0.5130012276217664 0.48699877237823364 0.2826421762532233 0.7173578237467766 0.47224505964155067 0.5277549403584494 0.5023883439519127 0.49761165604808727 0.3419833559665529 0.6580166440334472 0.4427977926135434 0.5572022073864566 0.16610345894596895 0.833896541054031 0.5478974842979087 0.4521025157020913 0.5045118643567708 0.4954881356432293 0.5527453518014902 0.44725464819850974 0.5912099637916289 0.40879003620837095 0.9095808251927636 0.09041917480723631 0.06471501839574159 0.9352849816042584 0.8604068562648161 0.139593143735184 0.6117411254608791 0.3882588745391209 0.22737213582515356 0.7726278641748464 0.18452026655854176 0.8154797334414582 0.01034135476756667 0.9896586452324333 0.7710906866206699 0.22890931337933004 0.5490175639604873 0.45098243603951266 0.8030059894465322 0.1969940105534678 0.8391263925582197 0.16087360744178025 0.8475117007387148 0.1524882992612852 0.49100230387188565 0.5089976961281143 0.3816509402793485 0.6183490597206515 0.26221743783054874 0.7377825621694512 0.2067199922267187 0.7932800077732813 0.7232357897176839 0.2767642102823162 0.01777458283533915 0.9822254171646608 0.2790599513461844 0.7209400486538156 0.26992460526504247 0.7300753947349575 0.9766508487574923 0.023349151242507644 0.7023016824942069 0.2976983175057931 0.4725705138305302 0.5274294861694697 0.5435991026138538 0.4564008973861462 0.5770520489237402 0.4229479510762597 0.4084428210502247 0.5915571789497752 0.08288092874754441 0.9171190712524556 0.47119769800950717 0.5288023019904929 0.15252083870084857 0.8474791612991515 0.4573163353398915 0.5426836646601085 0.8390192319928145 0.1609807680071855 0.475295174812935 0.524704825187065 0.5265817626272009 0.47341823737279914 0.28219444701079144 0.7178055529892086 0.1650056951521736 0.8349943048478264 0.6861606072290983 0.31383939277090156 0.31824228345699374 0.6817577165430062 0.9643409497847333 0.035659050215266705 0.4968836409159553 0.5031163590840447 0.4630482200903643 0.5369517799096357 0.8014111883449936 0.19858881165500647 0.16540899302599027 0.8345910069740098 0.4343999033370857 0.5656000966629142 0.6630633426314524 0.33693665736854755 0.7835607973164376 0.2164392026835624 0.186279759301331 0.813720240698669 0.9798419090063022 0.02015809099369783 0.2818314251652964 0.7181685748347035 0.5635437319420301 0.43645626805796994 0.592974532618471 0.407025467381529 0.4159344286470605 0.5840655713529395 0.34972154457725513 0.6502784554227449 0.7260121935943 0.2739878064057 0.46045684538999815 0.5395431546100019 0.569409913258972 0.430590086741028 0.48001939760164875 0.5199806023983512 0.7083786852478332 0.29162131475216674 0.31742263551417765 0.6825773644858223 0.39493677690683376 0.6050632230931663 0.4292789630272766 0.5707210369727235 0.8639877618770191 0.13601223812298094 0.3606095256435771 0.6393904743564228 0.6783375725144578 0.32166242748554225 0.6284668817204492 0.3715331182795509 0.2601753257584943 0.7398246742415058 0.6863063497498042 0.3136936502501958 0.5089566176203512 0.49104338237964873 0.43362528433902325 0.5663747156609767 0.3268169466266915 0.6731830533733085 0.7725906732297618 0.22740932677023823 0.2874475293107627 0.7125524706892373 0.6913427222163835 0.3086572777836165 0.1740253500620207 0.8259746499379793 0.023449369871485375 0.9765506301285146 0.06750543713534073 0.9324945628646593 0.5239262706804212 0.47607372931957875 0.481770016220972 0.5182299837790281 0.6598939360535274 0.3401060639464726 0.7958587132710034 0.20414128672899656 0.5595954159123937 0.4404045840876063 0.5445418430264553 0.45545815697354475 0.5621915316328597 0.4378084683671403 0.6188695837984707 0.3811304162015294 0.8672035321465685 0.13279646785343147 0.4916808091985867 0.5083191908014132 0.9886588605420542 0.01134113945794575 0.49279276111234205 0.507207238887658 0.7177787021516635 0.2822212978483365 0.9954757973472333 0.004524202652766707 0.13462638856882805 0.865373611431172 0.46746332419987263 0.5325366758001274 0.48426057052257704 0.5157394294774229 0.5219879051464723 0.47801209485352786 0.575099743466557 0.424900256533443 0.5473637553040483 0.4526362446959517 0.7380602138689001 0.2619397861310999 0.7285551628057872 0.27144483719421275 0.5099268866121536 0.4900731133878464 0.24338280970191273 0.7566171902980873 0.01288695401340845 0.9871130459865916 0.6586092812371594 0.3413907187628405 0.30755275938689225 0.6924472406131077 0.6427775635268478 0.3572224364731521 0.3882876079092805 0.6117123920907195 0.5281679416704887 0.4718320583295113 0.8741537809159525 0.12584621908404744 0.5202395798316388 0.47976042016836123 0.9903104419490515 0.00968955805094854 0.6957739426855718 0.30422605731442826 0.3841445843468572 0.615855415653143 0.5426740095928451 0.4573259904071548 0.14943084963204167 0.8505691503679583 0.8910017398785737 0.10899826012142633 0.6525158578657257 0.3474841421342742 0.024715676988755746 0.9752843230112442 0.7164340749404529 0.28356592505954714 0.2654856628005271 0.7345143371994729 0.5136762983677643 0.4863237016322357 0.7468156728816251 0.2531843271183749 0.6889101069448521 0.31108989305514795 0.921649224561964 0.07835077543803606 0.5076585106837826 0.49234148931621735 0.543678527048157 0.45632147295184305 0.5404571380353552 0.4595428619646447 0.20805560672683243 0.7919443932731676 0.2766214472268179 0.7233785527731821 0.3400088160374552 0.6599911839625447 0.34075745426626125 0.6592425457337387 0.31442593214756576 0.6855740678524342 0.821581829222843 0.17841817077715702 0.3333162194987908 0.6666837805012091 0.43462239969127303 0.565377600308727 0.1549664910723099 0.8450335089276901 0.3961969484817124 0.6038030515182876 0.35612886121717624 0.6438711387828238 0.4517296326764265 0.5482703673235735 0.5688347759240684 0.4311652240759317 0.2694272772815291 0.730572722718471 0.32422651707250494 0.6757734829274951 0.29451347158064584 0.7054865284193541 0.42464966945329935 0.5753503305467007 0.38658614395247165 0.6134138560475283 0.635322980267787 0.364677019732213 0.29621573649550176 0.7037842635044983 0.5718817366382706 0.4281182633617294 0.1884848466754406 0.8115151533245594 0.7085610239461464 0.29143897605385366 0.36986235527918493 0.6301376447208151 0.27304939587922006 0.7269506041207799 0.8002713870122196 0.19972861298778047 0.2149165709566016 0.7850834290433985 0.605403932096252 0.394596067903748 0.3712460474180109 0.6287539525819892 0.18583550971479584 0.8141644902852041 0.4699087368675783 0.5300912631324217 0.09198502374389049 0.9080149762561095 0.008160558982040409 0.9918394410179596 0.3682196851520374 0.6317803148479626 0.7028877993970111 0.29711220060298893 0.6059098345500277 0.3940901654499724 0.5437486346817297 0.4562513653182701 0.23815391639908634 0.7618460836009135 0.3468683895007918 0.6531316104992081 0.5390948937833498 0.46090510621665015 0.5962303230275493 0.40376967697245075 0.5310940134882853 0.46890598651171467 0.7604954756231357 0.23950452437686426 0.5474931640507714 0.4525068359492287 0.08302323087028098 0.916976769129719 0.9605086406063859 0.03949135939361412 0.6476282794866286 0.3523717205133714 0.6427628717378124 0.35723712826218756 0.31246986286977074 0.6875301371302293 0.1792216930870169 0.8207783069129831 0.6702209934068916 0.3297790065931084 0.8998544935813615 0.10014550641863852 0.7455353952383645 0.25446460476163535 0.5691192553181934 0.4308807446818065 0.6864787996133837 0.3135212003866163 0.3969213870048009 0.603078612995199 0.748619964554736 0.251380035445264 0.5262966173453388 0.47370338265466116 0.5395548929241031 0.46044510707589686 0.44161599937132784 0.5583840006286721 0.2574106576726109 0.7425893423273892 0.10659114337642803 0.893408856623572 0.4825099853112892 0.5174900146887108 0.5593539173091407 0.4406460826908593 0.9038730811378387 0.0961269188621613 0.6991002475127873 0.3008997524872128 0.38809088132435704 0.611909118675643 0.1886196993899172 0.8113803006100828 0.5502282083572736 0.44977179164272646 0.46553406550158816 0.5344659344984118 0.9268283845228192 0.07317161547718078 0.3254379161674142 0.6745620838325859 0.11941174047084334 0.8805882595291566 0.9023951749714388 0.0976048250285611 0.9486833165425329 0.051316683457467135 0.4464095091417338 0.5535904908582663 0.7678908030504088 0.23210919694959117 0.3909668750259942 0.6090331249740057 0.4946773154151647 0.5053226845848353 0.5236504300770121 0.47634956992298794 0.5839082438506039 0.4160917561493961 0.2918263913030217 0.7081736086969783 0.4259984152184838 0.5740015847815161 0.5251101852952694 0.47488981470473063 0.5782870723801807 0.4217129276198193 0.45816178978779853 0.5418382102122014 0.37130011442796673 0.6286998855720334 0.05161383660227817 0.9483861633977219 0.4668510497974322 0.5331489502025677 0.4821270157677377 0.5178729842322625 0.3396456761187295 0.6603543238812705 0.4959055064377743 0.5040944935622257 0.5695815483114374 0.43041845168856263 0.8258104522700472 0.17418954772995282 0.7583609316928972 0.2416390683071028 0.5980587547711944 0.4019412452288056 0.507010815062342 0.49298918493765803 0.3985669032119919 0.601433096788008 0.11685124704517125 0.8831487529548288 0.4646851635035708 0.5353148364964292 0.6426586902822018 0.3573413097177982 0.38508636456311124 0.6149136354368887 0.7303694977395822 0.26963050226041796 0.9061148974394025 0.09388510256059751 0.24090158581332766 0.7590984141866723 0.23800804407652945 0.7619919559234707 0.32844117961016484 0.6715588203898352 0.3315949419899556 0.6684050580100445 0.051321443402942035 0.9486785565970579 0.09531324615251376 0.9046867538474862 0.9273525849448443 0.0726474150551557 0.4407438292849324 0.5592561707150676 0.713417608456345 0.286582391543655 0.7994717495437149 0.2005282504562851 0.6791310368712012 0.32086896312879887 0.5036707009393575 0.4963292990606425 0.5063752267597428 0.4936247732402571 0.714972398395865 0.285027601604135 0.4632328397579705 0.5367671602420295 0.4540335743773121 0.5459664256226879 0.6026361339509528 0.3973638660490471 0.20679522212136348 0.7932047778786365 0.6910454799952102 0.30895452000478996 0.6560905708957161 0.3439094291042839 0.14569154204905782 0.8543084579509421 0.6081607717915666 0.3918392282084334 0.5029403803429261 0.4970596196570739 0.2714946442355309 0.7285053557644691 0.4560290749328132 0.5439709250671868 0.27642303456531647 0.7235769654346834 0.8845090463512305 0.11549095364876952 0.5281565022314294 0.4718434977685706 0.40881978641801486 0.5911802135819852 0.20722679209273268 0.7927732079072674 0.46646659776373933 0.5335334022362607 0.5604718281453773 0.4395281718546228 0.5169488779996596 0.4830511220003404 0.7001931058591647 0.29980689414083517 0.5851850452297098 0.41481495477029023 0.46962822470162063 0.5303717752983794 0.48155894436908675 0.5184410556309133 0.8528168529342613 0.14718314706573862 0.5995000018159508 0.40049999818404924 0.5998816501860211 0.40011834981397887 0.38063034284339786 0.6193696571566021 0.41432083934609587 0.5856791606539042 0.8988288327437124 0.10117116725628755 0.48982264136714654 0.5101773586328534 0.6669247282840484 0.33307527171595164 0.2676918037194583 0.7323081962805418 0.2946296539124373 0.7053703460875627 0.5259770183984604 0.4740229816015395 0.6803999028484009 0.31960009715159915 0.3920462422826485 0.6079537577173514 0.44136337826130545 0.5586366217386945 0.5253413076268924 0.47465869237310765 0.5915319335209341 0.4084680664790658 0.6886104794316598 0.31138952056834013 0.39339615345856715 0.6066038465414328 0.3367204586886052 0.6632795413113949 0.5554297705152158 0.44457022948478414 0.877304552025705 0.12269544797429495 0.41536295321909633 0.5846370467809037 0.6422101096924735 0.3577898903075265 0.41636778971263283 0.5836322102873672 0.7683815526499461 0.23161844735005388 0.5636086284966477 0.4363913715033522 0.5397117982842206 0.46028820171577944 0.41511696772824724 0.5848830322717528 0.10751639726593866 0.8924836027340614 0.38050783072856714 0.6194921692714328 0.5715174496733043 0.42848255032669563 0.5158314127354965 0.48416858726450357 0.5880435548869409 0.41195644511305907 0.6009775540429352 0.3990224459570648 0.42185869189691044 0.5781413081030895 0.6823452889415157 0.31765471105848425 0.6415645175407684 0.3584354824592317 0.28410228082099087 0.7158977191790091 0.4684122043381301 0.53158779566187 0.47886569652563576 0.5211343034743642 0.5412767016659934 0.4587232983340065 0.451325354724398 0.5486746452756021 0.3598592845622468 0.6401407154377531 0.9860008604399003 0.013999139560099709 0.2126987980029254 0.7873012019970747 0.555000306045931 0.444999693954069 0.9539682147389463 0.046031785261053705 0.002070567795044357 0.9979294322049557 0.6809058125173347 0.3190941874826651 0.5140954870032637 0.48590451299673637 0.6441390795431983 0.3558609204568018 0.6685467753046179 0.33145322469538213 0.39168883690760753 0.6083111630923925 0.26980398858615123 0.7301960114138487 0.776391501208149 0.223608498791851 0.4796835693417177 0.5203164306582823 0.5003818746326045 0.4996181253673955 0.4424525179462247 0.5575474820537752 0.3188267271139717 0.6811732728860282 0.7619705836461892 0.23802941635381086 0.363790316105478 0.636209683894522 0.8261589502663671 0.17384104973363287 0.46300912341268047 0.5369908765873195 0.257856934567734 0.7421430654322659 0.192626332482088 0.807373667517912 0.3691338826891769 0.6308661173108231 0.5419389510963292 0.4580610489036709 0.6185795282875627 0.38142047171243726 0.14368381447959816 0.8563161855204017 0.5724597912558776 0.42754020874412246 0.0761489301232316 0.9238510698767685 0.5191980487867461 0.48080195121325386 0.9550354751264164 0.044964524873583635 0.17884691490235685 0.8211530850976432 0.8562591049648921 0.14374089503510792 0.505377960797369 0.494622039202631 0.047375858263860586 0.9526241417361394 0.12144608249048414 0.8785539175095158 0.7939909553783736 0.20600904462162642 0.057191167045083466 0.9428088329549166 0.5748759643442527 0.42512403565574725 0.9802602415704768 0.019739758429523236 0.7136762061695346 0.28632379383046536 0.5997268721883661 0.400273127811634 0.12841012638433688 0.8715898736156631 0.7883406072052285 0.2116593927947716 0.6649417453272051 0.33505825467279504 0.39393971019731583 0.6060602898026842 0.022191789102607523 0.9778082108973924 0.7203472292369743 0.27965277076302575 0.4014360906298072 0.5985639093701929 0.29116143333365085 0.7088385666663491 0.5330623985669737 0.46693760143302626 0.17547814679157017 0.8245218532084299 0.3425882953817789 0.6574117046182211 0.2836766166768903 0.7163233833231097 0.6325961341878826 0.36740386581211737 0.7040987959335132 0.2959012040664868 0.6187596561172282 0.38124034388277184 0.8012935320071545 0.19870646799284553 0.22562393016282084 0.7743760698371792 0.5802764147126753 0.4197235852873247 0.46756505671668197 0.5324349432833181 0.26239891137106647 0.7376010886289336 0.45594469282620065 0.5440553071737994 0.9822855386617692 0.017714461338230868 0.6212213652752807 0.37877863472471934 0.0005468235388952161 0.9994531764611048 0.10317678025179874 0.8968232197482012 0.8461103341315954 0.15388966586840458 0.07086441519235141 0.9291355848076486 0.41068391311737806 0.5893160868826219 0.20766505316175835 0.7923349468382417 0.6757079413512598 0.3242920586487403 0.8590759818399456 0.14092401816005445 0.2390888334659887 0.7609111665340113 0.31503319675450575 0.6849668032454942 0.6779048605083056 0.32209513949169444 0.7486941979594598 0.2513058020405401 0.5871470729235742 0.4128529270764258 0.40568747518597387 0.5943125248140261 0.40628037892781854 0.5937196210721815 0.8465697580515039 0.15343024194849605 0.5178542512556564 0.4821457487443436 0.4641636364105871 0.5358363635894129 0.1044690702221417 0.8955309297778583 0.298632445416753 0.701367554583247 0.6466951877349268 0.35330481226507304 0.5195676501529358 0.4804323498470641 0.8505331958212863 0.1494668041787136 0.7169841651895609 0.28301583481043907 0.4950750888842382 0.5049249111157619 0.08965699679732217 0.9103430032026778 0.49189955562187815 0.508100444378122 0.7774392187987198 0.22256078120128023 0.9333276542021851 0.0666723457978149 0.08580506377263027 0.9141949362273697 0.3292584428939166 0.6707415571060834 0.11924709796185258 0.8807529020381474 0.7690571606708495 0.23094283932915044 0.6303821409374262 0.3696178590625738 0.6747646066941703 0.32523539330582957 0.9431082839950032 0.0568917160049968 0.446378986496607 0.5536210135033929 0.8767028834334042 0.12329711656659582 0.8662630267525085 0.13373697324749145 0.3152118900180722 0.6847881099819277 0.46481353964345073 0.5351864603565493 0.7789124590973365 0.22108754090266353 0.710466448552737 0.2895335514472629 0.3394033842368983 0.6605966157631017 0.4130543466361489 0.5869456533638512 </TABLE>
    </DEFINITION>
    <DEFINITION>
      <FOR>16</FOR>
      <GIVEN>0</GIVEN>
      <GIVEN>14</GIVEN>
      <GIVEN>11</GIVEN>
      <GIVEN>3</GIVEN>
      <GIVEN>4</GIVEN>
      <TABLE>0.0006543478197176796 0.9993456521802824 0.6276761062322949 0.37232389376770514 0.23744596561475118 0.7625540343852488 0.534370320881873 0.4656296791181271 0.6849468033143706 0.31505319668562937 0.9504090764510821 0.04959092354891795 0.30828843626798486 0.6917115637320151 0.6735839326855901 0.32641606731440975 0.49454328955617244 0.5054567104438276 0.35100545261632954 0.6489945473836705 0.5359233689489966 0.4640766310510034 0.6480415029966309 0.351958497003369 0.938199183527395 0.06180081647260505 0.2739802260845287 0.7260197739154712 0.7700467552306925 0.22995324476930729 0.6459031166127123 0.3540968833872877 0.2925329409392813 0.7074670590607187 0.6319176750871514 0.36808232491284865 0.3316009971824132 0.6683990028175868 0.5676254722585313 0.4323745277414686 0.708579952046367 0.2914200479536329 0.6777049441753671 0.32229505582463286 0.49874343832205265 0.5012565616779474 0.6172975899011381 0.38270241009886197 0.2965734488622076 0.7034265511377924 0.05046724367224844 0.9495327563277516 0.023865979294994975 0.976134020705005 0.4722505980102089 0.5277494019897911 0.5638445030983736 0.4361554969016264 0.6041275399030479 0.39587246009695193 0.5275582939453789 0.47244170605462105 0.5520631989669614 0.44793680103303857 </TABLE>
    </DEFINITION>
    <DEFINITION>
      <FOR>17</FOR>
      <GIVEN>0</GIVEN>
      <GIVEN>8</GIVEN>
      <GIVEN>15</GIVEN>
      <GIVEN>9</GIVEN>
      <GIVEN>12</GIVEN>
      <GIVEN>2</GIVEN>
      <GIVEN>3</GIVEN>
      <GIVEN>5</GIVEN>
      <TABLE>0.8410128880367937 0.15898711196320628 0.7807906011122726 0.21920939888772736 0.8120145967544726 0.18798540324552743 0.49082043758337224 0.5091795624166278 0.4122294374424912 0.5877705625575087 0.5738914240831885 0.42610857591681156 0.9296282612099825 0.0703717387900175 0.3898592732508096 0.6101407267491905 0.26426578179354854 0.7357342182064515 0.5213674693186489 0.47863253068135103 0.5434756660899388 0.45652433391006114 0.9269000293616622 0.07309997063833787 0.43509369653468455 0.5649063034653156 0.4073763592932829 0.592623640706717 0.6876702419587145 0.3123297580412856 0.6257985193343902 0.3742014806656098 0.31443565882481256 0.6855643411751874 0.8100421404925224 0.18995785950747757 0.9190401551062047 0.08095984489379529 0.6368492373363345 0.36315076266366547 0.8632589105338523 0.13674108946614774 0.9974674471434835 0.00253255285651658 0.9904436484862036 0.009556351513796425 0.9758929344287695 0.02410706557123056 0.1093953022895742 0.8906046977104258 0.7071407337951252 0.2928592662048748 0.2658844914369872 0.7341155085630128 0.9643588078084662 0.03564119219153388 0.06944268492144547 0.9305573150785545 0.3182562763270365 0.6817437236729635 0.9127125485609062 0.08728745143909375 0.05017773350733752 0.9498222664926624 0.520538021058081 0.47946197894191905 0.7513894799437097 0.24861052005629025 0.5361921533154229 0.4638078466845771 0.12355718427348106 0.8764428157265189 0.6949253471827763 0.3050746528172237 0.6144710581318794 0.38552894186812064 0.3442293241888898 0.6557706758111101 0.7193897096438236 0.28061029035617646 0.3324394321835955 0.6675605678164045 0.7219581048606063 0.27804189513939365 0.5073483989000822 0.4926516010999178 0.4843201756021922 0.5156798243978078 0.359544955506194 0.640455044493806 0.5290627304963897 0.4709372695036102 0.5255605161601139 0.4744394838398862 0.9674268049488417 0.03257319505115829 0.0063595431291727875 0.9936404568708272 0.8833443093677149 0.11665569063228509 0.33392472784803995 0.66607527215196 0.7081406370408392 0.2918593629591608 0.19176556611997453 0.8082344338800255 0.5255606626885944 0.4744393373114057 0.5045523562153259 0.49544764378467404 0.3747454955528217 0.6252545044471782 0.4689419296287226 0.5310580703712775 0.6646506110138022 0.33534938898619776 0.28987803533750073 0.7101219646624992 0.563854056950285 0.43614594304971505 0.42551335216907815 0.5744866478309218 0.2738533620590142 0.7261466379409858 0.48827091116707727 0.5117290888329227 0.8934076049593794 0.10659239504062056 0.42009084633468363 0.5799091536653164 0.8755072530531509 0.12449274694684904 0.644895867644429 0.3551041323555711 0.6846777097864072 0.3153222902135928 0.23896802656453617 0.7610319734354638 0.29835435294846563 0.7016456470515344 0.8055578329366981 0.19444216706330184 0.5321045881154799 0.46789541188452016 0.754572052901035 0.2454279470989651 0.22949453055168334 0.7705054694483167 0.43676911692600895 0.563230883073991 0.21541639137448418 0.7845836086255158 0.38215191905623275 0.6178480809437672 0.09313933085825632 0.9068606691417437 0.4764521224128013 0.5235478775871987 0.3366256345851931 0.6633743654148069 0.39369713194946526 0.6063028680505348 0.4367245181157052 0.5632754818842949 0.9669906805462056 0.03300931945379436 0.43450331661861835 0.5654966833813816 0.8461546847242403 0.15384531527575976 0.17525730471341663 0.8247426952865834 0.36522098283642046 0.6347790171635795 0.8513547031559571 0.14864529684404296 0.5875686526732404 0.4124313473267596 0.6360038793081946 0.3639961206918055 0.4598014896120641 0.5401985103879359 0.6140923278725413 0.38590767212745863 0.31234165110073936 0.6876583488992607 0.35106255699551436 0.6489374430044856 0.9608326445732707 0.0391673554267293 0.17755059511610474 0.8224494048838953 0.4761277090759585 0.5238722909240415 0.8114841606745123 0.18851583932548766 0.48726470838006775 0.5127352916199323 0.9895086927565767 0.010491307243423302 0.6484753152128293 0.35152468478717075 0.8819801160048847 0.11801988399511533 0.6509790910485301 0.3490209089514698 0.6562176423869075 0.3437823576130925 0.6949335015682491 0.30506649843175093 0.5780618438810662 0.42193815611893387 0.7564723022631266 0.24352769773687344 0.4731635323994889 0.5268364676005111 0.5578732124866533 0.44212678751334666 0.17125255724411967 0.8287474427558803 0.5023557178880597 0.4976442821119404 0.7779010058570203 0.22209899414297973 0.2594290456765939 0.740570954323406 0.7872985654109136 0.21270143458908639 0.813637808087583 0.18636219191241687 0.6252687669028434 0.3747312330971566 0.4454537878590277 0.5545462121409723 0.450067671912542 0.5499323280874581 0.06139453395183922 0.9386054660481606 0.4141217393242335 0.5858782606757664 0.9100549206281666 0.0899450793718334 0.7227411128764941 0.2772588871235059 0.9600552752129097 0.03994472478709033 0.6069479056693429 0.39305209433065713 0.6322359653322799 0.36776403466772 0.6153257991712765 0.38467420082872356 0.47684552484510695 0.523154475154893 0.20390173110039692 0.7960982688996031 0.9807491787740074 0.019250821225992646 0.5501038436350902 0.4498961563649098 0.41801346009698803 0.5819865399030119 0.8334218815327257 0.16657811846727438 0.46916449239715 0.5308355076028499 0.44870588971878766 0.5512941102812123 0.35504191108996414 0.6449580889100359 0.6429455958755688 0.35705440412443123 0.14027697640349165 0.8597230235965083 0.2799839718093193 0.7200160281906808 0.7084211811848695 0.2915788188151305 0.3047283014448748 0.6952716985551252 0.43178188033970794 0.568218119660292 0.5441333166953265 0.4558666833046735 0.40661304805094606 0.5933869519490539 0.19505225650010857 0.8049477434998914 0.4506097007943297 0.5493902992056704 0.25242335828448736 0.7475766417155126 0.4316442390108611 0.568355760989139 0.8327635812693267 0.16723641873067335 0.6405041397028324 0.35949586029716757 0.3518406139003547 0.6481593860996453 0.4509558533592659 0.549044146640734 0.9759817047559362 0.02401829524406383 0.8529271135503095 0.14707288644969052 0.43324310874322935 0.5667568912567706 0.47607356693633623 0.5239264330636638 0.3220375821444669 0.6779624178555331 0.9980126555868216 0.0019873444131784054 0.5267465392572662 0.4732534607427339 0.25063143885036454 0.7493685611496355 0.6719559501075222 0.32804404989247776 0.3146378774451046 0.6853621225548954 0.17947617693693263 0.8205238230630674 0.8696107313085308 0.13038926869146913 0.15448369915943586 0.8455163008405641 0.8991618578770386 0.10083814212296134 0.6360726880518216 0.36392731194817846 0.09717845868130365 0.9028215413186964 0.919635861040719 0.08036413895928092 0.4583237338170673 0.5416762661829326 0.5256886334508554 0.4743113665491447 0.8411898358625399 0.15881016413746002 0.778284627462714 0.22171537253728604 0.8325275057824014 0.1674724942175987 0.400914973713649 0.5990850262863511 0.546832655996801 0.453167344003199 0.6709269779566683 0.3290730220433317 0.8287529625088716 0.1712470374911284 0.40308498459051706 0.5969150154094829 0.9499872640545236 0.05001273594547639 0.5453275030379329 0.4546724969620672 0.4987961813627271 0.5012038186372729 0.9480293114946903 0.05197068850530974 0.4923182913055371 0.5076817086944628 0.29817372875618936 0.7018262712438106 0.4760866375935701 0.5239133624064298 0.5339452459571287 0.4660547540428714 0.48208942803463956 0.5179105719653604 0.15669647972324888 0.8433035202767512 0.41146598357738573 0.5885340164226143 0.20221728399817554 0.7977827160018245 0.22015741249527665 0.7798425875047234 0.06912357809983695 0.9308764219001631 0.6655771051961633 0.33442289480383663 0.9513277277075267 0.04867227229247328 0.07564631828464008 0.9243536817153599 0.35846617491112903 0.641533825088871 0.34160629594789715 0.6583937040521028 0.05085493174812427 0.9491450682518756 0.025552031638440015 0.97444796836156 0.9728177634499031 0.027182236550096876 0.37673319944785294 0.6232668005521471 0.25637290106417143 0.7436270989358286 0.5759401018409286 0.42405989815907136 0.6703583532633267 0.32964164673667323 0.1750474385903675 0.8249525614096325 0.6667061264447182 0.3332938735552819 0.764027599330208 0.23597240066979194 0.44253814808773356 0.5574618519122664 0.3324144048001751 0.667585595199825 0.5044969211358824 0.49550307886411754 0.6322391402248512 0.36776085977514883 0.518504007039796 0.48149599296020396 0.43682333243931726 0.5631766675606826 0.14046792012332807 0.8595320798766719 0.1857970269589772 0.8142029730410228 0.5953406569139564 0.40465934308604357 0.5566086132337621 0.44339138676623796 0.31719456183995265 0.6828054381600475 0.9603439384134185 0.039656061586581554 0.35398177127106656 0.6460182287289334 0.33389332125853516 0.6661066787414648 0.5177740403472189 0.48222595965278114 0.62090439174211 0.37909560825789007 0.3381455742937595 0.6618544257062404 0.07877476043157516 0.9212252395684248 0.45537834268365307 0.5446216573163468 0.8390831554154232 0.16091684458457675 0.8634944827301009 0.13650551726989912 0.08315727940843472 0.9168427205915652 0.03724445312265344 0.9627555468773465 0.5975507698410398 0.4024492301589602 0.6595488227147842 0.3404511772852158 0.6139836189821718 0.38601638101782815 0.4374667268810496 0.5625332731189505 0.6735492058998299 0.3264507941001701 0.5326425027074382 0.4673574972925617 0.4218097802373959 0.5781902197626041 0.2846678816222376 0.7153321183777623 0.002989648344230881 0.9970103516557691 0.4851672858623964 0.5148327141376036 0.6186122679422211 0.38138773205777887 0.24167952097567227 0.7583204790243278 0.42571581779535134 0.5742841822046487 0.3729644211330608 0.6270355788669393 0.42137970138487163 0.5786202986151283 0.09840762148780584 0.9015923785121942 0.3563574879414878 0.6436425120585122 0.44639516722159633 0.5536048327784037 0.5379298772238065 0.4620701227761935 0.4501874349767818 0.5498125650232183 0.8421052747477512 0.1578947252522488 0.34041848039802153 0.6595815196019785 0.4453682599313255 0.5546317400686743 0.4873238598933807 0.5126761401066194 0.06964013855410389 0.9303598614458961 0.04355635940331807 0.956443640596682 </TABLE>
    </DEFINITION>
    <DEFINITION>
      <FOR>18</FOR>
      <GIVEN>0</GIVEN>
      <GIVEN>1</GIVEN>
      <GIVEN>6</GIVEN>
      <GIVEN>13</GIVEN>
      <GIVEN>14</GIVEN>
      <GIVEN>15</GIVEN>
      <GIVEN>17</GIVEN>
      <GIVEN>9</GIVEN>
      <GIVEN>12</GIVEN>
      <GIVEN>2</GIVEN>
      <GIVEN>3</GIVEN>
      <GIVEN>4</GIVEN>
      <TABLE>0.5285373865642916 0.4714626134357083 0.7145343378121567 0.2854656621878433 0.4436087990799303 0.5563912009200698 0.5206824272001692 0.4793175727998308 0.9405319886048664 0.05946801139513357 0.4998367887792284 0.5001632112207716 0.3061613028544051 0.6938386971455949 0.3549038002237406 0.6450961997762594 0.6437106330327884 0.3562893669672116 0.5386234494477048 0.46137655055229526 0.4482577329458598 0.5517422670541402 0.33525332411634917 0.6647466758836508 0.4330723784372764 0.5669276215627237 0.9836547907348953 0.016345209265104778 0.31221347627502233 0.6877865237249777 0.6635160614451666 0.3364839385548333 0.5498942669073573 0.45010573309264257 0.8004083016677521 0.19959169833224794 0.49347514809219806 0.5065248519078019 0.3398356867280057 0.6601643132719943 0.12690671153226948 0.8730932884677305 0.41110856853287514 0.5888914314671249 0.46018589279740596 0.539814107202594 0.5457768629880894 0.45422313701191064 0.36394345618402363 0.6360565438159764 0.18708933250103416 0.8129106674989658 0.9602607672035643 0.03973923279643563 0.9827145937856261 0.01728540621437387 0.5900543804685536 0.4099456195314465 0.9771881295034096 0.02281187049659035 0.6299403608136256 0.3700596391863744 0.9725470917743086 0.027452908225691304 0.40725392360650653 0.5927460763934935 0.5827568923792177 0.41724310762078226 0.5029688204016184 0.4970311795983816 0.5026977159586103 0.4973022840413896 0.17318287682241193 0.8268171231775882 0.5278889196034274 0.47211108039657257 0.9220782649449805 0.07792173505501948 0.4707434026153811 0.5292565973846188 0.30058821109816225 0.6994117889018377 0.3130268448245917 0.6869731551754084 0.701265017596176 0.298734982403824 0.45117974908593905 0.548820250914061 0.5039091666233264 0.49609083337667353 0.7804002121046237 0.2195997878953764 0.793700173240171 0.2062998267598291 0.34844854878000925 0.6515514512199908 0.13765722643882736 0.8623427735611727 0.6089950099201438 0.39100499007985623 0.5113872179915653 0.4886127820084348 0.5732757163652304 0.42672428363476955 0.9751283714905402 0.024871628509459797 0.22935764768860437 0.7706423523113957 0.731177446272953 0.26882255372704705 0.03635139330180706 0.963648606698193 0.5317647192727303 0.4682352807272697 0.840712448164276 0.159287551835724 0.8111169913959259 0.18888300860407412 0.18408544457596057 0.8159145554240395 0.4151370194185422 0.5848629805814578 0.02754812733234559 0.9724518726676544 0.7592609563179541 0.24073904368204585 0.978647650004523 0.021352349995476933 0.12944569619763097 0.8705543038023691 0.10433633799880619 0.8956636620011938 0.9320474956169412 0.06795250438305894 0.16129171153421965 0.8387082884657804 0.025404470523138156 0.9745955294768618 0.9090217568064324 0.09097824319356758 0.07868539188628146 0.9213146081137186 0.1269984801309736 0.8730015198690264 0.4799160233996845 0.5200839766003156 0.5329077248020407 0.4670922751979593 0.1958634193239125 0.8041365806760875 0.8571877995195597 0.14281220048044024 0.6391195983043972 0.3608804016956028 0.04883994215288137 0.9511600578471188 0.39932337244740157 0.6006766275525984 0.42228156695198826 0.5777184330480117 0.24039483963578168 0.7596051603642183 0.0427500430520675 0.9572499569479325 0.24108774751681947 0.7589122524831804 0.42197448716868524 0.5780255128313148 0.515679326928389 0.4843206730716109 0.15053571750293698 0.849464282497063 0.28093118437702685 0.7190688156229731 0.5469783544526031 0.4530216455473968 0.9736287693013901 0.026371230698609898 0.6756632131177865 0.32433678688221346 0.3272812710428495 0.6727187289571505 0.49372754786651857 0.5062724521334815 0.9639612474106927 0.03603875258930733 0.39607532039903715 0.6039246796009629 0.4129981072290095 0.5870018927709905 0.9552022527224533 0.044797747277546755 0.4715363524888189 0.5284636475111811 0.3082926552731075 0.6917073447268925 0.06391994217730217 0.9360800578226979 0.6284726541146723 0.37152734588532765 0.39474775853176264 0.6052522414682373 0.26672955912327817 0.7332704408767219 0.9276118176863907 0.0723881823136093 0.425987018722441 0.574012981277559 0.3124260408261043 0.6875739591738957 0.525876873188816 0.4741231268111839 0.7879767844161975 0.21202321558380258 0.5546861859997083 0.44531381400029163 0.8539225995941457 0.1460774004058542 0.35157084328574467 0.6484291567142553 0.0829242970087742 0.9170757029912258 0.5916542273019849 0.4083457726980151 0.24676039031573885 0.7532396096842612 0.6202757457693575 0.3797242542306425 0.42967617268194913 0.5703238273180509 0.8298795428846586 0.17012045711534146 0.7616982257188347 0.23830177428116525 0.11429146975967856 0.8857085302403215 0.8568307490720701 0.14316925092792984 0.7060845012695918 0.2939154987304083 0.7566858577604593 0.24331414223954073 0.4893772236898855 0.5106227763101145 0.3301455581503273 0.6698544418496727 0.5451766904062428 0.45482330959375705 0.3759804089111982 0.6240195910888018 0.5725953757621935 0.4274046242378064 0.09716394043309384 0.9028360595669062 0.14054247474430256 0.8594575252556974 0.6558751804665764 0.3441248195334236 0.7331945466466477 0.26680545335335215 0.5110991360058211 0.4889008639941789 0.25488168277038686 0.7451183172296132 0.31371978767274117 0.6862802123272589 0.487681177933738 0.5123188220662619 0.43206930937958554 0.5679306906204146 0.6620589888839276 0.3379410111160725 0.9187680338778942 0.08123196612210579 0.5671233124244835 0.4328766875755165 0.43881433953291965 0.5611856604670804 0.6311689607675339 0.368831039232466 0.10001896311828008 0.8999810368817199 0.3611792509413134 0.6388207490586865 0.7379991159733782 0.2620008840266218 0.5192164463409017 0.48078355365909836 0.42147505630497817 0.5785249436950218 0.4692576283006705 0.5307423716993295 0.6739069902986703 0.32609300970132976 0.22768806632812746 0.7723119336718725 0.11148025630608858 0.8885197436939114 0.7875055729657635 0.21249442703423646 0.6820818878306407 0.3179181121693593 0.5159900883952059 0.48400991160479423 0.923032833049278 0.07696716695072188 0.6129226939320179 0.38707730606798213 0.4876336735039037 0.5123663264960963 0.9664187434601087 0.03358125653989127 0.35077256699128273 0.6492274330087173 0.5175917839183041 0.482408216081696 0.07404610370224443 0.9259538962977556 0.673739989249649 0.32626001075035105 0.6568623819456068 0.34313761805439325 0.43935850975474383 0.5606414902452561 0.32684859483481404 0.673151405165186 0.24935789982998793 0.7506421001700121 0.498731421490663 0.501268578509337 0.5615391776221987 0.4384608223778013 0.0805257883914085 0.9194742116085916 0.6704201530294001 0.3295798469705999 0.45886128200292353 0.5411387179970766 0.12550500065833706 0.874494999341663 0.821886235641681 0.17811376435831908 0.481976838718848 0.518023161281152 0.991048104578191 0.008951895421808919 0.7273630730278406 0.2726369269721593 0.7273286272483782 0.2726713727516218 0.3849022204055281 0.6150977795944719 0.5789827352065517 0.4210172647934483 0.5945096731283045 0.40549032687169556 0.9386099340241978 0.06139006597580223 0.3273433024716285 0.6726566975283714 0.4099138450531299 0.5900861549468701 0.6589135139046832 0.3410864860953168 0.9952538017813407 0.0047461982186592895 0.5328226900780487 0.4671773099219513 0.578641921577422 0.42135807842257783 0.925154491241506 0.07484550875849404 0.3109426129546662 0.6890573870453338 0.42966475464385634 0.5703352453561437 0.4974136578100184 0.5025863421899817 0.6594281175127908 0.3405718824872091 0.47000071886624223 0.5299992811337578 0.48883790862455995 0.51116209137544 0.9001384459477553 0.0998615540522447 0.2770293169797332 0.7229706830202667 0.11197944673260747 0.8880205532673925 0.49621337720093384 0.5037866227990662 0.7954362927536369 0.20456370724636305 0.8188248967887394 0.18117510321126062 0.4697260355949548 0.5302739644050452 0.13412609531434158 0.8658739046856584 0.2601037154958517 0.7398962845041483 0.07268830172813878 0.9273116982718612 0.07841150363072845 0.9215884963692715 0.37710998252446304 0.622890017475537 0.6094979176833148 0.3905020823166852 0.7617040408631609 0.23829595913683913 0.33576941193963733 0.6642305880603626 0.013320318027533418 0.9866796819724666 0.1165933056171201 0.8834066943828799 0.8424775498812295 0.15752245011877056 0.8264191009147335 0.17358089908526655 0.7495192414627417 0.25048075853725826 0.5994958366660111 0.4005041633339888 0.5138933129848089 0.4861066870151912 0.4502694515028679 0.5497305484971321 0.7298099279135446 0.27019007208645546 0.5409207923804488 0.45907920761955123 0.49883574771908984 0.5011642522809102 0.3743013810974702 0.6256986189025299 0.31079722969783125 0.6892027703021688 0.39665694476997515 0.603343055230025 0.38139904093988103 0.6186009590601189 0.6888486854628961 0.3111513145371037 0.48223190918511166 0.5177680908148884 0.3843217464857308 0.6156782535142692 0.3132122477990817 0.6867877522009184 0.47601211060861937 0.5239878893913806 0.8583878330282331 0.14161216697176687 0.5548735725753365 0.4451264274246635 0.9921460779900573 0.007853922009942746 0.5945118168658149 0.40548818313418505 0.3078823222273107 0.6921176777726893 0.420448687086429 0.5795513129135711 0.35769902615167537 0.6423009738483247 0.5609619191585148 0.43903808084148516 0.663389339932364 0.33661066006763607 0.9067835611760179 0.09321643882398215 0.4512966670192697 0.5487033329807304 0.48598553780197057 0.5140144621980295 0.7013041650896292 0.29869583491037077 0.47757668052756824 0.5224233194724318 0.7364615910492573 0.26353840895074265 0.6699158072058792 0.3300841927941209 0.3217596318059743 0.6782403681940257 0.20459264759260662 0.7954073524073934 0.5273382955561577 0.4726617044438423 0.5474732503290077 0.4525267496709922 0.21785982749655902 0.782140172503441 0.8660210947689314 0.13397890523106856 0.3588163254504754 0.6411836745495246 0.30663267639590613 0.6933673236040938 0.5300989000070799 0.46990109999292 0.48258558395311774 0.5174144160468822 0.5524088333949563 0.4475911666050437 0.4980594968332384 0.5019405031667615 0.5555194267668659 0.44448057323313417 0.19198232053071182 0.8080176794692882 0.8039591218348211 0.1960408781651789 0.5403052053913512 0.45969479460864876 0.8896151679032123 0.11038483209678772 0.3285827178484682 0.6714172821515317 0.18795703995657378 0.8120429600434262 0.07920650161288334 0.9207934983871167 0.23425327741017582 0.7657467225898242 0.7020362817892754 0.2979637182107246 0.3617777167718731 0.6382222832281268 0.3083812911194076 0.6916187088805924 0.3988588167297956 0.6011411832702044 0.24048117009041603 0.7595188299095841 0.5737253597594202 0.4262746402405798 0.5286812086009599 0.47131879139904015 0.7231547351103281 0.27684526488967187 0.5421502546905047 0.4578497453094954 0.03243357544730088 0.9675664245526991 0.3219503145898649 0.6780496854101351 0.08901832964987902 0.910981670350121 0.07006906710935668 0.9299309328906433 0.7276000339005926 0.2723999660994075 0.6523994800705778 0.3476005199294222 0.9425526715222159 0.057447328477784075 0.48286574061000564 0.5171342593899944 0.6184996317689108 0.3815003682310892 0.651027803992593 0.34897219600740703 0.705124377242569 0.2948756227574309 0.27054861625762744 0.7294513837423726 0.30661049069354374 0.6933895093064563 0.877611588419095 0.122388411580905 0.056755116333414464 0.9432448836665855 0.44904534217708225 0.5509546578229177 0.340333916915834 0.659666083084166 0.9562535649635587 0.04374643503644128 0.6133914472666225 0.3866085527333775 0.572298310473425 0.42770168952657495 0.5360485310365103 0.4639514689634897 0.7731834240360625 0.22681657596393745 0.8567994752037515 0.1432005247962485 0.9883476393994516 0.011652360600548438 0.710545078331382 0.28945492166861797 0.0860634919240371 0.9139365080759629 0.44776341869705016 0.5522365813029497 0.533828968526254 0.46617103147374594 0.3119386007803375 0.6880613992196625 0.7575314945984507 0.24246850540154924 0.6606078922344096 0.3393921077655904 0.11201713133495377 0.8879828686650463 0.23782524128095275 0.7621747587190473 0.6430642794283314 0.3569357205716686 0.4465882348960408 0.5534117651039592 0.07794487436325188 0.9220551256367481 0.35067141039829214 0.6493285896017078 0.9134586331342969 0.08654136686570307 0.49311373861214636 0.5068862613878536 0.4244283549316802 0.5755716450683199 0.47147644542927497 0.5285235545707251 0.43157773268004046 0.5684222673199595 0.7215689958402203 0.2784310041597798 0.24846887740578014 0.7515311225942198 0.9366349600162457 0.06336503998375434 0.39941195831690957 0.6005880416830903 0.46234885353434335 0.5376511464656567 0.7395956603373315 0.26040433966266846 0.5703218492931177 0.4296781507068823 0.9462178815075342 0.05378211849246585 0.16473058423271023 0.8352694157672897 0.9227425937206797 0.07725740627932029 0.461954205529244 0.5380457944707561 0.5591898830010609 0.44081011699893907 0.5823063120952053 0.4176936879047947 0.611873286224755 0.38812671377524494 0.5336421197710732 0.4663578802289268 0.608992554794641 0.39100744520535896 0.49432613475878745 0.5056738652412125 0.6494221633701 0.35057783662990005 0.6001412319052463 0.3998587680947536 0.4898165696219283 0.5101834303780717 0.29094049952012746 0.7090595004798725 0.48839408895155845 0.5116059110484416 0.5173252880465219 0.48267471195347816 0.857095097926072 0.14290490207392803 0.4453145664341799 0.5546854335658201 0.29528595829569254 0.7047140417043074 0.4319778339714072 0.5680221660285928 0.4041285167297766 0.5958714832702233 0.29262498624980915 0.7073750137501909 0.7251150945396578 0.27488490546034205 0.6032853295561719 0.3967146704438282 0.6115776348381249 0.38842236516187506 0.9713334554791704 0.028666544520829604 0.6934936842963438 0.30650631570365616 0.3456217789456764 0.6543782210543234 0.6336485101572741 0.36635148984272603 0.3509790807019041 0.6490209192980959 0.6282476379227631 0.37175236207723694 0.002620860129220496 0.9973791398707795 0.9187013439136841 0.08129865608631594 0.24943880414409306 0.750561195855907 0.4737395971598584 0.5262604028401416 0.5055507006891288 0.4944492993108712 0.3409953948635907 0.6590046051364091 0.49054584609140317 0.5094541539085968 0.5896812601361773 0.4103187398638228 0.3632707654312614 0.6367292345687386 0.20945946372603555 0.7905405362739645 0.9740597527372831 0.025940247262716938 0.5722770194763878 0.4277229805236122 0.40923628870188045 0.5907637112981196 0.5410246718391354 0.45897532816086467 0.4990257487435619 0.5009742512564381 0.4133635273845741 0.5866364726154258 0.8498187235922454 0.15018127640775455 0.5188417187320696 0.48115828126793037 0.3353068440641496 0.6646931559358504 0.9388234017650412 0.0611765982349588 0.3698339346300335 0.6301660653699664 0.6593857947831121 0.3406142052168879 0.6713019295544954 0.32869807044550453 0.7022855503338867 0.29771444966611327 0.4244097804599463 0.5755902195400537 0.5458652750188153 0.4541347249811846 0.39109236961741795 0.6089076303825821 0.6085232507239069 0.39147674927609305 0.8483546168651792 0.1516453831348208 0.5753089329066889 0.42469106709331106 0.6020329245062898 0.3979670754937102 0.4368667845602886 0.5631332154397113 0.3243347042471205 0.6756652957528796 0.1917298201868317 0.8082701798131684 0.8721148679979867 0.12788513200201332 0.37092345278279376 0.6290765472172062 0.7088236080078343 0.2911763919921658 0.5034845608597068 0.49651543914029317 0.2409068353490234 0.7590931646509766 0.5521549079545526 0.44784509204544737 0.40795064529254704 0.5920493547074529 0.15736541289190473 0.8426345871080952 0.5159816772850991 0.4840183227149008 0.2972236495014287 0.7027763504985713 0.3969134436350444 0.6030865563649556 0.7337448657337813 0.2662551342662187 0.532402328618128 0.467597671381872 0.9896935563033359 0.010306443696664124 0.6715531256531994 0.3284468743468006 0.14265442459441965 0.8573455754055803 0.5719935423784273 0.42800645762157274 0.1393234873220037 0.8606765126779963 0.258417956830082 0.7415820431699179 0.910018340111272 0.08998165988872794 0.8660625839985271 0.13393741600147288 0.49816506419202977 0.5018349358079701 0.48817471062446804 0.511825289375532 0.17574148325834538 0.8242585167416545 0.3627482361097139 0.637251763890286 0.3991039630465243 0.6008960369534757 0.41642035003495653 0.5835796499650435 0.7187167667241791 0.28128323327582094 0.2694672090666494 0.7305327909333507 0.014542520893495867 0.9854574791065042 0.4913902016691085 0.5086097983308916 0.3568289363629696 0.6431710636370304 0.24189723822010714 0.7581027617798929 0.8429264364615141 0.15707356353848592 0.4059046020735725 0.5940953979264275 0.749300029271209 0.250699970728791 0.7014373297458104 0.2985626702541896 0.6041168832518152 0.39588311674818466 0.09191519556496967 0.9080848044350304 0.24719884516785132 0.7528011548321487 0.3026852219707156 0.6973147780292843 0.5363325242358491 0.46366747576415096 0.4894245095039654 0.5105754904960347 0.37067335650712196 0.629326643492878 0.33425802524537956 0.6657419747546204 0.5033508551109545 0.49664914488904566 0.5109004540805773 0.48909954591942284 0.45670397538572394 0.5432960246142761 0.5870584571453241 0.41294154285467577 0.5800999945600716 0.4199000054399285 0.04346664634061699 0.956533353659383 0.7880151198052514 0.21198488019474854 0.16678751271949738 0.8332124872805027 0.43481368975909435 0.5651863102409057 0.5654523067795411 0.434547693220459 0.6251727490291877 0.37482725097081226 0.3470296662741704 0.6529703337258296 0.7129560996323022 0.2870439003676977 0.5386134367483185 0.4613865632516815 0.8684578968380703 0.1315421031619297 0.9619382992426763 0.038061700757323694 0.5782909101638788 0.42170908983612126 0.5802032400323088 0.4197967599676911 0.8109524165730299 0.18904758342697012 0.5507650494637991 0.449234950536201 0.41212979837820013 0.5878702016217999 0.45382809704877813 0.5461719029512219 0.4178528877010902 0.5821471122989098 0.44230264541560593 0.5576973545843941 0.801071687595006 0.19892831240499395 0.900767291239662 0.09923270876033796 0.17420490961815105 0.825795090381849 0.04682430658515699 0.953175693414843 0.51071304953488 0.4892869504651201 0.7198418092608571 0.28015819073914294 0.3428972716648346 0.6571027283351654 0.511386268993276 0.488613731006724 0.514137172544866 0.485862827455134 0.5486227905245683 0.4513772094754318 0.49823530075662514 0.5017646992433749 0.37174979142288195 0.628250208577118 0.5024358712818072 0.4975641287181927 0.9028277318120405 0.09717226818795957 0.44189344099186084 0.5581065590081391 0.7745650741496725 0.22543492585032737 0.7509971384316649 0.24900286156833504 0.6967186634736751 0.30328133652632494 0.5146222152951786 0.48537778470482135 0.5982019038131695 0.40179809618683054 0.579944892276388 0.42005510772361204 0.561300918124559 0.4386990818754411 0.47420600990637457 0.5257939900936254 0.19211287813899922 0.8078871218610008 0.5026892332991548 0.497310766700845 0.5174936999179075 0.48250630008209255 0.4850356478215522 0.5149643521784479 0.7124206886900275 0.2875793113099726 0.39867741526753225 0.6013225847324678 0.9313805204291803 0.06861947957081967 0.7539452214768373 0.24605477852316276 0.14881936625005204 0.851180633749948 0.7979490321109541 0.20205096788904586 0.016064556162197412 0.9839354438378026 0.5346804288432017 0.4653195711567984 0.6191648627315929 0.3808351372684071 0.8536719089242503 0.14632809107574976 0.4967680313953451 0.5032319686046549 0.44848088785222 0.5515191121477799 0.6142970297046931 0.38570297029530676 0.5999674426608547 0.4000325573391453 0.5357301120000807 0.4642698879999193 0.8016351948595488 0.1983648051404512 0.43261070496216164 0.5673892950378384 0.5027458109854948 0.49725418901450524 0.12542915813007668 0.8745708418699233 0.1457783180583752 0.8542216819416247 0.23979413083386494 0.7602058691661351 0.5040718851521211 0.49592811484787885 0.40946295493554163 0.5905370450644584 0.6245163387319286 0.37548366126807153 0.46465969426749315 0.5353403057325069 0.4305394791756881 0.5694605208243119 0.7845768218673855 0.21542317813261447 0.2841801682867774 0.7158198317132226 0.6979267159300341 0.30207328406996586 0.9122779166820102 0.08772208331798985 0.406273948676147 0.5937260513238529 0.8804788997468095 0.11952110025319046 0.1418818379366748 0.8581181620633251 0.8139660256570226 0.18603397434297744 0.9556431045850641 0.04435689541493591 0.7214983211606057 0.2785016788393943 0.30226953506773907 0.697730464932261 0.6397048935463473 0.36029510645365265 0.5776260901865256 0.42237390981347456 0.49200599400533196 0.5079940059946682 0.4345379613390316 0.5654620386609684 0.7803254778562719 0.21967452214372807 0.4369780914544013 0.5630219085455986 0.4425430279644708 0.5574569720355292 0.686297140465506 0.31370285953449395 0.5532662089199848 0.4467337910800151 0.35575780861798434 0.6442421913820157 0.5955946966302192 0.40440530336978076 0.8046231321821317 0.1953768678178683 0.5107985205364542 0.48920147946354575 0.6596894270986613 0.3403105729013387 0.4334060519530991 0.5665939480469009 0.7127835109694532 0.2872164890305468 0.12633534169864316 0.8736646583013569 0.36782728308030677 0.6321727169196932 0.6123357113033882 0.38766428869661185 0.1821112246954624 0.8178887753045376 0.5245108160494429 0.4754891839505571 0.2965027068548145 0.7034972931451855 0.17882374138615686 0.8211762586138431 0.48093071072121824 0.5190692892787817 0.4801413711019568 0.5198586288980432 0.26698387812874824 0.7330161218712518 0.013551884678415714 0.9864481153215843 0.14460373472414498 0.855396265275855 0.5145233146627324 0.4854766853372676 0.8654328257603917 0.13456717423960826 0.4483127793897557 0.5516872206102443 0.39153509639403494 0.608464903605965 0.44224735779261654 0.5577526422073835 0.43694083727253463 0.5630591627274654 0.5057830134934888 0.49421698650651125 0.49799798453994804 0.502002015460052 0.8286798512371433 0.17132014876285667 0.2220033716853793 0.7779966283146207 0.5402740954755 0.4597259045245 0.6073218294383202 0.3926781705616797 0.8719466440420846 0.12805335595791534 0.40340030985619724 0.5965996901438029 0.41622403759815013 0.5837759624018499 0.30447208731719433 0.6955279126828057 0.13243850612823338 0.8675614938717666 0.333632414178465 0.6663675858215351 0.9655738039309668 0.034426196069033216 0.2615766081903062 0.7384233918096937 0.3474228167247605 0.6525771832752395 0.3965398886862485 0.6034601113137514 0.6258518590457612 0.3741481409542387 0.33183398073596226 0.6681660192640377 0.7170483842459282 0.28295161575407185 0.5536688053630989 0.44633119463690096 0.43384237379734775 0.5661576262026523 0.5283945797944908 0.4716054202055092 0.24562482822998277 0.7543751717700172 0.8302846146566237 0.16971538534337618 0.4685461875325688 0.5314538124674312 0.4249594580659219 0.575040541934078 0.6020717583256101 0.39792824167438984 0.1237409169644572 0.8762590830355427 0.42343410419183425 0.5765658958081658 0.4642475680826735 0.5357524319173266 0.18514817181464552 0.8148518281853545 0.8712040987472441 0.12879590125275595 0.8517257394203319 0.14827426057966808 0.5005296535319752 0.4994703464680248 0.7991908611781047 0.20080913882189533 0.8746616219421703 0.1253383780578296 0.12253684302728696 0.877463156972713 0.5809280202149646 0.41907197978503546 0.8356389000291818 0.16436109997081813 0.5385983961376865 0.46140160386231366 0.5562449548432955 0.4437550451567045 0.5044987064011065 0.49550129359889356 0.5411051290715867 0.4588948709284133 0.041876482624192066 0.9581235173758079 0.4148157937883478 0.5851842062116521 0.27092831123033 0.72907168876967 0.5810405199820032 0.41895948001799677 0.4544796283347603 0.5455203716652397 0.654431377454651 0.3455686225453491 0.39292659180994616 0.6070734081900538 0.4106428003729432 0.5893571996270568 0.1708886612927316 0.8291113387072684 0.31220109755763265 0.6877989024423674 0.2587354457457626 0.7412645542542373 0.3372853196221376 0.6627146803778624 0.7134151720837179 0.28658482791628215 0.7303116581887781 0.2696883418112218 0.07946916677656822 0.9205308332234318 0.49762953930170584 0.502370460698294 0.10050492331773453 0.8994950766822656 0.39972540351744756 0.6002745964825524 0.7114070641660919 0.28859293583390816 0.7127353186370595 0.2872646813629405 0.09620355776621606 0.903796442233784 0.37438533240374067 0.6256146675962593 0.9557393732775512 0.04426062672244879 0.23190627136235437 0.7680937286376456 0.1544668552540416 0.8455331447459584 0.12452715694849091 0.8754728430515091 0.25592636257186946 0.7440736374281306 0.4737268254481338 0.5262731745518662 0.7923700333195888 0.20762996668041125 0.4753958694587966 0.5246041305412035 0.502166272406409 0.49783372759359096 0.6742680358491857 0.32573196415081435 0.5294580611897255 0.47054193881027456 0.5321585081764416 0.4678414918235584 0.400145304081945 0.599854695918055 0.32042793133143993 0.6795720686685601 0.6320688701685276 0.36793112983147225 0.2891107154917158 0.7108892845082843 0.5058533888959418 0.4941466111040582 0.45908711232923394 0.5409128876707661 0.4869807364461524 0.5130192635538475 0.5320600102278172 0.46793998977218276 0.1709435576997958 0.8290564423002041 0.9062089952857488 0.09379100471425118 0.9241598211002824 0.07584017889971766 0.16487044860943412 0.8351295513905659 0.5787688649757631 0.4212311350242369 0.2612977965811778 0.7387022034188222 0.11283077339139069 0.8871692266086093 0.29090516278202355 0.7090948372179765 0.3728838597773716 0.6271161402226284 0.9322640964749838 0.0677359035250161 0.712820313577611 0.28717968642238906 0.22137964752815878 0.7786203524718412 0.7003421932448222 0.29965780675517784 0.8638427899586649 0.13615721004133505 0.5290267613210654 0.47097323867893454 0.3077218086296659 0.6922781913703342 0.5665357979253665 0.4334642020746336 0.20710925167189315 0.7928907483281068 0.274113082139998 0.7258869178600019 0.609740717560826 0.39025928243917385 0.02394282887359565 0.9760571711264043 0.6617158723875592 0.33828412761244075 0.31075079449420645 0.6892492055057935 0.5330725076994448 0.4669274923005551 0.5251349361913722 0.47486506380862775 0.37146389323886864 0.6285361067611315 0.38260637877636616 0.6173936212236338 0.45686666809641224 0.5431333319035878 0.42360410094934625 0.5763958990506537 0.5667429782130382 0.4332570217869618 0.8765566583818911 0.1234433416181089 0.6997341802474493 0.3002658197525507 0.9482912873689531 0.051708712631046955 0.277407686539713 0.7225923134602871 0.43119468680018364 0.5688053131998163 0.45621814484665785 0.5437818551533421 0.44360050744320545 0.5563994925567946 0.6786280961780669 0.3213719038219331 0.6635413427455173 0.33645865725448265 0.9829084432338658 0.0170915567661342 0.4315762480428803 0.5684237519571197 0.3853696624676903 0.6146303375323098 0.531840149859343 0.46815985014065703 0.3638339722686744 0.6361660277313257 0.45917348553717025 0.5408265144628297 0.018616706705751003 0.981383293294249 0.40635673924364996 0.59364326075635 0.20517653071503733 0.7948234692849626 0.2472861617658085 0.7527138382341915 0.19254985826437274 0.8074501417356272 0.5410529354879378 0.45894706451206213 0.2809312207992231 0.7190687792007769 0.1922901097637794 0.8077098902362206 0.6902020181176683 0.30979798188233165 0.6083316605676833 0.3916683394323167 0.47868442772245523 0.5213155722775447 0.597922409431768 0.40207759056823206 0.5240363565087556 0.4759636434912444 0.23490073293324057 0.7650992670667595 0.14129277025028597 0.858707229749714 0.6936003543763307 0.30639964562366934 0.747904820740346 0.25209517925965397 0.2701924481942729 0.7298075518057271 0.6671780265103463 0.33282197348965376 0.15187825268353475 0.8481217473164653 0.8777858559876982 0.12221414401230184 0.9428006061084655 0.057199393891534486 0.4134731373053786 0.5865268626946213 0.1759387192703203 0.8240612807296798 0.6170583052656701 0.38294169473433 0.37935924259976234 0.6206407574002376 0.5456669504322823 0.45433304956771764 0.3538187640727878 0.6461812359272121 0.5239444421481961 0.47605555785180387 0.5127774647612081 0.4872225352387918 0.29926442320230506 0.700735576797695 0.5072609571614249 0.49273904283857506 0.3215178443280243 0.6784821556719757 0.43549556189528 0.5645044381047201 0.8098953901182095 0.19010460988179043 0.3475763547555976 0.6524236452444024 0.10979487609378537 0.8902051239062146 0.2997145651490432 0.7002854348509568 0.6250740805615241 0.37492591943847586 0.2561302908183601 0.74386970918164 0.6831587568100906 0.31684124318990936 0.7104028049514391 0.2895971950485609 0.20241722910565907 0.7975827708943409 0.5344839094613012 0.46551609053869886 0.6519692890175872 0.3480307109824127 0.07306266445947827 0.9269373355405217 0.9161511991337332 0.08384880086626684 0.126856081581833 0.873143918418167 0.4718133641713201 0.5281866358286799 0.39970557249655636 0.6002944275034436 0.7239306213239396 0.2760693786760604 0.4283108612337137 0.5716891387662862 0.515863855813094 0.4841361441869059 0.49528099850513846 0.5047190014948615 0.45521296954496254 0.5447870304550374 0.6990471895894764 0.30095281041052346 0.5734037757401158 0.4265962242598843 0.34560897943150465 0.6543910205684954 0.8688601708181706 0.1311398291818294 0.7176685309503774 0.2823314690496226 0.13699014703278325 0.8630098529672168 0.3939222085975871 0.606077791402413 0.03241646592784959 0.9675835340721504 0.6572577794411605 0.34274222055883946 0.44134927225665277 0.5586507277433472 0.6551060770813539 0.34489392291864596 0.12137185801022944 0.8786281419897706 0.4314009350043679 0.5685990649956322 0.9898379171822324 0.010162082817767652 0.49245091264925017 0.5075490873507499 0.2649176660322859 0.7350823339677142 0.8827202605495829 0.11727973945041721 0.4727669796438962 0.5272330203561039 0.6006784532018117 0.3993215467981884 0.6243976918584748 0.3756023081415253 0.4181950699652532 0.5818049300347468 0.9975998723440231 0.002400127655976838 0.9086409088355961 0.09135909116440387 0.5262967547118649 0.4737032452881351 0.474023257680566 0.525976742319434 0.40556952221076653 0.5944304777892335 0.5502164023928162 0.44978359760718384 0.5922782207328415 0.4077217792671584 0.37425919462500334 0.6257408053749967 0.8499384419204764 0.15006155807952362 0.6852346433686948 0.31476535663130517 0.5817573728965681 0.4182426271034319 0.46172757606834386 0.5382724239316562 0.3125193345281713 0.6874806654718287 0.950271365906703 0.04972863409329696 0.6252211846494007 0.3747788153505993 0.29451478932056085 0.7054852106794391 0.5413382577366296 0.4586617422633705 0.5472299215170214 0.45277007848297846 0.8150080968352135 0.18499190316478656 0.5999587852962953 0.4000412147037048 0.510179298603987 0.48982070139601297 0.5125213464458024 0.48747865355419756 0.47452412358481505 0.525475876415185 0.2879496873924702 0.7120503126075298 0.8048477732389707 0.19515222676102928 0.2348292104415826 0.7651707895584174 0.10683293026445628 0.8931670697355437 0.7508063649524974 0.24919363504750258 0.9478261234361797 0.0521738765638203 0.29166475363712485 0.7083352463628751 0.19426374644492164 0.8057362535550784 0.4152865141433559 0.5847134858566441 0.7791366986589431 0.22086330134105692 0.8509565310840881 0.14904346891591203 0.9494070651267031 0.050592934873296906 0.3580831427987795 0.6419168572012205 0.6261755894129534 0.3738244105870465 0.6708477594242456 0.32915224057575454 0.3629855314352822 0.6370144685647179 0.7279051401741055 0.27209485982589443 0.46983215987944077 0.5301678401205593 0.502900736883455 0.49709926311654495 0.7771686394550859 0.22283136054491412 0.22790983632366246 0.7720901636763375 0.3556761758727658 0.6443238241272342 0.6858136847529093 0.31418631524709073 0.34263856239029566 0.6573614376097042 0.47809402858292677 0.5219059714170732 0.26168133067220767 0.7383186693277923 0.7009934608754982 0.29900653912450176 0.4792854867786115 0.5207145132213885 0.7928883306482581 0.2071116693517419 0.5781985973601378 0.4218014026398621 0.5933501009993882 0.4066498990006118 0.0569164698374151 0.943083530162585 0.3926784913540304 0.6073215086459697 0.5217486308789796 0.47825136912102045 0.7929135900726835 0.2070864099273165 0.5014649556187729 0.49853504438122703 0.5486522580079968 0.45134774199200317 0.8325525758911583 0.16744742410884175 0.6678609419452757 0.33213905805472427 0.38665064824530265 0.6133493517546974 0.1465529371512219 0.8534470628487781 0.18050612942873417 0.8194938705712659 0.39851650480034434 0.6014834951996556 0.723923675067457 0.27607632493254297 0.37097502638865676 0.6290249736113432 0.46158584689513393 0.5384141531048661 0.3680192909410846 0.6319807090589153 0.36747741350470453 0.6325225864952954 0.9704216797830122 0.029578320216987794 0.5618073371736579 0.438192662826342 0.38800298311511894 0.6119970168848811 0.417349258688765 0.5826507413112351 0.888881580215087 0.11111841978491294 0.4158472295944166 0.5841527704055836 0.4556320037604063 0.5443679962395938 0.39864229395168244 0.6013577060483175 0.6589227979626472 0.34107720203735276 0.03703233952448038 0.9629676604755196 0.011253226303333742 0.9887467736966663 0.3915070120676651 0.6084929879323349 0.26263015962041086 0.7373698403795891 0.8194373106196594 0.18056268938034062 0.43591142152517676 0.5640885784748233 0.9378454749107891 0.06215452508921098 0.4774005709930452 0.5225994290069548 0.11203921847892498 0.887960781521075 0.36216018609182976 0.6378398139081702 0.630530722824925 0.3694692771750751 0.8939876303601171 0.10601236963988292 0.7498536965146395 0.2501463034853605 0.9772775479909583 0.022722452009041796 0.4543392338851833 0.5456607661148166 0.5416387492079666 0.4583612507920334 0.5309648187613888 0.46903518123861115 0.1972789161937511 0.8027210838062487 0.06970287889620556 0.9302971211037945 0.23700970029526783 0.7629902997047322 0.39243079917574514 0.6075692008242548 0.9056625164967013 0.09433748350329876 0.14708372084629764 0.8529162791537024 0.12916080076339342 0.8708391992366066 0.26936091672211976 0.7306390832778802 0.6946002844123882 0.3053997155876117 0.45761678747053625 0.5423832125294636 0.573386894352483 0.4266131056475169 0.3560464177067994 0.6439535822932007 0.2591873653262231 0.7408126346737769 0.972932234391047 0.02706776560895297 0.5022990618869476 0.4977009381130524 0.010561826049186535 0.9894381739508135 0.15938763773006903 0.840612362269931 0.6097921024186126 0.39020789758138735 0.5882160059408125 0.4117839940591875 0.3092131006470628 0.6907868993529372 0.5475162388368812 0.45248376116311884 0.9739351200384361 0.02606487996156396 0.6474456653918534 0.3525543346081465 0.6123489815111594 0.3876510184888407 0.10061176165321455 0.8993882383467855 0.527596261810268 0.4724037381897321 0.11786117815830295 0.882138821841697 0.7164881911054616 0.2835118088945384 0.6068420028705221 0.3931579971294778 0.4123411206302259 0.5876588793697741 0.5252944786617915 0.4747055213382084 0.3589258619482967 0.6410741380517033 0.25701582107410353 0.7429841789258964 0.5907353031315649 0.4092646968684351 0.1338904482517208 0.8661095517482792 0.07612743749986448 0.9238725625001355 0.6787761935032693 0.32122380649673066 0.43909208354856133 0.5609079164514387 0.47739073959526795 0.5226092604047321 0.16290303319228697 0.8370969668077131 0.8681450121980915 0.1318549878019085 0.20837437550434135 0.7916256244956587 0.5636494215000764 0.4363505784999237 0.018974203349379902 0.9810257966506201 0.5160348276823482 0.4839651723176518 0.5026654609545665 0.4973345390454335 0.8451242050992414 0.1548757949007586 0.769459938424091 0.23054006157590906 0.528140364126224 0.471859635873776 0.0969734400154873 0.9030265599845128 0.2909595626958121 0.7090404373041879 0.16323718752542096 0.8367628124745791 0.48328143791948414 0.5167185620805159 0.1318582984810366 0.8681417015189634 0.6078909946888414 0.3921090053111585 0.8560609576558291 0.14393904234417088 0.5346166030140396 0.4653833969859604 0.103533016121334 0.896466983878666 0.0844866410240314 0.9155133589759686 0.7120041940133581 0.2879958059866418 0.39396603639381855 0.6060339636061814 0.6869146606330954 0.3130853393669046 0.4866092639324286 0.5133907360675715 0.32939266485645835 0.6706073351435416 0.4991264468781778 0.5008735531218222 0.3986121783037709 0.6013878216962292 0.7512812626411493 0.24871873735885086 0.23269758322505218 0.7673024167749478 0.6948325914127709 0.3051674085872292 0.6570287264693632 0.34297127353063683 0.6282049602855567 0.3717950397144433 0.6212835957272093 0.37871640427279074 0.5184609178847066 0.4815390821152934 0.338126946096462 0.661873053903538 0.7865468969585211 0.21345310304147888 0.003922812374125838 0.9960771876258742 0.6955468786070184 0.30445312139298164 0.45000956005221404 0.549990439947786 0.8563855544697028 0.14361444553029726 0.5068170533857509 0.49318294661424916 0.6603071988571115 0.33969280114288847 0.5646659427665177 0.43533405723348223 0.3453028977790788 0.6546971022209213 0.581067476612323 0.4189325233876769 0.34796406003582453 0.6520359399641754 0.6668167256325233 0.3331832743674768 0.6757400357518506 0.32425996424814935 0.33524060557324653 0.6647593944267535 0.7533088258163003 0.24669117418369962 0.8646434067004786 0.13535659329952154 0.33603751350792194 0.663962486492078 0.10026097494125379 0.8997390250587463 0.4055371744416132 0.5944628255583869 0.5897563218957284 0.4102436781042717 0.10701465528548053 0.8929853447145195 0.28907682509488747 0.7109231749051126 0.18946829246979457 0.8105317075302054 0.4670773774873335 0.5329226225126664 0.7281051956489308 0.2718948043510691 0.4672482111687823 0.5327517888312178 0.3761373700063187 0.6238626299936813 0.925250376508 0.07474962349200001 0.5458730683556245 0.45412693164437545 0.8321144304045253 0.1678855695954747 0.08219786590357825 0.9178021340964218 0.23079305691831292 0.769206943081687 0.7374217474325212 0.26257825256747874 0.7406808866957293 0.2593191133042707 0.6174543297655749 0.38254567023442504 0.4931252194691008 0.5068747805308992 0.8304769606703606 0.1695230393296394 0.21274394826363768 0.7872560517363623 0.08314980914462496 0.916850190855375 0.4539259868921752 0.5460740131078249 0.5650931858446765 0.4349068141553235 0.6630920862589259 0.33690791374107404 0.3662288471362287 0.6337711528637712 0.35091181073712735 0.6490881892628727 0.7509428099893843 0.24905719001061566 0.39533300929902715 0.6046669907009729 0.5177925066853978 0.48220749331460216 0.9894578680185826 0.01054213198141738 0.3193394982157938 0.6806605017842061 0.43782266288524874 0.5621773371147513 0.36750828441134914 0.6324917155886509 0.7202243518851266 0.27977564811487354 0.520870631100815 0.479129368899185 0.050422976310658014 0.9495770236893419 0.9942318989395957 0.005768101060404248 0.469445116477219 0.530554883522781 0.2381145499540367 0.7618854500459634 0.5642104772273341 0.4357895227726659 0.5659795131343128 0.43402048686568717 0.45050248508601287 0.5494975149139871 0.5297352575106375 0.4702647424893624 0.2614584398276897 0.7385415601723103 0.4730101777338741 0.5269898222661258 0.35425576093132444 0.6457442390686757 0.6156685845684354 0.3843314154315646 0.4650126089576839 0.5349873910423161 0.02331219004633253 0.9766878099536674 0.5068578873040374 0.49314211269596264 0.2572519127088262 0.7427480872911738 0.05084431554206573 0.9491556844579343 0.6614422112292152 0.3385577887707848 0.3355744835654351 0.6644255164345648 0.8975050714853287 0.10249492851467133 0.888027442040847 0.11197255795915288 0.9090843842852673 0.09091561571473268 0.3796146981657457 0.6203853018342542 0.3989243020623626 0.6010756979376375 0.3771484430174425 0.6228515569825573 0.8027003847644725 0.19729961523552753 0.8531046289354772 0.14689537106452275 0.5398650289148675 0.46013497108513257 0.4320470418499255 0.5679529581500744 0.7577314119024269 0.24226858809757315 0.5382219379144052 0.46177806208559474 0.5040646240450379 0.49593537595496207 0.5865281198405048 0.4134718801594951 0.6847919556976197 0.31520804430238025 0.3944966720284609 0.6055033279715392 0.4235866834517632 0.5764133165482369 0.3276795814572491 0.6723204185427509 0.3473785324490847 0.6526214675509154 0.9646513669567978 0.03534863304320219 0.19615854848413866 0.8038414515158613 0.670727651838607 0.32927234816139306 0.5241105149431704 0.47588948505682965 0.5031073541851616 0.4968926458148383 0.866586538492435 0.13341346150756492 0.5582003991318072 0.44179960086819287 0.4552702252583477 0.5447297747416524 0.79046131880556 0.20953868119443983 0.0697705742161519 0.9302294257838482 0.2769131622460533 0.7230868377539467 0.6621859792856606 0.3378140207143394 0.5845267304220844 0.4154732695779156 0.438589488850382 0.5614105111496179 0.3845175057781605 0.6154824942218395 0.3855778340894195 0.6144221659105805 0.9434338262531399 0.056566173746860106 0.08519875126598793 0.914801248734012 0.13891575437348463 0.8610842456265153 0.5987543876343129 0.4012456123656871 0.8587147437397552 0.1412852562602448 0.4823773448033105 0.5176226551966895 0.38471654624644563 0.6152834537535544 0.4450971542368792 0.5549028457631208 0.579586270602749 0.4204137293972509 0.5085697790251743 0.4914302209748257 0.18708352059089658 0.8129164794091034 0.3850677350245087 0.6149322649754912 0.6400035310670267 0.3599964689329734 0.6981658682985471 0.30183413170145296 0.0026575331509602735 0.9973424668490397 0.3120381063832873 0.6879618936167127 0.23022127284073712 0.769778727159263 0.7122967762204383 0.28770322377956165 0.5170623464903139 0.48293765350968615 0.7551131825448347 0.24488681745516527 0.6881031251392805 0.31189687486071954 0.5078307983623994 0.4921692016376006 0.4999268060330552 0.5000731939669447 0.21294702066006638 0.7870529793399337 0.49624313175785156 0.5037568682421485 0.4407432927465577 0.5592567072534423 0.5658229601906585 0.4341770398093415 0.4149536769316729 0.585046323068327 0.449554467915731 0.5504455320842689 0.7195684677163833 0.28043153228361667 0.10104463988424235 0.8989553601157576 0.2477565705097442 0.7522434294902558 0.7425636238920413 0.2574363761079587 0.5939900621055145 0.4060099378944854 0.6945623288332619 0.30543767116673814 0.6104239445556808 0.3895760554443191 0.2585483117655502 0.7414516882344498 0.23651598980454303 0.7634840101954569 0.8288237374916878 0.17117626250831217 0.39123139308216714 0.6087686069178329 0.7681816368915404 0.2318183631084596 0.4118928755030406 0.5881071244969593 0.19411834320400456 0.8058816567959954 0.5379545135167694 0.4620454864832306 0.44749425808285664 0.5525057419171434 0.36015440624985123 0.6398455937501487 0.5229514477448876 0.4770485522551124 0.04426224886342803 0.955737751136572 0.5446218747400404 0.4553781252599595 0.25252157948062465 0.7474784205193755 0.7617904798702315 0.2382095201297685 0.8358120954547662 0.16418790454523377 0.3772228242065247 0.6227771757934752 0.6502411493773351 0.34975885062266493 0.5479448636500653 0.45205513634993466 0.8596836897980857 0.14031631020191426 0.19381008979780392 0.8061899102021961 0.39018132008834816 0.6098186799116518 0.4628989421410274 0.5371010578589727 0.770877940303366 0.22912205969663402 0.48289720517567714 0.5171027948243229 0.12107519624308777 0.8789248037569122 0.7862243646970207 0.2137756353029793 0.8976503362412841 0.10234966375871593 0.34847644077759987 0.6515235592224001 0.9175107600651797 0.08248923993482025 0.7127164551207356 0.28728354487926444 0.5307161111223025 0.4692838888776974 0.5977347232003737 0.40226527679962626 0.7181017730540238 0.2818982269459762 0.7479308327618296 0.25206916723817047 0.0723182742747513 0.9276817257252487 0.40315781505535586 0.596842184944644 0.6277069057913397 0.37229309420866036 0.8783674419756805 0.12163255802431948 0.7306927411063564 0.2693072588936437 0.49920354942313727 0.5007964505768627 0.13821570165716038 0.8617842983428396 0.3651463946029573 0.6348536053970428 0.5563778095044901 0.44362219049550994 0.8492869200729465 0.15071307992705354 0.5318521589726164 0.4681478410273836 0.5692707820303272 0.43072921796967284 0.970738482144996 0.02926151785500396 0.9013642843235414 0.09863571567645854 0.42341135127304746 0.5765886487269525 0.8380032167225341 0.16199678327746592 0.4823121798279865 0.5176878201720134 0.4022864023558969 0.597713597644103 0.5520559607406824 0.4479440392593177 0.5092034336469236 0.4907965663530765 0.42923852600603113 0.5707614739939688 0.5419654649084488 0.4580345350915513 0.23766641678286649 0.7623335832171335 0.973233455154646 0.026766544845353978 0.49970321576143706 0.5002967842385629 0.43768376193451547 0.5623162380654846 0.38802673235675733 0.6119732676432427 0.991137124301093 0.00886287569890696 0.8421133258123489 0.1578866741876511 0.4517058277184659 0.5482941722815341 0.40166375423168676 0.5983362457683132 0.06719389978845453 0.9328061002115455 0.1324179535582425 0.8675820464417575 0.45594851441464523 0.5440514855853548 0.1116251211436233 0.8883748788563767 0.7442875878873018 0.25571241211269824 0.5358848416982896 0.46411515830171035 0.6855145633375715 0.31448543666242845 0.5481102487749983 0.45188975122500175 0.7207348975102936 0.27926510248970643 0.6827314807043262 0.3172685192956738 0.29025833468170814 0.7097416653182919 0.7806654274680084 0.2193345725319916 0.5714056271307503 0.4285943728692497 0.6576794213561895 0.3423205786438104 0.7096855672120115 0.29031443278798846 0.24576299147871628 0.7542370085212836 0.05743574653582138 0.9425642534641786 0.4568701594328959 0.5431298405671041 0.3054197604658475 0.6945802395341525 0.6495845383296647 0.35041546167033527 0.44063974324507155 0.5593602567549285 0.19166631821285704 0.8083336817871429 0.2661199206726442 0.7338800793273558 0.36916989167153796 0.6308301083284621 0.4782135840891457 0.5217864159108543 0.5613267780345597 0.4386732219654403 0.5626701418183481 0.437329858181652 0.53194353925025 0.46805646074975005 0.48520767632331696 0.514792323676683 0.6189794385540399 0.38102056144596014 0.4749602295972386 0.5250397704027614 0.7340337679960307 0.2659662320039693 0.6997090966638978 0.30029090333610214 0.17523457286471492 0.8247654271352851 0.48674716148625835 0.5132528385137417 0.6131176379272703 0.3868823620727297 0.4521634091017348 0.5478365908982652 0.4832006021461265 0.5167993978538734 0.2518708418907349 0.7481291581092651 0.5276172611026468 0.47238273889735327 0.5369695565353653 0.4630304434646347 0.4703703792533037 0.5296296207466963 0.3681825317969387 0.6318174682030613 0.8294548499148658 0.1705451500851343 0.9684878698867236 0.03151213011327635 0.9894083504469939 0.010591649553006049 0.6044389404260098 0.39556105957399035 0.08675357036842245 0.9132464296315775 0.942803922701451 0.057196077298549065 0.5706294323757476 0.4293705676242524 0.8497059831507517 0.1502940168492483 0.5912263793280688 0.4087736206719313 0.2481675758143282 0.7518324241856718 0.6219652576670007 0.3780347423329992 0.08026092212977498 0.919739077870225 0.22023942281170517 0.7797605771882948 0.3352982889634396 0.6647017110365604 0.9998226212968961 0.00017737870310390795 0.9575639620895435 0.04243603791045639 0.5407041780281583 0.45929582197184166 0.7367040771814227 0.26329592281857733 0.43531918061122393 0.564680819388776 0.4954004869347415 0.5045995130652585 0.5633068155821865 0.4366931844178134 0.26554511757200217 0.734454882427998 0.32276076512681523 0.6772392348731847 0.514927385108086 0.485072614891914 0.06580598190380786 0.9341940180961922 0.6146043113280608 0.3853956886719391 0.3037722606537735 0.6962277393462265 0.28768572234723183 0.7123142776527681 0.21240795275636637 0.7875920472436336 0.451520472763136 0.548479527236864 0.5023957070534179 0.49760429294658204 0.45361873603860087 0.5463812639613992 0.6019651367561104 0.39803486324388965 0.8734849307264089 0.1265150692735911 0.5991711805256483 0.4008288194743516 0.4125195629744223 0.5874804370255777 0.5799178383575622 0.42008216164243795 0.5990763094864291 0.4009236905135709 0.8638059876936178 0.13619401230638217 0.8223751272260824 0.17762487277391759 0.35291047457797464 0.6470895254220254 0.5050807843929542 0.49491921560704577 0.2455534968840059 0.7544465031159941 0.20056085884462907 0.799439141155371 0.46848267445644953 0.5315173255435504 0.32986992085341355 