<?xml version='1.0' encoding='utf-8'?>
<BIF VERSION="0.3">
  <NETWORK>
    <NAME>UNTITLED</NAME>
    <VARIABLE TYPE="nature">
      <NAME>0</NAME>
      <OUTCOME>0</OUTCOME>
      <OUTCOME>1</OUTCOME>
      <PROPERTY>weight = None</PROPERTY>
    </VARIABLE>
    <VARIABLE TYPE="nature">
      <NAME>1</NAME>
      <OUTCOME>0</OUTCOME>
      <OUTCOME>1</OUTCOME>
      <PROPERTY>weight = None</PROPERTY>
    </VARIABLE>
    <VARIABLE TYPE="nature">
      <NAME>10</NAME>
      <OUTCOME>0</OUTCOME>
      <OUTCOME>1</OUTCOME>
      <PROPERTY>weight = None</PROPERTY>
    </VARIABLE>
    <VARIABLE TYPE="nature">
      <NAME>11</NAME>
      <OUTCOME>0</OUTCOME>
      <OUTCOME>1</OUTCOME>
      <PROPERTY>weight = None</PROPERTY>
    </VARIABLE>
    <VARIABLE TYPE="nature">
      <NAME>12</NAME>
      <OUTCOME>0</OUTCOME>
      <OUTCOME>1</OUTCOME>
      <PROPERTY>weight = None</PROPERTY>
    </VARIABLE>
    <VARIABLE TYPE="nature">
      <NAME>13</NAME>
      <OUTCOME>0</OUTCOME>
      <OUTCOME>1</OUTCOME>
      <PROPERTY>weight = None</PROPERTY>
    </VARIABLE>
    <VARIABLE TYPE="nature">
      <NAME>14</NAME>
      <OUTCOME>0</OUTCOME>
      <OUTCOME>1</OUTCOME>
      <PROPERTY>weight = None</PROPERTY>
    </VARIABLE>
    <VARIABLE TYPE="nature">
      <NAME>15</NAME>
      <OUTCOME>0</OUTCOME>
      <OUTCOME>1</OUTCOME>
      <PROPERTY>weight = None</PROPERTY>
    </VARIABLE>
    <VARIABLE TYPE="nature">
      <NAME>16</NAME>
      <OUTCOME>0</OUTCOME>
      <OUTCOME>1</OUTCOME>
      <PROPERTY>weight = None</PROPERTY>
    </VARIABLE>
    <VARIABLE TYPE="nature">
      <NAME>17</NAME>
      <OUTCOME>0</OUTCOME>
      <OUTCOME>1</OUTCOME>
      <PROPERTY>weight = None</PROPERTY>
    </VARIABLE>
    <VARIABLE TYPE="nature">
      <NAME>18</NAME>
      <OUTCOME>0</OUTCOME>
      <OUTCOME>1</OUTCOME>
      <PROPERTY>weight = None</PROPERTY>
    </VARIABLE>
    <VARIABLE TYPE="nature">
      <NAME>19</NAME>
      <OUTCOME>0</OUTCOME>
      <OUTCOME>1</OUTCOME>
      <PROPERTY>weight = None</PROPERTY>
    </VARIABLE>
    <VARIABLE TYPE="nature">
      <NAME>2</NAME>
      <OUTCOME>0</OUTCOME>
      <OUTCOME>1</OUTCOME>
      <PROPERTY>weight = None</PROPERTY>
    </VARIABLE>
    <VARIABLE TYPE="nature">
      <NAME>3</NAME>
      <OUTCOME>0</OUTCOME>
      <OUTCOME>1</OUTCOME>
      <PROPERTY>weight = None</PROPERTY>
    </VARIABLE>
    <VARIABLE TYPE="nature">
      <NAME>4</NAME>
      <OUTCOME>0</OUTCOME>
      <OUTCOME>1</OUTCOME>
      <PROPERTY>weight = None</PROPERTY>
    </VARIABLE>
    <VARIABLE TYPE="nature">
      <NAME>5</NAME>
      <OUTCOME>0</OUTCOME>
      <OUTCOME>1</OUTCOME>
      <PROPERTY>weight = None</PROPERTY>
    </VARIABLE>
    <VARIABLE TYPE="nature">
      <NAME>6</NAME>
      <OUTCOME>0</OUTCOME>
      <OUTCOME>1</OUTCOME>
      <PROPERTY>weight = None</PROPERTY>
    </VARIABLE>
    <VARIABLE TYPE="nature">
      <NAME>7</NAME>
      <OUTCOME>0</OUTCOME>
      <OUTCOME>1</OUTCOME>
      <PROPERTY>weight = None</PROPERTY>
    </VARIABLE>
    <VARIABLE TYPE="nature">
      <NAME>8</NAME>
      <OUTCOME>0</OUTCOME>
      <OUTCOME>1</OUTCOME>
      <PROPERTY>weight = None</PROPERTY>
    </VARIABLE>
    <VARIABLE TYPE="nature">
      <NAME>9</NAME>
      <OUTCOME>0</OUTCOME>
      <OUTCOME>1</OUTCOME>
      <PROPERTY>weight = None</PROPERTY>
    </VARIABLE>
    <DEFINITION>
      <FOR>0</FOR>
      <TABLE>0.4777032190377921 0.5222967809622079 </TABLE>
    </DEFINITION>
    <DEFINITION>
      <FOR>1</FOR>
      <TABLE>0.3630323584258186 0.6369676415741814 </TABLE>
    </DEFINITION>
    <DEFINITION>
      <FOR>10</FOR>
      <GIVEN>0</GIVEN>
      <GIVEN>4</GIVEN>
      <GIVEN>6</GIVEN>
      <GIVEN>7</GIVEN>
      <GIVEN>8</GIVEN>
      <GIVEN>9</GIVEN>
      <TABLE>0.3731886152471459 0.6268113847528543 0.36342083893181637 0.6365791610681837 0.20428000661757106 0.7957199933824289 0.5716150111713543 0.4283849888286458 0.26759796464853813 0.7324020353514619 0.4378465506072332 0.5621534493927668 0.936068525742458 0.06393147425754202 0.2651410611778554 0.7348589388221445 0.5121096707146446 0.4878903292853553 0.2719075225826549 0.7280924774173451 0.48377527024400463 0.5162247297559954 0.3071932645658358 0.6928067354341642 0.4246165219576416 0.5753834780423585 0.3060691611868689 0.6939308388131311 0.8771415684808862 0.12285843151911381 0.689768542471289 0.3102314575287109 0.2591351442029075 0.7408648557970925 0.5797615687075514 0.4202384312924486 0.6106080314288677 0.3893919685711324 0.02022630049396329 0.9797736995060368 0.4379672753380516 0.5620327246619484 0.40999421311449363 0.5900057868855064 0.94458294772395 0.055417052276049976 0.5311375980721835 0.4688624019278165 0.6181269598681217 0.3818730401318783 0.09223241740526182 0.9077675825947382 0.0892414974866996 0.9107585025133004 0.47817877422800226 0.5218212257719976 0.9077910426781958 0.09220895732180429 0.1239525470343742 0.8760474529656258 0.3336554178519207 0.6663445821480793 0.5372944220635533 0.4627055779364466 0.3472396832327353 0.6527603167672648 0.015418494174306165 0.9845815058256938 0.4135050220880843 0.5864949779119156 0.688717982887641 0.3112820171123591 0.3626142598945796 0.6373857401054204 0.4484730305152838 0.5515269694847161 0.4888420462681075 0.5111579537318925 0.8937204476618303 0.1062795523381697 0.7808868051020763 0.21911319489792366 0.4702934861030591 0.5297065138969409 0.012546238196441973 0.987453761803558 0.3235500667317781 0.6764499332682218 0.695705933127262 0.3042940668727379 0.813526239568202 0.18647376043179795 0.28812707067217397 0.711872929327826 0.7869154108128555 0.21308458918714446 0.28264912366306 0.71735087633694 0.14910138569182044 0.8508986143081795 0.6734661564262291 0.32653384357377097 0.8137866592789944 0.18621334072100562 0.35202249979130207 0.6479775002086979 0.20202939454124025 0.7979706054587598 0.7663015547029947 0.23369844529700531 0.5271629377017603 0.4728370622982398 0.6765931168355006 0.32340688316449945 0.4956055279656983 0.5043944720343017 0.7112072811710347 0.28879271882896534 0.9327067448438446 0.06729325515615533 0.7322792607657896 0.2677207392342103 0.5187264025500792 0.48127359744992076 0.2858701170330919 0.7141298829669082 0.6956797312460082 0.3043202687539917 </TABLE>
    </DEFINITION>
    <DEFINITION>
      <FOR>11</FOR>
      <GIVEN>0</GIVEN>
      <GIVEN>2</GIVEN>
      <GIVEN>6</GIVEN>
      <GIVEN>10</GIVEN>
      <TABLE>0.8511675252955413 0.14883247470445876 0.5122370566948421 0.487762943305158 0.904248147943418 0.09575185205658197 0.9485864233578707 0.05141357664212935 0.3274884605493771 0.6725115394506229 0.42308804181338683 0.5769119581866131 0.19476097916398138 0.8052390208360186 0.2115646713963331 0.7884353286036669 0.5093550600339112 0.49064493996608877 0.6439221009916315 0.35607789900836845 0.4588594622985952 0.5411405377014047 0.6483658578848372 0.35163414211516275 0.2605194298465596 0.7394805701534404 0.7714362958198928 0.22856370418010724 0.7789867036115721 0.2210132963884279 0.9665210197354933 0.03347898026450665 </TABLE>
    </DEFINITION>
    <DEFINITION>
      <FOR>12</FOR>
      <GIVEN>4</GIVEN>
      <GIVEN>6</GIVEN>
      <GIVEN>11</GIVEN>
      <GIVEN>9</GIVEN>
      <TABLE>0.47463983932989384 0.5253601606701062 0.32844595490728773 0.6715540450927123 0.6914287806205528 0.30857121937944715 0.15862875604944618 0.8413712439505538 0.9122655795760617 0.08773442042393835 0.36556603740780536 0.6344339625921946 0.9334767827030953 0.0665232172969047 0.7681212116287092 0.23187878837129083 0.7256261416660559 0.27437385833394407 0.17072334172201453 0.8292766582779855 0.4808954846553497 0.5191045153446503 0.2754820585829833 0.7245179414170168 0.30484512419822707 0.6951548758017729 0.4445382584591509 0.555461741540849 0.5084978620877396 0.49150213791226044 0.4718582125259206 0.5281417874740795 </TABLE>
    </DEFINITION>
    <DEFINITION>
      <FOR>13</FOR>
      <GIVEN>7</GIVEN>
      <GIVEN>8</GIVEN>
      <GIVEN>11</GIVEN>
      <GIVEN>1</GIVEN>
      <GIVEN>12</GIVEN>
      <TABLE>0.44051147102501487 0.5594885289749851 0.39572457817538986 0.6042754218246101 0.6912728389165149 0.30872716108348514 0.9516096155672283 0.04839038443277168 0.30444844998114323 0.6955515500188567 0.2174320156880859 0.7825679843119141 0.9066040892190838 0.09339591078091629 0.5640979974337733 0.43590200256622663 0.3265736052357251 0.6734263947642749 0.4053466480560437 0.5946533519439563 0.09719856765195276 0.9028014323480472 0.3639778880958189 0.6360221119041811 0.7452943099068896 0.2547056900931103 0.5403569051116991 0.45964309488830085 0.5563887602836217 0.4436112397163783 0.7077159215699591 0.2922840784300408 0.6156936093077873 0.3843063906922127 0.551638600874448 0.44836139912555206 0.4957493809922129 0.5042506190077872 0.15475030370497586 0.8452496962950241 0.14241652293213122 0.8575834770678687 0.131667016560182 0.8683329834398181 0.5887586078217487 0.4112413921782513 0.5166974638034609 0.48330253619653907 0.019486538164396574 0.9805134618356034 0.21113918279060082 0.788860817209399 0.4332230782644632 0.5667769217355367 0.3791402471487724 0.6208597528512275 0.6429054257191316 0.3570945742808685 0.09322157667840036 0.9067784233215996 0.680897697624455 0.31910230237554504 0.5994509599717068 0.40054904002829317 </TABLE>
    </DEFINITION>
    <DEFINITION>
      <FOR>14</FOR>
      <GIVEN>0</GIVEN>
      <GIVEN>2</GIVEN>
      <GIVEN>5</GIVEN>
      <GIVEN>6</GIVEN>
      <GIVEN>7</GIVEN>
      <GIVEN>8</GIVEN>
      <GIVEN>1</GIVEN>
      <GIVEN>9</GIVEN>
      <GIVEN>3</GIVEN>
      <TABLE>0.05627301458299099 0.9437269854170091 0.27012424051206296 0.729875759487937 0.45949629058327096 0.540503709416729 0.7755596154334947 0.22444038456650534 0.6901709985448343 0.3098290014551658 0.5202765749915924 0.47972342500840764 0.031826118095736385 0.9681738819042636 0.5700095170949561 0.4299904829050439 0.8247593678457036 0.1752406321542964 0.043966712935055066 0.956033287064945 0.8224137013087495 0.1775862986912505 0.28854437803588107 0.7114556219641189 0.512170534034631 0.487829465965369 0.39180282945161066 0.6081971705483894 0.7553063685290242 0.24469363147097564 0.428871453486494 0.571128546513506 0.4596197758847643 0.5403802241152357 0.2748389749712458 0.7251610250287542 0.8237022278058752 0.17629777219412476 0.3566334234976771 0.6433665765023229 0.38190635387798544 0.6180936461220145 0.05445351457729635 0.9455464854227037 0.3036238023883964 0.6963761976116035 0.6659881603547624 0.3340118396452376 0.245337242315248 0.754662757684752 0.3685750814741172 0.6314249185258827 0.5061226581090162 0.4938773418909838 0.7138001175778642 0.28619988242213573 0.7052810271529556 0.29471897284704435 0.4238202821896023 0.5761797178103977 0.400503220055147 0.599496779944853 0.2829274594559948 0.7170725405440052 0.586450687324042 0.4135493126759579 0.22382783345058221 0.7761721665494178 0.050803627149245474 0.9491963728507545 0.6195079001115308 0.38049209988846927 0.5340605200445626 0.46593947995543733 0.32634843365062155 0.6736515663493785 0.4135580835649739 0.5864419164350262 0.7600268168685301 0.2399731831314699 0.25071699334321107 0.7492830066567889 0.10065008470269844 0.8993499152973016 0.5429852672275327 0.4570147327724673 0.8858702384098466 0.11412976159015345 0.7093541549374488 0.29064584506255114 0.5887218271494056 0.4112781728505944 0.7746027958272689 0.22539720417273112 0.9464730686579687 0.05352693134203137 0.4131553556335668 0.5868446443664331 0.47379827575973504 0.5262017242402649 0.10868776231315924 0.8913122376868408 0.43834965298345074 0.5616503470165493 0.9626925532041912 0.03730744679580874 0.7844357785490503 0.21556422145094967 0.7608943775624164 0.23910562243758363 0.29291080728853147 0.7070891927114685 0.29173098370037726 0.7082690162996227 0.7624423623495744 0.23755763765042556 0.510754684867153 0.4892453151328469 0.8774005645986896 0.12259943540131031 0.7663671692426189 0.2336328307573811 0.6213010289640162 0.37869897103598377 0.014824802804787061 0.985175197195213 0.4582978445296233 0.5417021554703767 0.8506586788494384 0.1493413211505617 0.42876565563537783 0.5712343443646222 0.3662369592833893 0.6337630407166106 0.7243331989309272 0.2756668010690727 0.473393614929494 0.5266063850705061 0.6946931826278967 0.3053068173721033 0.1697332255483085 0.8302667744516915 0.50812079451408 0.4918792054859201 0.5419068141249576 0.4580931858750424 0.4972466724834108 0.5027533275165892 0.047172029173694736 0.9528279708263052 0.06953894351576476 0.9304610564842353 0.22890192848993482 0.7710980715100652 0.5720799665192791 0.42792003348072105 0.30720239794897525 0.6927976020510247 0.4839091611847695 0.5160908388152305 0.43890010415961395 0.561099895840386 0.23509521322776 0.76490478677224 0.03424777968199252 0.9657522203180074 0.8815517024026465 0.11844829759735351 0.4286318305380226 0.5713681694619773 0.5126372874678967 0.4873627125321033 0.636422723544062 0.36357727645593807 0.49222449390186973 0.5077755060981303 0.37662563711482067 0.6233743628851793 0.4472604413441069 0.5527395586558931 0.609061545450984 0.390938454549016 0.7603464783574702 0.2396535216425299 0.7984435711330194 0.2015564288669805 0.37721016359538745 0.6227898364046126 0.753883388061362 0.24611661193863796 0.4826266691830942 0.5173733308169057 0.7013452820566543 0.2986547179433457 0.3944315577109717 0.6055684422890283 0.9810389605171721 0.018961039482827895 0.10534362966110428 0.8946563703388958 0.23013960621021842 0.7698603937897815 0.6093448248089925 0.39065517519100745 0.5889871435581148 0.41101285644188523 0.9154708875171669 0.0845291124828331 0.7364124464461075 0.26358755355389246 0.5914597370955378 0.4085402629044622 0.2410345187168754 0.7589654812831247 0.12856988218009008 0.87143011781991 0.12169493770057686 0.8783050622994232 0.41000410758847894 0.589995892411521 0.36928757313758237 0.6307124268624177 0.5179235457819441 0.4820764542180558 0.6105846005656085 0.38941539943439163 0.16996451802256193 0.830035481977438 0.9285355400059457 0.07146445999405425 0.9538586565860274 0.046141343413972614 0.2216266889708266 0.7783733110291734 0.9524594839270972 0.04754051607290273 0.36400061020500063 0.6359993897949994 0.2693454426027605 0.7306545573972395 0.698926915013845 0.3010730849861549 0.4356271397130574 0.5643728602869427 0.5093535945697059 0.4906464054302943 0.07630009525143834 0.9236999047485617 0.4410938429006718 0.5589061570993282 0.17126741499783593 0.8287325850021641 0.20897971980199714 0.7910202801980029 0.2745188549319528 0.7254811450680473 0.31195720057579024 0.6880427994242098 0.5945673960491512 0.40543260395084874 0.30299100331862805 0.697008996681372 0.2786465974228811 0.7213534025771189 0.3121165287696984 0.6878834712303016 0.7787296249431569 0.22127037505684313 0.726665602315802 0.27333439768419804 0.30130953852422016 0.69869046147578 0.47050337081794913 0.5294966291820508 0.107304853675692 0.892695146324308 0.5240667723459389 0.47593322765406126 0.5371683838090122 0.4628316161909878 0.5611538423527228 0.4388461576472772 0.42196252932070677 0.5780374706792932 0.6558252956315463 0.34417470436845365 0.3680075489209068 0.6319924510790933 0.48113391261138566 0.5188660873886143 0.5104372110061762 0.48956278899382366 0.1765494729518252 0.8234505270481748 0.3510550879456817 0.6489449120543183 0.5880180412058134 0.4119819587941867 0.4001039881277616 0.5998960118722383 0.691403632268098 0.30859636773190197 0.6694480808643581 0.3305519191356419 0.0567655990883532 0.9432344009116468 0.5744961017323692 0.42550389826763074 0.8564038693701636 0.1435961306298365 0.966951845626865 0.033048154373134984 0.4092932893961427 0.5907067106038572 0.030076666928696254 0.9699233330713037 0.5072410089853557 0.4927589910146442 0.24528624228349258 0.7547137577165074 0.8428732645605973 0.15712673543940273 0.4926132467292892 0.5073867532707109 0.8676929394993895 0.13230706050061045 0.9337198662199937 0.06628013378000633 0.5343593305261856 0.46564066947381433 0.952416159325228 0.047583840674771914 0.3974479383726352 0.6025520616273647 0.4963987055754295 0.5036012944245706 0.048071082346812136 0.951928917653188 0.4905368096198663 0.5094631903801338 0.15332779234765728 0.8466722076523427 0.12006040790086382 0.8799395920991362 0.8193775286757065 0.18062247132429357 0.5035954315562937 0.49640456844370623 0.6673365906349656 0.3326634093650344 0.5793442036632978 0.42065579633670214 0.5615349736689297 0.4384650263310703 0.6587659009257082 0.3412340990742917 0.40013747391253046 0.5998625260874695 0.42276877505656096 0.5772312249434391 0.4626891648595249 0.5373108351404752 0.04251299798900864 0.9574870020109914 0.5203284660955402 0.47967153390445993 0.10777677609829492 0.892223223901705 0.8901658200171554 0.10983417998284462 0.3744996032391654 0.6255003967608346 0.5287048779583551 0.47129512204164486 0.6099043348718157 0.3900956651281844 0.6900785800627176 0.30992141993728245 0.58929912781817 0.4107008721818301 0.7592623174136932 0.24073768258630673 0.6114371667746826 0.3885628332253174 0.24397880960794024 0.7560211903920598 0.01881243756288091 0.9811875624371191 0.00473106609690822 0.9952689339030918 0.44812413887830826 0.5518758611216918 0.2754848486086477 0.7245151513913524 0.22222858845098595 0.777771411549014 0.510921718679019 0.489078281320981 0.5922117752419966 0.40778822475800347 0.37979982925076017 0.6202001707492398 0.428017796203865 0.571982203796135 0.37021145426414964 0.6297885457358503 0.45454820643808264 0.5454517935619173 0.435348789023288 0.5646512109767121 0.5606569017561879 0.4393430982438121 0.3206987794064749 0.6793012205935252 0.5322855640319678 0.46771443596803225 0.5507521615789801 0.44924783842101995 0.3986237844033317 0.6013762155966683 0.2483941024825326 0.7516058975174674 0.3934435806114991 0.6065564193885008 0.5921987729217125 0.4078012270782875 0.673341669193521 0.3266583308064791 0.8992209014648108 0.10077909853518922 0.4264441501891992 0.5735558498108008 0.5972953934308151 0.40270460656918494 0.43958588895899214 0.5604141110410078 0.5529268004272244 0.4470731995727755 0.36981650681308337 0.6301834931869166 0.20131702244136324 0.7986829775586367 0.4980788776488412 0.5019211223511589 0.3934861327379128 0.6065138672620872 0.7261702131223339 0.2738297868776661 0.07384589922913157 0.9261541007708685 0.37311419813724683 0.6268858018627531 0.4333797701520463 0.5666202298479538 0.838337731394744 0.16166226860525598 0.4456334275595342 0.5543665724404658 0.30718918238394805 0.6928108176160519 0.5404916673367997 0.4595083326632004 0.09872831934785954 0.9012716806521405 0.34849170824680187 0.6515082917531981 0.2678694400171961 0.7321305599828039 0.3351536767746084 0.6648463232253915 0.6324610140096824 0.36753898599031776 0.7182152925935953 0.2817847074064047 0.07770070348441988 0.9222992965155801 0.44756962554427476 0.5524303744557253 0.24577573066751648 0.7542242693324837 0.6206777931601749 0.37932220683982515 0.7980348879274106 0.20196511207258935 0.7222894428415177 0.27771055715848225 0.3916830207318852 0.6083169792681149 0.4503324319906775 0.5496675680093224 0.9345687928890708 0.06543120711092917 0.5753909986042242 0.42460900139577584 0.8913932817059986 0.10860671829400136 0.7176778115881478 0.2823221884118522 0.44364459994983907 0.556355400050161 0.8399373375760557 0.16006266242394424 0.37460175913116456 0.6253982408688353 0.3698229251970765 0.6301770748029235 0.25424851638415774 0.7457514836158422 0.7444782539747202 0.2555217460252798 0.6582109825495116 0.34178901745048834 0.8614137087288181 0.1385862912711819 0.40015686608327034 0.5998431339167297 0.43330333013609046 0.5666966698639095 0.28973210281243417 0.7102678971875658 0.6544861238239945 0.34551387617600554 0.7036431610639252 0.2963568389360748 0.4524437186890344 0.5475562813109657 0.3876004183985667 0.6123995816014334 0.2366860539711519 0.7633139460288481 0.07318797511052631 0.9268120248894737 0.5626646085084567 0.4373353914915434 0.4022637720430887 0.5977362279569113 0.16880016365380415 0.831199836346196 0.6986267935529062 0.3013732064470937 0.7735878243115741 0.22641217568842584 0.8316425692356458 0.1683574307643542 0.2362631333823904 0.7637368666176095 0.5851801284030304 0.4148198715969696 0.007869506019473152 0.9921304939805269 0.2333672968224517 0.7666327031775483 0.41968052961009233 0.5803194703899076 0.5686900377113075 0.43130996228869245 0.494711253161308 0.505288746838692 0.4318220668765331 0.5681779331234669 0.5421375542741785 0.45786244572582147 0.41352380803665933 0.5864761919633407 0.24828589538569606 0.751714104614304 0.7318241960543287 0.26817580394567125 0.749870453720973 0.250129546279027 0.8843677413165701 0.11563225868342984 0.020570924777860516 0.9794290752221395 0.09094052335055491 0.9090594766494451 0.3220987965885509 0.6779012034114491 0.7905878734790546 0.20941212652094546 0.6957574228502441 0.3042425771497559 0.7460246617201072 0.2539753382798928 0.2679075049256843 0.7320924950743155 0.5439825202510011 0.4560174797489988 0.46270110245196155 0.5372988975480384 0.5053611976805945 0.4946388023194054 0.6196934226558701 0.38030657734413 0.3580968302900165 0.6419031697099835 0.493927050948095 0.5060729490519049 0.9065777104937633 0.09342228950623667 0.5577183709876449 0.4422816290123551 0.5089974157604802 0.4910025842395198 0.3647191074083826 0.6352808925916174 0.1216181543629054 0.8783818456370946 0.362636052130597 0.637363947869403 0.35008113019626064 0.6499188698037394 0.9198017252972053 0.08019827470279475 0.4924778235035545 0.5075221764964455 0.4672430346971741 0.5327569653028259 0.3403584799907335 0.6596415200092666 0.8415396657458238 0.1584603342541762 0.6841708540057814 0.31582914599421863 0.5194999172070454 0.48050008279295464 0.58669450058689 0.41330549941311 0.6069497157753257 0.39305028422467425 0.04018396731295737 0.9598160326870426 0.5790815557819899 0.42091844421801017 0.8098668591269013 0.1901331408730987 0.14480757868450403 0.855192421315496 0.7400941232705731 0.25990587672942683 0.37279689595495236 0.6272031040450476 0.6290731214185804 0.3709268785814195 0.5072969725669471 0.4927030274330529 0.2464668458267785 0.7535331541732215 0.40855855244857064 0.5914414475514294 0.8735250495760174 0.12647495042398255 0.5232821916119632 0.47671780838803673 0.3621140875385215 0.6378859124614785 0.39477639973496753 0.6052236002650324 0.6055807851831735 0.3944192148168265 0.4101243781672913 0.5898756218327086 0.6329640107109501 0.3670359892890498 0.16147159271759068 0.8385284072824093 0.4537625543480967 0.5462374456519032 0.5612270714095857 0.4387729285904142 0.5700106319954992 0.4299893680045008 0.6161518795819767 0.3838481204180233 0.352798472515354 0.647201527484646 0.4462290903203325 0.5537709096796676 0.41322842998208215 0.5867715700179179 0.3391365889853725 0.6608634110146274 0.3418858756621356 0.6581141243378645 0.48722943810204206 0.5127705618979578 0.9338593778303971 0.06614062216960297 0.7241328410709649 0.27586715892903513 0.3585423916629022 0.6414576083370978 0.7786617264786199 0.22133827352138014 0.2819834372965127 0.7180165627034873 0.5859598237505359 0.4140401762494642 0.08486343771095531 0.9151365622890447 0.6399489667708661 0.36005103322913384 0.28262007123540245 0.7173799287645976 0.48380310819491124 0.5161968918050888 0.20435678520047204 0.7956432147995279 0.368696617403174 0.6313033825968261 0.8071368578992132 0.1928631421007868 0.8211088944595877 0.17889110554041227 0.5873620214174754 0.4126379785825247 0.5104595990037701 0.48954040099623 0.7024610383876727 0.2975389616123273 0.17192816354058513 0.8280718364594148 0.8132071175285978 0.1867928824714022 0.9301089566251911 0.06989104337480886 0.9550105650375647 0.04498943496243537 0.7560032970490211 0.24399670295097883 0.8861566540538977 0.11384334594610236 0.6007036981795073 0.39929630182049264 0.5125599877002797 0.4874400122997204 0.45209550987385416 0.5479044901261458 0.6208033394462764 0.37919666055372364 0.1272209953283958 0.8727790046716042 0.405110646687652 0.594889353312348 0.1216545923885769 0.8783454076114231 0.3499902475914873 0.6500097524085127 0.1825611836394194 0.8174388163605806 0.25981393607024605 0.740186063929754 0.3445824730405243 0.6554175269594757 0.44976744171191346 0.5502325582880866 0.33045941360734227 0.6695405863926577 0.49774572628912644 0.5022542737108736 0.40021937179787986 0.5997806282021201 0.6387581056723439 0.3612418943276561 0.4632636233502846 0.5367363766497154 0.7724673103483641 0.22753268965163587 0.556626056316734 0.443373943683266 0.3686391229658366 0.6313608770341633 0.5473657638790369 0.452634236120963 0.8568678937961692 0.1431321062038308 0.16244492748399358 0.8375550725160065 0.462048453903761 0.5379515460962391 0.1656594910600869 0.8343405089399131 0.6653446395501659 0.3346553604498341 0.36345567551802616 0.6365443244819738 0.8530616761183013 0.14693832388169872 0.92192316373991 0.07807683626008995 0.38097929931169794 0.6190207006883021 0.32815336917420745 0.6718466308257924 0.8111653553093088 0.18883464469069128 0.6654518024869484 0.33454819751305165 0.4744009196758438 0.5255990803241561 0.8102860570170913 0.1897139429829087 0.7267527037313747 0.2732472962686253 0.7820573880313918 0.21794261196860823 0.7391869357718255 0.2608130642281746 0.7881382070467878 0.21186179295321217 0.5507021713520707 0.4492978286479293 0.02039894135436674 0.9796010586456333 0.5200396921111867 0.4799603078888132 0.810489836844968 0.18951016315503202 0.9830507837570017 0.016949216242998257 0.7960460274066229 0.20395397259337716 0.6644935241589982 0.33550647584100174 0.4608429493074903 0.5391570506925097 0.06798729891864898 0.932012701081351 0.29546952654553416 0.7045304734544658 0.356088624593005 0.6439113754069951 0.3583359254869787 0.6416640745130213 0.40715381790231514 0.5928461820976848 0.7647668062135692 0.23523319378643084 0.6184375307841289 0.38156246921587106 0.44851620550119814 0.5514837944988018 0.01330097472862991 0.9866990252713701 0.47994652221916473 0.5200534777808352 0.5689208052416128 0.4310791947583872 0.46288631371712163 0.5371136862828783 0.484275652176574 0.5157243478234261 0.5446620969676617 0.45533790303233834 0.04381602761628535 0.9561839723837147 0.7324656215495571 0.267534378450443 0.5935259588677385 0.40647404113226154 0.5859908480063504 0.4140091519936497 0.3694854432170725 0.6305145567829276 0.021430926442123552 0.9785690735578765 0.2514854361021961 0.7485145638978038 0.5278833003504041 0.47211669964959585 0.6430793039957512 0.3569206960042489 0.9007420931017234 0.09925790689827663 0.42955747610132816 0.5704425238986719 0.7253959417681393 0.2746040582318608 0.42329602900936475 0.5767039709906352 0.7447524977959127 0.2552475022040872 0.6953368045349717 0.3046631954650283 0.32650849757874 0.67349150242126 0.2907075472362091 0.7092924527637908 0.3111158089627858 0.6888841910372142 0.6269431138864813 0.3730568861135188 0.5810468684933812 0.4189531315066189 0.8793868767358313 0.12061312326416869 0.28554876314281735 0.7144512368571826 0.8308952640907133 0.1691047359092867 0.8083468679135489 0.19165313208645104 0.9347006600343977 0.06529933996560237 0.027202127928477135 0.9727978720715229 0.996557520390761 0.00344247960923903 0.2670946043140765 0.7329053956859234 0.17717198800081307 0.8228280119991869 0.9120353895066967 0.08796461049330334 0.2590300674071131 0.740969932592887 0.34193362723299736 0.6580663727670026 0.5676871599903158 0.4323128400096841 0.26085303522688624 0.7391469647731137 0.23007721785909876 0.7699227821409013 0.9408525945554419 0.059147405444558064 0.5718036679611773 0.4281963320388228 0.45195943688565177 0.5480405631143482 0.43984093669118013 0.5601590633088198 0.3747036819825542 0.6252963180174458 0.007866010074231232 0.9921339899257687 0.40576897345454843 0.5942310265454517 0.8390551596924606 0.16094484030753944 0.4346909691562237 0.5653090308437763 0.6982898388733845 0.3017101611266155 0.611355781481524 0.38864421851847597 0.508379854504431 0.4916201454955689 0.9177490176209155 0.08225098237908456 0.5126041449658566 0.48739585503414334 0.862514420423263 0.13748557957673696 0.521155907547627 0.4788440924523731 0.6763703244063205 0.3236296755936795 0.8739810107130228 0.1260189892869772 0.6508260576087269 0.3491739423912731 0.6953599627729101 0.3046400372270899 0.15677178519824836 0.8432282148017517 0.6097417338281614 0.39025826617183856 0.775656848688209 0.22434315131179094 0.6027958143241591 0.39720418567584087 0.22257580378522673 0.7774241962147732 0.14107945703513458 0.8589205429648654 0.7008224257520835 0.29917757424791647 0.7697193325553416 0.2302806674446584 0.6476935050420587 0.3523064949579414 0.5733225518450212 0.4266774481549788 0.5226563320517538 0.4773436679482463 0.5070813918707868 0.4929186081292131 0.848337057555513 0.15166294244448694 0.4815254092180665 0.5184745907819335 0.20341045527754323 0.7965895447224568 0.4523532233725429 0.5476467766274571 0.22892887064051726 0.7710711293594827 0.5155529504988206 0.4844470495011795 0.678459995591298 0.3215400044087021 0.8396093750098499 0.1603906249901501 0.37575513607198735 0.6242448639280126 0.25902422464375396 0.740975775356246 0.5887419613403008 0.41125803865969923 0.5697160747683888 0.43028392523161124 0.5468411122733757 0.45315888772662427 0.36485217252081986 0.6351478274791801 0.5422392198666679 0.45776078013333216 0.6640821888887088 0.33591781111129104 0.7248911825225901 0.27510881747740984 0.4906725941294673 0.5093274058705327 </TABLE>
    </DEFINITION>
    <DEFINITION>
      <FOR>15</FOR>
      <GIVEN>5</GIVEN>
      <GIVEN>6</GIVEN>
      <GIVEN>10</GIVEN>
      <GIVEN>11</GIVEN>
      <GIVEN>9</GIVEN>
      <GIVEN>13</GIVEN>
      <GIVEN>3</GIVEN>
      <GIVEN>12</GIVEN>
      <TABLE>0.3650846621923814 0.6349153378076187 0.3891205245354399 0.6108794754645601 0.4965353201636664 0.5034646798363335 0.9407452184985013 0.059254781501498634 0.5354675481815345 0.4645324518184654 0.6413630362584609 0.3586369637415391 0.31566869475691434 0.6843313052430856 0.6505443537601603 0.34945564623983977 0.2746236196788734 0.7253763803211266 0.4844207716797372 0.5155792283202628 0.2646126221268168 0.7353873778731833 0.637497718592904 0.3625022814070959 0.4380029114613388 0.5619970885386613 0.007878235301449609 0.9921217646985504 0.48576041542808196 0.5142395845719181 0.5307885297670942 0.4692114702329058 0.017962244348402802 0.9820377556515972 0.6611188465515351 0.33888115344846487 0.997670901058704 0.0023290989412959513 0.7274695501804679 0.2725304498195322 0.5952444327562545 0.4047555672437456 0.4660582163181328 0.5339417836818672 0.744993927981417 0.25500607201858305 0.2822624047162776 0.7177375952837224 0.6600855123433689 0.33991448765663124 0.5362302262123194 0.46376977378768064 0.8315093793077657 0.16849062069223425 0.7539685008639194 0.24603149913608058 0.911790342818884 0.08820965718111595 0.5726310537480579 0.4273689462519421 0.4775414495770381 0.5224585504229619 0.10675299670824467 0.8932470032917553 0.526374581079161 0.473625418920839 0.2764898395799614 0.7235101604200385 0.5404939108007266 0.4595060891992734 0.13905436933280432 0.8609456306671958 0.37774652563236855 0.6222534743676315 0.9323669907697736 0.06763300923022646 0.49582007029775765 0.5041799297022422 0.3544497343199903 0.6455502656800097 0.9657049223800002 0.03429507761999988 0.5826860313112333 0.41731396868876675 0.28935318492732487 0.7106468150726751 0.3035957262837796 0.6964042737162204 0.13048055958556448 0.8695194404144355 0.5788652990902873 0.42113470090971267 0.31923967482121146 0.6807603251787886 0.4017683972255781 0.5982316027744219 0.950787609725036 0.04921239027496399 0.7687497758967554 0.23125022410324458 0.03828117290761309 0.9617188270923869 0.4022130551260793 0.5977869448739207 0.6809649289523345 0.31903507104766543 0.9639354250814246 0.036064574918575426 0.6885421435724858 0.31145785642751417 0.9168703945782298 0.08312960542177023 0.9921298654654683 0.007870134534531706 0.5462670712097382 0.4537329287902617 0.3635139068220619 0.6364860931779381 0.36066689041106403 0.639333109588936 0.4422185607834921 0.5577814392165079 0.5188264637130079 0.4811735362869921 0.619453652049399 0.38054634795060105 0.5062268529888938 0.49377314701110625 0.3670249156871567 0.6329750843128433 0.30740616605980736 0.6925938339401926 0.39730303552851515 0.6026969644714848 0.9959013163810045 0.004098683618995497 0.10833732353128646 0.8916626764687136 0.5708584630767457 0.42914153692325435 0.20055418644967177 0.7994458135503283 0.5502508123591615 0.44974918764083843 0.18905260008318206 0.810947399916818 0.5407642459984932 0.4592357540015069 0.46732755761552225 0.5326724423844776 0.5033142110415618 0.49668578895843823 0.7654364020513587 0.23456359794864132 0.7004562920856765 0.29954370791432355 0.6961361752044029 0.3038638247955971 0.4991223440988188 0.5008776559011813 0.733218530295785 0.266781469704215 0.7439034700404747 0.2560965299595253 0.8175843828913852 0.18241561710861476 0.945585481108838 0.05441451889116205 0.1369445774881923 0.8630554225118077 0.8222123383934837 0.17778766160651627 0.27802435190005986 0.7219756480999401 0.7544316258362431 0.24556837416375693 0.5068582009610626 0.4931417990389374 0.44154747862711824 0.5584525213728817 0.3931858224858564 0.6068141775141437 0.41715760749036596 0.582842392509634 0.5725634558809752 0.42743654411902476 0.5408685314853916 0.4591314685146084 0.5838439174799716 0.4161560825200285 0.6121279148464392 0.38787208515356086 0.5493276815091521 0.4506723184908479 0.5227513385422505 0.4772486614577494 0.03953102956142372 0.9604689704385763 0.1179540698918692 0.8820459301081309 0.9352672124374363 0.06473278756256373 0.36517837070168446 0.6348216292983155 0.7201287271403983 0.27987127285960167 0.5460325495941333 0.45396745040586667 0.6065057417643525 0.39349425823564754 0.20659404224747285 0.7934059577525272 0.6941603296984006 0.3058396703015994 0.5261477210903622 0.4738522789096378 0.4598499502448965 0.5401500497551035 0.22537654029223078 0.7746234597077691 0.21452962148354904 0.785470378516451 0.4602969381932603 0.5397030618067397 0.5412651922850059 0.45873480771499414 0.5802494286767769 0.419750571323223 0.5861522096607468 0.41384779033925323 0.24218348554342292 0.757816514456577 0.886440082285229 0.11355991771477102 0.6372038031905732 0.3627961968094267 0.482091515331193 0.517908484668807 0.5710550738431558 0.4289449261568442 0.8053427074962181 0.19465729250378194 0.46453725613327485 0.5354627438667251 0.5386780397516033 0.4613219602483966 0.3936658331541326 0.6063341668458674 0.821398132298436 0.17860186770156403 0.4788290696367192 0.5211709303632808 0.7960014237011939 0.2039985762988061 0.7719136320802755 0.22808636791972453 0.47208859304064477 0.5279114069593551 0.31178755376934275 0.6882124462306571 0.5986204193182922 0.4013795806817078 0.1536365896447103 0.8463634103552896 0.4580016749970133 0.5419983250029866 0.42175748785097716 0.5782425121490229 0.4168022878078379 0.5831977121921621 0.23039133262058842 0.7696086673794116 0.3970062427400739 0.6029937572599261 0.9533270199891926 0.046672980010807386 0.5069300930190567 0.4930699069809434 0.532469271407847 0.4675307285921531 0.4708730370602359 0.529126962939764 0.7803319900060213 0.21966800999397879 0.7646967756941214 0.23530322430587855 0.82225903941192 0.17774096058807992 0.7047951100697458 0.2952048899302542 0.7581460783950669 0.24185392160493313 0.7413458974518516 0.2586541025481484 0.10132561116849786 0.8986743888315022 0.49994681515263567 0.5000531848473643 0.42708498607504475 0.5729150139249553 0.5133022112018792 0.48669778879812076 0.14910218851307905 0.8508978114869209 0.8695318687556713 0.13046813124432868 0.34601536066143074 0.6539846393385693 0.13404718206363334 0.8659528179363667 0.054032726776465506 0.9459672732235345 0.6756208088777735 0.32437919112222635 0.006503089015617042 0.993496910984383 0.5483053523764079 0.45169464762359224 0.7140396811323011 0.28596031886769885 0.3081339148005883 0.6918660851994116 0.6019224135081951 0.398077586491805 0.5410038306431125 0.45899616935688753 0.20156401046979056 0.7984359895302094 0.8805134346576124 0.11948656534238754 0.4867295019369684 0.5132704980630316 0.06731002543469684 0.9326899745653031 0.8575972880357302 0.14240271196426985 0.39249934515287005 0.6075006548471299 0.7644451934154161 0.2355548065845839 0.5495393977042524 0.4504606022957475 0.6630894937213091 0.3369105062786908 0.6611796971360249 0.33882030286397513 0.4837736164104635 0.5162263835895365 0.5888186205316962 0.4111813794683038 0.7810532138374585 0.21894678616254146 0.7516309509774891 0.24836904902251083 0.41631591613254054 0.5836840838674595 0.6751344634138517 0.3248655365861482 0.43659867777223627 0.5634013222277637 0.5606293112909853 0.4393706887090147 0.37627612919685927 0.6237238708031407 0.647529202774268 0.3524707972257321 0.45643425187667613 0.5435657481233238 0.4812689916402491 0.5187310083597508 0.6419997715982582 0.3580002284017417 0.4440688257111552 0.5559311742888448 0.6364004133963457 0.3635995866036543 0.39803248269233166 0.6019675173076683 0.5158377216160174 0.48416227838398274 0.626305117518671 0.3736948824813289 0.814508917593001 0.18549108240699883 0.6861012025789247 0.3138987974210753 0.7965236433594273 0.2034763566405728 0.4937879431334211 0.5062120568665789 0.6019702894932926 0.3980297105067075 0.7328756431471388 0.26712435685286123 0.6368232441657978 0.36317675583420217 0.25278528548069357 0.7472147145193064 0.03635472575189956 0.9636452742481004 0.33369951393090974 0.6663004860690903 0.5654103318594672 0.4345896681405328 0.95195431394103 0.04804568605896998 0.5537826552252593 0.44621734477474073 0.5284463744276645 0.47155362557233554 0.7389428672905336 0.26105713270946634 0.15610942524254628 0.8438905747574537 0.742672550924107 0.257327449075893 0.12910125705978293 0.8708987429402171 0.5001583069769611 0.499841693023039 0.517722343332476 0.4822776566675239 0.9033731528745093 0.09662684712549074 0.6424646066359643 0.35753539336403567 0.5820565274392735 0.4179434725607265 0.5351531638413956 0.4648468361586044 0.4058514204868207 0.5941485795131792 0.3994519890040494 0.6005480109959506 0.07165615804886165 0.9283438419511384 0.21318018262753502 0.786819817372465 0.36534851038731075 0.6346514896126891 0.7997764480660251 0.20022355193397492 0.34552199804856726 0.6544780019514327 0.5909144236763268 0.4090855763236731 0.287003045943595 0.712996954056405 0.15842682501068875 0.8415731749893114 0.5148875137729948 0.48511248622700515 0.5854470552171466 0.4145529447828534 0.7067327832136976 0.29326721678630235 0.5956149932707393 0.4043850067292606 0.39428628617244266 0.6057137138275572 0.4742305356465366 0.5257694643534633 0.952214517947605 0.04778548205239499 0.684652627351598 0.3153473726484018 0.2527593550754652 0.7472406449245348 0.6711143410865613 0.3288856589134387 0.47381999717071116 0.5261800028292888 0.5475199097650568 0.4524800902349431 0.317775499827994 0.6822245001720059 0.5344036508490206 0.4655963491509794 0.42769980051849105 0.572300199481509 0.09860293272972877 0.9013970672702712 0.4201583771714588 0.5798416228285411 0.8783236020536499 0.12167639794635007 0.04605377208038942 0.9539462279196106 0.7663201650591123 0.23367983494088776 0.6403873512495212 0.3596126487504789 0.49298002000475827 0.5070199799952418 0.5696977532725582 0.4303022467274418 0.21990895857287543 0.7800910414271245 0.6513025950865334 0.3486974049134666 0.40367041393333736 0.5963295860666628 0.38927269114551766 0.6107273088544825 0.6408190709610546 0.35918092903894533 0.5650596553038941 0.4349403446961059 0.4361932158412645 0.5638067841587355 0.5319597832812395 0.46804021671876056 </TABLE>
    </DEFINITION>
    <DEFINITION>
      <FOR>16</FOR>
      <GIVEN>4</GIVEN>
      <GIVEN>5</GIVEN>
      <GIVEN>6</GIVEN>
      <GIVEN>10</GIVEN>
      <GIVEN>1</GIVEN>
      <GIVEN>13</GIVEN>
      <GIVEN>3</GIVEN>
      <GIVEN>15</GIVEN>
      <TABLE>0.9605045371533228 0.039495462846677175 0.7491509968005495 0.25084900319945047 0.4737864807993208 0.5262135192006793 0.6763487609845715 0.32365123901542847 0.9690147458678608 0.030985254132139203 0.8541980359282534 0.14580196407174664 0.9863936362949824 0.013606363705017535 0.5141605634226244 0.48583943657737555 0.63827417314977 0.3617258268502301 0.3975735591237233 0.6024264408762767 0.6989559856435665 0.30104401435643346 0.4474797061152058 0.5525202938847942 0.1454961701304978 0.8545038298695022 0.3718443671167639 0.6281556328832361 0.6775142648747997 0.3224857351252003 0.14846535251478835 0.8515346474852117 0.14269383978108027 0.8573061602189198 0.15129126878679258 0.8487087312132074 0.6770362599191186 0.3229637400808813 0.18584149689435023 0.8141585031056499 0.2249461944139845 0.7750538055860154 0.31219734053673487 0.6878026594632651 0.3750478929562423 0.6249521070437577 0.15371455662635986 0.8462854433736401 0.8403952677061348 0.15960473229386526 0.4821519866659698 0.5178480133340302 0.41006927541401617 0.5899307245859838 0.41070885119096107 0.5892911488090389 0.609812689375188 0.390187310624812 0.7513473889062243 0.2486526110937757 0.45600444989527356 0.5439955501047264 0.5177531001434198 0.4822468998565802 0.14732544095668712 0.8526745590433129 0.36423792610675587 0.6357620738932441 0.4236775282617175 0.5763224717382825 0.3248548060838451 0.6751451939161548 0.3504239019466139 0.6495760980533861 0.8847483484592085 0.11525165154079159 0.4251417183964124 0.5748582816035877 0.5999262273897144 0.4000737726102856 0.6990031572963767 0.30099684270362326 0.5212520772382198 0.4787479227617802 0.4809559397109428 0.5190440602890573 0.5530160477814 0.44698395221859993 0.24767694706013774 0.7523230529398622 0.252010002914221 0.7479899970857791 0.6743175045300462 0.32568249546995376 0.40943530698861963 0.5905646930113805 0.5758175921360545 0.42418240786394534 0.13490486416103287 0.8650951358389671 0.07154592505668875 0.9284540749433112 0.5947004439678693 0.4052995560321307 0.632911644665885 0.36708835533411494 0.02567101924738721 0.9743289807526128 0.42626600499115075 0.5737339950088493 0.4806900598739533 0.5193099401260467 0.6335743578436592 0.36642564215634077 0.24441110132944718 0.7555888986705528 0.8589013579518457 0.14109864204815423 0.49900244262877097 0.5009975573712291 0.5474727503391448 0.4525272496608552 0.6811732189983278 0.31882678100167217 0.6119462164926288 0.3880537835073712 0.2862996769007991 0.713700323099201 0.7306597397617246 0.26934026023827534 0.5216861560525592 0.47831384394744086 0.5038752083384815 0.49612479166151846 0.7993059769343054 0.20069402306569462 0.6792061052109314 0.32079389478906867 0.6404496176019447 0.3595503823980553 0.16669797541626524 0.8333020245837347 0.5072847022996286 0.4927152977003713 0.19744942841819027 0.8025505715818098 0.4714604198583791 0.528539580141621 0.5302744023831137 0.46972559761688626 0.6052753042246977 0.3947246957753024 0.5123046549567685 0.48769534504323137 0.39888653952434394 0.601113460475656 0.8040456818102527 0.19595431818974732 0.6434456193715 0.3565543806285 0.6159240074110619 0.3840759925889381 0.9866921828129899 0.013307817187010178 0.6833182445349737 0.31668175546502625 0.37642146436954227 0.6235785356304578 0.536265603762026 0.463734396237974 0.5812032091421597 0.4187967908578403 0.634120270087661 0.36587972991233897 0.566512715389346 0.433487284610654 0.21764499468031967 0.7823550053196804 0.4308972820525472 0.5691027179474528 0.6750566331039787 0.3249433668960212 0.24883163493282828 0.7511683650671718 0.7190164815691356 0.28098351843086444 0.3813136522470335 0.6186863477529666 0.3789574678142062 0.6210425321857939 0.46407986184191846 0.5359201381580815 0.5751098244947233 0.42489017550527675 0.9233305498695027 0.07666945013049725 0.5657505419098933 0.43424945809010673 0.6690812831322084 0.33091871686779156 0.45839820204043863 0.5416017979595614 0.6951051930330853 0.3048948069669148 0.5142366349567444 0.48576336504325557 0.08281270056896124 0.9171872994310387 0.5186705022937459 0.4813294977062541 0.4401473206000627 0.5598526793999373 0.6858173822868104 0.3141826177131896 0.9558122096154311 0.04418779038456888 0.13990783436002974 0.8600921656399704 0.4844724429784191 0.5155275570215809 0.7438344715956361 0.2561655284043639 0.6364220060754688 0.3635779939245313 0.6022744093170833 0.39772559068291674 0.529602498128277 0.47039750187172313 0.34111368591544083 0.6588863140845591 0.061536632034850824 0.9384633679651492 0.1173277814908884 0.8826722185091116 0.25070998844192954 0.7492900115580704 0.5148613288564924 0.4851386711435076 0.6497761092834162 0.3502238907165838 0.39735539340703263 0.6026446065929674 0.523672363432661 0.47632763656733906 0.6851409866981982 0.31485901330180177 0.17228130668799463 0.8277186933120053 0.15698277643539166 0.8430172235646083 0.6637583699291185 0.33624163007088165 0.598718257261173 0.401281742738827 0.4847658862970796 0.5152341137029205 0.4896457385483155 0.5103542614516845 0.12111771084747978 0.8788822891525202 0.6851541643805488 0.3148458356194512 0.7471604153434541 0.2528395846565459 0.48856793550938443 0.5114320644906155 0.3252845671608233 0.6747154328391767 0.8659713111755376 0.13402868882446245 0.5243981696953665 0.47560183030463354 0.2101981587915018 0.7898018412084983 0.2980556727813004 0.7019443272186996 0.9102818089573478 0.08971819104265222 0.5857513270027107 0.41424867299728924 0.8218539474628299 0.17814605253717009 0.4240118684380329 0.5759881315619672 0.5736149344700364 0.4263850655299636 0.7096374255363276 0.29036257446367236 0.670706667913144 0.329293332086856 0.19656322974000476 0.8034367702599953 0.17206484298094504 0.827935157019055 0.4016131755895477 0.5983868244104522 0.5557328011699606 0.44426719883003934 0.782644264898682 0.21735573510131798 0.6896258971876903 0.31037410281230976 0.6585225986363146 0.3414774013636856 0.21435896953471473 0.7856410304652853 0.3729434945725791 0.627056505427421 0.22570903750144478 0.7742909624985552 0.3603116525488471 0.6396883474511529 0.7020231034552161 0.2979768965447838 0.44689745712262263 0.5531025428773774 0.5420003975814344 0.4579996024185657 0.47977726127932446 0.5202227387206755 0.4758327160978105 0.5241672839021895 0.5426212957481288 0.4573787042518711 0.0016149821361811129 0.9983850178638188 0.28972517667473124 0.7102748233252687 0.9289451186411266 0.07105488135887336 0.6892905665829802 0.3107094334170198 0.610028437540117 0.38997156245988296 0.03089260471821317 0.9691073952817868 0.9036427820892139 0.09635721791078619 0.48061682235883463 0.5193831776411653 0.24219651415138216 0.7578034858486178 0.5636283174265273 0.43637168257347275 0.33412633639816175 0.6658736636018383 0.3245055376686529 0.6754944623313471 0.3514148765981473 0.6485851234018527 0.07258330950813663 0.9274166904918634 0.24907677622621927 0.7509232237737807 0.32144749721855237 0.6785525027814475 0.18965810166975716 0.8103418983302428 0.3444484765201122 0.6555515234798878 0.993928324495793 0.0060716755042069664 0.6611256270313628 0.3388743729686372 0.5673747427880664 0.43262525721193357 0.49313726564070365 0.5068627343592964 0.30845122876639697 0.6915487712336031 0.6286902289092391 0.371309771090761 0.2310195229341504 0.7689804770658495 0.9780805645969496 0.02191943540305038 0.49666694006695045 0.5033330599330496 0.7695919289335138 0.2304080710664862 0.4844362575963307 0.5155637424036693 0.7325956833225639 0.2674043166774362 0.3529556232866715 0.6470443767133285 0.676818195650855 0.323181804349145 0.40258128550758066 0.5974187144924195 0.5405495774650927 0.4594504225349073 0.0917334082421239 0.908266591757876 0.5794339001260211 0.4205660998739789 0.5884124831023617 0.41158751689763834 0.08474819268801567 0.9152518073119843 0.26096075108845124 0.7390392489115488 0.7630848290932954 0.23691517090670455 0.05890460200477591 0.9410953979952241 0.5416840248290868 0.45831597517091316 0.6458539319402967 0.3541460680597033 0.3277024566587282 0.6722975433412718 0.9383502220668393 0.06164977793316075 0.7809178250921059 0.21908217490789403 0.7482649572498185 0.2517350427501816 0.0291809458477454 0.9708190541522546 0.3919601542494629 0.608039845750537 0.7947866688629739 0.20521333113702614 0.5513432922293382 0.44865670777066174 0.5659951885453423 0.4340048114546577 0.7570293903208452 0.24297060967915488 0.08575684413606519 0.9142431558639348 0.475633065729714 0.524366934270286 0.4831609906245657 0.5168390093754343 0.14424022014283489 0.8557597798571651 0.19568452677617806 0.8043154732238218 0.4548232518529289 0.5451767481470712 0.41486701447806407 0.5851329855219359 0.8330519153704938 0.1669480846295062 0.00763439091783826 0.9923656090821618 0.7283009725028265 0.27169902749717345 0.579815181963801 0.4201848180361991 0.9791850580224707 0.02081494197752947 0.5224502268435408 0.4775497731564592 0.4246694135628199 0.5753305864371802 0.23991596219928346 0.7600840378007165 0.7613395084700358 0.23866049152996413 0.03752001786972908 0.9624799821302709 0.46780259312188466 0.5321974068781153 0.3334157060283382 0.6665842939716619 0.8005057034518565 0.19949429654814355 0.26969505972197505 0.730304940278025 0.49177360006156245 0.5082263999384375 0.8718061130596361 0.1281938869403638 0.15554201250075883 0.8444579874992412 0.8382236683967468 0.16177633160325322 0.9446868763674758 0.05531312363252417 0.4725515930245262 0.5274484069754738 0.6501955255265695 0.3498044744734305 0.12899062327316532 0.8710093767268346 0.9847587959420102 0.015241204057989734 0.4138366111750208 0.5861633888249792 0.7031489998674355 0.2968510001325646 0.6344703961604333 0.3655296038395667 0.6008865429651684 0.39911345703483153 0.656742640206988 0.3432573597930119 0.4697624143070291 0.5302375856929709 0.25930844041501244 0.7406915595849874 0.7324557685935991 0.267544231406401 0.14966001621247216 0.8503399837875278 0.008241780759924449 0.9917582192400756 0.50675632431666 0.49324367568334004 </TABLE>
    </DEFINITION>
    <DEFINITION>
      <FOR>17</FOR>
      <GIVEN>2</GIVEN>
      <GIVEN>5</GIVEN>
      <GIVEN>6</GIVEN>
      <GIVEN>14</GIVEN>
      <GIVEN>9</GIVEN>
      <GIVEN>16</GIVEN>
      <GIVEN>15</GIVEN>
      <GIVEN>12</GIVEN>
      <TABLE>0.7271185575159792 0.2728814424840207 0.6104287717785055 0.3895712282214944 0.743720029741317 0.256279970258683 0.26477828120957725 0.7352217187904228 0.5827764461971453 0.41722355380285464 0.4997225527630942 0.5002774472369058 0.5059863504771562 0.4940136495228437 0.5596103794125427 0.4403896205874573 0.5384978115925201 0.46150218840747986 0.769416395128595 0.2305836048714049 0.41616314312144226 0.5838368568785578 0.5532455958853101 0.44675440411468986 0.068220615927406 0.9317793840725941 0.49314202432598664 0.5068579756740134 0.715925431014892 0.2840745689851079 0.61304216680744 0.38695783319256005 0.0775295712530537 0.9224704287469463 0.4095936867944839 0.5904063132055162 0.3246548361492164 0.6753451638507835 0.5075373028025035 0.49246269719749647 0.744159029407999 0.255840970592001 0.014923453117606851 0.9850765468823931 0.44578366613571446 0.5542163338642856 0.4310671142794852 0.5689328857205147 0.03217013693373505 0.9678298630662648 0.933452528610372 0.06654747138962798 0.336293089732286 0.6637069102677141 0.6060680861480613 0.3939319138519388 0.29710321165796705 0.7028967883420328 0.5058980471080903 0.49410195289190967 0.5957202874562447 0.40427971254375533 0.44761802804807993 0.5523819719519201 0.12299925185417426 0.8770007481458257 0.781416704733925 0.218583295266075 0.08612660925024217 0.9138733907497578 0.08390299051914504 0.9160970094808549 0.7664077533136185 0.23359224668638146 0.5220770617454307 0.47792293825456933 0.5122528237000432 0.48774717629995684 0.7253786500360812 0.2746213499639189 0.2440020219851316 0.7559979780148683 0.07359474771963762 0.9264052522803624 0.15859930704409306 0.8414006929559069 0.7035995606617331 0.29640043933826693 0.44645591089260234 0.5535440891073976 0.3661409019938879 0.6338590980061121 0.6523258499016859 0.3476741500983142 0.6207885465213027 0.3792114534786973 0.2803611218217269 0.7196388781782731 0.8877797886326775 0.11222021136732248 0.799037807545095 0.2009621924549051 0.4995945990975417 0.5004054009024583 0.5202210928187595 0.47977890718124044 0.4870534018968319 0.5129465981031681 0.528823608638705 0.4711763913612949 0.5630628348578517 0.43693716514214836 0.4649052258689329 0.5350947741310671 0.4541243968794654 0.5458756031205345 0.159462271192934 0.8405377288070661 0.07366846567820408 0.9263315343217959 0.13832380105233213 0.8616761989476679 0.5932147385910717 0.4067852614089283 0.4891814077123293 0.5108185922876707 0.22703326208738725 0.7729667379126127 0.38103992588244484 0.6189600741175552 0.3518673834494924 0.6481326165505076 0.3736290553883646 0.6263709446116354 0.43643303737120476 0.5635669626287952 0.5023545528778094 0.49764544712219055 0.47905484143777205 0.520945158562228 0.49947589005013654 0.5005241099498635 0.23680452971912475 0.7631954702808753 0.8246765419792083 0.17532345802079186 0.4786000237416823 0.5213999762583177 0.7754012120722811 0.2245987879277189 0.3089065694626376 0.6910934305373623 0.762781376585299 0.2372186234147011 0.6817575899426493 0.3182424100573507 0.012291429174929782 0.9877085708250702 0.44798845060004705 0.5520115493999529 0.24658492407787952 0.7534150759221205 0.8846476747519221 0.11535232524807795 0.30163945831609906 0.6983605416839009 0.2123601467709153 0.7876398532290847 0.6321308720569929 0.36786912794300713 0.325955942487807 0.674044057512193 0.4130680414065066 0.5869319585934935 0.6750089378564799 0.32499106214352 0.2747790510395542 0.725220948960446 0.1515856764683684 0.8484143235316316 0.7162969243325195 0.28370307566748065 0.5066495138441396 0.49335048615586047 0.9086495564542719 0.09135044354572805 0.6646321178351178 0.33536788216488217 0.22817281589147254 0.7718271841085275 0.5821528120248686 0.4178471879751315 0.10984508131710674 0.8901549186828932 0.2042810486381409 0.7957189513618591 0.6602245988010436 0.3397754011989565 0.30709971122144414 0.6929002887785558 0.6537921766630442 0.3462078233369557 0.11891536196559607 0.881084638034404 0.09579227671567479 0.9042077232843252 0.23184316791372664 0.7681568320862734 0.0003340790130051324 0.9996659209869949 0.7107471533615922 0.28925284663840783 0.977623203894669 0.022376796105331064 0.695347049534035 0.30465295046596497 0.7595613190455305 0.24043868095446952 0.6789756169841057 0.3210243830158944 0.39916068010759925 0.6008393198924008 0.5489022246609033 0.4510977753390968 0.23580992710762522 0.7641900728923748 0.2819117902635269 0.7180882097364731 0.13645183723483165 0.8635481627651683 0.6097085178078628 0.3902914821921371 0.4396182814994845 0.5603817185005154 0.4496769905624269 0.5503230094375731 0.16336943207405485 0.8366305679259451 0.801905048402776 0.19809495159722398 0.33744382366267245 0.6625561763373276 0.7226977453432996 0.27730225465670033 0.5401524838065533 0.4598475161934467 0.4345054334064448 0.5654945665935551 0.38028374293119216 0.6197162570688078 0.5190760607900706 0.4809239392099295 0.6239219284079844 0.37607807159201556 0.13828345476719195 0.861716545232808 0.5099735669516087 0.49002643304839133 0.8116233707359157 0.1883766292640844 0.3898754933435004 0.6101245066564995 0.7004930805338332 0.2995069194661668 0.9753746351684166 0.024625364831583365 0.4268610620984402 0.5731389379015598 0.4626538884749822 0.537346111525018 0.0922440867603078 0.9077559132396922 0.753415851885933 0.2465841481140671 0.44780374986737226 0.5521962501326279 0.19728566336322498 0.802714336636775 0.3414743569892933 0.6585256430107068 0.12148645850300495 0.8785135414969951 0.7958255879871928 0.2041744120128072 0.038117095380006474 0.9618829046199935 0.194153923798466 0.805846076201534 0.8027473986344961 0.19725260136550396 0.48454471673760835 0.5154552832623917 0.12591323878470512 0.8740867612152948 0.08829714306536272 0.9117028569346373 0.4550411326133086 0.5449588673866914 0.11510385319724414 0.8848961468027559 0.443883397003014 0.5561166029969861 0.49905996503944866 0.5009400349605513 0.7353926720484761 0.264607327951524 0.5669537435232728 0.4330462564767272 0.05369257002819467 0.9463074299718053 0.36060160165697014 0.6393983983430299 0.5542893398790151 0.44571066012098487 0.54262244144419 0.45737755855581 0.2558308412938798 0.7441691587061202 0.4810738174051651 0.5189261825948349 0.28438664071116915 0.7156133592888309 0.7574124736050191 0.24258752639498088 0.08675328674328563 0.9132467132567144 0.317446145404887 0.682553854595113 0.9580597087297607 0.04194029127023934 0.5780219042409215 0.42197809575907846 0.35171150854202027 0.6482884914579797 0.5511595430013317 0.44884045699866826 0.8596302057906718 0.1403697942093282 0.33633471418315825 0.6636652858168417 0.4853250276368566 0.5146749723631434 0.18259526606852966 0.8174047339314703 0.5828342103527877 0.41716578964721235 0.32266912287677596 0.677330877123224 0.3777272306535003 0.6222727693464997 0.37065252727163744 0.6293474727283624 0.3827108688263995 0.6172891311736006 0.3939329850549468 0.6060670149450532 0.8382864009594585 0.16171359904054156 0.4393309208266184 0.5606690791733816 0.2816698643930369 0.7183301356069631 0.5663413378020864 0.4336586621979136 0.49133488310815454 0.5086651168918453 0.2683816528031323 0.7316183471968676 0.37481414062562396 0.6251858593743761 0.09569557735320833 0.9043044226467917 0.4167834723201342 0.5832165276798659 0.9834804164689671 0.016519583531032896 0.29473184546900744 0.7052681545309926 0.5093413102501885 0.4906586897498115 0.49425096332180357 0.5057490366781964 0.35215392254344074 0.6478460774565592 0.05052447861647886 0.9494755213835211 0.44208938669358294 0.5579106133064171 0.3233412281711057 0.6766587718288942 0.411127256400696 0.588872743599304 0.7761234432338527 0.22387655676614715 0.32192894396903166 0.6780710560309684 0.830563728587562 0.16943627141243806 0.4332041726064458 0.5667958273935543 0.7828545042784756 0.21714549572152458 0.504591555196262 0.4954084448037381 0.5569012016845818 0.44309879831541826 0.44086587174152836 0.5591341282584715 0.9473205592221704 0.05267944077782962 0.5628617104382927 0.43713828956170736 0.5009140007616225 0.4990859992383775 0.5490297447632518 0.4509702552367481 0.16423733596201728 0.8357626640379827 0.4029476255988769 0.597052374401123 0.6502229219480161 0.34977707805198394 0.5087357548909891 0.4912642451090108 0.2710260298377191 0.7289739701622808 0.5000590595802045 0.4999409404197956 0.6358012045197154 0.36419879548028455 0.6430559059252042 0.3569440940747959 0.8530124005136722 0.14698759948632786 0.18153223320490322 0.8184677667950968 0.6681851682620686 0.33181483173793136 0.8831411786043449 0.11685882139565502 0.4009933545776568 0.5990066454223432 0.3768009247271271 0.6231990752728729 0.1936009562133179 0.8063990437866821 0.49274707872335377 0.5072529212766462 0.6644707304605478 0.33552926953945217 0.47462560098626533 0.5253743990137347 0.4311734429424441 0.5688265570575559 0.5107094907506265 0.4892905092493734 0.41940110501638544 0.5805988949836146 0.4124996430523745 0.5875003569476254 0.6480344926603149 0.3519655073396852 0.37735865322262113 0.6226413467773789 0.6595473114121051 0.34045268858789496 0.39219216461673717 0.6078078353832628 0.5650782155285465 0.43492178447145347 0.6770487669423708 0.32295123305762924 0.5225053975388185 0.47749460246118136 0.5240006275884063 0.4759993724115937 0.9106441129799207 0.08935588702007939 0.46269815418682964 0.5373018458131704 0.41786959190535683 0.5821304080946432 0.5200542459507667 0.47994575404923334 0.9364978398088342 0.06350216019116582 0.010382533929367277 0.9896174660706327 0.6998880590119643 0.30011194098803573 0.406129389253416 0.5938706107465841 0.6011095655619345 0.39889043443806554 0.18492022471494785 0.8150797752850522 0.896527112928989 0.10347288707101096 0.3558525380146502 0.6441474619853497 0.444486923984959 0.5555130760150411 0.4404401953850813 0.5595598046149187 0.3737797645910777 0.6262202354089222 0.09946401065046925 0.9005359893495307 0.3359835944434755 0.6640164055565245 0.7672351319832423 0.23276486801675764 </TABLE>
    </DEFINITION>
    <DEFINITION>
      <FOR>18</FOR>
      <GIVEN>5</GIVEN>
      <GIVEN>6</GIVEN>
      <GIVEN>14</GIVEN>
      <GIVEN>1</GIVEN>
      <GIVEN>13</GIVEN>
      <GIVEN>17</GIVEN>
      <GIVEN>15</GIVEN>
      <TABLE>0.3835888363339706 0.6164111636660294 0.2664942015980577 0.7335057984019424 0.10002599995279073 0.8999740000472093 0.05202582932306666 0.9479741706769335 0.5987309187380886 0.4012690812619114 0.764862640503034 0.235137359496966 0.8547348811813468 0.14526511881865328 0.6246641063368756 0.3753358936631243 0.5810293494174389 0.41897065058256117 0.3170291771327278 0.6829708228672722 0.8924679103858729 0.10753208961412714 0.6918226008156382 0.30817739918436177 0.4582534553506523 0.5417465446493478 0.36047546019973503 0.6395245398002649 0.642277108399828 0.35772289160017207 0.1979953640111326 0.8020046359888674 0.3330650199208074 0.6669349800791926 0.49855404879300497 0.5014459512069952 0.7939360495681772 0.2060639504318228 0.3041341292587025 0.6958658707412975 0.3335124212857309 0.666487578714269 0.26344792303087605 0.736552076969124 0.34240640180420856 0.6575935981957913 0.45000954682893934 0.5499904531710607 0.22013754860195045 0.7798624513980495 0.3900925848361139 0.609907415163886 0.8891462340709182 0.11085376592908178 0.895200749381932 0.10479925061806804 0.7200244668248772 0.27997553317512286 0.3514269121977639 0.6485730878022361 0.5562851743113055 0.44371482568869447 0.9769032880950269 0.023096711904973092 0.3336149678175306 0.6663850321824694 0.1811637058727114 0.8188362941272886 0.6858134519733533 0.31418654802664675 0.5589846535190502 0.4410153464809498 0.33023979376170215 0.6697602062382978 0.8433785073878515 0.15662149261214853 0.31713185320336973 0.6828681467966302 0.1651270737096023 0.8348729262903977 0.8905702652937276 0.10942973470627235 0.4639573126686894 0.5360426873313107 0.4636291684471621 0.5363708315528378 0.9039691795828335 0.09603082041716648 0.3928478449117247 0.6071521550882754 0.2614141313498378 0.7385858686501622 0.9244931550329644 0.07550684496703565 0.7626161547630241 0.23738384523697587 0.5532720643594364 0.44672793564056357 0.6465175126742333 0.3534824873257667 0.39901642319738395 0.6009835768026159 0.44692956479468143 0.5530704352053185 0.1603992330806193 0.8396007669193807 0.16850954733182752 0.8314904526681725 0.7547853565757418 0.24521464342425828 0.11192321383992718 0.8880767861600728 0.557977698533086 0.442022301466914 0.5762158755884024 0.42378412441159763 0.08556109255676661 0.9144389074432335 0.47029336695921936 0.5297066330407807 0.06544489182526407 0.934555108174736 0.6969764271857655 0.3030235728142345 0.4130817220433714 0.5869182779566285 0.51556490045999 0.48443509954000985 0.7613404468071683 0.23865955319283166 0.34835283454722 0.65164716545278 0.5904465524423008 0.40955344755769907 0.0461857090249078 0.9538142909750922 0.3077560892338008 0.6922439107661991 0.9153162017472372 0.08468379825276282 0.11096544798778894 0.889034552012211 0.21347362910206008 0.7865263708979399 0.4663678575629246 0.5336321424370754 0.9382293121960003 0.06177068780399971 0.41048615208964623 0.5895138479103538 0.7286164029922736 0.2713835970077265 0.8880058019951818 0.11199419800481819 0.012916273491499096 0.987083726508501 0.403328704933402 0.596671295066598 0.8686263369743572 0.13137366302564285 0.48873133972271576 0.5112686602772843 0.5187873659004328 0.48121263409956716 0.5056640912008167 0.4943359087991834 0.4417385419660244 0.5582614580339755 0.5305328857707732 0.46946711422922693 0.9346015773419936 0.06539842265800641 0.26774402785980067 0.7322559721401993 0.479653748502307 0.520346251497693 0.4590340866497719 0.540965913350228 0.8541335484894839 0.14586645151051614 0.13157390660859036 0.8684260933914096 0.06197385446519823 0.9380261455348018 0.5971489259927674 0.4028510740072326 0.463387799066799 0.536612200933201 0.2291121044123547 0.7708878955876453 0.7480845156716481 0.2519154843283519 0.7679559234734037 0.23204407652659625 0.4063461650772702 0.5936538349227297 0.17695511421884907 0.823044885781151 0.3309243200549668 0.6690756799450333 0.642434380622705 0.35756561937729503 0.17438400219994762 0.8256159978000523 0.6671333376440253 0.33286666235597484 0.17153107552293978 0.8284689244770602 0.4721103767700118 0.5278896232299882 0.13191041352493335 0.8680895864750666 0.3817515026830322 0.6182484973169678 0.2573639844711785 0.7426360155288214 0.7122311677851388 0.28776883221486116 0.44046341828716057 0.5595365817128394 0.6118473441880675 0.3881526558119324 0.06022767786092763 0.9397723221390724 0.805571557499631 0.194428442500369 0.797524278750048 0.2024757212499519 0.2201095304415329 0.7798904695584671 0.3704379989504545 0.6295620010495455 0.30319232366249504 0.696807676337505 0.7106608882238603 0.28933911177613975 0.647902576837002 0.35209742316299797 0.7023017967652879 0.29769820323471197 0.245943978877231 0.754056021122769 0.48660956003880823 0.5133904399611917 0.6732943812142255 0.32670561878577453 0.32554568309206355 0.6744543169079364 0.25141236228667885 0.7485876377133212 0.2933300772405384 0.7066699227594616 0.7758785192018867 0.2241214807981133 0.32234627960202433 0.6776537203979758 </TABLE>
    </DEFINITION>
    <DEFINITION>
      <FOR>19</FOR>
      <GIVEN>0</GIVEN>
      <GIVEN>4</GIVEN>
      <GIVEN>6</GIVEN>
      <GIVEN>7</GIVEN>
      <GIVEN>8</GIVEN>
      <GIVEN>11</GIVEN>
      <GIVEN>14</GIVEN>
      <GIVEN>16</GIVEN>
      <GIVEN>18</GIVEN>
      <GIVEN>12</GIVEN>
      <TABLE>0.23586960106139174 0.7641303989386082 0.7620227928874993 0.23797720711250064 0.24528833604614014 0.7547116639538599 0.5519656385857 0.4480343614142999 0.3617996250446256 0.6382003749553745 0.5604869728879797 0.4395130271120204 0.912967301614406 0.08703269838559405 0.8668733769422993 0.13312662305770073 0.712388739516832 0.2876112604831679 0.9787974749684694 0.021202525031530643 0.3772111011779195 0.6227888988220804 0.5910345100492358 0.40896548995076415 0.5884055011613955 0.41159449883860455 0.6298762619192637 0.3701237380807363 0.6877759540324758 0.3122240459675242 0.7433802311832439 0.2566197688167561 0.6853021131603512 0.3146978868396488 0.18801632356745476 0.8119836764325452 0.7536183518601413 0.24638164813985874 0.2456358905601478 0.7543641094398522 0.5123159907171764 0.4876840092828236 0.7476334712275875 0.2523665287724125 0.5805616721823244 0.4194383278176756 0.07912641960682595 0.920873580393174 0.4131746254381034 0.5868253745618965 0.41826963230427966 0.5817303676957204 0.9399147742267898 0.060085225773210224 0.819353297787076 0.180646702212924 0.43577612056873805 0.564223879431262 0.6946341616373497 0.3053658383626502 0.7670870817096367 0.23291291829036329 0.29457961126677734 0.7054203887332225 0.43259489273597207 0.5674051072640279 0.39575624706321927 0.6042437529367808 0.4326153098677845 0.5673846901322155 0.4404935369547083 0.5595064630452917 0.4424605867168922 0.5575394132831077 0.6716709764457093 0.3283290235542908 0.3121276443611013 0.6878723556388987 0.4659213487583194 0.5340786512416805 0.7404187045886187 0.25958129541138125 0.45859732890625665 0.5414026710937433 0.9348934148741141 0.06510658512588581 0.6772466811219406 0.32275331887805936 0.011035158141725484 0.9889648418582745 0.7847916153534995 0.21520838464650047 0.02920690041585136 0.9707930995841486 0.15448411772180773 0.8455158822781923 0.32268869605562783 0.6773113039443721 0.5133093068382496 0.48669069316175034 0.1703182890625059 0.8296817109374941 0.19993896256045068 0.8000610374395494 0.6432932023444983 0.35670679765550173 0.01119086476114779 0.9888091352388522 0.6931162824281407 0.30688371757185934 0.8466635380122882 0.15333646198771173 0.47305442429598166 0.5269455757040182 0.08698496731483785 0.9130150326851622 0.5162088475966411 0.48379115240335896 0.3739321906476709 0.626067809352329 0.48486143314366265 0.5151385668563374 0.8495320057699103 0.15046799423008975 0.7345236161318937 0.2654763838681063 0.04305992236699002 0.95694007763301 0.4143161217592932 0.5856838782407068 0.5556073161758937 0.44439268382410635 0.47609519120541066 0.5239048087945892 0.27311385423029116 0.7268861457697089 0.55933498406665 0.44066501593334995 0.36260068385018845 0.6373993161498115 0.5324775961715084 0.46752240382849164 0.7264368008561396 0.27356319914386035 0.5653026879441817 0.4346973120558183 0.002133537921348272 0.9978664620786517 0.30586158078616454 0.6941384192138355 0.559634415763834 0.44036558423616595 0.5651416295163942 0.43485837048360576 0.23539418852250224 0.7646058114774977 0.07704879198622357 0.9229512080137764 0.5450536087192103 0.45494639128078973 0.5079784312763325 0.49202156872366754 0.558603465379742 0.44139653462025796 0.1797871043663669 0.8202128956336331 0.5664647863405903 0.43353521365940967 0.8314264841868853 0.1685735158131148 0.06439357438690943 0.9356064256130906 0.6953417130603844 0.30465828693961555 0.6799015358859911 0.32009846411400894 0.47323044334112263 0.5267695566588774 0.6553508947123426 0.34464910528765746 0.5888530193602514 0.41114698063974864 0.20596817697980194 0.794031823020198 0.4709706138330792 0.5290293861669207 0.2468119320655308 0.7531880679344692 0.25532228388716677 0.7446777161128331 0.7904500147130873 0.20954998528691288 0.9395557342907013 0.06044426570929869 0.44724007895336987 0.5527599210466301 0.9505974444427312 0.049402555557268815 0.3719377038572901 0.6280622961427099 0.48039176861094934 0.5196082313890505 0.5311327403713895 0.4688672596286106 0.9148147943686021 0.08518520563139802 0.15366799260761047 0.8463320073923896 0.3630741516991611 0.6369258483008389 0.7665656949995578 0.23343430500044215 0.5457128354289086 0.45428716457109136 0.5037817885204541 0.49621821147954587 0.7456426555230002 0.25435734447699976 0.6910696027311335 0.30893039726886645 0.5350317492844892 0.4649682507155109 0.5952234731455568 0.4047765268544431 0.8336701628616697 0.16632983713833027 0.4256980959785153 0.5743019040214846 0.2639251691074873 0.7360748308925127 0.8794278820727357 0.12057211792726434 0.4924591296103878 0.5075408703896122 0.4157294119490745 0.5842705880509255 0.36771926169083696 0.632280738309163 0.07788786897834662 0.9221121310216533 0.6761191511885347 0.3238808488114652 0.5912189684882707 0.4087810315117291 0.0008943825292778395 0.9991056174707221 0.4619492944614148 0.5380507055385851 0.685326933825631 0.3146730661743689 0.21775923319783821 0.7822407668021618 0.992468826401299 0.007531173598701006 0.6332533844379211 0.3667466155620789 0.9982407640234322 0.0017592359765678475 0.015196457910585381 0.9848035420894146 0.46047137227073964 0.5395286277292602 0.5250681493013923 0.4749318506986076 0.05021790928338357 0.9497820907166165 0.5799661750571572 0.42003382494284286 0.4696730206194785 0.5303269793805214 0.7712811299886476 0.22871887001135235 0.5697893298393334 0.4302106701606665 0.4988462569206886 0.5011537430793114 0.18655679174873657 0.8134432082512635 0.3775395997731157 0.6224604002268844 0.5009326011756162 0.49906739882438383 0.6626925464809897 0.3373074535190103 0.4914418768112014 0.5085581231887987 0.48103142519868175 0.5189685748013183 0.7004371901758244 0.2995628098241756 0.7310765593080704 0.26892344069192964 0.5384939303592873 0.46150606964071267 0.3649429858643305 0.6350570141356695 0.8372925397800378 0.1627074602199621 0.5665718364756709 0.43342816352432906 0.1742299802356527 0.8257700197643473 0.5263951349970013 0.47360486500299875 0.813414960295042 0.18658503970495793 0.5707413167482787 0.42925868325172134 0.18752393022782965 0.8124760697721704 0.08366307519843708 0.9163369248015629 0.4650709780972611 0.5349290219027388 0.4040287139228485 0.5959712860771514 0.4499893361768232 0.5500106638231769 0.3966401835100867 0.6033598164899133 0.3446936998671682 0.6553063001328318 0.48315890779292087 0.5168410922070792 0.21147212762549988 0.7885278723745001 0.49731480470626044 0.5026851952937396 0.48492440019416716 0.515075599805833 0.536211571520776 0.463788428479224 0.20446680779856155 0.7955331922014385 0.7123622848531755 0.2876377151468244 0.9943943144869426 0.005605685513057406 0.5220036155785776 0.4779963844214224 0.9297938257766523 0.07020617422334775 0.8725331222714643 0.1274668777285357 0.6452801267886364 0.3547198732113635 0.38516219275858843 0.6148378072414116 0.30164120692640567 0.6983587930735943 0.02954317391149571 0.9704568260885043 0.5233693023796239 0.4766306976203762 0.7672103456551481 0.23278965434485188 0.2610789446480507 0.7389210553519493 0.7569919197629181 0.24300808023708192 0.10217894978733835 0.8978210502126617 0.642924558747958 0.357075441252042 0.8702609112585465 0.1297390887414535 0.4541030780256974 0.5458969219743026 0.5220068710751243 0.47799312892487567 0.8163855427198592 0.18361445728014078 0.022432476855035046 0.977567523144965 0.38812492271440396 0.6118750772855961 0.03585032594936122 0.9641496740506388 0.1634034562225395 0.8365965437774605 0.6199237210683858 0.3800762789316142 0.08364366693943992 0.9163563330605602 0.9856803096768034 0.014319690323196613 0.6128886919089512 0.38711130809104877 0.5511241612763136 0.44887583872368647 0.03893354193596232 0.9610664580640377 0.5977656050995782 0.4022343949004218 0.4627226665490196 0.5372773334509805 0.4473602317332927 0.5526397682667074 0.5793173693200074 0.4206826306799925 0.44632234822327627 0.5536776517767237 0.3324836912415177 0.6675163087584822 0.7909974873943454 0.20900251260565467 0.3872728761952748 0.6127271238047252 0.7108168308815531 0.2891831691184469 0.3363524305103855 0.6636475694896145 0.840215611289147 0.15978438871085285 0.5995607371201732 0.4004392628798268 0.19865606051228502 0.8013439394877149 0.4790327357201775 0.5209672642798225 0.17589922196512686 0.8241007780348731 0.43422137335092525 0.5657786266490747 0.783769800545647 0.21623019945435296 0.547388973170069 0.452611026829931 0.8677429985335593 0.13225700146644084 0.6614675290041606 0.33853247099583933 0.7778925584735933 0.22210744152640674 0.1491186475123818 0.8508813524876182 0.15540710856591533 0.8445928914340847 0.37041959021758303 0.6295804097824169 0.5802953449075796 0.41970465509242033 0.9834762823502206 0.01652371764977949 0.5507306861941131 0.4492693138058868 0.3296219517372857 0.6703780482627143 0.56765237264117 0.4323476273588301 0.3016402526638363 0.6983597473361637 0.8249006918299655 0.17509930817003452 0.683288323789716 0.31671167621028384 0.36542573103425435 0.6345742689657456 0.8669669887424006 0.13303301125759937 0.6428081580867085 0.35719184191329145 0.5597027693308368 0.4402972306691631 0.02244554313819231 0.9775544568618076 0.4583100973523546 0.5416899026476454 0.4574233943456068 0.5425766056543933 0.43368359797600486 0.5663164020239951 0.27174953861438805 0.7282504613856119 0.8475207473211034 0.15247925267889662 0.34736469787697105 0.6526353021230289 0.4509381114692021 0.549061888530798 0.3179545782372647 0.6820454217627352 0.37389287872216503 0.626107121277835 0.15937831570343014 0.8406216842965698 0.4451203293988691 0.5548796706011309 0.5350327754234641 0.4649672245765359 0.8483669819679138 0.15163301803208623 0.2657355349963901 0.7342644650036099 0.04424579008748453 0.9557542099125155 0.5986682381307475 0.4013317618692524 0.6143824304531187 0.3856175695468813 0.9148591513232264 0.08514084867677366 0.4463739680647995 0.5536260319352004 0.6566792801351966 0.3433207198648034 0.639596093739839 0.360403906260161 0.460822392353639 0.539177607646361 0.3025977795116516 0.6974022204883482 0.7544540899860167 0.24554591001398335 0.44700783036380587 0.5529921696361941 0.12494950739460142 0.8750504926053986 0.4973652607464389 0.5026347392535612 0.7812381736723395 0.21876182632766064 0.6081782428568585 0.39182175714314144 0.1670498282125038 0.8329501717874962 0.49458191890227066 0.5054180810977295 0.09907878214452562 0.9009212178554744 0.5650440095466732 0.4349559904533267 0.24461643643133654 0.7553835635686634 0.9247543027167756 0.07524569728322436 0.25470526346288125 0.7452947365371188 0.42120966417890227 0.5787903358210977 0.572520362883252 0.427479637116748 0.6888865236819851 0.31111347631801495 0.5846654344193954 0.4153345655806046 0.36062213431035817 0.6393778656896418 0.3993817486239803 0.6006182513760197 0.8669096089239128 0.1330903910760872 0.5995229009604844 0.4004770990395156 0.1579802361680693 0.8420197638319307 0.6291156991821498 0.3708843008178501 0.14858751256046923 0.8514124874395308 0.6421006543983294 0.3578993456016705 0.03183849253842932 0.9681615074615707 0.3048799871424554 0.6951200128575447 0.6536366235437024 0.3463633764562975 0.44355711746794635 0.5564428825320535 0.9976489517118818 0.002351048288118203 0.11807305226744645 0.8819269477325535 0.4380741413218447 0.5619258586781554 0.41198768320439955 0.5880123167956004 0.041925216101489846 0.9580747838985102 0.5879838270041948 0.4120161729958051 0.3701143829174624 0.6298856170825375 0.8247857228146642 0.1752142771853358 0.2091698184525708 0.7908301815474292 0.959166003001794 0.040833996998205974 0.27381655450650877 0.7261834454934912 0.6620391325628681 0.3379608674371319 0.5187452680191955 0.48125473198080454 0.43107849497040673 0.5689215050295932 0.5259429684694437 0.4740570315305564 0.5234159910336507 0.47658400896634934 0.4682969740367593 0.5317030259632407 0.8753357208076594 0.12466427919234062 0.5311880295225924 0.4688119704774077 0.9527186844654295 0.0472813155345705 0.7710032576749728 0.22899674232502726 0.3340789947172564 0.6659210052827438 0.933900953600535 0.06609904639946494 0.3944611379396974 0.6055388620603026 0.24976719015366627 0.7502328098463338 0.6517672849808206 0.34823271501917935 0.2141318614351113 0.7858681385648887 0.2909663783648313 0.7090336216351687 0.6630866307614014 0.33691336923859866 0.652532276426394 0.347467723573606 0.9121759901495922 0.08782400985040784 0.730869531046239 0.269130468953761 0.5957566921667399 0.4042433078332601 0.2576355271425451 0.7423644728574549 0.6541335177623457 0.3458664822376542 0.3419921327574289 0.6580078672425712 0.3900714507650229 0.6099285492349771 0.43066216024922727 0.5693378397507728 0.4325449126164037 0.5674550873835963 0.8305015845874933 0.16949841541250668 0.5159023694681948 0.4840976305318052 0.6845719721315495 0.3154280278684505 0.5456529401012498 0.45434705989875024 0.27510579783477973 0.7248942021652203 0.8211159536522655 0.1788840463477345 0.6608786280393348 0.3391213719606652 0.36824650560799743 0.6317534943920026 0.8658962079826215 0.13410379201737857 0.4339860575605668 0.5660139424394331 0.34814918238789855 0.6518508176121015 0.858860626404816 0.141139373595184 0.31889307765459834 0.6811069223454017 0.8269740040763371 0.17302599592366286 0.17361442582735936 0.8263855741726407 0.5001878683486819 0.49981213165131805 0.42882572212537046 0.5711742778746296 0.3753435321259557 0.6246564678740443 0.6615565537920198 0.3384434462079801 0.3974891012967946 0.6025108987032054 0.3098822288130285 0.6901177711869716 0.1515968203328524 0.8484031796671476 0.7515998171264376 0.2484001828735624 0.41998108213038327 0.5800189178696168 0.4703944244446794 0.5296055755553207 0.917645811052528 0.08235418894747204 0.5574039973605281 0.4425960026394718 0.5338862047005496 0.46611379529945035 0.6270997682268532 0.3729002317731468 0.7107068214121267 0.28929317858787335 0.4962952772643602 0.5037047227356398 0.41221094567172495 0.5877890543282751 0.6378261610941504 0.36217383890584964 0.40484774300176035 0.5951522569982396 0.887803516682391 0.112196483317609 0.31414719386675355 0.6858528061332465 0.5535188289561325 0.4464811710438676 0.26093200527099414 0.7390679947290059 0.887001552131112 0.11299844786888799 0.4998295683903952 0.5001704316096047 0.4515879057220687 0.5484120942779313 0.4348507568239295 0.5651492431760705 0.6348871822421539 0.36511281775784604 0.6290980109881861 0.3709019890118139 0.5285807459963817 0.4714192540036184 0.3255401938850148 0.6744598061149852 0.473867627371483 0.526132372628517 0.5404683244776038 0.45953167552239627 0.783733247981707 0.21626675201829304 0.27643944575475254 0.7235605542452473 0.6670858579817077 0.3329141420182923 0.7922184399036333 0.20778156009636686 0.3683102704181646 0.6316897295818353 0.3871694125981375 0.6128305874018626 0.7136470965967192 0.28635290340328085 0.6907404016742642 0.30925959832573585 0.6268914602882972 0.37310853971170277 0.7490014609411073 0.25099853905889263 0.712481237950285 0.28751876204971516 0.16644357145245345 0.8335564285475465 0.34932157593684976 0.6506784240631502 0.503949959453363 0.4960500405466371 0.37313401763603776 0.6268659823639622 0.42899094340275895 0.5710090565972411 0.9417860883204103 0.058213911679589614 0.2593220297899028 0.7406779702100972 0.7281953485931917 0.27180465140680815 0.238589136273957 0.761410863726043 0.6402698211742978 0.3597301788257022 0.5176466205346235 0.48235337946537643 0.7420204689541529 0.2579795310458472 0.7380245975017395 0.2619754024982605 0.06520547542283169 0.9347945245771683 0.8800072811291041 0.11999271887089591 0.6013687105351455 0.3986312894648546 0.8194072681271986 0.18059273187280162 0.65903866882374 0.34096133117626004 0.3670208084607542 0.6329791915392458 0.3803728720787794 0.6196271279212205 0.5373688015598364 0.4626311984401636 0.6500606984835458 0.34993930151645425 0.36047252556027165 0.6395274744397283 0.9195123886407083 0.08048761135929172 0.2996462082726076 0.7003537917273924 0.6700799318248146 0.32992006817518543 0.9855726921004421 0.014427307899557927 0.778421580764113 0.221578419235887 0.2136624133201602 0.7863375866798398 0.34852833230920705 0.6514716676907929 0.005253672095798844 0.9947463279042011 0.8442429564951006 0.15575704350489936 0.0981771944445206 0.9018228055554794 0.4661860868470798 0.5338139131529203 0.39462358148082893 0.605376418519171 0.46818279676869246 0.5318172032313075 0.21423318586396023 0.7857668141360399 0.40961814145836156 0.5903818585416384 0.5683940063701525 0.4316059936298476 0.33220409821058183 0.6677959017894182 0.2149794514912588 0.7850205485087413 0.0365758653941927 0.9634241346058073 0.1398928013064794 0.8601071986935206 0.4812045291592884 0.5187954708407116 0.2514488830833436 0.7485511169166564 0.4763794020951871 0.5236205979048129 0.77195419413887 0.22804580586113 0.45300318004141316 0.5469968199585868 0.3880241920736268 0.6119758079263732 0.19289766761422547 0.8071023323857746 0.5936872242486716 0.4063127757513284 0.636892543491384 0.363107456508616 0.9072362559199779 0.09276374408002205 0.5630078876857882 0.4369921123142118 0.8716127503029636 0.12838724969703638 0.4367318988470663 0.5632681011529337 0.5992547893368644 0.4007452106631356 0.23928524310166285 0.7607147568983371 0.717778010823338 0.28222198917666197 0.5728017007222412 0.42719829927775876 0.5839922403623306 0.4160077596376694 0.8502166101726971 0.1497833898273029 0.5977214943069111 0.40227850569308876 0.33407009459794873 0.6659299054020512 0.9167068337329524 0.08329316626704765 0.3036528847777661 0.6963471152222338 0.4087742224742877 0.5912257775257123 0.3100152592989221 0.689984740701078 0.17341846330318966 0.8265815366968103 0.273343260793273 0.7266567392067269 0.8991726056904019 0.10082739430959803 0.9934268710304833 0.006573128969516679 0.8948123294471774 0.10518767055282262 0.43495356696058957 0.5650464330394104 0.5337121342352223 0.46628786576477765 0.5415365203850493 0.4584634796149507 0.4255020779541262 0.5744979220458738 0.39296535625381723 0.6070346437461828 0.5407622984119091 0.45923770158809074 0.5248479323367624 0.47515206766323753 0.436720460888271 0.563279539111729 0.11987571516133151 0.8801242848386684 0.42563472973875216 0.5743652702612478 0.297675437112831 0.702324562887169 0.685382705902888 0.31461729409711203 0.2577336802954948 0.7422663197045052 0.46562180463742003 0.53437819536258 0.36246275068843087 0.6375372493115692 0.6643266047491078 0.33567339525089224 0.5678348642407041 0.43216513575929605 0.015981376343524117 0.9840186236564759 0.41525115494459586 0.5847488450554041 0.662818227130068 0.33718177286993195 0.4150455457162481 0.5849544542837519 0.7701675861312827 0.22983241386871733 0.8271653803090558 0.17283461969094416 0.9278046118948056 0.07219538810519442 0.345040769641537 0.654959230358463 0.42414990817085146 0.5758500918291485 0.5933558836913568 0.4066441163086431 0.9043901285146565 0.0956098714853435 0.7200241407049798 0.2799758592950202 0.23336797850452065 0.7666320214954794 0.8127175574447414 0.1872824425552586 0.5152417556992884 0.4847582443007116 0.4366736039715683 0.5633263960284317 0.4824658209660809 0.5175341790339191 0.47938951994943174 0.5206104800505682 0.5679644887950323 0.43203551120496775 0.5455489976597091 0.45445100234029095 0.7327348142500757 0.2672651857499243 0.6127014374789652 0.38729856252103473 0.6866900333652881 0.3133099666347119 0.2604401280492616 0.7395598719507384 0.5404062570433072 0.4595937429566928 0.5155704265927632 0.48442957340723686 0.21246807329152406 0.7875319267084759 0.744932009770375 0.255067990229625 0.7549961661622326 0.24500383383776736 0.5740166004726407 0.4259833995273593 0.9390211513493362 0.06097884865066371 0.7135813478570858 0.2864186521429141 0.35668710060379344 0.6433128993962066 0.9223457247266535 0.07765427527334644 0.7575406228306543 0.24245937716934568 0.2731048928322563 0.7268951071677437 0.6909614210093973 0.3090385789906027 0.7271893551742162 0.27281064482578377 0.23206036377972616 0.767939636220274 0.9871439974549251 0.012856002545074855 0.108851375220748 0.891148624779252 0.2636252627582244 0.7363747372417756 0.5840070190143939 0.41599298098560605 0.7759359958749034 0.22406400412509656 0.17682265113368542 0.8231773488663146 0.1619397823297771 0.8380602176702229 0.23480911380487715 0.7651908861951229 0.3290581523648111 0.6709418476351888 0.2664790507983188 0.7335209492016812 0.8108709708503076 0.18912902914969246 0.4672282187168809 0.5327717812831192 0.6549077033408407 0.34509229665915936 0.44255224638992374 0.5574477536100763 0.4732715550654657 0.5267284449345343 0.3623542158604969 0.6376457841395031 0.5002027280431675 0.4997972719568326 0.25056725334041136 0.7494327466595886 0.7430474358427026 0.2569525641572975 0.0009452192151130904 0.999054780784887 0.5403031031935619 0.45969689680643816 0.8837135845661088 0.11628641543389115 0.3041570331386371 0.6958429668613628 0.5128597965597699 0.4871402034402301 0.43738701925382484 0.5626129807461752 0.49085823537223966 0.5091417646277604 0.280544848608813 0.719455151391187 0.754386426675399 0.2456135733246011 0.9002422273838956 0.09975777261610438 0.3416789681682255 0.6583210318317745 0.23000337281417538 0.7699966271858245 0.7553015955803154 0.2446984044196846 0.2919935429556034 0.7080064570443966 0.40259790444287585 0.5974020955571242 0.4803494094272539 0.5196505905727461 0.1502974295808102 0.8497025704191897 0.5081354974111857 0.49186450258881437 0.642723046151387 0.3572769538486131 0.9833802466847574 0.016619753315242576 0.7428811710283555 0.25711882897164445 0.37950355147897824 0.6204964485210217 0.3684785639568163 0.6315214360431838 0.4872484389393249 0.5127515610606751 0.645840356413731 0.354159643586269 0.48055714643206565 0.5194428535679343 0.8529213712313438 0.14707862876865618 0.6096747514466639 0.3903252485533361 0.5560233953544622 0.44397660464553784 0.6683710165320564 0.3316289834679435 0.5237223022853236 0.47627769771467643 0.7941821395503651 0.20581786044963488 0.04265396083861624 0.9573460391613837 0.13211299210403735 0.8678870078959626 0.16081119174835679 0.8391888082516432 0.47060485064065266 0.5293951493593473 0.8495132213393397 0.15048677866066032 0.6458466547852978 0.3541533452147022 0.396496035388745 0.603503964611255 0.4929847308134865 0.5070152691865135 0.03943179452520973 0.9605682054747903 0.8385990327719967 0.16140096722800337 0.043110597790044475 0.9568894022099556 0.8354706036139238 0.16452939638607628 0.6876139945094522 0.31238600549054774 0.5183046377472719 0.4816953622527281 0.38805389576706056 0.6119461042329395 0.39878048638105135 0.6012195136189487 0.5151015053441194 0.48489849465588064 0.7239011057352064 0.2760988942647936 0.6466578206633015 0.35334217933669865 0.8233143944191537 0.1766856055808462 0.41834955753504366 0.5816504424649563 0.48762400109018295 0.512375998909817 0.522228952666811 0.47777104733318915 0.153513563419307 0.846486436580693 0.533457222218791 0.466542777781209 0.7167374034976323 0.2832625965023678 0.5649547330670046 0.4350452669329954 0.5634922394503701 0.4365077605496299 0.504841432993081 0.49515856700691896 0.5855115457940667 0.4144884542059334 0.45041405462720385 0.5495859453727961 0.5375003475366795 0.4624996524633204 0.6719469891604696 0.32805301083953037 0.14159230633052422 0.8584076936694758 0.4217428846947035 0.5782571153052966 0.7976471917016711 0.20235280829832905 0.8603909259446788 0.13960907405532114 0.38597666240077344 0.6140233375992266 0.1338796985465959 0.8661203014534041 0.2043845823135841 0.7956154176864159 0.4967817227232157 0.5032182772767844 0.6580447695547577 0.34195523044524245 0.9062298848004517 0.0937701151995483 0.5908690540062552 0.40913094599374467 0.6644143672357735 0.3355856327642265 0.6792605883811528 0.32073941161884717 0.18704464923378733 0.8129553507662127 0.5276250271544232 0.4723749728455769 0.39585413559406185 0.6041458644059382 0.36132377851546926 0.6386762214845307 0.7223857203190688 0.27761427968093116 0.7874018083378743 0.21259819166212562 0.7188776840610964 0.2811223159389036 0.9382667368720959 0.061733263127904045 0.5366791729889726 0.4633208270110273 0.5094811904444697 0.49051880955553023 0.8017981907293297 0.19820180927067035 0.774636516796688 0.22536348320331204 0.44273253981882443 0.5572674601811756 0.4391111768073656 0.5608888231926344 0.014784790623446736 0.9852152093765533 0.06630167976706253 0.9336983202329374 0.2859875397244992 0.7140124602755007 0.9419615123603069 0.058038487639693076 0.17904080172982126 0.8209591982701787 0.6151872075010677 0.3848127924989322 0.03704822935037903 0.962951770649621 0.4770011817866786 0.5229988182133214 0.968491315108665 0.03150868489133491 0.5302184782192721 0.4697815217807279 0.7159667755253533 0.28403322447464674 0.43273592408424494 0.5672640759157551 0.574365807295682 0.425634192704318 0.3377499547754798 0.6622500452245202 0.8328996207183493 0.1671003792816507 0.6162025256254505 0.3837974743745494 0.6131957514983154 0.38680424850168454 0.6602088681603273 0.33979113183967274 0.5557979356366375 0.4442020643633626 0.28934570401569487 0.7106542959843052 0.4539428106968887 0.5460571893031113 0.6102587389139615 0.3897412610860385 0.8297626654430954 0.17023733455690462 0.8652745859253916 0.13472541407460842 0.8310679007972704 0.16893209920272956 0.8885436680823877 0.1114563319176123 0.46097070174048305 0.539029298259517 0.049181028503715 0.950818971496285 0.7126583740154199 0.2873416259845802 0.5818470535172017 0.4181529464827983 0.5005667409498425 0.4994332590501575 0.15979397747100946 0.8402060225289906 0.36962388289949594 0.630376117100504 0.4844448142121468 0.5155551857878533 0.4903910565268704 0.5096089434731296 0.7778574977856931 0.2221425022143069 0.5659984071739488 0.4340015928260513 0.2708835699149835 0.7291164300850165 0.04950300014078242 0.9504969998592175 0.020732774100829684 0.9792672258991704 0.9232918393064204 0.07670816069357955 0.016168020880793624 0.9838319791192064 0.41589778883922984 0.5841022111607702 0.5947391572285834 0.40526084277141655 0.8722487243038114 0.12775127569618858 0.4094545284927357 0.5905454715072643 0.936002737782299 0.06399726221770094 0.29232314927060826 0.7076768507293917 0.49902568781801887 0.5009743121819811 0.11598957305544423 0.8840104269445558 0.35007090019321085 0.649929099806789 0.6173837941447101 0.3826162058552899 0.5406183554413269 0.45938164455867325 0.4494123884325368 0.5505876115674633 0.5422227042563633 0.4577772957436367 0.506439373381 0.493560626619 0.3077784761355615 0.6922215238644385 0.7730997954364356 0.22690020456356452 0.3762842054580541 0.6237157945419459 0.5592483508765375 0.4407516491234626 0.01878045207082196 0.981219547929178 0.732888886283252 0.26711111371674795 0.9950106408669577 0.00498935913304227 0.46537360975620073 0.5346263902437993 0.23859659635310157 0.7614034036468984 0.7497951297270506 0.2502048702729493 0.4337186771387492 0.5662813228612509 0.9354118859455016 0.06458811405449835 0.7518755660611934 0.24812443393880668 0.5142577991768089 0.48574220082319103 0.6655284232171199 0.33447157678288003 0.3019145248547804 0.6980854751452196 0.26891225347776526 0.7310877465222347 0.6159589371034304 0.38404106289656953 0.2991803039124514 0.7008196960875486 0.7818323570538743 0.21816764294612573 0.068684155927046 0.9313158440729539 0.7559865023227501 0.24401349767724984 0.874088848342837 0.12591115165716307 0.6380265841584989 0.36197341584150117 0.47898811480893044 0.5210118851910696 0.528715007030311 0.4712849929696889 0.5615942549647815 0.43840574503521845 0.1500420678124398 0.8499579321875601 0.8247154635487343 0.17528453645126568 0.31673854350558345 0.6832614564944165 0.851009058624542 0.14899094137545804 0.5571142064632376 0.44288579353676233 0.30337800397005377 0.6966219960299462 0.2176239123951477 0.7823760876048523 0.15585774075214415 0.8441422592478558 0.5758892910912351 0.42411070890876484 0.4186493762562195 0.5813506237437805 0.6295563434608842 0.37044365653911576 0.48256710984998075 0.5174328901500193 0.7176762487528779 0.282323751247122 0.48603178916507833 0.5139682108349216 0.5119333160799711 0.4880666839200289 0.4843015937672029 0.5156984062327972 0.32008661541768685 0.6799133845823132 0.9886276422523985 0.011372357747601435 0.49007279773105145 0.5099272022689485 0.01909076174082688 0.9809092382591731 0.33726160144217454 0.6627383985578255 0.4612622037783191 0.5387377962216808 0.6697260857435487 0.3302739142564512 0.29362129351719823 0.7063787064828018 0.793566995743994 0.20643300425600597 0.5345499207416649 0.46545007925833515 0.8762303225879018 0.12376967741209821 0.7507933917957639 0.24920660820423618 0.7032948983884062 0.2967051016115938 0.3093348412176296 0.6906651587823706 0.21780656225878078 0.7821934377412192 0.7813225312921643 0.21867746870783564 0.8076182173766371 0.19238178262336297 0.5742115387186388 0.4257884612813611 0.5861570613570012 0.4138429386429988 0.4917597259496031 0.5082402740503968 0.6730152753409583 0.32698472465904166 0.042704668540927866 0.9572953314590721 0.5461383882735713 0.4538616117264287 0.32371616591520985 0.6762838340847901 0.7398683510753699 0.2601316489246301 0.27158922803510105 0.728410771964899 0.7977545808057318 0.20224541919426825 0.3010372947978332 0.6989627052021667 0.08717072174223954 0.9128292782577605 0.3027457391564523 0.6972542608435477 0.23324753677105028 0.7667524632289497 0.2287418886765848 0.7712581113234153 0.42963535510277323 0.5703646448972268 0.9246384972864126 0.07536150271358742 0.8525254421680518 0.1474745578319482 0.04294374613467418 0.9570562538653258 0.7542600576874452 0.2457399423125548 0.5754698932425537 0.4245301067574464 0.5765371018585347 0.4234628981414653 0.11597358517683128 0.8840264148231688 0.8281228710273771 0.1718771289726229 0.6595339825755622 0.3404660174244378 0.46251055706822936 0.5374894429317707 0.4243963091076729 0.5756036908923271 0.5668305017002896 0.43316949829971046 0.5008207667309253 0.49917923326907465 0.4385516083022893 0.5614483916977107 0.8238037061819979 0.1761962938180021 0.3788957085459798 0.6211042914540202 0.7781639344305309 0.2218360655694691 0.9200334506226129 0.07996654937738708 0.40787656160503294 0.5921234383949671 0.5411397684235718 0.45886023157642825 0.5991431514726597 0.4008568485273403 0.4693596962372649 0.5306403037627351 0.006200698290939022 0.993799301709061 0.446559515293228 0.553440484706772 0.38589032903650633 0.6141096709634938 0.5587999972990196 0.44120000270098036 0.6737421091949028 0.32625789080509715 0.38306039574906703 0.616939604250933 0.5759061595890136 0.4240938404109864 0.21197162499862507 0.7880283750013749 0.2603019209952328 0.7396980790047671 0.22039458285979566 0.7796054171402043 0.4120843036126941 0.5879156963873059 0.49472210998801036 0.5052778900119896 0.2874639340842708 0.7125360659157292 0.49741647183491705 0.5025835281650829 0.12001516494509096 0.879984835054909 0.4318926556341954 0.5681073443658046 0.3792353347803333 0.6207646652196668 0.6994729663654735 0.30052703363452654 0.36411889224543287 0.6358811077545672 0.8367546429789651 0.16324535702103496 0.5375900463100368 0.4624099536899633 0.4631947734359868 0.5368052265640132 0.8394355730349023 0.16056442696509768 0.15734830184336432 0.8426516981566357 0.6359278343183832 0.3640721656816168 0.9737490525490099 0.02625094745099008 0.5871051737806053 0.4128948262193946 0.1848364578904129 0.8151635421095871 0.2011959931939105 0.7988040068060895 0.43706533153201355 0.5629346684679865 0.4988917948389026 0.5011082051610973 0.2931095924248936 0.7068904075751063 0.476021761005288 0.523978238994712 0.26135352035023396 0.738646479649766 0.43719646116879046 0.5628035388312095 0.21340328557148117 0.7865967144285189 0.9952951542645185 0.004704845735481522 0.6473723962862461 0.35262760371375396 0.20397177316894008 0.7960282268310598 0.3580425343601463 0.6419574656398537 0.02938359982997194 0.970616400170028 0.5821548882411024 0.41784511175889766 0.9552909397857966 0.04470906021420344 0.11304866683048592 0.886951333169514 0.3365983092366706 0.6634016907633294 0.4133195358448298 0.5866804641551702 0.5881050971202857 0.41189490287971425 0.11843098298370838 0.8815690170162916 0.8209029464572724 0.1790970535427277 0.5478183792381904 0.45218162076180957 0.8146871274547343 0.18531287254526577 0.7240360948663431 0.2759639051336569 0.14223185322352538 0.8577681467764746 0.1820692060340809 0.8179307939659191 0.1304583343227065 0.8695416656772935 0.20049072719198344 0.7995092728080164 0.796418001224233 0.20358199877576702 0.6045361079215287 0.3954638920784713 0.6072567250675891 0.3927432749324109 0.44153055893362675 0.5584694410663732 0.5322368902329235 0.4677631097670764 0.6536487862300873 0.3463512137699127 0.48377515279221883 0.5162248472077812 0.5783172208398067 0.4216827791601932 0.23970413787840772 0.7602958621215923 0.2985549301035121 0.7014450698964879 0.16989145677590942 0.8301085432240906 0.032805524025908146 0.9671944759740918 0.9394524517998035 0.06054754820019643 0.05652335981943071 0.9434766401805693 0.596539269914556 0.4034607300854442 0.4788898250697172 0.5211101749302829 0.3914747503110453 0.6085252496889547 0.6752199100260731 0.32478008997392693 0.4560354643225668 0.5439645356774332 0.8864044469209615 0.11359555307903842 0.5397685650807801 0.46023143491921986 0.5183596779154692 0.4816403220845307 0.29433490625102604 0.705665093748974 0.9538575079529341 0.04614249204706587 0.38057716328204555 0.6194228367179544 0.4147541204819377 0.5852458795180622 0.4470334856150392 0.5529665143849608 0.3089963852501761 0.6910036147498239 0.34586387374291905 0.6541361262570811 0.6405528333547504 0.3594471666452495 0.6410883322512115 0.3589116677487883 0.4799323094514492 0.5200676905485507 0.6334630572225513 0.3665369427774488 0.007809898822103663 0.9921901011778963 0.8035029862678535 0.1964970137321465 0.28096132383085154 0.7190386761691485 0.15386705745050872 0.8461329425494912 0.41832798975063284 0.5816720102493672 0.5562844237658168 0.44371557623418323 0.8583586702629068 0.1416413297370932 0.4465893752286065 0.5534106247713936 0.47652067582012747 0.5234793241798725 0.5720704142196839 0.42792958578031626 0.548859811902173 0.4511401880978269 0.5627888537948343 0.43721114620516566 0.6499191032282393 0.3500808967717607 0.5541281085747999 0.4458718914252002 0.14939280177592318 0.8506071982240768 0.5125176465474932 0.4874823534525068 0.5041531411295649 0.49584685887043517 0.07242851816093701 0.927571481839063 0.46393351483565376 0.5360664851643463 0.3063813702269078 0.6936186297730922 0.21141529456282682 0.7885847054371732 0.5127052571315007 0.4872947428684992 0.023923992110237415 0.9760760078897626 0.6934139860742954 0.30658601392570456 0.6914087151378645 0.3085912848621356 0.5505911576348572 0.44940884236514267 0.21259139681876071 0.7874086031812393 0.08164862846557246 0.9183513715344276 0.6122718678278962 0.3877281321721038 0.130502917982999 0.869497082017001 0.38351505927501806 0.616484940724982 0.04872188027372464 0.9512781197262754 0.48777115017529543 0.5122288498247046 0.578599412149625 0.42140058785037493 0.6514179000857632 0.34858209991423683 0.13648818631117224 0.8635118136888278 0.7107004693244973 0.2892995306755028 0.04597939080696505 0.954020609193035 0.2763773500208601 0.7236226499791398 0.12445316764221395 0.875546832357786 0.8177958971590381 0.18220410284096192 