<?xml version='1.0' encoding='utf-8'?>
<BIF VERSION="0.3">
  <NETWORK>
    <NAME>UNTITLED</NAME>
    <VARIABLE TYPE="nature">
      <NAME>0</NAME>
      <OUTCOME>0</OUTCOME>
      <OUTCOME>1</OUTCOME>
      <PROPERTY>weight = None</PROPERTY>
    </VARIABLE>
    <VARIABLE TYPE="nature">
      <NAME>1</NAME>
      <OUTCOME>0</OUTCOME>
      <OUTCOME>1</OUTCOME>
      <PROPERTY>weight = None</PROPERTY>
    </VARIABLE>
    <VARIABLE TYPE="nature">
      <NAME>10</NAME>
      <OUTCOME>0</OUTCOME>
      <OUTCOME>1</OUTCOME>
      <PROPERTY>weight = None</PROPERTY>
    </VARIABLE>
    <VARIABLE TYPE="nature">
      <NAME>11</NAME>
      <OUTCOME>0</OUTCOME>
      <OUTCOME>1</OUTCOME>
      <PROPERTY>weight = None</PROPERTY>
    </VARIABLE>
    <VARIABLE TYPE="nature">
      <NAME>12</NAME>
      <OUTCOME>0</OUTCOME>
      <OUTCOME>1</OUTCOME>
      <PROPERTY>weight = None</PROPERTY>
    </VARIABLE>
    <VARIABLE TYPE="nature">
      <NAME>13</NAME>
      <OUTCOME>0</OUTCOME>
      <OUTCOME>1</OUTCOME>
      <PROPERTY>weight = None</PROPERTY>
    </VARIABLE>
    <VARIABLE TYPE="nature">
      <NAME>14</NAME>
      <OUTCOME>0</OUTCOME>
      <OUTCOME>1</OUTCOME>
      <PROPERTY>weight = None</PROPERTY>
    </VARIABLE>
    <VARIABLE TYPE="nature">
      <NAME>15</NAME>
      <OUTCOME>0</OUTCOME>
      <OUTCOME>1</OUTCOME>
      <PROPERTY>weight = None</PROPERTY>
    </VARIABLE>
    <VARIABLE TYPE="nature">
      <NAME>16</NAME>
      <OUTCOME>0</OUTCOME>
      <OUTCOME>1</OUTCOME>
      <PROPERTY>weight = None</PROPERTY>
    </VARIABLE>
    <VARIABLE TYPE="nature">
      <NAME>17</NAME>
      <OUTCOME>0</OUTCOME>
      <OUTCOME>1</OUTCOME>
      <PROPERTY>weight = None</PROPERTY>
    </VARIABLE>
    <VARIABLE TYPE="nature">
      <NAME>18</NAME>
      <OUTCOME>0</OUTCOME>
      <OUTCOME>1</OUTCOME>
      <PROPERTY>weight = None</PROPERTY>
    </VARIABLE>
    <VARIABLE TYPE="nature">
      <NAME>19</NAME>
      <OUTCOME>0</OUTCOME>
      <OUTCOME>1</OUTCOME>
      <PROPERTY>weight = None</PROPERTY>
    </VARIABLE>
    <VARIABLE TYPE="nature">
      <NAME>2</NAME>
      <OUTCOME>0</OUTCOME>
      <OUTCOME>1</OUTCOME>
      <PROPERTY>weight = None</PROPERTY>
    </VARIABLE>
    <VARIABLE TYPE="nature">
      <NAME>3</NAME>
      <OUTCOME>0</OUTCOME>
      <OUTCOME>1</OUTCOME>
      <PROPERTY>weight = None</PROPERTY>
    </VARIABLE>
    <VARIABLE TYPE="nature">
      <NAME>4</NAME>
      <OUTCOME>0</OUTCOME>
      <OUTCOME>1</OUTCOME>
      <PROPERTY>weight = None</PROPERTY>
    </VARIABLE>
    <VARIABLE TYPE="nature">
      <NAME>5</NAME>
      <OUTCOME>0</OUTCOME>
      <OUTCOME>1</OUTCOME>
      <PROPERTY>weight = None</PROPERTY>
    </VARIABLE>
    <VARIABLE TYPE="nature">
      <NAME>6</NAME>
      <OUTCOME>0</OUTCOME>
      <OUTCOME>1</OUTCOME>
      <PROPERTY>weight = None</PROPERTY>
    </VARIABLE>
    <VARIABLE TYPE="nature">
      <NAME>7</NAME>
      <OUTCOME>0</OUTCOME>
      <OUTCOME>1</OUTCOME>
      <PROPERTY>weight = None</PROPERTY>
    </VARIABLE>
    <VARIABLE TYPE="nature">
      <NAME>8</NAME>
      <OUTCOME>0</OUTCOME>
      <OUTCOME>1</OUTCOME>
      <PROPERTY>weight = None</PROPERTY>
    </VARIABLE>
    <VARIABLE TYPE="nature">
      <NAME>9</NAME>
      <OUTCOME>0</OUTCOME>
      <OUTCOME>1</OUTCOME>
      <PROPERTY>weight = None</PROPERTY>
    </VARIABLE>
    <DEFINITION>
      <FOR>0</FOR>
      <TABLE>0.8091961921532257 0.19080380784677436 </TABLE>
    </DEFINITION>
    <DEFINITION>
      <FOR>1</FOR>
      <GIVEN>0</GIVEN>
      <TABLE>0.36003010689284165 0.6399698931071585 0.3263674398772879 0.6736325601227121 </TABLE>
    </DEFINITION>
    <DEFINITION>
      <FOR>10</FOR>
      <GIVEN>2</GIVEN>
      <GIVEN>9</GIVEN>
      <GIVEN>8</GIVEN>
      <GIVEN>3</GIVEN>
      <TABLE>0.32799639690375754 0.6720036030962425 0.10715478859411016 0.8928452114058898 0.1359845759916839 0.8640154240083161 0.6441683332706676 0.35583166672933236 0.4131787164541031 0.5868212835458969 0.4373128053575439 0.5626871946424562 0.40601305198286847 0.5939869480171315 0.18506647646245164 0.8149335235375483 0.41694822695958855 0.5830517730404114 0.5019274548726568 0.49807254512734317 0.6761755692669859 0.32382443073301415 0.4455780100442426 0.5544219899557574 0.7306024383492328 0.2693975616507671 0.6649596075491155 0.3350403924508844 0.5695970322007355 0.43040296779926446 0.9225706189483001 0.07742938105169998 </TABLE>
    </DEFINITION>
    <DEFINITION>
      <FOR>11</FOR>
      <GIVEN>1</GIVEN>
      <GIVEN>2</GIVEN>
      <GIVEN>4</GIVEN>
      <GIVEN>7</GIVEN>
      <GIVEN>9</GIVEN>
      <GIVEN>10</GIVEN>
      <GIVEN>3</GIVEN>
      <GIVEN>6</GIVEN>
      <TABLE>0.8650200708643024 0.1349799291356976 0.05700737453555562 0.9429926254644444 0.7127194544489349 0.287280545551065 0.6831114438501094 0.31688855614989064 0.5495063233563463 0.4504936766436537 0.48077519239204636 0.5192248076079536 0.7996524194939642 0.20034758050603582 0.7910370491065354 0.20896295089346456 0.32224728800311486 0.677752711996885 0.5114008285406664 0.4885991714593337 0.29852404162204016 0.70147595837796 0.4059197955811632 0.5940802044188369 0.4108696286213719 0.5891303713786281 0.22240725961129212 0.7775927403887078 0.6920943253030097 0.3079056746969902 0.6057458487418604 0.3942541512581395 0.12711919523741438 0.8728808047625857 0.5342947139269167 0.46570528607308326 0.7414015494794723 0.25859845052052777 0.5415971327601917 0.4584028672398082 0.24583528825548462 0.7541647117445154 0.2784540020170741 0.7215459979829258 0.6782283480692318 0.32177165193076823 0.5076576666335839 0.4923423333664161 0.5018951484616576 0.4981048515383425 0.45799916544292524 0.5420008345570747 0.07642297644569249 0.9235770235543075 0.4963130737835541 0.503686926216446 0.3757230200729638 0.6242769799270361 0.23620803842404017 0.7637919615759599 0.9095797460436913 0.0904202539563087 0.299521017446879 0.700478982553121 0.5457346753239789 0.4542653246760211 0.4618957945089869 0.5381042054910131 0.6703203770070408 0.3296796229929592 0.3181390576329916 0.6818609423670083 0.527015188130142 0.472984811869858 0.852310574282292 0.14768942571770796 0.9084370358912559 0.09156296410874412 0.4796834031668044 0.5203165968331956 0.7579725371550547 0.24202746284494528 0.7774619508952135 0.22253804910478642 0.8473903479825371 0.15260965201746288 0.16280644327145358 0.8371935567285463 0.158156850750837 0.841843149249163 0.5602609219228658 0.4397390780771341 0.7216840222552671 0.27831597774473293 0.4188175297974241 0.581182470202576 0.5415086291672646 0.45849137083273533 0.17843152557435543 0.8215684744256445 0.22665612942047222 0.7733438705795278 0.5866312965397262 0.4133687034602738 0.5553930276357485 0.4446069723642516 0.7111007928960495 0.28889920710395045 0.3145524941518653 0.6854475058481346 0.43482684913163594 0.5651731508683641 0.836152966300381 0.163847033699619 0.6326830538754222 0.36731694612457777 0.23475887622661465 0.7652411237733854 0.22624169728416288 0.7737583027158371 0.6861784675138469 0.31382153248615297 0.5286651065252124 0.47133489347478763 0.9789635531867179 0.021036446813282088 0.24025575765353369 0.7597442423464663 0.5025945527044129 0.4974054472955872 0.32003180707378887 0.6799681929262111 0.5451972621434362 0.45480273785656383 0.2776225471679184 0.7223774528320817 0.02775187854515154 0.9722481214548485 0.3880116458190477 0.6119883541809524 0.8452394173029715 0.15476058269702855 0.46603241843024157 0.5339675815697584 0.3158886079382545 0.6841113920617455 0.16799920325635934 0.8320007967436406 0.7303801893282001 0.2696198106717999 0.3439807245698955 0.6560192754301045 0.6018750688519339 0.3981249311480661 0.4290231170120364 0.5709768829879637 0.2777593559997235 0.7222406440002765 0.6053676063584577 0.3946323936415423 0.6625472780264764 0.3374527219735236 0.28856261027884034 0.7114373897211597 0.34053922235677864 0.6594607776432213 0.3037905046816738 0.6962094953183262 0.9012070318608766 0.09879296813912339 0.6457835292455928 0.35421647075440715 0.4841858514102281 0.5158141485897718 0.2174034089915295 0.7825965910084705 0.35133046800962303 0.6486695319903769 0.5742407826375551 0.42575921736244493 0.46125096463587334 0.5387490353641268 0.5973922484800784 0.4026077515199215 0.6320509933054635 0.3679490066945364 0.5636372997493508 0.43636270025064916 0.667730448755932 0.33226955124406804 0.7702871555133892 0.22971284448661075 0.37854272354365054 0.6214572764563494 0.6471402588794731 0.3528597411205269 0.9633651035708681 0.036634896429131876 0.48085339783174785 0.519146602168252 0.5753540109533499 0.4246459890466501 0.2764782629770527 0.7235217370229473 0.8315677755302557 0.1684322244697443 0.5271210399732382 0.4728789600267618 0.9592724465937527 0.040727553406247285 0.7207003624114519 0.27929963758854814 0.5982059397258299 0.4017940602741701 0.41403726296840987 0.5859627370315901 0.5025408108414299 0.49745918915857 0.09843475228668454 0.9015652477133155 0.17568189733048525 0.8243181026695149 0.6448229212403876 0.35517707875961235 0.44066047482968373 0.5593395251703163 0.198225368257157 0.8017746317428431 0.5998703741263178 0.4001296258736821 0.4301720928629623 0.5698279071370377 0.7642033605436348 0.23579663945636517 0.36276293865404563 0.6372370613459545 0.5667636098732072 0.4332363901267927 0.7233019612166752 0.2766980387833248 0.3316607216801888 0.6683392783198112 0.7949262502639555 0.2050737497360445 0.30952084208720676 0.6904791579127931 0.7138690919365246 0.2861309080634754 0.3140005278452753 0.6859994721547247 0.22643992126408669 0.7735600787359133 0.6172926795799506 0.3827073204200493 0.5702193432523048 0.4297806567476953 0.32730986028931136 0.6726901397106887 0.3483366971646843 0.6516633028353156 0.3875111086838962 0.6124888913161037 0.6849326674960489 0.31506733250395114 0.11100239876889964 0.8889976012311004 0.7150798339247887 0.2849201660752114 0.42610654696165323 0.5738934530383467 0.41675371220036256 0.5832462877996375 0.5978803762879998 0.4021196237120002 0.1516005769382871 0.8483994230617129 0.3308131076723862 0.6691868923276137 0.04359247804795704 0.9564075219520428 0.5784199264296809 0.4215800735703192 0.77257504166128 0.22742495833872012 0.7055434429988778 0.2944565570011221 0.1898840600200012 0.8101159399799989 0.9736143050327675 0.026385694967232483 0.740095684123108 0.25990431587689206 0.5164647592378397 0.48353524076216037 0.8995501925179756 0.10044980748202438 0.8671573411823013 0.1328426588176987 0.40682408958581917 0.5931759104141808 0.4421203140765436 0.5578796859234564 0.43131766238503544 0.5686823376149646 0.5443730045011002 0.45562699549889984 0.3231261090099198 0.6768738909900802 0.33006905382765517 0.6699309461723448 0.8765086534637535 0.12349134653624648 0.058386780172643274 0.9416132198273567 0.9669202119300674 0.033079788069932566 0.2941827179075468 0.7058172820924532 0.5072263898577515 0.4927736101422486 0.024920336892063633 0.9750796631079364 0.08048966459184483 0.9195103354081552 0.6885450399441468 0.3114549600558531 0.6581523527113925 0.3418476472886074 0.7188417457631446 0.2811582542368553 0.928097803482527 0.07190219651747302 0.7522875562180661 0.24771244378193388 0.5108302407915901 0.48916975920840994 0.7156544636622556 0.28434553633774445 0.3675863374426689 0.6324136625573311 0.6791931828688652 0.32080681713113474 0.7034309190120096 0.2965690809879904 0.7952653865438509 0.20473461345614907 0.6875423739073135 0.31245762609268646 0.5512523694301213 0.44874763056987865 0.30949712703783444 0.6905028729621656 0.5334568793542014 0.4665431206457985 0.35306500260085866 0.6469349973991414 0.6348480143034795 0.3651519856965205 0.6362022414336589 0.3637977585663412 0.8162617098711145 0.18373829012888554 0.09352372438198545 0.9064762756180146 0.8116650990469189 0.18833490095308117 0.37197966404981914 0.6280203359501809 0.44832019034912596 0.551679809650874 0.5212683098033174 0.47873169019668266 0.6517161642999478 0.3482838357000522 0.6679486646897776 0.3320513353102224 0.6713430962893022 0.32865690371069783 0.5323038947372337 0.4676961052627663 0.26976425156545575 0.7302357484345442 0.8935076248894583 0.10649237511054166 0.5106339585235316 0.48936604147646845 0.7666781126892452 0.23332188731075476 0.9995987105886215 0.00040128941137855035 0.5806132973437268 0.41938670265627315 0.816316814671487 0.18368318532851305 0.6576943356360055 0.3423056643639943 0.28489727764362394 0.7151027223563761 0.6718042101216691 0.32819578987833076 0.32953704270340056 0.6704629572965994 0.18219158658816167 0.8178084134118383 0.7037301201207942 0.29626987987920583 0.5151238697683557 0.4848761302316443 0.6327203387976652 0.36727966120233474 0.909413294065143 0.09058670593485711 0.35277813772714117 0.6472218622728588 0.5754196463778165 0.4245803536221835 0.25041514655424757 0.7495848534457524 0.10861885439905633 0.8913811456009436 0.26622468997843785 0.7337753100215622 0.7188933209945144 0.28110667900548564 0.3516173368520449 0.6483826631479552 0.4848756497357393 0.5151243502642607 0.41924744414213766 0.5807525558578623 0.5282056965557811 0.4717943034442189 0.5702200410908794 0.4297799589091206 0.8051294240991622 0.19487057590083784 0.5211853208043069 0.4788146791956931 0.8052471111904901 0.19475288880950994 0.5343653095548165 0.4656346904451835 0.5656019012397024 0.43439809876029745 0.2879619830662681 0.7120380169337319 0.9771889007288108 0.022811099271189163 0.5816036437380047 0.41839635626199534 0.9988106006708819 0.0011893993291181345 0.25525428517355536 0.7447457148264447 0.48426730370438514 0.5157326962956149 0.23574763210104377 0.7642523678989563 0.6961534454179426 0.30384655458205745 0.47177366182688024 0.5282263381731197 0.619661561647956 0.3803384383520439 0.998553315510478 0.00144668448952197 0.7906939234964174 0.20930607650358254 0.7308188665797318 0.2691811334202681 0.05860534794214054 0.9413946520578594 0.25486804763617343 0.7451319523638266 0.403582872284523 0.596417127715477 0.9771913618297837 0.022808638170216316 0.23470224912399462 0.7652977508760054 0.6605180154604824 0.33948198453951767 0.6437830461533472 0.3562169538466528 0.9272640053193839 0.07273599468061608 0.6685758834402397 0.33142411655976034 0.48868226639748996 0.5113177336025101 0.807832865578797 0.1921671344212032 0.7634188899869202 0.2365811100130798 0.33339672522879615 0.6666032747712037 0.6892894761884861 0.31071052381151376 0.0405626909363492 0.9594373090636508 0.6314056326585236 0.3685943673414763 0.5997360290872933 0.40026397091270666 0.39085444843750217 0.6091455515624977 0.9341312994757494 0.06586870052425063 0.43356799197699103 0.566432008023009 0.43306132415555837 0.5669386758444416 </TABLE>
    </DEFINITION>
    <DEFINITION>
      <FOR>12</FOR>
      <GIVEN>0</GIVEN>
      <GIVEN>1</GIVEN>
      <GIVEN>5</GIVEN>
      <GIVEN>7</GIVEN>
      <TABLE>0.5371000522685053 0.4628999477314947 0.22850692692259914 0.7714930730774009 0.7277347574355905 0.27226524256440954 0.6653582897091559 0.33464171029084405 0.4832252950173903 0.5167747049826097 0.16866137000139222 0.8313386299986077 0.39103791843459473 0.6089620815654052 0.7590871756648607 0.2409128243351393 0.5202403946884546 0.47975960531154543 0.8261293342857501 0.17387066571424994 0.5001628783863425 0.4998371216136575 0.28541379588104226 0.7145862041189577 0.6147260913555118 0.38527390864448824 0.4075851341295582 0.5924148658704418 0.12502803207608673 0.8749719679239133 0.19399186763505005 0.80600813236495 </TABLE>
    </DEFINITION>
    <DEFINITION>
      <FOR>13</FOR>
      <GIVEN>2</GIVEN>
      <GIVEN>5</GIVEN>
      <GIVEN>7</GIVEN>
      <GIVEN>11</GIVEN>
      <GIVEN>10</GIVEN>
      <GIVEN>3</GIVEN>
      <GIVEN>6</GIVEN>
      <TABLE>0.420033553109066 0.579966446890934 0.024476415904506575 0.9755235840954934 0.5074570397496846 0.49254296025031535 0.46832095309233607 0.5316790469076641 0.6062822789398739 0.3937177210601261 0.3488250997765543 0.6511749002234457 0.3164826538579222 0.6835173461420778 0.955374248174515 0.044625751825485026 0.3544946381986625 0.6455053618013376 0.42303708638409526 0.5769629136159047 0.7551877067597967 0.2448122932402032 0.2705540536968367 0.7294459463031632 0.599431432344469 0.4005685676555309 0.3138649543629264 0.6861350456370735 0.6381536866501325 0.36184631334986755 0.4175448517246182 0.5824551482753818 0.6286386485580859 0.37136135144191396 0.15741300108722395 0.842586998912776 0.5156478730589034 0.48435212694109664 0.09573358593508148 0.9042664140649185 0.8356323818824078 0.16436761811759218 0.5122789270698092 0.48772107293019085 0.1448562639735907 0.8551437360264093 0.41158478551850064 0.5884152144814992 0.7517729016779804 0.24822709832201967 0.6791963399381008 0.32080366006189914 0.8251204350223585 0.1748795649776415 0.4061484342889718 0.5938515657110283 0.6506749727015765 0.3493250272984235 0.5868659485024849 0.4131340514975152 0.5518688144852963 0.4481311855147037 0.10449665071883901 0.8955033492811609 0.254016498040479 0.745983501959521 0.37789429254212964 0.6221057074578704 0.5497073030330801 0.4502926969669198 0.6635608373438022 0.3364391626561978 0.33937553340868143 0.6606244665913187 0.3994230837899555 0.6005769162100445 0.4757601325451 0.5242398674549 0.4140891994169068 0.5859108005830932 0.6157906707566964 0.38420932924330364 0.6497829983668607 0.3502170016331393 0.6645767273743503 0.33542327262564975 0.5309986585203598 0.4690013414796402 0.5208042069604993 0.4791957930395005 0.36106361115324315 0.638936388846757 0.6842071603584532 0.3157928396415468 0.4661927073520941 0.5338072926479059 0.6818768610693727 0.3181231389306274 0.7042869071531939 0.2957130928468061 0.5661690200354378 0.4338309799645621 0.6166186252977243 0.38338137470227573 0.46762981319725444 0.5323701868027456 0.2496427074123266 0.7503572925876734 0.4172364880654841 0.582763511934516 0.4230110275952397 0.5769889724047603 0.6276530268096974 0.3723469731903027 0.6900545453414137 0.30994545465858625 0.353168677390023 0.646831322609977 0.14672150215067536 0.8532784978493246 0.9553707027376533 0.044629297262346615 0.11499632851249655 0.8850036714875035 0.5206014985056514 0.47939850149434865 0.8991686087278911 0.10083139127210893 0.5069628862701017 0.49303711372989834 0.41526404741999307 0.584735952580007 0.5877948674688445 0.4122051325311556 0.7104596056690295 0.2895403943309705 0.3508999430113342 0.6491000569886659 0.2721781412301178 0.7278218587698821 0.8135032044362354 0.18649679556376464 0.8650995996950788 0.1349004003049212 0.3078926865226735 0.6921073134773266 0.3872234463157027 0.6127765536842973 0.40872303106978586 0.5912769689302142 0.03731306583458256 0.9626869341654174 0.3738366248409363 0.6261633751590636 0.23621233963370702 0.763787660366293 0.1291611440906901 0.8708388559093099 0.2590541109210349 0.7409458890789651 0.41992930829932507 0.5800706917006749 0.42062955009251174 0.5793704499074882 0.9252720690178141 0.07472793098218587 0.030814570479362684 0.9691854295206374 0.8374757733164397 0.16252422668356023 0.309956100234018 0.690043899765982 0.31277967986334765 0.6872203201366524 0.5062949024057415 0.4937050975942585 0.323984232252967 0.676015767747033 0.17475554397911122 0.8252444560208888 0.594953723913902 0.4050462760860981 0.5249324605467298 0.4750675394532703 0.024603472820035558 0.9753965271799644 0.4437320573718296 0.5562679426281705 0.2752782137959753 0.7247217862040247 0.8076451672447688 0.19235483275523127 0.47212872198526973 0.5278712780147302 0.92919620492081 0.07080379507918995 0.5863383598158374 0.41366164018416257 0.700226857130444 0.299773142869556 0.7660162310850256 0.23398376891497444 0.8866791117276001 0.11332088827239999 0.6177157387315086 0.3822842612684914 0.6300048971607466 0.36999510283925346 0.40047624137897514 0.5995237586210248 0.4652374431242324 0.5347625568757677 0.40365668514908487 0.5963433148509152 0.5122277330489567 0.4877722669510433 0.0971788832268645 0.9028211167731354 0.6108834889052541 0.3891165110947458 0.8338114284596077 0.16618857154039235 0.010436602466394378 0.9895633975336057 0.9593312924779452 0.04066870752205481 0.48014124974234806 0.5198587502576519 0.45235565638944186 0.5476443436105581 0.014970739484846115 0.9850292605151539 0.36132470183893106 0.6386752981610689 0.8623244629891698 0.13767553701083016 0.8702374069092049 0.12976259309079513 0.5263525900979866 0.47364740990201337 0.48748169769025484 0.5125183023097452 0.3195881587521427 0.6804118412478573 0.5131150628925526 0.48688493710744746 0.6188166210135521 0.381183378986448 0.8185869860294251 0.18141301397057488 0.3303322923006259 0.6696677076993741 0.47451618449824723 0.5254838155017527 0.4347120720921888 0.5652879279078112 </TABLE>
    </DEFINITION>
    <DEFINITION>
      <FOR>14</FOR>
      <GIVEN>1</GIVEN>
      <GIVEN>2</GIVEN>
      <GIVEN>4</GIVEN>
      <GIVEN>12</GIVEN>
      <GIVEN>8</GIVEN>
      <GIVEN>10</GIVEN>
      <GIVEN>13</GIVEN>
      <TABLE>0.9612754669369281 0.03872453306307183 0.5683529479476331 0.43164705205236686 0.544848516926216 0.455151483073784 0.3309266955330317 0.6690733044669683 0.7641395937367746 0.2358604062632255 0.5817402613961419 0.41825973860385807 0.6142272707626861 0.3857727292373138 0.3110268403511273 0.6889731596488726 0.23002697559232949 0.7699730244076705 0.19627170402615846 0.8037282959738415 0.21492456316058556 0.7850754368394144 0.38616635430897883 0.6138336456910212 0.7208477849968451 0.27915221500315485 0.5215891321844207 0.47841086781557934 0.7020194298852018 0.29798057011479817 0.5647911694717036 0.43520883052829634 0.42210607674814027 0.5778939232518598 0.3228400923104677 0.6771599076895324 0.4427282670691225 0.5572717329308776 0.3958579099223347 0.6041420900776653 0.5978096947131586 0.4021903052868414 0.04326899323850485 0.9567310067614951 0.46974416432913724 0.5302558356708627 0.6158693847982928 0.3841306152017072 0.2807937658671041 0.719206234132896 0.8183181543523599 0.18168184564764017 0.029270880442145604 0.9707291195578543 0.8355217216623625 0.16447827833763748 0.6279322085122367 0.3720677914877633 0.7336765939786655 0.2663234060213346 0.4325560433862259 0.5674439566137741 0.5124776499260896 0.48752235007391037 0.8821874978184812 0.11781250218151879 0.3806310047379916 0.6193689952620084 0.7953807033546989 0.20461929664530104 0.0020518901296094046 0.9979481098703906 0.5607568984386525 0.4392431015613475 0.493433300950939 0.5065666990490609 0.16961395038447472 0.8303860496155253 0.5329189158567023 0.4670810841432978 0.6574618959817689 0.34253810401823126 0.9582650145755227 0.04173498542447727 0.3198962089835364 0.6801037910164636 0.3356736894784583 0.6643263105215417 0.44843681750285497 0.5515631824971451 0.3906704066340639 0.6093295933659362 0.5962275705464147 0.4037724294535854 0.3520033472412652 0.6479966527587347 0.8244598745608888 0.1755401254391113 0.3003386605368714 0.6996613394631286 0.4360662544469686 0.5639337455530314 0.7830593245598204 0.21694067544017956 0.5261894835766682 0.47381051642333183 0.47735850537253866 0.5226414946274613 0.1842890966410404 0.8157109033589596 0.6300026984566826 0.36999730154331734 0.25567690255217146 0.7443230974478285 0.672045843789279 0.32795415621072094 0.9120729946888616 0.0879270053111384 0.10353916541995738 0.8964608345800426 0.8525541525173673 0.14744584748263273 0.58372891695583 0.41627108304417004 0.9645545882965446 0.03544541170345533 0.6005630551929668 0.3994369448070332 0.10114334075121485 0.8988566592487851 0.5754695079981865 0.42453049200181336 0.8833417906269825 0.11665820937301746 0.376476896220174 0.623523103779826 0.4025559044970987 0.5974440955029013 0.3931219815034465 0.6068780184965534 0.5713427135642093 0.42865728643579065 0.4775310434211633 0.5224689565788367 0.13737453181130255 0.8626254681886975 0.7482704428200025 0.2517295571799974 0.6110562007348471 0.3889437992651529 0.6212907677236321 0.3787092322763679 0.6697617783038242 0.3302382216961757 0.39129113781853453 0.6087088621814655 0.45147932593000184 0.548520674069998 0.2643597266837518 0.7356402733162481 0.848608171796018 0.15139182820398203 0.23889557774114928 0.7611044222588508 0.4288045390116062 0.5711954609883937 0.33466062347579595 0.665339376524204 0.4287158477244483 0.5712841522755517 0.27046600583523184 0.7295339941647682 0.42452456678329864 0.5754754332167014 0.3731478240361944 0.6268521759638056 0.8571140918614341 0.14288590813856594 0.505889157933915 0.49411084206608497 0.5951394032339918 0.40486059676600816 0.46931677225897134 0.5306832277410286 0.3551709345239763 0.6448290654760238 0.6758395925737439 0.32416040742625607 0.6552834674048215 0.3447165325951786 0.10499453890468101 0.8950054610953189 0.3353336522185774 0.6646663477814225 0.5212047116146955 0.4787952883853045 0.6775902320646829 0.3224097679353171 0.3699969598879643 0.6300030401120356 0.481078630040785 0.518921369959215 0.047339377102719134 0.9526606228972808 0.39458458949223524 0.6054154105077647 0.7851462354015432 0.21485376459845676 0.7038103761493356 0.2961896238506644 0.9300224021238119 0.06997759787618808 0.21658142681256676 0.7834185731874332 0.5700671638740998 0.42993283612590016 0.9886451291733522 0.011354870826647729 0.3255193517721793 0.6744806482278207 0.5669559286961763 0.4330440713038237 0.5109095194397001 0.4890904805603 0.4603836194700804 0.5396163805299196 0.3453322455205235 0.6546677544794766 0.849025861317661 0.15097413868233903 0.8329053229918263 0.16709467700817368 0.38861375163323003 0.6113862483667699 0.46213842098500535 0.5378615790149947 0.7827285402206546 0.2172714597793454 0.7168993264930396 0.28310067350696044 0.47540417671864504 0.5245958232813549 0.5009579246939782 0.49904207530602185 0.7479258065253996 0.2520741934746003 0.22843156622291794 0.7715684337770821 0.5406926650532461 0.4593073349467539 0.044855944646900604 0.9551440553530994 0.2615965854855802 0.7384034145144199 0.36015146657569197 0.639848533424308 </TABLE>
    </DEFINITION>
    <DEFINITION>
      <FOR>15</FOR>
      <GIVEN>4</GIVEN>
      <GIVEN>7</GIVEN>
      <GIVEN>9</GIVEN>
      <GIVEN>12</GIVEN>
      <GIVEN>8</GIVEN>
      <GIVEN>11</GIVEN>
      <TABLE>0.4331959311295159 0.5668040688704841 0.48018130294157774 0.5198186970584221 0.511023740615706 0.488976259384294 0.567090317018928 0.432909682981072 0.7420290077881345 0.2579709922118655 0.43482956008932544 0.5651704399106745 0.8016368767307115 0.19836312326928837 0.660184394493099 0.339815605506901 0.5481787672151777 0.4518212327848224 0.5079227252271044 0.49207727477289565 0.16047407917041112 0.8395259208295889 0.15272128389197448 0.8472787161080256 0.5476865492725324 0.4523134507274676 0.15100394762227712 0.8489960523777229 0.6426903915659108 0.3573096084340893 0.2407267924467378 0.7592732075532621 0.47598913936974957 0.5240108606302505 0.863434806758347 0.1365651932416529 0.24342232042298648 0.7565776795770135 0.6566432760707277 0.3433567239292723 0.41247527314427207 0.5875247268557279 0.5938603892444538 0.40613961075554605 0.6410883502477459 0.35891164975225404 0.512940603868571 0.48705939613142896 0.24768648431938642 0.7523135156806136 0.8292149630333664 0.17078503696663358 0.6595991524014887 0.3404008475985113 0.2923433167583764 0.7076566832416237 0.33089102372477947 0.6691089762752206 0.38126476457198344 0.6187352354280166 0.7196845245853035 0.2803154754146964 0.06849760856874772 0.9315023914312522 0.5972640305542749 0.4027359694457251 0.7254181389813006 0.2745818610186994 0.8569684505940599 0.1430315494059401 0.22097370781614792 0.7790262921838521 0.6715450311749681 0.328454968825032 0.5497747323047456 0.45022526769525445 0.36795073712185605 0.6320492628781439 0.1715146141397445 0.8284853858602556 0.12333952758305163 0.8766604724169483 0.30002019628799687 0.6999798037120031 0.05798616630733364 0.9420138336926663 0.5635024368282159 0.43649756317178406 0.5477237350755184 0.4522762649244816 0.328459101229362 0.6715408987706379 0.770216199265799 0.22978380073420096 0.6397852459297702 0.36021475407022985 0.6335845729944684 0.3664154270055316 0.18397790444120363 0.8160220955587965 0.4826875901248155 0.5173124098751845 0.26958107065313935 0.7304189293468607 0.7029939333418297 0.2970060666581703 0.07717549790586817 0.9228245020941318 0.4627648841536231 0.5372351158463768 0.5118249838645177 0.4881750161354823 0.6557024179991323 0.34429758200086774 0.39344410764576215 0.6065558923542378 0.5598570811561406 0.4401429188438595 0.8543612398936792 0.14563876010632085 0.560666910852227 0.439333089147773 0.3599231149776508 0.6400768850223493 0.342641774399092 0.657358225600908 0.7686001467205915 0.2313998532794086 </TABLE>
    </DEFINITION>
    <DEFINITION>
      <FOR>16</FOR>
      <GIVEN>0</GIVEN>
      <GIVEN>2</GIVEN>
      <GIVEN>4</GIVEN>
      <GIVEN>7</GIVEN>
      <GIVEN>12</GIVEN>
      <GIVEN>8</GIVEN>
      <GIVEN>14</GIVEN>
      <GIVEN>10</GIVEN>
      <GIVEN>13</GIVEN>
      <GIVEN>15</GIVEN>
      <TABLE>0.4253498600284861 0.5746501399715138 0.16920002840674492 0.8307999715932552 0.3717737102771703 0.6282262897228297 0.32870426480225357 0.6712957351977463 0.9795376980023063 0.020462301997693676 0.11418290187475892 0.8858170981252411 0.5041783825826248 0.4958216174173752 0.6186423269554091 0.38135767304459084 0.43868083968241106 0.5613191603175889 0.6105236399023571 0.38947636009764286 0.5142916184547279 0.4857083815452721 0.2794219298417677 0.7205780701582322 0.6402065875830671 0.35979341241693275 0.961953305791079 0.038046694208921 0.12209428528715079 0.8779057147128491 0.9736376656927217 0.026362334307278346 0.4470717818716625 0.5529282181283375 0.5260891924975586 0.47391080750244136 0.24720979839816837 0.7527902016018316 0.1323444526606747 0.8676555473393253 0.24954084764099826 0.7504591523590017 0.5050973692752205 0.4949026307247795 0.32541427302740544 0.6745857269725946 0.7091139687885373 0.29088603121146267 0.905770894274231 0.09422910572576909 0.34695492104592607 0.6530450789540739 0.9705020958195917 0.029497904180408277 0.4850715163815019 0.5149284836184981 0.6519977228072973 0.34800227719270266 0.42274324891374443 0.5772567510862555 0.5556221444952776 0.4443778555047224 0.8856226130890414 0.11437738691095856 0.6571918405783024 0.3428081594216977 0.512113701733058 0.48788629826694196 0.10946037800765422 0.8905396219923458 0.0705263418871654 0.9294736581128346 0.7605809272728052 0.2394190727271947 0.564029399655069 0.4359706003449309 0.6708983856285152 0.3291016143714847 0.5731224393396099 0.4268775606603901 0.16717426820972983 0.8328257317902703 0.3699542008325378 0.6300457991674622 0.5814803261279895 0.41851967387201044 0.32676774306246326 0.6732322569375367 0.7811970659557038 0.2188029340442962 0.5113904707172744 0.4886095292827257 0.2866615724722208 0.7133384275277793 0.5585970903923643 0.44140290960763573 0.42047840150848254 0.5795215984915174 0.8066337137560966 0.19336628624390342 0.5756851216236305 0.4243148783763695 0.4098071176467785 0.5901928823532215 0.5002316912621377 0.4997683087378622 0.9698937668637514 0.030106233136248717 0.7861823449237818 0.21381765507621814 0.022991686339134412 0.9770083136608656 0.5146456689849842 0.4853543310150157 0.06986384614299225 0.9301361538570078 0.8776368812586592 0.1223631187413408 0.7038152284514619 0.2961847715485381 0.532371772589821 0.4676282274101789 0.4171057248329175 0.5828942751670826 0.49971514693244234 0.5002848530675577 0.178545868903152 0.821454131096848 0.44137146593579824 0.5586285340642017 0.20979842069540203 0.7902015793045981 0.05295673537434699 0.947043264625653 0.4953767585889289 0.5046232414110711 0.32084595726070314 0.6791540427392969 0.7093243496728948 0.29067565032710524 0.37626092133261146 0.6237390786673885 0.09036336410741773 0.9096366358925823 0.4950942387663276 0.5049057612336725 0.5725580729534036 0.4274419270465965 0.33049195235549744 0.6695080476445024 0.5714381860204025 0.42856181397959753 0.07167260863362315 0.9283273913663769 0.5006982406057429 0.49930175939425714 0.11095429590905127 0.8890457040909487 0.5015212044167073 0.49847879558329267 0.41755472651066605 0.5824452734893341 0.6879226532890035 0.3120773467109964 0.4815015307416629 0.5184984692583371 0.5473401640341637 0.4526598359658363 0.6014935468781429 0.39850645312185706 0.8316291644229861 0.1683708355770139 0.6589313425441804 0.34106865745581966 0.5981194688219206 0.4018805311780794 0.5959905991920558 0.4040094008079441 0.5158023110791677 0.4841976889208323 0.8823918434855496 0.11760815651445049 0.32783562300397817 0.6721643769960218 0.48109553490253876 0.5189044650974612 0.28731087525524895 0.7126891247447511 0.46403892668024727 0.5359610733197527 0.7323828698040326 0.2676171301959674 0.555681265757416 0.44431873424258395 0.3464817105848592 0.6535182894151409 0.390951701453864 0.609048298546136 0.07476964971447889 0.9252303502855211 0.4437546278729768 0.5562453721270232 0.9567321433377248 0.04326785666227519 0.46441297117929214 0.5355870288207079 0.3084963186454788 0.6915036813545212 0.4741005184304583 0.5258994815695417 0.9986085074365944 0.0013914925634056202 0.97164606814209 0.028353931857910044 0.42934849454041374 0.5706515054595863 0.509503692381637 0.49049630761836294 0.7358010292855375 0.2641989707144625 0.9032221671144304 0.09677783288556976 0.4672334362766499 0.5327665637233501 0.5799513529673425 0.42004864703265743 0.8655421510400566 0.13445784895994342 0.6046047310518009 0.39539526894819904 0.3650490517218258 0.6349509482781741 0.3932479446425823 0.6067520553574177 0.5265404142117461 0.47345958578825387 0.39915881206623655 0.6008411879337635 0.18496115604124494 0.815038843958755 0.5430718495561004 0.45692815044389956 0.7846340023538443 0.21536599764615558 0.627912088989134 0.372087911010866 0.3379885378151319 0.6620114621848681 0.7177473879713275 0.28225261202867247 0.7113449485574407 0.2886550514425592 0.11980539194594134 0.8801946080540587 0.29734688734377246 0.7026531126562275 0.817295410851078 0.18270458914892193 0.21756936591065176 0.7824306340893482 0.5624552329060821 0.43754476709391793 0.5055675620354917 0.4944324379645083 0.6319602817801844 0.36803971821981574 0.4333968218570653 0.5666031781429347 0.45677168247584166 0.5432283175241583 0.7079608774701123 0.2920391225298877 0.6844509867138499 0.3155490132861501 0.46015748994418904 0.539842510055811 0.44709810974104314 0.5529018902589568 0.7034435641394704 0.2965564358605296 0.5088539153043102 0.4911460846956898 0.040362819585559005 0.959637180414441 0.6178332515350434 0.3821667484649565 0.6440584288436524 0.35594157115634756 0.34533120460026395 0.6546687953997361 0.5798846762450697 0.4201153237549303 0.5210609699040265 0.47893903009597344 0.09643831699435276 0.9035616830056472 0.4090249858165296 0.5909750141834704 0.11651691550639082 0.8834830844936091 0.6154380271516511 0.38456197284834887 0.3007666593866618 0.6992333406133382 0.5733855360961434 0.4266144639038566 0.21731759261907466 0.7826824073809253 0.48967178331162564 0.5103282166883744 0.41598725574137574 0.5840127442586244 0.46779380811635984 0.5322061918836402 0.16465225485069904 0.835347745149301 0.5852515097850962 0.41474849021490373 0.152339982696074 0.847660017303926 0.6119543920793037 0.3880456079206963 0.4319012374665149 0.5680987625334851 0.08158079595151388 0.9184192040484861 0.5729938659841596 0.42700613401584037 0.8175611245653206 0.18243887543467938 0.5099974693155059 0.49000253068449406 0.1033087704915861 0.896691229508414 0.19666503472457547 0.8033349652754245 0.6947828314321055 0.3052171685678945 0.5489685854382639 0.451031414561736 0.4950005278491912 0.5049994721508089 0.3760892493679273 0.6239107506320727 0.5062072787177921 0.49379272128220797 0.46108364267243895 0.5389163573275612 0.3897504323761913 0.6102495676238087 0.47034953834354953 0.5296504616564506 0.02817009912332059 0.9718299008766794 0.10820488138049683 0.8917951186195032 0.37869113862535986 0.6213088613746401 0.8251830036283982 0.17481699637160178 0.6216642605278222 0.3783357394721778 0.5911763695473031 0.4088236304526968 0.15744715792478914 0.8425528420752109 0.5094208298362559 0.490579170163744 0.1959504925335653 0.8040495074664347 0.6371290908579682 0.36287090914203185 0.7335456605926306 0.26645433940736934 0.6240909521042519 0.37590904789574797 0.4678652118861854 0.5321347881138145 0.6298420907394786 0.3701579092605215 0.5210344572614564 0.47896554273854364 0.25411456909371677 0.7458854309062832 0.40074248163820425 0.5992575183617959 0.7914938549015184 0.20850614509848178 0.6016262791015162 0.3983737208984837 0.8990985621607396 0.10090143783926041 0.2774266676309345 0.7225733323690655 0.4177577417392201 0.58224225826078 0.19229556895461378 0.8077044310453864 0.36161710886879167 0.6383828911312083 0.1394797829274801 0.8605202170725199 0.5033023308574646 0.4966976691425355 0.4510921915508839 0.5489078084491161 0.9699400852941242 0.030059914705875806 0.4489338754130593 0.5510661245869406 0.6053180360399107 0.3946819639600893 0.28525034074802513 0.714749659251975 0.6251808013072374 0.3748191986927626 0.85738321738224 0.14261678261775998 0.3839408340951924 0.6160591659048076 0.45942788087241243 0.5405721191275875 0.8495807044956927 0.15041929550430727 0.20187450437785134 0.7981254956221485 0.09335504746638842 0.9066449525336115 0.6742945035948938 0.3257054964051061 0.5028290375747677 0.49717096242523234 0.9040099947763407 0.09599000522365936 0.3536070509681498 0.6463929490318502 0.40463387571466675 0.5953661242853333 0.4106575520971848 0.5893424479028152 0.35326050513127 0.6467394948687301 0.017732293058426468 0.9822677069415735 0.6355615847305484 0.36443841526945164 0.019426039469061983 0.980573960530938 0.6462877139864406 0.3537122860135594 0.17223978633089668 0.8277602136691032 0.7542322856670716 0.24576771433292835 0.2990936871294235 0.7009063128705765 0.5790284266660809 0.42097157333391916 0.9287971218986413 0.07120287810135868 0.5768261232533957 0.42317387674660445 0.32774820543682337 0.6722517945631767 0.35384863217285195 0.6461513678271481 0.4749160205770756 0.5250839794229244 0.8318174374797078 0.16818256252029218 0.6275697198134229 0.3724302801865771 0.020567063117753265 0.9794329368822468 0.623385990710255 0.376614009289745 0.31429796852512426 0.6857020314748759 0.17982838056543202 0.820171619434568 0.5059262501097777 0.4940737498902224 0.519956104776046 0.480043895223954 0.25351039776045325 0.7464896022395467 0.4076193429948941 0.5923806570051059 0.4179804429466712 0.5820195570533289 0.0034757217989082488 0.9965242782010918 0.040480534473438426 0.9595194655265615 0.16961705952391096 0.8303829404760891 0.4639537633021939 0.5360462366978062 0.1455398634591274 0.8544601365408726 0.11505130868434875 0.8849486913156512 0.9521255073813936 0.04787449261860648 0.10043406380248655 0.8995659361975135 0.3604680083588566 0.6395319916411433 0.5355248670146662 0.4644751329853339 0.7824742474887498 0.21752575251125017 0.516127854125705 0.48387214587429495 0.9704361057251187 0.02956389427488126 0.5887217180236506 0.4112782819763493 0.7026781031465592 0.29732189685344074 0.1293821212549321 0.8706178787450679 0.5389893744137607 0.4610106255862393 0.37264261954427746 0.6273573804557225 0.9739853042707163 0.02601469572928369 0.48453515086371485 0.5154648491362851 0.5961290378320768 0.40387096216792306 0.2672524272683065 0.7327475727316934 0.3347205711173447 0.6652794288826552 0.7561643584104268 0.24383564158957316 0.5345019835452084 0.46549801645479155 0.2948039197668089 0.705196080233191 0.6200178099420256 0.3799821900579744 0.4447842482722054 0.5552157517277946 0.25938103575639687 0.740618964243603 0.5260119443542314 0.4739880556457686 0.985615126736145 0.014384873263854969 0.45474700684575414 0.5452529931542459 0.6227588281857205 0.3772411718142794 0.3705321503054468 0.6294678496945532 0.39078744723022407 0.6092125527697759 0.7007178201204082 0.29928217987959177 0.2236156325918358 0.7763843674081642 0.6023274500376554 0.3976725499623446 0.5438104289469272 0.4561895710530729 0.2226592368872311 0.7773407631127688 0.3951936400882769 0.6048063599117232 0.42236691102296914 0.5776330889770308 0.13604548855537157 0.8639545114446284 0.6650125423085519 0.33498745769144816 0.488312601895855 0.511687398104145 0.4650962648710112 0.5349037351289888 0.5542036078674066 0.44579639213259337 0.8767847349644659 0.12321526503553411 0.9264516331679187 0.0735483668320813 0.1405492640473924 0.8594507359526076 0.022784811279841815 0.9772151887201582 0.757748853269664 0.242251146730336 0.6194691082802543 0.38053089171974575 0.6920663524771707 0.30793364752282915 0.7708066486549898 0.22919335134501023 0.9641379783549878 0.035862021645012225 0.013099614462351934 0.986900385537648 0.5651254716647145 0.43487452833528545 0.8012297927000726 0.19877020729992748 0.44382316081916695 0.5561768391808332 0.6894202596392737 0.3105797403607264 0.15082068940524596 0.849179310594754 0.2701059053152601 0.7298940946847399 0.37717833355661123 0.6228216664433887 0.5552975486438331 0.4447024513561669 0.4733438213264541 0.526656178673546 0.6456938303730312 0.3543061696269688 0.25302929495535953 0.7469707050446405 0.8540489572633964 0.14595104273660361 0.6466430627533015 0.3533569372466984 0.6427655951533022 0.3572344048466977 0.3347921134765463 0.6652078865234536 0.8768870952645421 0.12311290473545783 0.22579266237438528 0.7742073376256147 0.6676070031498502 0.3323929968501497 0.6474050579511942 0.3525949420488058 0.698123953041328 0.30187604695867193 0.3419871104979365 0.6580128895020635 0.446494776047117 0.553505223952883 0.4736138299149828 0.5263861700850172 0.6417448474666795 0.3582551525333204 0.7376634062971625 0.26233659370283746 0.2062270785395266 0.7937729214604734 0.42463562912515457 0.5753643708748455 0.6779592354165339 0.3220407645834661 0.47446881231515026 0.5255311876848497 0.5054396731460314 0.4945603268539686 0.6918261691919876 0.3081738308080124 0.4676610944519973 0.5323389055480027 0.3336366879159007 0.6663633120840994 0.73677083719204 0.2632291628079601 0.8224525037101095 0.1775474962898905 0.07271213370741601 0.927287866292584 0.8332201415114427 0.16677985848855723 0.6684286051187096 0.33157139488129034 0.5805837117706815 0.41941628822931853 0.37505436962868083 0.6249456303713191 0.19157762059596672 0.8084223794040333 0.7692222986239855 0.23077770137601464 0.28582076611018686 0.7141792338898131 0.25809373371962396 0.741906266280376 0.5541386980409627 0.4458613019590372 0.08685429711179526 0.9131457028882047 0.14407149339970043 0.8559285066002995 0.6000657911698088 0.39993420883019115 0.8411338699467817 0.15886613005321834 0.5615729931521415 0.4384270068478584 0.15272902307288835 0.8472709769271116 0.3234416510866379 0.6765583489133622 0.5935303411605121 0.40646965883948794 0.6500850972343429 0.34991490276565707 0.26465708959781076 0.7353429104021892 0.28553129515566306 0.7144687048443369 0.5358342171287699 0.46416578287123006 0.6895134083089379 0.31048659169106213 0.9011852105158874 0.0988147894841126 0.5364327020078536 0.46356729799214635 0.722273680886973 0.277726319113027 0.5517101743989354 0.44828982560106456 0.022823879199992746 0.9771761208000073 0.10258010558917902 0.8974198944108209 0.9514946702434536 0.04850532975654641 0.7309395953201384 0.2690604046798616 0.19991450056652357 0.8000854994334765 0.5620278566589073 0.4379721433410927 0.0630740770507015 0.9369259229492986 0.23446200036412185 0.7655379996358783 0.710299305618979 0.2897006943810209 0.6079929108085659 0.3920070891914341 0.3092334175791118 0.6907665824208882 0.20967468106323794 0.7903253189367621 0.31130033543002533 0.6886996645699747 0.5277460302585153 0.47225396974148454 0.9118441791305372 0.08815582086946284 0.2771423229126977 0.7228576770873023 0.05110373952252357 0.9488962604774764 0.4542598223171297 0.5457401776828703 0.7711691935164123 0.2288308064835876 0.35128694112191766 0.6487130588780824 0.2066624157492586 0.7933375842507415 0.8645901794806691 0.13540982051933095 0.5934431901666505 0.4065568098333495 0.9507054674181356 0.04929453258186449 0.5668241550767629 0.43317584492323713 0.2467909111737813 0.7532090888262187 0.47241059620800635 0.5275894037919937 0.7716576768868393 0.22834232311316077 0.4883327326047046 0.5116672673952953 0.035303662297907 0.964696337702093 0.7637386475769071 0.2362613524230929 0.534542770599094 0.46545722940090595 0.616426435710568 0.38357356428943196 0.3082215199219833 0.6917784800780166 0.6817589869932175 0.31824101300678254 0.5535681125305613 0.44643188746943874 0.5344070021184921 0.46559299788150776 0.8297835069077907 0.1702164930922093 0.8020237314730592 0.1979762685269408 0.5241666824607697 0.47583331753923025 0.16465296461670112 0.8353470353832989 0.688168643465827 0.31183135653417304 0.5278896626565531 0.4721103373434468 0.14309423130433596 0.856905768695664 0.16637882027842366 0.8336211797215763 0.8240632556384565 0.1759367443615435 0.8477236446835356 0.1522763553164645 0.440131990920856 0.559868009079144 0.18949704742617063 0.8105029525738294 0.27924953321040763 0.7207504667895923 0.5850435010639862 0.41495649893601383 0.656479407935805 0.34352059206419505 0.5130755201541985 0.4869244798458015 0.6503892056158846 0.34961079438411535 0.07017615879466503 0.929823841205335 0.49218750069211725 0.5078124993078827 0.07844938050732796 0.921550619492672 0.39345775764651075 0.6065422423534893 0.18999745751638863 0.8100025424836114 0.3146004958086286 0.6853995041913713 0.496787637758165 0.503212362241835 0.9903379115695315 0.00966208843046848 0.35073655822173594 0.649263441778264 0.5218105364369957 0.47818946356300435 0.7343473158512646 0.2656526841487355 0.7550639981823091 0.24493600181769093 0.8485519176289853 0.15144808237101465 0.27414545440818955 0.7258545455918104 0.5706519473246863 0.4293480526753138 0.7162457665752426 0.28375423342475736 0.49038716388232956 0.5096128361176704 0.5187975055951218 0.48120249440487817 0.46955340935826656 0.5304465906417335 0.5329414657763494 0.46705853422365057 0.6034676344406187 0.3965323655593814 0.6919879225608171 0.30801207743918296 0.4331035318815183 0.5668964681184817 0.8337285561845681 0.16627144381543188 0.132733198534799 0.867266801465201 0.40038162928175436 0.5996183707182456 0.7361465627417414 0.2638534372582586 0.06510806568490128 0.9348919343150988 0.8616891674547017 0.13831083254529827 0.4720987940902149 0.5279012059097851 0.5784791948834441 0.4215208051165558 0.8007102897707742 0.19928971022922584 0.3814586756235655 0.6185413243764345 0.5738057400813733 0.4261942599186267 0.643994541704753 0.35600545829524705 0.02417512828856847 0.9758248717114315 0.8346440691432814 0.1653559308567187 0.715627762916518 0.2843722370834821 0.4072462916452257 0.5927537083547744 0.5220759439177427 0.4779240560822573 0.12098459581209617 0.8790154041879038 0.5660225527199717 0.4339774472800283 0.8233868547488076 0.17661314525119248 0.145061584056729 0.854938415943271 0.8204825429967813 0.17951745700321878 0.30421849657523764 0.6957815034247623 0.5921300172777708 0.4078699827222292 0.8255605026269683 0.17443949737303163 0.6315065231344286 0.3684934768655715 0.04942773527254516 0.9505722647274548 0.8933123972786702 0.10668760272132985 0.489114987830888 0.510885012169112 0.3952998000837013 0.6047001999162986 0.5097083074064327 0.49029169259356736 0.4633124514151537 0.5366875485848462 0.7734162880875857 0.22658371191241428 0.353659770330145 0.646340229669855 0.45400548711477184 0.5459945128852283 0.46526938167387405 0.534730618326126 0.3488365125366644 0.6511634874633356 0.1036895961297671 0.8963104038702329 0.43100801740005856 0.5689919825999414 0.00984070472341917 0.9901592952765809 0.8138710513761382 0.18612894862386173 0.41221789661841907 0.5877821033815809 0.16584541952736354 0.8341545804726365 0.4587487590746499 0.54125124092535 0.5102565934967899 0.48974340650321024 0.43391670192188325 0.5660832980781167 0.4702892683379236 0.5297107316620764 0.39010606266832654 0.6098939373316734 0.42821188763895074 0.5717881123610493 0.6658718325059297 0.33412816749407026 0.7065153269556175 0.29348467304438247 0.4626490386107929 0.5373509613892071 0.8206860823142511 0.1793139176857489 0.589596803926721 0.41040319607327896 0.4680341279469906 0.5319658720530094 0.3734532470266722 0.6265467529733277 0.49605466583835606 0.503945334161644 0.14333351053277757 0.8566664894672225 0.02443513711131958 0.9755648628886804 0.16538509775335966 0.8346149022466404 0.003518421295837677 0.9964815787041623 0.5549055078597671 0.4450944921402329 0.40313435199605785 0.5968656480039422 0.8623416545888406 0.13765834541115937 0.2542405233109353 0.7457594766890646 0.5480234090418145 0.4519765909581855 0.02946257066812902 0.9705374293318709 0.580813459036431 0.41918654096356905 0.21243111639947412 0.7875688836005259 0.21343121267302553 0.7865687873269744 0.4221509885726795 0.5778490114273205 0.5082148955882202 0.4917851044117797 0.42336818304468854 0.5766318169553114 0.09221381011103001 0.9077861898889699 0.7311379869280127 0.26886201307198737 0.8396823725017087 0.16031762749829134 0.8786716307866003 0.12132836921339975 0.2521308504302783 0.7478691495697217 0.7313679596151975 0.26863204038480254 0.26262331627818514 0.7373766837218149 0.6364106304337703 0.3635893695662297 0.5597316549482574 0.44026834505174267 0.570232478727059 0.429767521272941 0.40243768134611807 0.5975623186538819 0.5690947570406947 0.4309052429593053 0.45467382429893605 0.5453261757010639 0.4467711211788162 0.5532288788211838 0.9338288727685018 0.06617112723149818 0.33708138328000814 0.6629186167199917 0.5275232429173695 0.4724767570826305 0.7400140562760604 0.2599859437239396 0.256615316302388 0.743384683697612 0.13085884911178702 0.869141150888213 0.6909319288751725 0.30906807112482754 0.26826050982513555 0.7317394901748644 0.8880289553110455 0.11197104468895447 0.35154498752135865 0.6484550124786415 0.27858695207083395 0.721413047929166 0.21393517306834148 0.7860648269316586 0.6302781301203317 0.36972186987966826 0.8835596682421785 0.11644033175782148 0.06595741361420764 0.9340425863857924 0.7960097662830559 0.20399023371694414 0.4450694838930505 0.5549305161069495 0.3345045989367949 0.665495401063205 0.6919595765734289 0.3080404234265711 0.12313032593120612 0.8768696740687939 0.5654562308145069 0.4345437691854932 0.01827167691957614 0.9817283230804239 0.658666828650907 0.34133317134909297 0.28213794989600716 0.7178620501039928 0.7361771108136653 0.2638228891863346 0.6440385978540117 0.3559614021459882 0.9688554885619312 0.031144511438068817 0.35840243059209037 0.6415975694079096 0.42363887337926015 0.5763611266207398 0.32078181774894293 0.679218182251057 0.3627588066255548 0.6372411933744452 0.7204581270635138 0.2795418729364863 0.5485157182823978 0.4514842817176022 0.19442695888869832 0.8055730411113017 0.5298542703565183 0.47014572964348167 0.9444470971489729 0.0555529028510271 0.31033953346775267 0.6896604665322474 0.33632385117371316 0.6636761488262869 0.5068114943165403 0.49318850568345973 0.47739646715451844 0.5226035328454816 0.41427318969626203 0.5857268103037379 0.929393727238802 0.070606272761198 0.3338139383568142 0.6661860616431858 0.5346873492548989 0.4653126507451011 0.8887715234808505 0.11122847651914941 0.3146382921706984 0.6853617078293015 0.5337253330816479 0.466274666918352 0.20177662668653704 0.7982233733134629 0.5766641328357851 0.42333586716421495 0.9664568281674721 0.03354317183252784 0.572476439360336 0.4275235606396639 0.8024017468804644 0.1975982531195356 0.7764591759304437 0.2235408240695563 0.3364751902462188 0.6635248097537813 0.7958731600311024 0.2041268399688976 0.4991344029674087 0.5008655970325913 0.5414052623761001 0.45859473762389996 0.6081253506352052 0.39187464936479477 0.501961351740838 0.498038648259162 0.07188747544184332 0.9281125245581567 0.5722304748099575 0.4277695251900426 0.1049826003584861 0.8950173996415139 0.5213556167205661 0.478644383279434 0.6868105152468433 0.3131894847531567 0.255306253536986 0.744693746463014 0.5169016670880484 0.4830983329119515 0.4923990064449123 0.5076009935550877 0.38118082879675047 0.6188191712032496 0.41733196546366685 0.5826680345363332 0.2297269642916366 0.7702730357083634 0.4484685743774523 0.5515314256225476 0.8236747552544683 0.17632524474553157 0.5119856216000804 0.48801437839991957 0.8696148621907143 0.13038513780928573 0.49740025031189855 0.5025997496881014 0.46737907852138666 0.5326209214786133 0.8593983407464365 0.14060165925356347 0.9163759828013884 0.08362401719861162 0.9178349200980143 0.08216507990198575 0.6577877665157954 0.34221223348420454 0.49397141477957685 0.5060285852204232 0.7858588141229659 0.21414118587703412 0.3328681114107089 0.6671318885892911 0.4698266116249451 0.5301733883750549 0.39052798704713143 0.6094720129528686 0.564527548342258 0.43547245165774195 0.6715831191914666 0.3284168808085333 0.629874118425907 0.37012588157409293 0.583643431316075 0.41635656868392495 0.33435780107334023 0.6656421989266597 0.6752667720609135 0.3247332279390866 0.585344564281715 0.414655435718285 0.8176274163487844 0.18237258365121556 0.2340549330506099 0.76594506694939 0.8894108321385342 0.11058916786146573 0.680531121578795 0.31946887842120497 0.5584883036608241 0.4415116963391758 0.5652691445195837 0.43473085548041634 0.6837238159679452 0.3162761840320549 0.4448081468086821 0.5551918531913179 0.7190531404296596 0.2809468595703403 0.2037304539612821 0.7962695460387179 0.21673377889575637 0.7832662211042437 0.6787722734453776 0.3212277265546224 0.567435177381206 0.432564822618794 0.5147262811143907 0.4852737188856093 0.5210470834590102 0.47895291654098987 0.85904552105585 0.14095447894414995 0.20339704590199914 0.7966029540980009 0.17894463241107864 0.8210553675889214 0.44528270400718023 0.5547172959928197 0.5258213176751243 0.4741786823248757 0.5358573244050567 0.4641426755949432 0.008332028718028581 0.9916679712819714 0.9529883448769595 0.047011655123040494 0.3290761499151929 0.670923850084807 0.6917891291127132 0.3082108708872869 0.9978869614233539 0.00211303857664614 0.37514802886820525 0.6248519711317947 0.3607919282886602 0.6392080717113399 0.5619662633753967 0.43803373662460326 0.4116968891777103 0.5883031108222896 0.4323205728946356 0.5676794271053643 0.47436851459275076 0.5256314854072492 0.6358000766677874 0.3641999233322127 0.4289921580819646 0.5710078419180353 0.3115657739478293 0.6884342260521708 0.40779991422675116 0.5922000857732489 0.19889092135985595 0.801109078640144 0.8499294972770154 0.1500705027229846 0.5057318561437188 0.4942681438562811 0.47929356227885733 0.5207064377211427 0.2954667852568031 0.7045332147431969 0.28865408330415376 0.7113459166958462 0.8925042869310714 0.10749571306892856 0.6562127396510943 0.3437872603489057 0.29174188986982313 0.7082581101301768 0.4493274351067718 0.5506725648932282 0.09028300076375968 0.9097169992362402 0.6572733789945825 0.34272662100541756 0.5613587560913996 0.43864124390860043 0.273758295905175 0.726241704094825 0.39953830903996385 0.6004616909600362 0.8284420207211548 0.17155797927884517 0.8150727002061527 0.18492729979384734 0.18999493669351217 0.8100050633064878 0.04568345105005424 0.9543165489499458 0.5333683143666694 0.4666316856333307 0.39418286324001944 0.6058171367599806 0.4064908828853058 0.5935091171146942 0.6645893532141102 0.33541064678588994 0.33995095658656044 0.6600490434134396 0.8162366368695144 0.18376336313048555 0.7100670551801496 0.2899329448198505 0.956625674381192 0.043374325618808066 0.39849242376769944 0.6015075762323006 0.9386356031281413 0.06136439687185871 0.3837820280091844 0.6162179719908155 0.7023072671795738 0.29769273282042613 0.2654799246205994 0.7345200753794006 0.5901289747704487 0.4098710252295514 0.2473506950347609 0.7526493049652391 0.09888687190469377 0.9011131280953062 0.09144953252652671 0.9085504674734733 0.08442304274053201 0.915576957259468 0.34220114928732354 0.6577988507126765 0.689882466517597 0.310117533482403 0.036956364786226506 0.9630436352137735 0.3234784960543478 0.6765215039456521 0.27391043369437773 0.7260895663056223 0.3295415693030846 0.6704584306969155 0.6818490575066054 0.3181509424933945 0.08265324383052736 0.9173467561694726 0.5205894036818054 0.4794105963181946 0.39998533545219106 0.6000146645478089 0.8276415961208627 0.17235840387913726 0.5663498623930963 0.43365013760690374 0.3567675145050306 0.6432324854949694 0.6769272541791048 0.3230727458208951 0.5217658280390867 0.4782341719609134 0.5263157570959972 0.4736842429040029 0.2773866650641154 0.7226133349358846 0.5825258147268821 0.41747418527311786 0.09342738316772775 0.9065726168322722 0.604094052702707 0.39590594729729306 0.4607286817019661 0.5392713182980339 0.1702030554705258 0.8297969445294742 0.5350656741822991 0.4649343258177009 0.2432856015535634 0.7567143984464366 0.24947711850988816 0.7505228814901118 0.4343418314327218 0.5656581685672782 0.6343704676777709 0.3656295323222292 0.5307573440120632 0.4692426559879369 0.5731903329430458 0.42680966705695417 0.06312661908711342 0.9368733809128865 0.5909727084664216 0.4090272915335783 0.5542029580111664 0.4457970419888336 0.17064416270010604 0.8293558372998939 0.6399817938045121 0.36001820619548786 0.5412101451850642 0.4587898548149358 0.7319976474792843 0.26800235252071564 0.6470566057950388 0.35294339420496124 0.04530136744748284 0.9546986325525171 0.7237664691441805 0.2762335308558195 0.6139348852640063 0.38606511473599364 0.2480018556070102 0.7519981443929898 0.5252591323956746 0.4747408676043255 0.6177755925083114 0.3822244074916887 0.9547332128355491 0.04526678716445085 0.7834790607532027 0.21652093924679727 0.3767575358687707 0.6232424641312294 0.4173338034879161 0.5826661965120838 0.6266594326912742 0.3733405673087258 0.6892404849892961 0.3107595150107039 0.44095578974843114 0.5590442102515689 0.4258876586222475 0.5741123413777526 0.7437507469059588 0.2562492530940413 0.26750468483391854 0.7324953151660815 0.15980618748302539 0.8401938125169747 0.48261798929889876 0.5173820107011012 0.8641423470249465 0.1358576529750535 0.5267129367238337 0.4732870632761663 0.33008286361691597 0.669917136383084 0.7311420166805247 0.26885798331947536 0.281596766197374 0.718403233802626 0.974634498657743 0.025365501342257023 0.5391045204851767 0.46089547951482335 0.8044632083256356 0.19553679167436447 0.8464155456199677 0.15358445438003246 0.5307586361319777 0.46924136386802223 0.45444848724960035 0.5455515127503997 0.22000893078094302 0.7799910692190569 0.10593360609127285 0.8940663939087271 0.6616246234022504 0.3383753765977497 0.8333341136856897 0.1666658863143104 0.5640517670629976 0.4359482329370024 0.31171597868326056 0.6882840213167395 0.9143108808027166 0.08568911919728338 0.2586154479528531 0.7413845520471469 0.42932903418670615 0.5706709658132938 0.4684430141196186 0.5315569858803816 0.186625803237108 0.813374196762892 0.7922727846393726 0.2077272153606275 0.2615249073237605 0.7384750926762396 0.5472718995223863 0.4527281004776137 0.7155619608715579 0.2844380391284421 0.19375991226738895 0.806240087732611 0.5012551590998578 0.4987448409001421 0.626302715479673 0.37369728452032697 0.39658567628529334 0.6034143237147066 0.8666006145864218 0.13339938541357826 0.856990353143021 0.14300964685697903 0.4839489479074973 0.5160510520925028 0.8596207868645341 0.1403792131354659 0.6742358156036481 0.3257641843963518 0.038311610897896954 0.9616883891021031 0.6333373933710796 0.3666626066289203 0.31404719864527353 0.6859528013547266 0.3162004064695904 0.6837995935304094 0.07016288035099469 0.9298371196490053 0.49433164623297526 0.5056683537670247 0.4850606334104059 0.5149393665895942 0.42762980742934625 0.5723701925706538 0.18086360728079243 0.8191363927192077 0.33190508423895704 0.668094915761043 0.46872907357532523 0.5312709264246748 0.7988443662794144 0.20115563372058567 0.18901445703145145 0.8109855429685485 0.15630522483502582 0.8436947751649742 0.6645713538363166 0.33542864616368334 0.5425524974169262 0.4574475025830737 0.2659976153476881 0.7340023846523119 0.5247326709270317 0.4752673290729684 0.35815192120168277 0.6418480787983171 0.40261009722108976 0.5973899027789102 0.4205078685519006 0.5794921314480994 0.22507392653892414 0.7749260734610759 0.7198633102238988 0.2801366897761011 0.023325464633748526 0.9766745353662515 0.279324023087749 0.7206759769122509 0.4243733615110902 0.5756266384889097 0.8555957481896806 0.14440425181031932 0.542556268832234 0.4574437311677662 0.869271033876805 0.13072896612319498 0.46217336352427774 0.5378266364757223 0.5415422885283797 0.45845771147162023 0.48457437588760877 0.5154256241123912 0.4208563948454381 0.579143605154562 0.4714114096598985 0.5285885903401015 0.41266395216608864 0.5873360478339114 0.5700037185869524 0.4299962814130475 0.7515345731379128 0.2484654268620872 0.9933052828936331 0.006694717106366925 0.39836704351063246 0.6016329564893675 0.8190120916541902 0.18098790834580983 0.7844754557185908 0.21552454428140916 0.33864901884234005 0.66135098115766 0.40486191352826145 0.5951380864717385 0.7337990966097755 0.26620090339022456 0.28097948512282755 0.7190205148771724 0.6509826979909076 0.3490173020090925 0.44578751637330216 0.5542124836266977 0.1866760446090507 0.8133239553909494 0.26200062476372266 0.7379993752362773 0.4842138313515837 0.5157861686484163 0.25904270255969564 0.7409572974403045 0.3687755438419719 0.6312244561580281 0.614000916356467 0.3859990836435329 0.4974552623696174 0.5025447376303825 0.4057746490906305 0.5942253509093695 0.9326486740434978 0.06735132595650206 0.8249110139376761 0.1750889860623239 0.9179646540421246 0.08203534595787541 0.4269186232308573 0.5730813767691427 0.13996955454030252 0.8600304454596974 0.7341204250989181 0.265879574901082 0.5912825132910673 0.4087174867089327 0.1552409139458697 0.8447590860541303 0.6231176613607997 0.3768823386392003 0.5690188536035958 0.4309811463964042 0.47107766124492334 0.5289223387550767 0.360544362009072 0.6394556379909281 0.41144950473542896 0.5885504952645711 0.8637338726024061 0.13626612739759397 0.4469702519671779 0.5530297480328222 0.10893698119907708 0.891063018800923 0.014040458779788057 0.9859595412202119 0.3009494267476658 0.6990505732523342 0.6417176310168802 0.3582823689831199 0.03516330793241088 0.9648366920675892 0.07935455703786685 0.9206454429621331 0.45494364916720764 0.5450563508327922 0.35554642373769796 0.644453576262302 0.9686660247903631 0.03133397520963693 0.8010297074040456 0.1989702925959544 0.6957621702794251 0.3042378297205749 0.2821637239258583 0.7178362760741417 0.4330776663046009 0.5669223336953992 0.4976210498852075 0.5023789501147925 0.8642869506874135 0.13571304931258657 0.1046638765624621 0.8953361234375379 0.3789956102221296 0.6210043897778704 0.4434020451305768 0.5565979548694232 0.30438088829126236 0.6956191117087376 0.26041182502396937 0.7395881749760306 0.9991779479808484 0.0008220520191516862 0.5761969681532738 0.4238030318467262 0.837960753589624 0.16203924641037598 0.06294838105024163 0.9370516189497584 0.38999974429465356 0.6100002557053464 0.5673763162735339 0.43262368372646604 0.037700187099205154 0.9622998129007948 0.7975401657807039 0.20245983421929614 0.25963068159687763 0.7403693184031224 0.42249313780878295 0.577506862191217 0.4721068961993934 0.5278931038006065 0.8856574710104395 0.11434252898956053 0.03934785013446598 0.960652149865534 0.3319658461260517 0.6680341538739484 0.5799605962068577 0.4200394037931423 0.31627837145572346 0.6837216285442765 0.5030685587382274 0.4969314412617725 0.34746540416879174 0.6525345958312082 0.5326149825191909 0.4673850174808092 0.8551197497938651 0.14488025020613496 0.3442138872150144 0.6557861127849857 0.3502576201941045 0.6497423798058956 0.5618849212970132 0.43811507870298677 0.9531760215643046 0.046823978435695406 0.6627929198859194 0.3372070801140806 0.4622568954041702 0.5377431045958297 0.3456463571365587 0.6543536428634413 0.6717266658647479 0.328273334135252 0.8491532726906368 0.15084672730936327 0.3324232816626146 0.6675767183373854 0.6055406754315497 0.3944593245684503 0.48075139277261403 0.519248607227386 0.32987250990571254 0.6701274900942874 0.5291548873600943 0.47084511263990564 0.6880656129960296 0.3119343870039704 0.7085193947797108 0.29148060522028924 0.6208666819464213 0.3791333180535787 0.30721160076283976 0.6927883992371602 0.5008905590292422 0.4991094409707579 0.8117032580445088 0.18829674195549115 0.7352772407486857 0.2647227592513143 0.6098515735536357 0.39014842644636427 0.30144112904971015 0.6985588709502898 0.19112281685648075 0.8088771831435192 0.09396699140313314 0.9060330085968669 0.5934607897002159 0.4065392102997841 0.41363511626505645 0.5863648837349437 0.33806889011537183 0.6619311098846282 0.7105524010023259 0.289447598997674 0.22985939814506826 0.7701406018549317 0.22849302446006484 0.7715069755399352 0.874495010550206 0.12550498944979405 0.6242626474955666 0.37573735250443346 0.1418679098821004 0.8581320901178996 0.4576417862983055 0.5423582137016946 0.8223665542074943 0.17763344579250567 0.6109999486173839 0.38900005138261606 0.5819031670098055 0.4180968329901945 0.3684999463055329 0.6315000536944672 0.33240751770343996 0.66759248229656 0.5602276651477051 0.43977233485229494 0.6334219518168005 0.3665780481831995 0.14162303320782285 0.8583769667921771 0.32357366722208486 0.6764263327779151 0.8247250041500311 0.17527499584996895 0.6448430392265483 0.3551569607734517 0.14789566634213647 0.8521043336578635 0.3949972116531928 0.6050027883468073 0.652728993901947 0.34727100609805306 0.3335891449289789 0.666410855071021 0.5234695351069549 0.47653046489304496 0.7361512375924077 0.26384876240759214 0.404347449251654 0.595652550748346 0.25316807196019453 0.7468319280398055 0.7678526375911322 0.2321473624088678 0.18276394786640376 0.8172360521335962 0.7366585011677055 0.26334149883229446 0.16173658842025926 0.8382634115797406 0.7608290416842218 0.23917095831577817 0.6739957370131365 0.32600426298686364 0.45361947004204617 0.5463805299579538 0.6851917185168636 0.31480828148313644 0.6679943413087605 0.33200565869123955 0.22065402220993702 0.7793459777900629 0.3666805173616625 0.6333194826383375 0.6469139759413027 0.3530860240586973 0.9731091806508384 0.026890819349161606 0.08525363011053946 0.9147463698894606 0.2685117678358295 0.7314882321641705 0.17350402779228993 0.8264959722077101 0.27222766944070403 0.727772330559296 0.8120881992134497 0.18791180078655031 0.35830419714435596 0.6416958028556441 0.32459952988057034 0.6754004701194297 0.883930236714233 0.11606976328576699 0.6632751387583554 0.3367248612416446 0.4610831361512927 0.5389168638487073 0.2070176244612394 0.7929823755387606 0.42190574531785136 0.5780942546821486 0.6801408642084938 0.3198591357915062 0.3648476461640959 0.6351523538359042 0.34226484313504196 0.6577351568649581 0.30555325116273124 0.6944467488372689 0.8563779205126603 0.14362207948733977 0.5767409503105759 0.4232590496894241 0.6926042867409336 0.30739571325906645 0.4851732726040764 0.5148267273959235 0.9941498329703379 0.0058501670296621615 0.8002743116938357 0.19972568830616436 0.9218723734735434 0.07812762652645659 0.881666903138542 0.11833309686145797 0.19845413358549907 0.801545866414501 0.40517330244328104 0.5948266975567189 0.5550430043404715 0.44495699565952856 0.4542366729848248 0.5457633270151752 0.6690056444695255 0.3309943555304745 0.17835671676611287 0.8216432832338871 0.5116002013589247 0.4883997986410754 0.7296154173967828 0.27038458260321724 0.7317914801531747 0.26820851984682526 0.6537992352806539 0.34620076471934613 0.2169031132396009 0.7830968867603992 0.23178670903019494 0.7682132909698051 0.7033420079062489 0.29665799209375104 0.4368038934582417 0.5631961065417582 0.4448850060498999 0.5551149939501002 0.5814578085857184 0.41854219141428156 0.8395001156427413 0.16049988435725865 0.5530405666461801 0.44695943335381993 0.4673834625491488 0.5326165374508512 0.6777438756562585 0.3222561243437415 0.7034170987007811 0.2965829012992189 0.4616176593974742 0.5383823406025259 0.7011998449187987 0.2988001550812012 0.5639510906980476 0.4360489093019523 0.430927209467621 0.569072790532379 0.48440884213974594 0.515591157860254 0.018431394421289108 0.9815686055787108 0.6096391144020779 0.3903608855979221 0.5252040609782926 0.4747959390217074 0.6602313961031534 0.33976860389684654 0.4253806301964049 0.5746193698035951 0.635850256496694 0.36414974350330603 0.501369442091782 0.49863055790821803 0.39432744557271865 0.6056725544272815 0.8448523452534997 0.15514765474650027 0.751524075237072 0.24847592476292804 0.44112951233149006 0.5588704876685099 0.4208955352522607 0.5791044647477392 0.7552332792592606 0.24476672074073935 0.5111501068291117 0.4888498931708884 </TABLE>
    </DEFINITION>
    <DEFINITION>
      <FOR>17</FOR>
      <GIVEN>4</GIVEN>
      <GIVEN>7</GIVEN>
      <GIVEN>16</GIVEN>
      <GIVEN>8</GIVEN>
      <GIVEN>11</GIVEN>
      <GIVEN>14</GIVEN>
      <GIVEN>6</GIVEN>
      <GIVEN>15</GIVEN>
      <TABLE>0.5000850183057778 0.49991498169422227 0.7255290264068236 0.27447097359317646 0.6044523646319642 0.3955476353680359 0.3857087259321886 0.6142912740678115 0.3737561382890361 0.6262438617109638 0.059303115027679154 0.9406968849723208 0.47340910581817125 0.5265908941818289 0.43293276278283505 0.567067237217165 0.32905625286389284 0.670943747136107 0.8484649612430037 0.15153503875699628 0.4278705604049205 0.5721294395950796 0.7125307924979555 0.2874692075020445 0.6847565834464737 0.3152434165535263 0.7157910985251275 0.2842089014748725 0.5543093770207776 0.44569062297922235 0.6384971542048846 0.3615028457951154 0.022178353649298824 0.9778216463507011 0.5613366228509592 0.43866337714904086 0.37766682025765064 0.6223331797423495 0.3436549054489616 0.6563450945510384 0.1359425624632989 0.8640574375367012 0.6216700623833813 0.37832993761661876 0.41485310396236463 0.5851468960376354 0.5264655688368803 0.47353443116311966 0.3716631834808664 0.6283368165191335 0.6302680783512424 0.36973192164875757 0.3859889984275714 0.6140110015724285 0.6216610306411811 0.378338969358819 0.3947473449695143 0.6052526550304856 0.4244058288070871 0.575594171192913 0.32497435449568496 0.675025645504315 0.5570602815197512 0.44293971848024877 0.5439169906788874 0.45608300932111256 0.21048617086107974 0.7895138291389203 0.7898960360401229 0.21010396395987696 0.41606087442954304 0.5839391255704569 0.45203066236362194 0.547969337636378 0.5691619427342364 0.43083805726576363 0.0892816251794776 0.9107183748205224 0.9381595065894655 0.06184049341053459 0.5653420144125751 0.43465798558742486 0.28926392000628304 0.7107360799937168 0.5481403270446944 0.4518596729553056 0.4791439321244466 0.5208560678755534 0.38866415077200717 0.6113358492279929 0.4227719148928764 0.5772280851071236 0.5282904749468097 0.4717095250531902 0.5221821349144566 0.4778178650855433 0.4524470192730927 0.5475529807269073 0.6539627181078158 0.3460372818921842 0.9624107526845829 0.03758924731541713 0.4205700484406183 0.5794299515593816 0.7412814605830719 0.2587185394169281 0.3774723043947648 0.6225276956052351 0.2906035914433758 0.7093964085566243 0.5241888598161711 0.4758111401838288 0.22451604638870643 0.7754839536112935 0.15650216826403124 0.8434978317359687 0.6026352073406654 0.39736479265933466 0.2130521738839762 0.7869478261160238 0.5877967428627052 0.4122032571372947 0.18369305199146416 0.8163069480085359 0.6369011859992364 0.3630988140007635 0.9900012199828957 0.00999878001710431 0.2883340873662196 0.7116659126337803 0.6923223735966911 0.307677626403309 0.2726969021709112 0.7273030978290888 0.645939984483546 0.3540600155164541 0.6033020976011303 0.39669790239886965 0.20404174287136112 0.7959582571286389 0.60749535567129 0.3925046443287101 0.4098827684569809 0.5901172315430191 0.4517273618122887 0.5482726381877113 0.34908209224878345 0.6509179077512166 0.2580851598807502 0.7419148401192498 0.9621143162921311 0.03788568370786895 0.7512143504756051 0.24878564952439486 0.8048377338368038 0.19516226616319607 0.4283395073518883 0.5716604926481117 0.4887372492193325 0.5112627507806675 0.3803542181686529 0.6196457818313471 0.3305179473162792 0.6694820526837209 0.4602412269860404 0.5397587730139595 0.4278190741697014 0.5721809258302986 0.44230637545993495 0.557693624540065 0.0020829336805527217 0.9979170663194473 0.44115418047938326 0.5588458195206168 0.37738809881755486 0.622611901182445 0.404122698362018 0.595877301637982 0.5721998032681965 0.4278001967318034 0.5075078984036155 0.49249210159638446 0.5288819717636123 0.4711180282363876 0.6041125490822902 0.3958874509177098 0.2762775964753188 0.7237224035246812 0.325864002091906 0.6741359979080941 0.25746568660973485 0.7425343133902651 0.09253103121784371 0.9074689687821563 0.10624296403948505 0.8937570359605149 0.43636930994921974 0.5636306900507803 0.2526889984417124 0.7473110015582876 0.5182740448467343 0.48172595515326566 0.21355602833232254 0.7864439716676774 0.6435140886657505 0.35648591133424956 0.814362649853686 0.18563735014631394 0.6788369771687577 0.32116302283124226 0.3847765104350389 0.6152234895649611 0.2825179962588531 0.7174820037411469 0.8156564848519324 0.18434351514806757 0.7976157476625746 0.20238425233742535 0.5185686488729409 0.48143135112705915 0.6930718735106155 0.30692812648938456 0.5704978850796014 0.42950211492039864 0.2859437723820251 0.7140562276179748 0.4773855187158938 0.5226144812841061 0.7783011218628734 0.22169887813712663 0.1274577423835341 0.8725422576164659 0.7767421156183413 0.22325788438165875 0.432667500376905 0.567332499623095 0.944358745268854 0.055641254731146 0.3903679402180393 0.6096320597819607 0.6230212930866014 0.37697870691339863 0.5824986548055994 0.41750134519440063 0.4781596045403581 0.5218403954596419 0.4477414222806943 0.5522585777193056 0.7671146197808293 0.23288538021917074 0.5057452194425951 0.49425478055740496 0.5129499647348962 0.48705003526510376 0.439602452462021 0.560397547537979 0.8570357769730168 0.14296422302698317 0.18069227598722032 0.8193077240127796 0.6120568493103564 0.38794315068964347 0.5224614391212588 0.4775385608787412 0.9204616199152861 0.07953838008471387 0.4766518387174448 0.5233481612825552 0.964200866582312 0.035799133417687985 0.6374106995482113 0.3625893004517887 0.5486193167962109 0.451380683203789 0.7760130093833955 0.22398699061660454 0.5788766990282265 0.4211233009717734 0.15107822027348047 0.8489217797265195 0.7278400334329544 0.2721599665670455 0.3719348758100625 0.6280651241899375 0.0038073942120863315 0.9961926057879137 0.6113951243085337 0.38860487569146623 0.6264911177881763 0.3735088822118237 0.09107431843991846 0.9089256815600816 0.4750223667054376 0.5249776332945624 0.47520318384175664 0.5247968161582434 0.3147870469009488 0.6852129530990512 0.7549442387493869 0.245055761250613 0.6583031508900372 0.3416968491099627 0.44108482110140596 0.558915178898594 0.7546174423749252 0.24538255762507485 0.1649751871673047 0.8350248128326953 0.3372179294237306 0.6627820705762695 0.2202831592600367 0.7797168407399633 0.7442228215428609 0.2557771784571392 0.932780704219508 0.06721929578049204 0.7898688322216274 0.21013116777837265 0.10223691629315945 0.8977630837068405 0.3686954731189811 0.6313045268810189 0.8214819760210476 0.17851802397895242 0.8275032495186168 0.17249675048138324 0.6443364568765426 0.3556635431234574 0.8075527646008038 0.1924472353991962 0.44188035801747594 0.5581196419825241 0.21223757771709725 0.7877624222829027 0.5165316790692487 0.48346832093075137 0.6968176014059044 0.30318239859409557 0.18771856567690073 0.8122814343230993 0.5652555190061056 0.43474448099389434 0.48569378002438696 0.514306219975613 0.4845949368807677 0.5154050631192322 0.7215231425612307 0.2784768574387693 0.5527645118673841 0.4472354881326159 0.5786213505781996 0.4213786494218003 0.27984887040680156 0.7201511295931985 0.4594749676632749 0.5405250323367251 0.46513701372847693 0.5348629862715231 0.7207238330586632 0.2792761669413368 0.626876776158752 0.37312322384124796 0.6667988149973759 0.33320118500262413 0.11012618139139273 0.8898738186086073 0.3343899056326206 0.6656100943673794 0.3969321658741497 0.6030678341258503 0.18947090113765302 0.810529098862347 0.0773037835644962 0.9226962164355039 0.5085351070022724 0.49146489299772755 0.5608496268180927 0.43915037318190736 0.44311527822312075 0.5568847217768793 0.9990254086719176 0.0009745913280824268 0.5701294211734583 0.42987057882654167 0.6860013703562327 0.3139986296437675 0.46795789221031653 0.5320421077896834 0.3327260237136573 0.6672739762863427 0.6126131420460599 0.3873868579539401 0.5969506120768763 0.4030493879231238 0.6474513921787258 0.35254860782127423 0.3441285222483026 0.6558714777516974 0.8391478266856258 0.16085217331437415 0.6332102225050598 0.36678977749494024 0.015464975439011024 0.9845350245609891 0.13697943547137367 0.8630205645286263 0.5697002956836603 0.4302997043163397 0.5618900415656699 0.43810995843433015 0.648812040089823 0.35118795991017693 0.8850456134286522 0.11495438657134781 0.4754928628856469 0.524507137114353 0.5897378860259811 0.4102621139740189 0.8259099049088491 0.1740900950911509 0.5224867385710447 0.47751326142895534 0.5876379307997386 0.4123620692002614 0.9917125648742207 0.008287435125779334 0.20829439777955008 0.7917056022204499 0.43610569063921334 0.5638943093607867 0.4911069101889088 0.5088930898110913 0.566936996252799 0.43306300374720086 0.5777415343625587 0.4222584656374413 0.9858108044824668 0.014189195517533152 0.28997641498174725 0.7100235850182527 0.6706100163135775 0.32938998368642247 0.5487685443604013 0.45123145563959866 0.8764936196911384 0.12350638030886169 0.6714755734650364 0.3285244265349637 0.4192086109588654 0.5807913890411345 0.4313119668741601 0.5686880331258399 0.6483556346093623 0.35164436539063765 0.7632876469650548 0.23671235303494523 0.83069787647173 0.16930212352826998 0.9316685509429188 0.06833144905708116 0.38164973313872175 0.6183502668612783 0.4550513469939385 0.5449486530060614 0.5304538239685963 0.46954617603140375 0.10688271659589112 0.8931172834041089 0.6513508379618892 0.34864916203811086 0.026707791031428785 0.9732922089685713 0.21504759689990935 0.7849524031000906 0.43164524290763595 0.5683547570923639 0.16190045570373518 0.8380995442962648 0.6445513813314621 0.355448618668538 0.5418824484851781 0.458117551514822 0.24011115237297656 0.7598888476270235 0.3436133642632927 0.6563866357367073 0.5216938110524002 0.4783061889475997 0.4195097102234106 0.5804902897765893 0.495485207030961 0.504514792969039 0.7665786125690441 0.2334213874309558 0.5032545151399864 0.49674548486001363 0.6236956186832093 0.37630438131679056 0.2486366503703791 0.7513633496296209 0.6583721492706364 0.34162785072936364 0.5403740807505096 0.45962591924949037 0.50251133587331 0.49748866412669 0.5494089697416603 0.4505910302583397 0.8190077864404783 0.18099221355952164 0.4350138220729505 0.5649861779270495 </TABLE>
    </DEFINITION>
    <DEFINITION>
      <FOR>18</FOR>
      <GIVEN>1</GIVEN>
      <GIVEN>4</GIVEN>
      <GIVEN>5</GIVEN>
      <GIVEN>9</GIVEN>
      <GIVEN>8</GIVEN>
      <GIVEN>10</GIVEN>
      <GIVEN>13</GIVEN>
      <GIVEN>6</GIVEN>
      <GIVEN>15</GIVEN>
      <GIVEN>17</GIVEN>
      <TABLE>0.07174202120125522 0.9282579787987447 0.3731197903648917 0.6268802096351084 0.7567496652294927 0.24325033477050728 0.5510334183003132 0.4489665816996867 0.3134680276321175 0.6865319723678824 0.39680221120418685 0.6031977887958131 0.517702688200028 0.48229731179997204 0.6370621866700507 0.3629378133299494 0.49622377873893014 0.5037762212610699 0.87941848330591 0.12058151669409 0.17552650321337318 0.8244734967866268 0.5134448096840559 0.48655519031594413 0.4118207181645367 0.5881792818354634 0.12517995433613108 0.874820045663869 0.9542852949724617 0.04571470502753831 0.4297028085864501 0.57029719141355 0.6754687970721308 0.32453120292786913 0.7259952140814945 0.2740047859185055 0.4116515468857372 0.5883484531142629 0.5188783723662118 0.48112162763378824 0.5030522848813166 0.4969477151186834 0.6413909322798542 0.3586090677201457 0.2750288535915909 0.7249711464084091 0.6387870925977084 0.36121290740229167 0.03468410365248973 0.9653158963475102 0.6622963812959379 0.33770361870406207 0.5234673746914923 0.4765326253085077 0.5672985411047876 0.43270145889521244 0.33881534213448156 0.6611846578655184 0.3337824452100577 0.6662175547899423 0.6205397273603781 0.37946027263962195 0.6604443751863651 0.33955562481363494 0.320469194116973 0.679530805883027 0.7188182293532852 0.28118177064671485 0.44628969461248985 0.5537103053875102 0.7729446243312805 0.22705537566871942 0.8310404761956418 0.16895952380435802 0.44991114019744183 0.5500888598025582 0.016900987768714668 0.9830990122312854 0.9959972465830532 0.004002753416946794 0.6825957498809228 0.31740425011907714 0.7294859425796578 0.2705140574203422 0.5039211079555266 0.49607889204447336 0.7436345084407487 0.25636549155925115 0.31249381169400053 0.6875061883059995 0.9253814081430006 0.07461859185699933 0.630019075065616 0.3699809249343839 0.5408569535583084 0.45914304644169146 0.1738796707930687 0.8261203292069313 0.8430509947170982 0.15694900528290176 0.5710666177625588 0.428933382237441 0.49485552637516217 0.5051444736248378 0.8833894525099852 0.11661054749001476 0.712769716452712 0.28723028354728797 0.4911784337272977 0.5088215662727023 0.17427063770240991 0.8257293622975901 0.2344062160585722 0.7655937839414279 0.7889793453742833 0.21102065462571673 0.3112568858076266 0.6887431141923734 0.8076564496841402 0.19234355031585978 0.916921037165839 0.08307896283416108 0.6899860312461444 0.3100139687538556 0.13390714965807318 0.8660928503419268 0.17807879549035388 0.8219212045096462 0.10484456995337009 0.8951554300466299 0.8361127632978949 0.16388723670210503 0.5218171189312082 0.4781828810687918 0.46451990393129466 0.5354800960687054 0.9379375893112769 0.06206241068872313 0.39004914271290475 0.6099508572870953 0.7830052848565309 0.21699471514346913 0.6750683818862084 0.3249316181137916 0.4325700760107949 0.5674299239892051 0.4762204710032977 0.5237795289967023 0.6240461181562945 0.37595388184370554 0.7957393218169186 0.20426067818308138 0.5784229836676502 0.42157701633234984 0.6811946576114288 0.3188053423885712 0.7836909568418337 0.2163090431581663 0.49757414728253935 0.5024258527174607 0.4358252739694359 0.5641747260305641 0.5048954782320433 0.49510452176795666 0.5099742840673873 0.4900257159326126 0.5202328975998527 0.4797671024001473 0.3723137709351416 0.6276862290648584 0.3477599237453577 0.6522400762546423 0.3547185964080512 0.6452814035919487 0.7296118260580875 0.27038817394191256 0.21544684849254392 0.7845531515074561 0.9846877107553343 0.015312289244665675 0.8178146546526491 0.1821853453473509 0.48300678827262744 0.5169932117273726 0.6298160479687815 0.37018395203121834 0.5664211785020814 0.43357882149791854 0.14036479532500398 0.859635204674996 0.5359793215760597 0.46402067842394035 0.525832999624691 0.474167000375309 0.4941135656337394 0.5058864343662606 0.18518264763890174 0.8148173523610983 0.07117602999332637 0.9288239700066736 0.04411572766775661 0.9558842723322434 0.7530797450284852 0.24692025497151476 0.14311401378317054 0.8568859862168294 0.3014567026825773 0.6985432973174227 0.3772246301134894 0.6227753698865106 0.7385980986423728 0.2614019013576272 0.4772733989299545 0.5227266010700455 0.7574947305613341 0.24250526943866602 0.7138192256417537 0.2861807743582463 0.5080253412325916 0.49197465876740837 0.8519104421291683 0.1480895578708318 0.654763704084839 0.345236295915161 0.4330121253228591 0.566987874677141 0.3963026249078774 0.6036973750921225 0.421456807887507 0.578543192112493 0.5141117522372541 0.48588824776274586 0.5375659478825604 0.4624340521174396 0.4385891420464703 0.5614108579535296 0.8752044841483544 0.12479551585164557 0.2240301194569825 0.7759698805430175 0.5508885041159705 0.44911149588402954 0.6217606888828833 0.3782393111171167 0.09850495810963251 0.9014950418903674 0.010776103199070084 0.9892238968009299 0.98772807131314 0.01227192868686004 0.6538742634017474 0.3461257365982526 0.07873150826072878 0.9212684917392712 0.6390796114592412 0.3609203885407587 0.561214125109615 0.438785874890385 0.37379742708771063 0.6262025729122893 0.22155911413314988 0.7784408858668501 0.042073209793336765 0.9579267902066632 0.6892945899915329 0.3107054100084672 0.45002266653711953 0.5499773334628805 0.45590930167166943 0.5440906983283306 0.276400087560236 0.7235999124397641 0.9065690969428388 0.09343090305716119 0.6147374910752565 0.3852625089247434 0.44232715323510113 0.5576728467648989 0.5058529480764896 0.49414705192351044 0.08317165995402781 0.9168283400459721 0.3149422937796719 0.6850577062203281 0.8164973843602417 0.18350261563975825 0.6636660977919873 0.3363339022080128 0.6233295000713366 0.3766704999286635 0.7814731571073444 0.21852684289265556 0.5912831381040444 0.4087168618959556 0.40915315554939935 0.5908468444506007 0.874860371863553 0.125139628136447 0.7431749794482306 0.2568250205517693 0.32226007860707817 0.6777399213929218 0.5921112930204128 0.4078887069795872 0.1965349315039221 0.8034650684960779 0.9541153499887505 0.04588465001124949 0.030725336237395207 0.9692746637626047 0.5705349647018272 0.42946503529817276 0.44622255036889324 0.5537774496311068 0.3791546743836788 0.6208453256163212 0.49121637689628167 0.5087836231037183 0.27296125640754265 0.7270387435924573 0.08978463951618948 0.9102153604838106 0.5774065435563576 0.4225934564436424 0.4680190779100821 0.5319809220899179 0.7391840741499152 0.26081592585008484 0.4785485207916591 0.521451479208341 0.36270926591008407 0.6372907340899159 0.24310488150446433 0.7568951184955357 0.68774554283784 0.31225445716216005 0.5651850078407498 0.43481499215925024 0.9364414644938214 0.06355853550617867 0.7449924073322834 0.2550075926677167 0.9570119107081551 0.04298808929184492 0.371031888452034 0.628968111547966 0.2501662183980497 0.7498337816019502 0.6453046540388893 0.3546953459611107 0.12076858552761852 0.8792314144723815 0.3673204845059233 0.6326795154940767 0.7197865958459255 0.2802134041540744 0.8852727323284924 0.11472726767150761 0.7287950030225818 0.27120499697741823 0.4708915914957807 0.5291084085042193 0.49210696400067344 0.5078930359993266 0.5839933829355356 0.41600661706446435 0.34865603579706805 0.6513439642029318 0.14855017337747797 0.8514498266225221 0.4625433470606285 0.5374566529393715 0.28898490538067556 0.7110150946193244 0.3672819779741371 0.632718022025863 0.5914156495279727 0.4085843504720273 0.34748885545234304 0.652511144547657 0.4724243783555088 0.5275756216444912 0.790002236351481 0.20999776364851885 0.8341704362069918 0.16582956379300812 0.6850282802344267 0.3149717197655732 0.6621158588235394 0.3378841411764606 0.23676205037819464 0.7632379496218054 0.5458589259307024 0.45414107406929766 0.027712279058544592 0.9722877209414554 0.3405218755261087 0.6594781244738913 0.5936744640761658 0.40632553592383425 0.14810151061038324 0.8518984893896169 0.11305683551893343 0.8869431644810666 0.463921323009125 0.536078676990875 0.5845861695078224 0.4154138304921776 0.3783122305692493 0.6216877694307507 0.7098229395387848 0.2901770604612152 0.6876827642788494 0.3123172357211506 0.9677282632142055 0.03227173678579457 0.39393733203052345 0.6060626679694766 0.4945806657925062 0.5054193342074937 0.5149510790018861 0.4850489209981139 0.4852334233275174 0.5147665766724825 0.9139889717511559 0.08601102824884424 0.4692320637083142 0.5307679362916857 0.17799274543069293 0.8220072545693071 0.2770280120462685 0.7229719879537315 0.40282655956760977 0.5971734404323902 0.7435680693020188 0.25643193069798137 0.6306033763688962 0.36939662363110376 0.595696688630843 0.4043033113691568 0.4038965206243675 0.5961034793756326 0.04128204565996985 0.9587179543400302 0.8046059935999471 0.1953940064000529 0.6577728987602701 0.3422271012397298 0.6924716656978728 0.3075283343021272 0.5775039101878947 0.42249608981210535 0.7519292189149667 0.24807078108503333 0.7023495338816564 0.29765046611834356 0.4471202855341975 0.5528797144658024 0.6960346066481294 0.3039653933518704 0.2407187153190547 0.7592812846809452 0.5424468194895234 0.45755318051047666 0.9035726134050891 0.09642738659491083 0.7317887900012819 0.26821120999871806 0.24694486029246016 0.7530551397075398 0.3843991924139073 0.6156008075860927 0.7659651055247949 0.23403489447520504 0.7744107557699574 0.2255892442300426 0.43460961705123474 0.5653903829487652 0.5252718891451132 0.4747281108548868 0.239425019545836 0.7605749804541639 0.4393454589985756 0.5606545410014244 0.2690347476070378 0.7309652523929622 0.3334531405148118 0.6665468594851882 0.6084851210894934 0.39151487891050657 0.8883255496374205 0.11167445036257956 0.3837079919113099 0.6162920080886901 0.43496840361177036 0.5650315963882296 0.47084739904262113 0.5291526009573788 0.672841816923076 0.32715818307692407 0.30949375103653226 0.6905062489634678 0.5318861908912673 0.46811380910873274 0.9490909119549364 0.05090908804506351 0.7475983954689609 0.25240160453103916 0.5533798605300901 0.4466201394699098 0.511702760250537 0.4882972397494631 0.3578406626131064 0.6421593373868937 0.1501685949511376 0.8498314050488625 0.022103142409686027 0.977896857590314 0.48687987975369207 0.5131201202463079 0.7802717409489864 0.2197282590510135 0.7306228833747822 0.26937711662521774 0.5385445992669157 0.4614554007330844 0.24454200035481136 0.7554579996451887 0.22588509183503422 0.7741149081649659 0.23906415065731268 0.7609358493426873 0.6411001740534842 0.3588998259465158 0.3595973550666958 0.6404026449333041 0.7441937169289486 0.25580628307105135 0.5379713902238845 0.46202860977611543 0.38827359237757353 0.6117264076224265 0.41005236097598574 0.5899476390240143 0.7766844483580955 0.22331555164190453 0.8477410216532033 0.15225897834679666 0.5461322728500217 0.45386772714997825 0.5408307793928037 0.45916922060719617 0.5801183526011898 0.4198816473988102 0.851349851675129 0.14865014832487097 0.6651141546143391 0.33488584538566085 0.7514835174212569 0.24851648257874318 0.7073280787094491 0.29267192129055086 0.33230874628154256 0.6676912537184574 0.3647340919603681 0.6352659080396319 0.6562660331250347 0.3437339668749652 0.5107698817172868 0.4892301182827132 0.6359285604719063 0.3640714395280937 0.17335295227759642 0.8266470477224036 0.7568884041157187 0.2431115958842813 0.7982203050566751 0.2017796949433249 0.39417282723034236 0.6058271727696576 0.6867779727048275 0.3132220272951723 0.04108335672103181 0.9589166432789682 0.6443930701715654 0.35560692982843445 0.7330911701465516 0.2669088298534484 0.5423494873943392 0.4576505126056608 0.24584727214227814 0.7541527278577218 0.76115446893363 0.23884553106636996 0.9478587641564318 0.05214123584356823 0.9563912355346097 0.04360876446539028 0.3009113707414724 0.6990886292585275 0.45096560207725156 0.5490343979227484 0.26556500218120055 0.7344349978187994 0.07766586508195315 0.9223341349180468 0.8124823440575828 0.18751765594241718 0.17403208926363528 0.8259679107363648 0.04968589345949897 0.9503141065405011 0.34579469723487394 0.6542053027651261 0.5315240821232025 0.46847591787679743 0.34063265154294314 0.6593673484570569 0.9350142847899714 0.06498571521002856 0.5202693536738526 0.4797306463261474 0.6268616798191278 0.3731383201808723 0.46079096538442366 0.5392090346155763 0.6871203246066493 0.3128796753933507 0.13101823689933165 0.8689817631006683 0.3679054677510203 0.6320945322489797 0.570111103344497 0.429888896655503 0.8625078039529395 0.13749219604706053 0.27636555456359113 0.7236344454364089 0.5794222793944431 0.42057772060555687 0.385221799399427 0.6147782006005731 0.9442580717874137 0.05574192821258624 0.6808904264118852 0.31910957358811476 0.227979511705321 0.7720204882946791 0.5952419011108379 0.4047580988891621 0.6695736314162031 0.330426368583797 0.7622416530819714 0.23775834691802852 0.12140922717516253 0.8785907728248374 0.5518134244393729 0.448186575560627 0.8675007359176522 0.13249926408234783 0.7353952006307887 0.2646047993692114 0.26577510002099125 0.7342248999790089 0.19743570383111417 0.8025642961688858 0.42321073580817176 0.5767892641918282 0.32917582340943824 0.6708241765905617 0.43554341078903425 0.5644565892109658 0.4833275606764748 0.5166724393235252 0.46347661582892397 0.536523384171076 0.07355695955222177 0.9264430404477783 0.5826575949240407 0.4173424050759593 0.7433016377018529 0.2566983622981471 0.8317031735038828 0.16829682649611719 0.6240676508259749 0.375932349174025 0.49469948290509225 0.5053005170949078 0.0687891686772395 0.9312108313227605 0.6054980649482803 0.39450193505171977 0.45186903356540997 0.5481309664345901 0.32944894897433263 0.6705510510256674 0.6227622728267719 0.3772377271732282 0.7314219664291062 0.26857803357089377 0.40045692508080305 0.5995430749191969 0.46979408267450323 0.5302059173254967 0.36275618123524433 0.6372438187647556 0.44532697948762673 0.5546730205123732 0.7160130605083246 0.2839869394916753 0.04051193998593884 0.9594880600140612 0.9057433086886584 0.09425669131134154 0.6055362959027429 0.39446370409725706 0.513068390945826 0.48693160905417404 0.5959066944466503 0.40409330555334955 0.7367551998524515 0.2632448001475484 0.29032388516169827 0.7096761148383017 0.17723290387297103 0.822767096127029 0.29850661516160854 0.7014933848383916 0.44168404632426 0.55831595367574 0.4624884734244754 0.5375115265755245 0.5327141123629427 0.46728588763705725 0.4268420509870505 0.5731579490129495 0.48953699617354707 0.5104630038264529 0.18500944880417475 0.8149905511958253 0.3790159911444176 0.6209840088555825 0.4463794061133657 0.5536205938866343 0.49643455743937354 0.5035654425606264 0.16968565194632051 0.8303143480536797 0.8499497996419508 0.15005020035804917 0.787874424081872 0.21212557591812797 0.8654576862160405 0.1345423137839595 0.52921628526583 0.47078371473417 0.6569132685852963 0.34308673141470364 0.6062893408504871 0.3937106591495128 0.5606914905712018 0.43930850942879823 0.5261044062654866 0.4738955937345134 0.5243195519287864 0.4756804480712136 0.6238549558644189 0.37614504413558114 0.026590497416171865 0.9734095025838282 0.35162306026095513 0.6483769397390449 0.6460525979536474 0.35394740204635267 0.6496840833681895 0.3503159166318105 0.3435282579237778 0.6564717420762222 0.46606720012234754 0.5339327998776524 0.7586139020873416 0.24138609791265844 0.7987437636842565 0.20125623631574352 0.9317012404926542 0.06829875950734578 0.4312852408813282 0.5687147591186719 0.5785150940515871 0.4214849059484128 0.5865515149344912 0.4134484850655088 0.1282009310002995 0.8717990689997006 0.6041656223075846 0.3958343776924154 0.3888986395477358 0.6111013604522644 0.06136274913413408 0.9386372508658659 0.2248569378711142 0.7751430621288858 0.3639754292890944 0.6360245707109056 0.9402457381888859 0.05975426181111408 0.4269915046320753 0.5730084953679248 0.45672982259936357 0.5432701774006364 0.27692153392886254 0.7230784660711375 0.3973991739749987 0.6026008260250013 0.9192186435039095 0.0807813564960904 0.2572540406196173 0.7427459593803827 0.508091939554654 0.4919080604453459 0.034295763723326454 0.9657042362766736 0.4222796015046889 0.5777203984953111 0.4175166958030434 0.5824833041969565 0.2873540897906714 0.7126459102093287 0.04839828265460845 0.9516017173453916 0.12642796042255272 0.8735720395774473 0.39808518751719846 0.6019148124828015 0.5007166857251919 0.4992833142748081 0.40090925570698077 0.5990907442930191 0.5789264208451432 0.4210735791548567 0.48119341423748696 0.5188065857625132 0.6168809433720455 0.3831190566279546 0.5217267743558294 0.4782732256441706 0.0508784454341441 0.949121554565856 0.14379975250321583 0.8562002474967841 0.41145032912129786 0.5885496708787021 0.7277030367771905 0.27229696322280944 0.5376240624955883 0.46237593750441164 0.1811038273872728 0.8188961726127272 0.42686381488599556 0.5731361851140044 0.104198255607687 0.895801744392313 0.0043046959114177935 0.9956953040885822 0.5681836211424911 0.4318163788575089 0.7070521019169956 0.29294789808300425 0.42530223346055895 0.574697766539441 0.74850470078767 0.2514952992123301 0.6269673463918735 0.37303265360812654 0.33119958384948667 0.6688004161505133 0.7712702745761773 0.22872972542382278 0.4495665321372786 0.5504334678627214 0.30534594153070915 0.6946540584692908 0.0925754903647762 0.9074245096352238 0.7210453861242279 0.27895461387577214 0.5298742260320465 0.4701257739679535 0.8143411973719917 0.18565880262800832 0.2896814440553472 0.7103185559446528 0.8511982778875297 0.14880172211247036 0.6642920158954194 0.3357079841045806 0.2688794317133408 0.7311205682866593 0.550993016090957 0.4490069839090429 0.007603929516966638 0.9923960704830334 0.48004785463035055 0.5199521453696494 0.6133643490722503 0.38663565092774965 0.45981628274324066 0.5401837172567593 0.3072456086608354 0.6927543913391646 0.652336407225117 0.347663592774883 0.28161230449257274 0.7183876955074274 0.010098125197342742 0.9899018748026572 0.8091292160708407 0.1908707839291593 0.28739767831916696 0.712602321680833 0.6011465968361306 0.3988534031638694 0.8188326294460093 0.18116737055399068 0.8890304229326661 0.11096957706733389 0.005054356532733858 0.9949456434672661 0.6992856874031008 0.3007143125968992 0.46828679877106594 0.5317132012289341 0.1778450339602075 0.8221549660397925 0.9072391681640706 0.09276083183592944 0.24443019306503702 0.755569806934963 0.19632655880578548 0.8036734411942145 0.8209105010737505 0.17908949892624948 0.514515015232776 0.485484984767224 0.5730450918607168 0.4269549081392831 0.6453299074614572 0.3546700925385427 0.616914666258846 0.3830853337411541 0.9981807429114398 0.0018192570885602112 0.3220772137551285 0.6779227862448715 0.3391408084733615 0.6608591915266385 0.437885330013655 0.5621146699863451 0.5882214408721732 0.41177855912782685 0.5500988723421311 0.449901127657869 0.5289585002740192 0.4710414997259807 0.30328369699096236 0.6967163030090376 0.48166818374057424 0.5183318162594257 0.6813481782759645 0.3186518217240355 0.5040235810956127 0.49597641890438715 0.8661219658429525 0.1338780341570475 0.5679815552140816 0.43201844478591844 0.4356270124443147 0.5643729875556852 0.46736019791108485 0.5326398020889151 0.5301786212442391 0.4698213787557609 0.3788627174257832 0.6211372825742169 0.06367360559261596 0.9363263944073841 0.582479556447583 0.41752044355241696 0.5189640805232485 0.48103591947675156 0.5109102747069002 0.4890897252930998 0.887161217647294 0.11283878235270596 0.9888746543334102 0.011125345666589846 0.13232647845481063 0.8676735215451894 0.7726420889773538 0.2273579110226463 0.7588079653700959 0.2411920346299041 0.004292134282349212 0.9957078657176508 0.0942505974459168 0.9057494025540832 0.7854132193892622 0.21458678061073783 0.5540928584221775 0.44590714157782246 0.6326366339343178 0.36736336606568226 0.34570635407223266 0.6542936459277675 0.8374119807834175 0.16258801921658245 0.5205013898564603 0.4794986101435398 0.7491755091808491 0.25082449081915087 0.44250053619497265 0.5574994638050274 0.18577344607085045 0.8142265539291496 0.18327038715470675 0.8167296128452932 0.22498115539170396 0.7750188446082961 0.6985833335441456 0.30141666645585447 0.7783823875146259 0.22161761248537412 0.5813648639944927 0.41863513600550717 0.9136449061470119 0.08635509385298815 0.49634374354573535 0.5036562564542646 0.435141755551965 0.5648582444480351 0.6444466379394095 0.35555336206059046 0.544112737389831 0.45588726261016893 0.905324101353973 0.09467589864602695 0.5422573580327061 0.45774264196729386 0.5912008659371907 0.40879913406280927 0.3233351717961146 0.6766648282038854 0.02628582203251708 0.9737141779674829 0.21253384570772116 0.7874661542922788 0.778126746489299 0.2218732535107008 0.923528304456482 0.07647169554351795 0.11487039439858242 0.8851296056014176 0.25813710579774507 0.7418628942022549 0.4188376392249469 0.5811623607750531 0.463976845728473 0.536023154271527 0.023334871487679897 0.9766651285123201 0.7736170127122898 0.22638298728771022 0.10285465010074105 0.897145349899259 0.18506046677929797 0.814939533220702 0.2455596256567261 0.7544403743432739 0.05731785075098955 0.9426821492490104 0.6129632138740294 0.3870367861259706 0.5171100999523486 0.4828899000476515 0.39895221683305643 0.6010477831669435 0.462673391934781 0.537326608065219 0.7963662142906643 0.2036337857093358 0.3425675915971158 0.6574324084028842 0.9833768482450292 0.016623151754970738 0.9883388094843168 0.011661190515683154 0.5094538531545145 0.4905461468454854 0.18570578543957414 0.8142942145604258 0.19872792456930474 0.8012720754306952 0.7076484958803408 0.2923515041196592 0.26312375900178425 0.7368762409982157 0.35769382442495373 0.6423061755750462 0.41042984670141913 0.589570153298581 0.35074978295591935 0.6492502170440806 0.42897026857994613 0.5710297314200539 