<?xml version='1.0' encoding='utf-8'?>
<BIF VERSION="0.3">
  <NETWORK>
    <NAME>UNTITLED</NAME>
    <VARIABLE TYPE="nature">
      <NAME>0</NAME>
      <OUTCOME>0</OUTCOME>
      <OUTCOME>1</OUTCOME>
      <PROPERTY>weight = None</PROPERTY>
    </VARIABLE>
    <VARIABLE TYPE="nature">
      <NAME>1</NAME>
      <OUTCOME>0</OUTCOME>
      <OUTCOME>1</OUTCOME>
      <PROPERTY>weight = None</PROPERTY>
    </VARIABLE>
    <VARIABLE TYPE="nature">
      <NAME>10</NAME>
      <OUTCOME>0</OUTCOME>
      <OUTCOME>1</OUTCOME>
      <PROPERTY>weight = None</PROPERTY>
    </VARIABLE>
    <VARIABLE TYPE="nature">
      <NAME>11</NAME>
      <OUTCOME>0</OUTCOME>
      <OUTCOME>1</OUTCOME>
      <PROPERTY>weight = None</PROPERTY>
    </VARIABLE>
    <VARIABLE TYPE="nature">
      <NAME>12</NAME>
      <OUTCOME>0</OUTCOME>
      <OUTCOME>1</OUTCOME>
      <PROPERTY>weight = None</PROPERTY>
    </VARIABLE>
    <VARIABLE TYPE="nature">
      <NAME>13</NAME>
      <OUTCOME>0</OUTCOME>
      <OUTCOME>1</OUTCOME>
      <PROPERTY>weight = None</PROPERTY>
    </VARIABLE>
    <VARIABLE TYPE="nature">
      <NAME>14</NAME>
      <OUTCOME>0</OUTCOME>
      <OUTCOME>1</OUTCOME>
      <PROPERTY>weight = None</PROPERTY>
    </VARIABLE>
    <VARIABLE TYPE="nature">
      <NAME>15</NAME>
      <OUTCOME>0</OUTCOME>
      <OUTCOME>1</OUTCOME>
      <PROPERTY>weight = None</PROPERTY>
    </VARIABLE>
    <VARIABLE TYPE="nature">
      <NAME>16</NAME>
      <OUTCOME>0</OUTCOME>
      <OUTCOME>1</OUTCOME>
      <PROPERTY>weight = None</PROPERTY>
    </VARIABLE>
    <VARIABLE TYPE="nature">
      <NAME>17</NAME>
      <OUTCOME>0</OUTCOME>
      <OUTCOME>1</OUTCOME>
      <PROPERTY>weight = None</PROPERTY>
    </VARIABLE>
    <VARIABLE TYPE="nature">
      <NAME>18</NAME>
      <OUTCOME>0</OUTCOME>
      <OUTCOME>1</OUTCOME>
      <PROPERTY>weight = None</PROPERTY>
    </VARIABLE>
    <VARIABLE TYPE="nature">
      <NAME>19</NAME>
      <OUTCOME>0</OUTCOME>
      <OUTCOME>1</OUTCOME>
      <PROPERTY>weight = None</PROPERTY>
    </VARIABLE>
    <VARIABLE TYPE="nature">
      <NAME>2</NAME>
      <OUTCOME>0</OUTCOME>
      <OUTCOME>1</OUTCOME>
      <PROPERTY>weight = None</PROPERTY>
    </VARIABLE>
    <VARIABLE TYPE="nature">
      <NAME>3</NAME>
      <OUTCOME>0</OUTCOME>
      <OUTCOME>1</OUTCOME>
      <PROPERTY>weight = None</PROPERTY>
    </VARIABLE>
    <VARIABLE TYPE="nature">
      <NAME>4</NAME>
      <OUTCOME>0</OUTCOME>
      <OUTCOME>1</OUTCOME>
      <PROPERTY>weight = None</PROPERTY>
    </VARIABLE>
    <VARIABLE TYPE="nature">
      <NAME>5</NAME>
      <OUTCOME>0</OUTCOME>
      <OUTCOME>1</OUTCOME>
      <PROPERTY>weight = None</PROPERTY>
    </VARIABLE>
    <VARIABLE TYPE="nature">
      <NAME>6</NAME>
      <OUTCOME>0</OUTCOME>
      <OUTCOME>1</OUTCOME>
      <PROPERTY>weight = None</PROPERTY>
    </VARIABLE>
    <VARIABLE TYPE="nature">
      <NAME>7</NAME>
      <OUTCOME>0</OUTCOME>
      <OUTCOME>1</OUTCOME>
      <PROPERTY>weight = None</PROPERTY>
    </VARIABLE>
    <VARIABLE TYPE="nature">
      <NAME>8</NAME>
      <OUTCOME>0</OUTCOME>
      <OUTCOME>1</OUTCOME>
      <PROPERTY>weight = None</PROPERTY>
    </VARIABLE>
    <VARIABLE TYPE="nature">
      <NAME>9</NAME>
      <OUTCOME>0</OUTCOME>
      <OUTCOME>1</OUTCOME>
      <PROPERTY>weight = None</PROPERTY>
    </VARIABLE>
    <DEFINITION>
      <FOR>0</FOR>
      <TABLE>0.3417915873238537 0.6582084126761464 </TABLE>
    </DEFINITION>
    <DEFINITION>
      <FOR>1</FOR>
      <GIVEN>0</GIVEN>
      <TABLE>0.9952177796965811 0.004782220303418883 0.4912351686281577 0.5087648313718424 </TABLE>
    </DEFINITION>
    <DEFINITION>
      <FOR>10</FOR>
      <GIVEN>0</GIVEN>
      <GIVEN>9</GIVEN>
      <GIVEN>2</GIVEN>
      <TABLE>0.5086208498139948 0.4913791501860052 0.1628211207973621 0.837178879202638 0.47171074429351695 0.5282892557064831 0.7146256698647606 0.2853743301352393 0.24203405571686645 0.7579659442831336 0.26705969104409494 0.7329403089559051 0.3016442853803693 0.6983557146196308 0.3800969346263872 0.6199030653736128 </TABLE>
    </DEFINITION>
    <DEFINITION>
      <FOR>11</FOR>
      <GIVEN>3</GIVEN>
      <GIVEN>4</GIVEN>
      <GIVEN>5</GIVEN>
      <GIVEN>10</GIVEN>
      <GIVEN>2</GIVEN>
      <GIVEN>7</GIVEN>
      <TABLE>0.7483207401178296 0.2516792598821705 0.5373021074643511 0.46269789253564897 0.3980433018442876 0.6019566981557124 0.833532627581425 0.16646737241857498 0.5811974884933412 0.4188025115066587 0.4990839544655605 0.5009160455344396 0.5545158387399015 0.44548416126009854 0.34898781162837417 0.6510121883716258 0.5896372170718815 0.41036278292811845 0.8468934967136545 0.15310650328634542 0.8152244962404036 0.18477550375959634 0.6549709663947549 0.3450290336052452 0.9623563013699376 0.0376436986300625 0.48996203227314095 0.510037967726859 0.8180157391282834 0.18198426087171657 0.5504938476639567 0.44950615233604335 0.5991248327528506 0.4008751672471496 0.4468899333838463 0.5531100666161538 0.5700783843416093 0.4299216156583907 0.2914349342687244 0.7085650657312755 0.5796422401586429 0.4203577598413571 0.2445629757191259 0.7554370242808741 0.7246245806536983 0.2753754193463018 0.4247134313742539 0.5752865686257461 0.7402009010866484 0.2597990989133516 0.1927579732007182 0.8072420267992818 0.4811873658634245 0.5188126341365755 0.3383237563206553 0.6616762436793446 0.08636438914920967 0.9136356108507904 0.6029173118575423 0.3970826881424577 0.7984194473337385 0.20158055266626146 0.7104592205046092 0.2895407794953908 0.5111696446963184 0.4888303553036816 0.6616872267238049 0.33831277327619513 0.41799204074647056 0.5820079592535294 0.11784326119972478 0.8821567388002752 0.5467117874748164 0.4532882125251836 0.9558946720253817 0.044105327974618316 0.7603714497589985 0.23962855024100144 0.6374344259766008 0.36256557402339923 0.6380799726244081 0.3619200273755919 0.39384074328485186 0.6061592567151481 0.6565616104042472 0.3434383895957528 0.7238579409991502 0.27614205900084976 0.3665372985777626 0.6334627014222375 0.3778957387166406 0.6221042612833594 0.1467187572636666 0.8532812427363334 0.4555615124419601 0.5444384875580399 0.8676503544824882 0.13234964551751177 0.4593814019452235 0.5406185980547765 0.9932139062954753 0.006786093704524633 0.5549351358066332 0.4450648641933668 0.688468969012082 0.311531030987918 0.8336540702084517 0.16634592979154825 0.4651305158559334 0.5348694841440665 0.40602595550278986 0.5939740444972101 0.7693742907274191 0.23062570927258097 0.517066669333176 0.482933330666824 0.05690990542013859 0.9430900945798614 0.9044614619715619 0.0955385380284381 0.4947729935417001 0.5052270064582998 0.5176993310708388 0.4823006689291613 0.022658666588543402 0.9773413334114566 0.8752431821254508 0.12475681787454913 </TABLE>
    </DEFINITION>
    <DEFINITION>
      <FOR>12</FOR>
      <GIVEN>1</GIVEN>
      <GIVEN>9</GIVEN>
      <GIVEN>10</GIVEN>
      <GIVEN>7</GIVEN>
      <GIVEN>8</GIVEN>
      <GIVEN>11</GIVEN>
      <TABLE>0.8729348433149823 0.12706515668501775 0.7014903600498024 0.2985096399501976 0.6634869797241971 0.3365130202758029 0.5510062612883398 0.4489937387116601 0.22579448481368122 0.7742055151863187 0.92739031491855 0.0726096850814501 0.22110005430789623 0.7788999456921039 0.5759625777183177 0.4240374222816823 0.5822463791887901 0.41775362081121004 0.7006127339396501 0.29938726606034993 0.5151655751875509 0.4848344248124491 0.34123657052211365 0.6587634294778864 0.5682108905670467 0.4317891094329534 0.38525472821608864 0.6147452717839114 0.6129736955790256 0.3870263044209744 0.8728327031258806 0.12716729687411937 0.6832130816298745 0.31678691837012557 0.04006863376179271 0.9599313662382073 0.4620690673492748 0.5379309326507253 0.12906336239770685 0.870936637602293 0.06745273364676717 0.9325472663532328 0.5269064862724443 0.4730935137275557 0.384072000151354 0.615927999848646 0.2464299076461401 0.7535700923538599 0.3820671510830429 0.6179328489169571 0.245009213509867 0.754990786490133 0.44879727292754895 0.551202727072451 0.9427315354158311 0.05726846458416892 0.829454667147903 0.17054533285209708 0.38872590617685093 0.611274093823149 0.2173123005664919 0.7826876994335082 0.8687224226667917 0.13127757733320833 0.39391625568954813 0.6060837443104519 0.34897943864723974 0.6510205613527603 0.4806155723284634 0.5193844276715366 0.5197011453372448 0.4802988546627553 0.5422547835535825 0.45774521644641736 0.080700640477944 0.919299359522056 0.6548913135309172 0.34510868646908277 0.03141900008730721 0.9685809999126928 0.9182144522868955 0.08178554771310455 0.4047284864437689 0.5952715135562312 0.011342994015058958 0.988657005984941 0.013258013454053733 0.9867419865459462 0.368264757196708 0.631735242803292 0.3693456940633248 0.6306543059366753 0.4617251774931022 0.5382748225068977 0.1338365334315759 0.8661634665684241 0.5349171499588188 0.4650828500411813 0.46430903975206056 0.5356909602479394 0.3331482212296105 0.6668517787703894 0.8034125336803326 0.19658746631966736 0.5114424793782351 0.488557520621765 0.15172625319956667 0.8482737468004332 0.49486960752982156 0.5051303924701785 0.522772750843283 0.47722724915671705 0.5653925639377246 0.4346074360622754 0.4698375742058328 0.5301624257941673 0.5428379347304855 0.45716206526951464 0.517830112740251 0.48216988725974896 0.5825338038043997 0.4174661961956003 0.5526809469609737 0.44731905303902636 0.5493090282386027 0.4506909717613973 0.34149448760075624 0.6585055123992437 </TABLE>
    </DEFINITION>
    <DEFINITION>
      <FOR>13</FOR>
      <GIVEN>0</GIVEN>
      <GIVEN>4</GIVEN>
      <GIVEN>5</GIVEN>
      <GIVEN>9</GIVEN>
      <GIVEN>6</GIVEN>
      <GIVEN>12</GIVEN>
      <GIVEN>7</GIVEN>
      <GIVEN>11</GIVEN>
      <TABLE>0.6135995901193758 0.38640040988062424 0.6442258583691489 0.3557741416308511 0.5468546887682292 0.4531453112317708 0.715683410828254 0.284316589171746 0.6860606495368958 0.31393935046310417 0.5128117491033796 0.48718825089662027 0.9135272328524772 0.08647276714752287 0.5083707914917772 0.4916292085082227 0.9022381517482124 0.09776184825178759 0.3507710803596047 0.6492289196403953 0.26564375409295793 0.7343562459070421 0.6074666074137198 0.3925333925862802 0.2617686043770801 0.73823139562292 0.5943023482297338 0.4056976517702662 0.07621839955114504 0.9237816004488549 0.1796474788220023 0.8203525211779977 0.8076295226914354 0.19237047730856452 0.4808574140274087 0.5191425859725912 0.5882321891446541 0.41176781085534586 0.5179300103088967 0.48206998969110326 0.08902252702922059 0.9109774729707795 0.5833716730015736 0.41662832699842645 0.027111357814867072 0.9728886421851329 0.6374115635526637 0.36258843644733624 0.7507389753727169 0.24926102462728303 0.34755069241478254 0.6524493075852175 0.08455806367816115 0.9154419363218388 0.060678889822948175 0.9393211101770518 0.6752565909771144 0.3247434090228854 0.32344888009162004 0.6765511199083799 0.4620160858639601 0.53798391413604 0.1745964446632728 0.8254035553367272 0.6278119161507614 0.3721880838492386 0.2802574613399473 0.7197425386600527 0.38262412513063637 0.6173758748693636 0.531179298332628 0.468820701667372 0.5628898343940496 0.4371101656059504 0.5091286429901304 0.4908713570098697 0.4892124798801329 0.5107875201198671 0.443043013731248 0.556956986268752 0.43566052140912004 0.56433947859088 0.6069205543805536 0.3930794456194464 0.5861641018436757 0.4138358981563243 0.41395929645623575 0.5860407035437643 0.5090301518414304 0.4909698481585696 0.5133324235652964 0.4866675764347037 0.8980511610267716 0.10194883897322837 0.6165417460646819 0.38345825393531807 0.7977950251584399 0.2022049748415602 0.24562168195322814 0.7543783180467718 0.5926377921115906 0.4073622078884094 0.36481814980306576 0.6351818501969343 0.390130228779064 0.609869771220936 0.5134928104924226 0.4865071895075775 0.05759455048845821 0.9424054495115418 0.5327754456419077 0.4672245543580923 0.8151838381751512 0.18481616182484895 0.8643994549242152 0.13560054507578478 0.9638179687608804 0.036182031239119575 0.5689114371201626 0.43108856287983743 0.29681306749596453 0.7031869325040355 0.10652080786934574 0.8934791921306543 0.013919341855868737 0.9860806581441313 0.8464340596333532 0.15356594036664697 0.7891096785260243 0.21089032147397582 0.19743650480951133 0.8025634951904885 0.3667084522827674 0.6332915477172326 0.3080377543505635 0.6919622456494364 0.15084766014147072 0.8491523398585293 0.8759341238694488 0.12406587613055119 0.16774479096167363 0.8322552090383264 0.5154908634009767 0.4845091365990231 0.8905432447820202 0.1094567552179798 0.3149257337115192 0.6850742662884808 0.8649379985229988 0.1350620014770012 0.6140657682328161 0.3859342317671839 0.7160815221238395 0.28391847787616065 0.3604400619967445 0.6395599380032555 0.43782271672725287 0.5621772832727471 0.10621380311975312 0.8937861968802469 0.4164308572337767 0.5835691427662233 0.5116470297780157 0.4883529702219843 0.40376011590378286 0.5962398840962172 0.7937089534526479 0.20629104654735203 0.6907313590584382 0.30926864094156187 0.8188054491454743 0.1811945508545257 0.5688234131948323 0.43117658680516757 0.40921820070838505 0.5907817992916149 0.7375224861950183 0.2624775138049817 0.3102924849887934 0.6897075150112065 0.42193229368107954 0.5780677063189205 0.9994660234939021 0.0005339765060978513 0.38063544561602947 0.6193645543839704 0.286292156235175 0.713707843764825 0.14278494214084822 0.8572150578591518 0.9729321471084693 0.02706785289153065 0.3297674923822714 0.6702325076177286 0.009440335704282933 0.9905596642957171 0.5706600582030844 0.42933994179691565 0.03241263373567797 0.9675873662643221 0.7111724330395782 0.2888275669604218 0.6787328053084751 0.32126719469152487 0.4401993922522282 0.5598006077477717 0.2799001135199764 0.7200998864800237 0.8926795101311973 0.10732048986880269 0.8700374034274363 0.12996259657256373 0.7321970426694688 0.26780295733053106 0.4252360151263626 0.5747639848736373 0.527566450130824 0.47243354986917613 0.823524044495467 0.1764759555045331 0.36137496372206546 0.6386250362779347 0.3589938001220935 0.6410061998779065 0.8019256917772916 0.1980743082227084 0.45690699935696916 0.5430930006430308 0.4262565486632584 0.5737434513367416 0.9526939107022628 0.04730608929773712 0.1708330797854374 0.8291669202145626 0.5104610351528326 0.4895389648471674 0.14343025470399134 0.8565697452960087 0.4946191070570185 0.5053808929429815 0.7247273289510412 0.2752726710489588 0.9983301284104464 0.001669871589553566 0.4284627442765619 0.571537255723438 0.9016219662963338 0.09837803370366602 0.34435762642758766 0.6556423735724123 0.05172859304510341 0.9482714069548965 0.46269875127710425 0.5373012487228958 0.6462203170772938 0.35377968292270623 0.6961329216710318 0.3038670783289681 0.31758609890868295 0.6824139010913172 0.37112273120454453 0.6288772687954556 0.31489790857858646 0.6851020914214137 0.7439577235971122 0.2560422764028878 0.8581715199005248 0.14182848009947524 0.8016795307891582 0.19832046921084176 0.23379498887515915 0.7662050111248409 0.399136579477084 0.600863420522916 0.9828427938642504 0.017157206135749534 0.5195351155247023 0.48046488447529767 0.5241241243566648 0.47587587564333533 0.23868389625942119 0.7613161037405788 0.052489135268376015 0.9475108647316239 0.3884423763283396 0.6115576236716604 0.6323849449939124 0.3676150550060876 0.48155915543889716 0.5184408445611028 0.897220330422257 0.10277966957774302 0.4919110323519035 0.5080889676480964 0.2738482729992664 0.7261517270007335 0.3863889183298943 0.6136110816701057 0.9200552100020097 0.07994478999799029 0.3821820406263301 0.6178179593736698 0.27078922017881524 0.7292107798211848 0.5068733667729481 0.49312663322705186 0.733591830646801 0.266408169353199 0.5408374008539524 0.45916259914604757 0.08706685229398316 0.9129331477060169 0.5553350396504456 0.4446649603495544 0.6644687321979728 0.33553126780202724 0.3469000259562827 0.6530999740437173 0.3676504411847088 0.6323495588152912 0.25488014726839525 0.7451198527316047 0.6744575750021149 0.3255424249978851 0.32591177002904964 0.6740882299709503 0.37563528355521847 0.6243647164447816 0.8651010452820954 0.13489895471790464 0.39568930135548075 0.6043106986445193 0.3115641537079778 0.688435846292022 0.8353462803999508 0.16465371960004913 0.3152017454472853 0.6847982545527147 0.8604896922807133 0.13951030771928674 0.37489814083282963 0.6251018591671704 0.26551300012571594 0.7344869998742841 0.6975835915635266 0.3024164084364735 0.17095329279520718 0.8290467072047928 0.37335703919016 0.6266429608098399 0.0487019752835048 0.9512980247164952 0.8143742863976968 0.18562571360230318 0.20851962989891737 0.7914803701010826 0.674773527902717 0.325226472097283 0.6990118376342903 0.3009881623657097 0.7491325113467746 0.25086748865322533 0.8163617185694985 0.18363828143050154 0.3803876534276687 0.6196123465723312 0.35031006145318716 0.6496899385468128 0.14678454169220886 0.8532154583077911 0.512961099864226 0.48703890013577394 0.6388133808333426 0.36118661916665734 0.8754462044403009 0.12455379555969912 0.42820192981716093 0.571798070182839 0.14941013787463536 0.8505898621253646 0.8568349621264012 0.14316503787359883 0.3628334333035972 0.6371665666964028 0.14757373061248144 0.8524262693875185 0.23252958503748192 0.767470414962518 0.7347027440232814 0.26529725597671855 0.47796088677281023 0.5220391132271898 0.07554487126728988 0.9244551287327101 0.4999591872169822 0.5000408127830178 0.5342995874317749 0.46570041256822503 0.5519079690108524 0.4480920309891476 0.43860864991899895 0.561391350081001 0.2954937659395185 0.7045062340604815 0.5211331640530015 0.47886683594699847 0.7873699454435392 0.2126300545564609 0.5005502323929762 0.4994497676070237 0.34683649431627095 0.6531635056837289 0.3387539443540577 0.6612460556459423 0.9285281455716651 0.07147185442833492 0.5754120023495409 0.42458799765045896 0.5297869578243537 0.4702130421756463 0.2687394049221503 0.7312605950778496 0.48069452232186377 0.5193054776781362 0.5809690299119943 0.4190309700880057 0.519586614408423 0.480413385591577 0.45370347241102504 0.546296527588975 0.5920886613635368 0.40791133863646317 0.6040056611634032 0.3959943388365969 0.6873481349743303 0.3126518650256696 0.7484762110246875 0.2515237889753124 0.5613670356839223 0.4386329643160776 0.49860397020513786 0.5013960297948622 0.5950409274256928 0.4049590725743073 0.1278186656889031 0.8721813343110969 0.3676165055253612 0.6323834944746387 0.4280173520640183 0.5719826479359816 0.10903714504293487 0.8909628549570652 0.5019823135041264 0.4980176864958737 0.7049895896111674 0.2950104103888325 0.3377712076635518 0.6622287923364483 0.9505265332745498 0.04947346672545012 0.8156128684351259 0.18438713156487405 0.009023084925063677 0.9909769150749363 0.7850053428421565 0.21499465715784336 0.08414615810365826 0.9158538418963418 0.11656070441386206 0.883439295586138 0.03246538570233164 0.9675346142976684 0.5414520382892857 0.4585479617107144 0.2196319369209358 0.7803680630790643 0.5331159798518661 0.466884020148134 0.3027039524126516 0.6972960475873484 0.4347267150433135 0.5652732849566865 0.9756381603011772 0.02436183969882275 0.7955318046217833 0.2044681953782167 0.4590757015089304 0.5409242984910696 0.0682831771540748 0.9317168228459252 0.817490798555683 0.182509201444317 0.5456418453704537 0.4543581546295463 0.9196289544239638 0.08037104557603629 0.0036006549290005948 0.9963993450709994 0.4612535167094075 0.5387464832905925 0.8080196781492468 0.19198032185075323 0.668103113600931 0.33189688639906895 0.32665174510400347 0.6733482548959966 0.6086717704604631 0.391328229539537 0.6225988541988353 0.37740114580116474 0.23139257286736223 0.7686074271326377 </TABLE>
    </DEFINITION>
    <DEFINITION>
      <FOR>14</FOR>
      <GIVEN>0</GIVEN>
      <GIVEN>1</GIVEN>
      <GIVEN>3</GIVEN>
      <GIVEN>4</GIVEN>
      <GIVEN>9</GIVEN>
      <GIVEN>10</GIVEN>
      <GIVEN>13</GIVEN>
      <GIVEN>6</GIVEN>
      <GIVEN>11</GIVEN>
      <TABLE>0.6142539257024672 0.3857460742975328 0.46442013139404603 0.535579868605954 0.4805702354671742 0.5194297645328257 0.4888674905604948 0.5111325094395052 0.6831131297456909 0.31688687025430906 0.14894525812867127 0.8510547418713288 0.5095875176361945 0.4904124823638056 0.4793514243704808 0.5206485756295193 0.9897912664481088 0.010208733551891225 0.5653438930669031 0.4346561069330969 0.4925708657191693 0.5074291342808307 0.9682109210056534 0.031789078994346534 0.5760518810607096 0.4239481189392904 0.5118386619652388 0.48816133803476125 0.8907612224693315 0.10923877753066832 0.921294512435681 0.07870548756431904 0.4997536237246116 0.5002463762753885 0.5490020038839438 0.4509979961160561 0.7801798621433336 0.21982013785666646 0.4309684554878572 0.5690315445121428 0.36869936313709784 0.631300636862902 0.4211580815507639 0.578841918449236 0.7331654071731656 0.26683459282683447 0.4911046429068711 0.5088953570931289 0.26083658756950023 0.7391634124304998 0.26976858061740683 0.7302314193825931 0.5155895663423866 0.4844104336576134 0.7884618114024825 0.21153818859751752 0.5702662241747022 0.4297337758252978 0.2470968262920845 0.7529031737079155 0.7477738319113773 0.2522261680886227 0.6344931956830586 0.36550680431694144 0.22805453086165203 0.7719454691383478 0.5900880882753825 0.4099119117246175 0.3971502187179659 0.6028497812820341 0.7984101772731008 0.2015898227268992 0.6582507075970782 0.3417492924029218 0.5736015811902523 0.42639841880974777 0.7038503414463533 0.2961496585536467 0.8571049909445839 0.14289500905541605 0.5828576571457018 0.4171423428542982 0.5504389687897597 0.4495610312102404 0.5005204922736564 0.49947950772634375 0.7966258848913303 0.20337411510866968 0.47733600404494503 0.5226639959550551 0.5847896521342247 0.41521034786577526 0.0009161076878776774 0.9990838923121224 0.22084321346073624 0.7791567865392638 0.6900626062433021 0.30993739375669793 0.5104908659417553 0.4895091340582447 0.767311824393189 0.23268817560681102 0.051243955652210474 0.9487560443477895 0.3775430830186951 0.622456916981305 0.26788831261070095 0.732111687389299 0.3645491345824835 0.6354508654175165 0.5277035749601225 0.47229642503987734 0.638620874621837 0.36137912537816297 0.3388946032599799 0.66110539674002 0.16852854385594426 0.8314714561440557 0.3304549933942862 0.6695450066057139 0.3279035328524935 0.6720964671475065 0.15560699218514823 0.8443930078148516 0.6248345889677221 0.37516541103227774 0.8454234376744411 0.1545765623255589 0.21111418903110765 0.7888858109688924 0.6301063944910533 0.3698936055089466 0.38052539108767863 0.6194746089123213 0.07725550681691093 0.922744493183089 0.49055287371559714 0.5094471262844029 0.7971428109343156 0.20285718906568442 0.9705050507477845 0.029494949252215533 0.21145067654109215 0.7885493234589078 0.6192147866687119 0.3807852133312882 0.5884517710799572 0.4115482289200428 0.8032882467341357 0.19671175326586432 0.20284412032977972 0.7971558796702203 0.5760554326202071 0.42394456737979286 0.23964154048160397 0.760358459518396 0.018509823629076567 0.9814901763709234 0.4675266548249524 0.5324733451750476 0.06036727550983966 0.9396327244901603 0.3087834528996171 0.6912165471003829 0.2186002262452501 0.7813997737547499 0.4684534594670953 0.5315465405329047 0.41042291995305946 0.5895770800469405 0.5690934033170266 0.4309065966829733 0.0864929260827995 0.9135070739172005 0.8011162308564981 0.19888376914350203 0.6795540045829083 0.32044599541709173 0.566285627359235 0.43371437264076496 0.38592032700128887 0.6140796729987112 0.24382373998499446 0.7561762600150055 0.08946689941696533 0.9105331005830346 0.34873997853751754 0.6512600214624824 0.8647730767310327 0.13522692326896732 0.4520846022515689 0.5479153977484311 0.597897803042586 0.40210219695741395 0.6063889808824874 0.3936110191175127 0.6707050308858253 0.32929496911417455 0.23869045836397146 0.7613095416360286 0.37290421084710984 0.6270957891528902 0.7924671110316126 0.20753288896838745 0.3893932221384659 0.6106067778615341 0.6321108369187843 0.36788916308121566 0.5584813038074155 0.4415186961925846 0.15753949326800235 0.8424605067319977 0.6516308667534805 0.3483691332465195 0.4151134226419369 0.5848865773580632 0.5119918149729918 0.4880081850270081 0.5653356881336069 0.43466431186639304 0.2899431695755701 0.7100568304244299 0.05803445680741488 0.9419655431925851 0.6427772710500599 0.3572227289499401 0.4888726718458705 0.5111273281541294 0.7643316283429521 0.235668371657048 0.5989904893692057 0.4010095106307942 0.6246811631938933 0.3753188368061066 0.8601047493903065 0.1398952506096936 0.36295698297832907 0.6370430170216709 0.8768242047965205 0.12317579520347956 0.5673222036613038 0.4326777963386962 0.7777232788502539 0.2222767211497461 0.6288375497087078 0.37116245029129225 0.8662610807733658 0.13373891922663414 0.5328056226751093 0.46719437732489066 0.0010254036941015066 0.9989745963058985 0.5480690071064007 0.45193099289359934 0.03696403667852379 0.9630359633214762 0.7420557270650003 0.2579442729349996 0.6882054857430426 0.31179451425695737 0.7289137330446639 0.271086266955336 0.6801184327291988 0.3198815672708011 0.34778131294045705 0.652218687059543 0.4367814915676762 0.5632185084323238 0.4962300315877082 0.5037699684122918 0.8681293916729421 0.13187060832705785 0.18788474589757664 0.8121152541024232 0.35166337253014207 0.6483366274698579 0.6883323220409208 0.3116676779590791 0.21279929749081142 0.7872007025091886 0.7990945481027452 0.2009054518972548 0.47134666006448334 0.5286533399355167 0.5139792919702914 0.4860207080297086 0.5406898635338103 0.4593101364661897 0.4875706110458007 0.5124293889541993 0.20761697736739645 0.7923830226326035 0.22018952112123805 0.779810478878762 0.442819131279285 0.5571808687207149 0.47741315944651297 0.522586840553487 0.5075677547648324 0.49243224523516765 0.21910922019255605 0.7808907798074439 0.5077340348185649 0.492265965181435 0.691884780660262 0.308115219339738 0.6569497197180141 0.34305028028198603 0.8899225974428325 0.11007740255716744 0.4988460352341932 0.5011539647658066 0.2663013521192294 0.7336986478807707 0.48627488398887386 0.5137251160111261 0.36043178676425774 0.6395682132357423 0.06682743556369142 0.9331725644363086 0.7695915449153781 0.23040845508462196 0.009384487915115584 0.9906155120848844 0.5043858534484991 0.49561414655150093 0.543511209764618 0.4564887902353819 0.3336122177630792 0.6663877822369207 0.3866490811114692 0.6133509188885309 0.6238622738870776 0.3761377261129224 0.14581713959161027 0.8541828604083898 0.7080125287990129 0.29198747120098706 0.9490682946701635 0.05093170532983646 0.7375771051604931 0.2624228948395068 0.8232702523928325 0.17672974760716753 0.29893412973636385 0.7010658702636361 0.5767413305901101 0.42325866940988993 0.6217975842200282 0.3782024157799718 0.2014245025195523 0.7985754974804476 0.6615951587294999 0.3384048412705001 0.8425575425113148 0.15744245748868527 0.8797444671992305 0.1202555328007695 0.8453730382681258 0.15462696173187415 0.10103983027528717 0.8989601697247128 0.37989682862380003 0.6201031713762 0.9507864555790303 0.04921354442096961 0.4052149830107523 0.5947850169892476 0.17566281681601592 0.8243371831839841 0.6107211242604591 0.389278875739541 0.5656315736047546 0.4343684263952454 0.32855303192763846 0.6714469680723615 0.7655645631059517 0.2344354368940483 0.28691614786394937 0.7130838521360506 0.3661590847437049 0.633840915256295 0.9538196341553865 0.04618036584461352 0.3525697768288161 0.6474302231711839 0.5491003265921162 0.45089967340788384 0.5863639906913702 0.41363600930862976 0.7110569120654062 0.2889430879345937 0.9526801076487479 0.04731989235125211 0.5006961495758996 0.4993038504241004 0.4397910432336882 0.5602089567663118 0.5610347553163785 0.43896524468362164 0.6225128385558286 0.3774871614441714 0.7619603998522998 0.23803960014770018 0.32363382182239714 0.6763661781776028 0.4168815544280536 0.5831184455719464 0.2760336367253077 0.7239663632746923 0.04159897932734702 0.958401020672653 0.4877432800826854 0.5122567199173147 0.04362664281961631 0.9563733571803837 0.5474372199223158 0.45256278007768425 0.6041439510240645 0.3958560489759354 0.8285847958033542 0.17141520419664577 0.9789952161384996 0.02100478386150039 0.11431277993993266 0.8856872200600673 0.24503392406804528 0.7549660759319547 0.5699534520267342 0.43004654797326586 0.580768699081148 0.419231300918852 0.6050615882111174 0.39493841178888256 0.5881039006061184 0.4118960993938816 0.5691307967009032 0.4308692032990969 0.1756547859359487 0.8243452140640514 0.6519905605710675 0.3480094394289326 0.8286051940787018 0.17139480592129824 0.9343949674953941 0.06560503250460595 0.31143904028054126 0.6885609597194587 0.06017443613338937 0.9398255638666106 0.545845010418831 0.45415498958116884 0.16949201554183002 0.83050798445817 0.6065680633531784 0.3934319366468217 0.5395142670152612 0.4604857329847388 0.8566349203348369 0.14336507966516315 0.6277043738230931 0.372295626176907 0.7309667406043977 0.2690332593956023 0.6076458502640506 0.39235414973594934 0.6374553330224815 0.3625446669775185 0.1750248735673037 0.8249751264326962 0.3006115305233857 0.6993884694766144 0.7409839739180146 0.25901602608198526 0.8740041102831684 0.12599588971683162 0.9475224270225611 0.052477572977438935 0.4235128539988496 0.5764871460011505 0.03160889779733105 0.968391102202669 0.6186630327328361 0.3813369672671639 0.9091442259311958 0.09085577406880424 0.4269193450026009 0.573080654997399 0.4927215903377549 0.507278409662245 0.267269105938484 0.732730894061516 0.8614656868357166 0.13853431316428347 0.44516978576863586 0.5548302142313641 0.12639332955441265 0.8736066704455874 0.9379560447638724 0.06204395523612756 0.4612726419775872 0.5387273580224127 0.4373246440775455 0.5626753559224545 0.4035253107683589 0.596474689231641 0.71508732305386 0.28491267694614 0.28377371597704865 0.7162262840229513 0.3707199588376531 0.6292800411623469 0.6886239647517521 0.31137603524824786 0.19615296518851183 0.8038470348114881 0.8775891406700413 0.12241085932995864 0.4692528019482115 0.5307471980517885 0.8544337132583144 0.1455662867416856 0.8167678983914307 0.18323210160856931 0.40704894160780947 0.5929510583921905 0.5167679667896422 0.4832320332103578 0.9085375155150227 0.09146248448497732 0.0009064069514208197 0.9990935930485791 0.5126677172343443 0.48733228276565566 0.630594849244961 0.36940515075503894 0.9991204085577954 0.000879591442204663 0.4183219846805446 0.5816780153194554 0.4951050825034571 0.5048949174965429 0.6574336562703602 0.34256634372963973 0.5821763607263486 0.4178236392736515 0.6568691620165447 0.3431308379834553 0.1822199196197287 0.8177800803802713 0.0779462963583663 0.9220537036416337 0.5258622505185253 0.4741377494814747 0.6947539038491631 0.3052460961508369 0.24233071218967242 0.7576692878103276 0.757749608466852 0.24225039153314812 0.11030046427187852 0.8896995357281214 0.5278853332113679 0.47211466678863206 0.7455817030662891 0.2544182969337109 0.3225027415774575 0.6774972584225425 0.5542819066308011 0.44571809336919876 0.7544607258891484 0.2455392741108516 0.5170247002964521 0.4829752997035479 0.16223293998716334 0.8377670600128366 0.7096472840293789 0.29035271597062107 0.12884270736713133 0.8711572926328687 0.9661662839092733 0.0338337160907267 0.028291779604472368 0.9717082203955276 0.5612598310631293 0.4387401689368708 0.7361446502977383 0.26385534970226165 0.8016220040710605 0.19837799592893932 0.4504925337234799 0.5495074662765201 0.30989566456510376 0.6901043354348962 0.6870403845183668 0.31295961548163315 0.5916313295339416 0.4083686704660584 0.32767040200042735 0.6723295979995727 0.399874092810698 0.6001259071893019 0.3489338571808401 0.6510661428191599 0.6543507226740732 0.34564927732592676 0.722144292492331 0.2778557075076689 0.7068992838278632 0.29310071617213673 0.6732335437336604 0.32676645626633977 0.5870183953990323 0.4129816046009676 0.6493565175696029 0.3506434824303971 0.8272133748548374 0.1727866251451626 0.4953174006552459 0.5046825993447541 0.5473285462638869 0.45267145373611306 0.36731430558720146 0.6326856944127984 0.46720742856696956 0.5327925714330304 0.813925584633864 0.18607441536613606 0.4283223555544546 0.5716776444455454 0.9072497556850075 0.09275024431499249 0.6257197245712462 0.37428027542875364 0.39531522289759946 0.6046847771024004 0.1468589939765569 0.8531410060234431 0.8789769442992754 0.12102305570072464 0.4295987388313337 0.5704012611686663 0.9783943406439232 0.021605659356076844 0.13151565076361837 0.8684843492363816 0.6090136954584331 0.39098630454156696 0.6015631406762557 0.3984368593237444 0.438098896900533 0.561901103099467 0.14859115605064846 0.8514088439493516 0.5488089008964395 0.4511910991035605 0.739901001224399 0.260098998775601 0.02790700678903496 0.972092993210965 0.7764427723645465 0.2235572276354535 0.26820476805892285 0.7317952319410772 0.4828182403980211 0.5171817596019789 0.4990563373564385 0.5009436626435615 0.25869241639894347 0.7413075836010565 0.6698690216719824 0.3301309783280177 0.3951277639292278 0.6048722360707721 0.44166470628062726 0.5583352937193727 0.4357598432529709 0.5642401567470291 0.8017214852202603 0.1982785147797397 0.535914662440098 0.46408533755990194 0.17418926082883035 0.8258107391711698 0.7728583469907545 0.22714165300924546 0.408180978306865 0.5918190216931352 0.6365244427954106 0.3634755572045893 0.41183590834561074 0.5881640916543892 0.45473657289681796 0.545263427103182 0.26168596091129975 0.7383140390887002 0.3225462692840814 0.6774537307159185 0.3792432227368104 0.6207567772631896 0.9449895815530249 0.05501041844697504 0.5173591639198298 0.48264083608017017 0.5114883623177868 0.48851163768221323 0.5113568079151087 0.4886431920848913 0.20968978066874205 0.7903102193312579 0.4365362004707782 0.5634637995292218 0.23381634174275617 0.7661836582572438 0.4691342091891765 0.5308657908108235 0.06932774531428067 0.9306722546857193 0.6806822737960116 0.31931772620398824 0.8049623784620437 0.19503762153795634 0.4575850581361088 0.5424149418638913 0.805601536956619 0.19439846304338104 0.20975737455962737 0.7902426254403726 0.3563481938410685 0.6436518061589315 0.5376959721327688 0.46230402786723124 0.3173164091986073 0.6826835908013926 0.6650302394632893 0.33496976053671074 0.5207624260463346 0.4792375739536654 0.5071631656383099 0.49283683436169007 0.4625396548608585 0.5374603451391414 0.8052062721967912 0.19479372780320878 0.8617718990244714 0.1382281009755286 0.7340335575594843 0.2659664424405157 0.4484968144190797 0.5515031855809203 0.6785863582818146 0.32141364171818537 0.05850195397569609 0.9414980460243039 0.5992146368948728 0.4007853631051272 0.19231335955386905 0.8076866404461309 0.35192102118044394 0.648078978819556 0.1497032876361893 0.8502967123638108 0.6138953708674394 0.38610462913256055 0.21549358691378892 0.784506413086211 0.7534340072048377 0.24656599279516236 0.44442239362160724 0.5555776063783928 0.05356072278560717 0.9464392772143928 0.46994668324072775 0.5300533167592723 0.9352311827188601 0.06476881728113994 0.9638252202031522 0.03617477979684778 0.3746245624431128 0.6253754375568872 0.2419779115279203 0.7580220884720796 0.6349736133804746 0.3650263866195254 0.624334202245707 0.375665797754293 0.29915712247228515 0.7008428775277148 0.5570992477903866 0.4429007522096134 0.6802175726155413 0.3197824273844587 0.8893968198125799 0.11060318018742007 0.8325348635329964 0.16746513646700362 0.48060032119729856 0.5193996788027014 0.25964890736098367 0.7403510926390164 0.9437341198215575 0.05626588017844245 0.563024253473589 0.43697574652641097 0.48974660635331935 0.5102533936466805 0.7434876831620373 0.2565123168379629 0.12024979744946253 0.8797502025505375 0.9147080211937061 0.08529197880629395 0.4099806742036311 0.590019325796369 0.6397371049061814 0.36026289509381854 0.6908437672508917 0.3091562327491082 0.6440212818870281 0.35597871811297194 0.10734582503917332 0.8926541749608267 0.9155594719671339 0.0844405280328661 0.4922531284932737 0.5077468715067265 0.3887871850405049 0.611212814959495 0.15131787973422695 0.848682120265773 0.418379643807079 0.5816203561929211 0.6028489896116966 0.39715101038830336 0.32273407318651715 0.6772659268134829 0.4786885671057942 0.5213114328942057 0.7940918595665333 0.2059081404334667 0.6803026920338774 0.3196973079661226 0.8249323290924917 0.17506767090750827 0.48010095540562747 0.5198990445943725 0.35750782036918893 0.6424921796308111 0.8284123677063558 0.17158763229364415 0.5994917119132265 0.4005082880867735 0.2776309912058294 0.7223690087941705 0.34901895755798923 0.6509810424420108 0.5762514976379985 0.4237485023620014 0.5417464360653697 0.4582535639346304 0.27319137120235315 0.7268086287976467 0.4899761065834366 0.5100238934165634 0.7729592915897671 0.227040708410233 0.18660605139425565 0.8133939486057443 0.4784066456512693 0.5215933543487307 0.5301106119639444 0.46988938803605557 0.5012748612158128 0.4987251387841873 0.9200309741312216 0.07996902586877844 0.5868084153631189 0.41319158463688127 0.08116579732720265 0.9188342026727974 0.6230560331063324 0.37694396689366766 0.46341934075223296 0.5365806592477671 0.6149905024453409 0.3850094975546591 0.5127196769071775 0.4872803230928225 0.4953328290732824 0.5046671709267176 0.13822860079586682 0.8617713992041331 0.4605140128336287 0.5394859871663713 0.5700586475602862 0.4299413524397137 0.16409271178470491 0.8359072882152951 0.12196529816022378 0.8780347018397763 0.4352388168395742 0.5647611831604258 0.9611622814184749 0.03883771858152507 0.7311250440161329 0.26887495598386707 0.9812350067782359 0.018764993221764087 0.7571547766509387 0.24284522334906128 0.10630174419500751 0.8936982558049924 0.25390699921476084 0.7460930007852392 0.5122332628252723 0.4877667371747278 0.536704654491499 0.4632953455085011 0.372378907798833 0.627621092201167 0.5455592970418505 0.4544407029581494 0.28203032994646227 0.7179696700535377 0.6317995019286383 0.3682004980713617 0.7486330181773138 0.2513669818226863 0.5930276040720225 0.4069723959279774 0.6923629999646477 0.30763700003535227 0.655018181723619 0.34498181827638097 0.8251542949705982 0.17484570502940183 0.52508821856615 0.47491178143385 0.3718920532656074 0.6281079467343925 0.3891754265233612 0.6108245734766388 0.5665817953149663 0.4334182046850336 0.41716758377094704 0.5828324162290529 0.6163825384528472 0.38361746154715287 0.29439135647783593 0.705608643522164 0.10041414101009635 0.8995858589899036 0.24314358537707392 0.7568564146229262 0.10411798917871329 0.8958820108212868 0.5303247399310946 0.4696752600689053 0.23748929860317516 0.762510701396825 0.4444277962885402 0.5555722037114598 0.5445024385773782 0.45549756142262177 0.20556102143504554 0.7944389785649546 0.12122652540480927 0.8787734745951906 0.12832283372647954 0.8716771662735204 0.48439164195707035 0.5156083580429297 0.26976662552749453 0.7302333744725055 0.9485289017773385 0.0514710982226615 0.8157474422502323 0.18425255774976773 0.4602132929104872 0.5397867070895128 0.5206404962351221 0.47935950376487796 0.10087510469208051 0.8991248953079195 0.439352917355509 0.5606470826444909 0.295066357967151 0.7049336420328489 0.2270483969762937 0.7729516030237064 0.715996897953254 0.284003102046746 0.5623603610053168 0.43763963899468306 0.47299529171558186 0.5270047082844181 0.6350878840245942 0.3649121159754058 0.4231832366130531 0.5768167633869469 0.7549965456273465 0.24500345437265353 0.8440526921857475 0.15594730781425242 0.5957758496237435 0.4042241503762566 0.7314022002107592 0.2685977997892408 0.8468145483210282 0.15318545167897174 0.6310934709187975 0.3689065290812024 0.5301874163430327 0.46981258365696726 0.15584696531734277 0.8441530346826572 0.07285041981971324 0.9271495801802867 0.7676740697717451 0.23232593022825482 0.5889571321706746 0.4110428678293255 0.3479187362933772 0.6520812637066228 </TABLE>
    </DEFINITION>
    <DEFINITION>
      <FOR>15</FOR>
      <GIVEN>4</GIVEN>
      <GIVEN>5</GIVEN>
      <GIVEN>13</GIVEN>
      <GIVEN>14</GIVEN>
      <GIVEN>6</GIVEN>
      <GIVEN>12</GIVEN>
      <TABLE>0.5020112821610818 0.49798871783891807 0.9719290626782207 0.02807093732177939 0.4749905919299697 0.5250094080700304 0.7785724790003664 0.22142752099963356 0.5770666181628236 0.4229333818371764 0.7599966023284351 0.2400033976715649 0.8640493925728283 0.13595060742717163 0.560998880557899 0.439001119442101 0.23223702489551973 0.7677629751044803 0.5030264540593646 0.4969735459406355 0.5737059900025582 0.42629400999744177 0.6548391831190499 0.34516081688095024 0.872500929420911 0.127499070579089 0.5097881973324588 0.4902118026675411 0.46904429287056915 0.5309557071294309 0.4702373329092646 0.5297626670907354 0.4646307136088067 0.5353692863911933 0.19180938407991788 0.8081906159200821 0.6211043040780186 0.3788956959219813 0.6732618050896875 0.3267381949103125 0.35284286763343287 0.647157132366567 0.5419875864055361 0.4580124135944639 0.306276628939283 0.693723371060717 0.7987837137288442 0.20121628627115584 0.579627130060626 0.42037286993937395 0.3744099293691457 0.6255900706308544 0.44174874488505694 0.5582512551149431 0.3928224764528994 0.6071775235471006 0.47306498123344054 0.5269350187665595 0.38705566550508114 0.6129443344949189 0.8168117084925738 0.1831882915074262 0.7565768431514297 0.2434231568485703 0.40071888067856853 0.5992811193214314 0.8709517573658542 0.12904824263414585 0.6123776296107464 0.3876223703892536 0.48874850944637227 0.5112514905536277 0.3227573255851857 0.6772426744148142 0.5478867407811641 0.45211325921883594 0.5809978675878202 0.41900213241217965 0.4006435271117981 0.5993564728882019 0.919524846524372 0.08047515347562789 0.7231330017546257 0.2768669982453743 0.42561166347804436 0.5743883365219556 0.7161956829294156 0.2838043170705844 0.5776684990281642 0.42233150097183586 0.42139008644185044 0.5786099135581496 0.6998872391687476 0.30011276083125243 0.43823743139171173 0.5617625686082883 0.7385498528194229 0.2614501471805771 0.8723262958026747 0.12767370419732527 0.6314715531713497 0.36852844682865027 0.6561458625650869 0.34385413743491305 0.12536062685160163 0.8746393731483983 0.7911782970775434 0.20882170292245658 0.20949427189039274 0.7905057281096073 0.017326822292618567 0.9826731777073814 0.9610257460564329 0.03897425394356715 0.2388793632398718 0.7611206367601282 0.4997743259223517 0.5002256740776484 0.8259881825202142 0.17401181747978575 0.20174197875139682 0.7982580212486031 0.4170650494304926 0.5829349505695074 0.5197502989542556 0.48024970104574427 0.17947133153739409 0.8205286684626059 </TABLE>
    </DEFINITION>
    <DEFINITION>
      <FOR>16</FOR>
      <GIVEN>0</GIVEN>
      <GIVEN>5</GIVEN>
      <GIVEN>9</GIVEN>
      <GIVEN>14</GIVEN>
      <GIVEN>12</GIVEN>
      <GIVEN>2</GIVEN>
      <GIVEN>11</GIVEN>
      <GIVEN>15</GIVEN>
      <TABLE>0.783885912048276 0.21611408795172415 0.10628775849402339 0.8937122415059766 0.4491146546149616 0.5508853453850384 0.6142384593087439 0.3857615406912562 0.6827879932498562 0.3172120067501438 0.5972448742882294 0.40275512571177063 0.9112632434996111 0.08873675650038897 0.6726191229811158 0.3273808770188841 0.5003206399628585 0.4996793600371414 0.010591978740160489 0.9894080212598395 0.15785391539190163 0.8421460846080984 0.6152803691079715 0.38471963089202854 0.6634727128262832 0.33652728717371677 0.4540408395937112 0.5459591604062888 0.1427523294553494 0.8572476705446506 0.7631720484805831 0.23682795151941696 0.24664227795986293 0.7533577220401372 0.5726990612812687 0.42730093871873126 0.058768512350903156 0.9412314876490968 0.6972257972415812 0.30277420275841876 0.4785996447043763 0.5214003552956238 0.5657885172441183 0.43421148275588184 0.010664974983517938 0.9893350250164821 0.7167724368851571 0.2832275631148429 0.4825524601597317 0.5174475398402683 0.5767294016379962 0.4232705983620037 0.47472713798334415 0.5252728620166559 0.4863284313016676 0.5136715686983324 0.41512794247307816 0.5848720575269217 0.0742931286918644 0.9257068713081356 0.4107991388407391 0.589200861159261 0.9842420548016239 0.015757945198376117 0.37594078367504463 0.6240592163249553 0.5145667570820734 0.4854332429179267 0.4814800234686305 0.5185199765313695 0.351356212594985 0.648643787405015 0.6367586111249806 0.3632413888750195 0.23776210558516003 0.76223789441484 0.8604175424580058 0.13958245754199422 0.2656556497521318 0.7343443502478681 0.5484074857502446 0.45159251424975544 0.7031620391932548 0.2968379608067451 0.7860896048021965 0.21391039519780353 0.34520029513951705 0.654799704860483 0.6839475503584412 0.31605244964155865 0.9731659780525129 0.02683402194748706 0.22334407693043315 0.776655923069567 0.25111419314847844 0.7488858068515216 0.7285660316492991 0.2714339683507008 0.646377769567632 0.3536222304323679 0.3257945186418761 0.674205481358124 0.04022155564352524 0.9597784443564747 0.3307267752780109 0.669273224721989 0.11422932207652844 0.8857706779234715 0.7426427781135253 0.2573572218864746 0.321840846109386 0.678159153890614 0.1872872430053158 0.8127127569946843 0.38668313946421 0.6133168605357899 0.9358849985772585 0.06411500142274147 0.5348065751338842 0.46519342486611576 0.5768229043077409 0.42317709569225914 0.687129220066515 0.31287077993348494 0.906762424616377 0.09323757538362289 0.46395244510496314 0.5360475548950367 0.5112346527133561 0.4887653472866439 0.3333565296067751 0.666643470393225 0.9460077771822684 0.053992222817731673 0.5942949612567362 0.4057050387432638 0.3354673962640445 0.6645326037359555 0.6142658668522499 0.38573413314775007 0.06596569693500967 0.9340343030649904 0.9694761396464866 0.030523860353513427 0.7295344315969853 0.27046556840301467 0.5094332230368901 0.4905667769631099 0.3292426196370875 0.6707573803629125 0.9730737882103747 0.02692621178962528 0.3092815266457203 0.6907184733542796 0.65531494937705 0.34468505062294985 0.6243855463509225 0.37561445364907753 0.6253682363779905 0.3746317636220094 0.08641244470666995 0.91358755529333 0.3878042184652443 0.6121957815347555 0.13787665508770125 0.8621233449122987 0.4708959419789195 0.5291040580210805 0.5044083307599623 0.4955916692400377 0.5729961331872032 0.42700386681279684 0.5136430410489025 0.48635695895109743 0.4596113649916824 0.5403886350083175 0.4227899154358035 0.5772100845641965 0.3637417416956817 0.6362582583043184 0.6969856582652006 0.3030143417347993 0.2423059787346134 0.7576940212653865 0.7036719723620658 0.2963280276379342 0.6242527750323492 0.37574722496765073 0.24688248681660702 0.7531175131833929 0.38996933765076086 0.6100306623492392 0.6371989155074708 0.36280108449252924 0.409865581482291 0.5901344185177091 0.49705932229125055 0.5029406777087494 0.907776085547811 0.09222391445218898 0.9579813490913864 0.042018650908613515 0.9197416491419308 0.0802583508580692 0.8779030381254541 0.1220969618745459 0.6629179486321407 0.3370820513678593 0.3808310109155968 0.6191689890844031 0.662183365475091 0.33781663452490895 0.12513647115673326 0.8748635288432667 0.7345117558188559 0.26548824418114414 0.5548832864739478 0.4451167135260522 0.22324531941369538 0.7767546805863046 0.32257657614393476 0.6774234238560651 0.6718984309105004 0.3281015690894996 0.2942318236407966 0.7057681763592035 0.5057380152077031 0.4942619847922969 0.6005660046786806 0.39943399532131935 0.8710271163547276 0.1289728836452724 0.6143709190895911 0.38562908091040893 0.503463091855847 0.49653690814415297 0.4863267041057731 0.5136732958942269 0.7357105606879158 0.2642894393120842 0.9604155287739863 0.039584471226013704 0.7357551418071755 0.26424485819282445 0.15456620255402792 0.845433797445972 0.561963440657424 0.43803655934257596 0.5398659682831913 0.46013403171680867 0.8530605467756602 0.1469394532243397 0.450019724659151 0.549980275340849 0.5907659041409554 0.4092340958590447 0.7356049353449191 0.26439506465508084 0.32814510086987575 0.6718548991301242 0.2672067055546096 0.7327932944453904 0.6900113896222748 0.30998861037772507 0.7694949635395116 0.2305050364604884 0.6872065903718136 0.31279340962818636 0.3928850183242983 0.6071149816757017 0.4038180124507204 0.5961819875492795 0.5992926326045374 0.40070736739546253 0.2065287145360168 0.7934712854639832 0.5334056564027685 0.4665943435972314 0.7262737228092667 0.27372627719073334 0.3244350080057157 0.6755649919942843 0.8027329843063223 0.1972670156936777 0.2219941022878547 0.7780058977121453 0.7854285876527523 0.21457141234724766 0.5788897561245757 0.42111024387542423 0.6949479953250444 0.3050520046749556 0.25575274270822984 0.7442472572917701 0.2566403555059284 0.7433596444940717 0.9071429986756971 0.09285700132430288 0.30641225272487965 0.6935877472751203 0.5120795502817554 0.4879204497182446 0.4970650850353378 0.5029349149646621 0.5071507304175252 0.4928492695824747 0.6658723912563211 0.334127608743679 0.884693993499092 0.11530600650090804 0.644181435526843 0.35581856447315685 0.7841229449080463 0.2158770550919536 0.9474712608423681 0.05252873915763191 0.5093555036777906 0.4906444963222094 0.4521046549645822 0.5478953450354179 0.018763032432161805 0.9812369675678382 0.6375607351652498 0.3624392648347502 0.15545683649675315 0.8445431635032469 0.4552631171153314 0.5447368828846686 0.37928138416466634 0.6207186158353337 0.5194947027244284 0.48050529727557156 0.7491566156963136 0.25084338430368636 0.37992361921054846 0.6200763807894516 0.20196820306437258 0.7980317969356274 0.4180448574219212 0.5819551425780787 0.5178922979268061 0.48210770207319387 0.17652673183777362 0.8234732681622263 0.38129056576862197 0.6187094342313779 0.28724031680493184 0.7127596831950682 0.6952380943755041 0.3047619056244959 0.3500040721013392 0.6499959278986608 0.3845654859278725 0.6154345140721276 0.5473054410384384 0.4526945589615615 0.5507092685471856 0.4492907314528144 0.03106412199038674 0.9689358780096132 0.5241216158939696 0.47587838410603034 0.5093187763734032 0.4906812236265968 0.4893518163409985 0.5106481836590016 0.5982585861255921 0.40174141387440776 0.670865151325368 0.329134848674632 0.5464279828944287 0.45357201710557127 0.6560097394652458 0.3439902605347543 0.6471512072405431 0.3528487927594569 0.5141086738113977 0.4858913261886023 0.31997124295285895 0.680028757047141 0.5176438859398009 0.4823561140601991 0.4204296800238885 0.5795703199761116 0.23800570545828048 0.7619942945417195 0.26229952539651014 0.73770047460349 0.5465484263647876 0.4534515736352124 0.6025817328012479 0.39741826719875206 0.177714403101393 0.822285596898607 0.5666702505741782 0.4333297494258218 0.31600106000928824 0.6839989399907117 0.43039257098804845 0.5696074290119515 0.4247071345813618 0.5752928654186383 0.20443197264946744 0.7955680273505326 0.5480282785033657 0.4519717214966343 0.7062315611476966 0.29376843885230336 0.7394323125206667 0.26056768747933334 0.2801531011026903 0.7198468988973097 0.4497416384449389 0.550258361555061 0.7490256664360497 0.25097433356395027 0.4299823644235861 0.5700176355764138 0.5451093729267822 0.45489062707321787 0.7028908007117467 0.2971091992882533 0.8047938250663386 0.1952061749336614 0.4365667620805331 0.5634332379194669 0.46100925232170686 0.538990747678293 0.708591606829055 0.2914083931709451 0.1905850767797621 0.8094149232202379 0.2810116467858716 0.7189883532141284 0.9143500564522555 0.08564994354774452 0.09782170771415966 0.9021782922858403 0.8270421900629791 0.1729578099370209 0.5308034536840192 0.4691965463159809 0.7875085308632299 0.21249146913677017 0.27633904392135106 0.723660956078649 0.659814987518624 0.3401850124813761 0.2335215138762117 0.7664784861237883 0.38611911498848633 0.6138808850115137 0.5401853090629096 0.45981469093709043 0.6866854333473166 0.31331456665268337 0.805819305545084 0.194180694454916 0.5546589769055053 0.4453410230944948 0.3766383872042825 0.6233616127957174 0.3828919890248931 0.6171080109751069 0.4874546108726728 0.5125453891273273 0.5752427914913324 0.4247572085086676 0.4329307347313637 0.5670692652686364 0.5575109487407868 0.4424890512592132 0.4888133083970854 0.5111866916029145 0.06425824497043844 0.9357417550295616 0.43428089789983015 0.5657191021001698 0.5172512024382367 0.4827487975617632 0.398663662200647 0.601336337799353 0.7279328178298561 0.2720671821701439 0.7467054814443358 0.25329451855566415 0.3580923866054801 0.64190761339452 0.3963485572621587 0.6036514427378413 0.5545789463611808 0.4454210536388192 0.17463281866304273 0.8253671813369574 0.3249703031472368 0.6750296968527633 0.6162813481805915 0.3837186518194084 0.6767705357473079 0.32322946425269217 0.645248731523872 0.354751268476128 0.5593657643996018 0.44063423560039805 0.2938664764854677 0.7061335235145323 0.205083219036881 0.794916780963119 0.3658694277417878 0.6341305722582122 0.45560585275598314 0.5443941472440169 </TABLE>
    </DEFINITION>
    <DEFINITION>
      <FOR>17</FOR>
      <GIVEN>1</GIVEN>
      <GIVEN>3</GIVEN>
      <GIVEN>9</GIVEN>
      <GIVEN>10</GIVEN>
      <GIVEN>16</GIVEN>
      <GIVEN>12</GIVEN>
      <GIVEN>2</GIVEN>
      <GIVEN>8</GIVEN>
      <GIVEN>11</GIVEN>
      <GIVEN>15</GIVEN>
      <TABLE>0.4846149745728862 0.5153850254271138 0.4299096734189112 0.5700903265810888 0.9812847328490913 0.01871526715090866 0.21673986782894844 0.7832601321710516 0.4478807427285571 0.552119257271443 0.38568918672847907 0.6143108132715209 0.0888359052789166 0.9111640947210834 0.5311769356991382 0.4688230643008618 0.4078471214064723 0.5921528785935277 0.8912076691642028 0.10879233083579723 0.9161908164062198 0.08380918359378019 0.23180466322643564 0.7681953367735643 0.8117903370766976 0.1882096629233024 0.02268450048592098 0.977315499514079 0.3080459254989851 0.691954074501015 0.7463023524879414 0.2536976475120586 0.4558211762050603 0.5441788237949396 0.27894136908026607 0.721058630919734 0.6250822195392154 0.37491778046078456 0.3819334027176228 0.6180665972823771 0.5431943405579235 0.4568056594420766 0.4972152182410713 0.5027847817589287 0.5294410493886942 0.47055895061130587 0.7596307656891771 0.2403692343108228 0.39865550029358454 0.6013444997064155 0.5122752790240824 0.48772472097591757 0.801343435720708 0.198656564279292 0.8496172560315225 0.15038274396847753 0.5425448080466196 0.4574551919533803 0.13024569264334604 0.8697543073566539 0.43572903817630326 0.5642709618236967 0.5185505687007557 0.48144943129924433 0.36349120939647167 0.6365087906035282 0.941737599000571 0.058262400999429066 0.17999264690237332 0.8200073530976266 0.50114863508648 0.49885136491352 0.6401066834339072 0.35989331656609275 0.3990998013711642 0.6009001986288358 0.05438565380784318 0.9456143461921568 0.3060390592062618 0.6939609407937382 0.16323747464048002 0.83676252535952 0.5639353717825226 0.4360646282174774 0.10405957502608952 0.8959404249739105 0.3155064595249591 0.6844935404750409 0.21908950812457775 0.7809104918754223 0.9255027325125772 0.07449726748742286 0.1007921427886914 0.8992078572113086 0.6704676982563611 0.32953230174363884 0.3357714223723194 0.6642285776276806 0.8660839134687327 0.1339160865312673 0.5232353421159488 0.4767646578840512 0.18822678474530424 0.8117732152546957 0.7761836574879063 0.22381634251209373 0.6414684261676802 0.35853157383231987 0.04181797978773008 0.95818202021227 0.24534052720304853 0.7546594727969514 0.827028825597861 0.17297117440213902 0.027229501077984965 0.9727704989220151 0.8301306427107812 0.16986935728921873 0.3396831910369408 0.6603168089630592 0.2583123265207029 0.7416876734792971 0.3898351454871252 0.6101648545128748 0.030893336985337395 0.9691066630146626 0.8984597262384572 0.1015402737615429 0.5034905247089143 0.4965094752910857 0.4059330391539651 0.5940669608460349 0.6184437447620976 0.38155625523790243 0.32387442058497395 0.6761255794150259 0.40216598498348916 0.5978340150165108 0.3492076598399291 0.6507923401600709 0.6940946260124173 0.30590537398758266 0.4283413077096754 0.5716586922903246 0.8777208416110627 0.12227915838893728 0.31534073889338177 0.6846592611066182 0.5387877063152446 0.4612122936847553 0.5554234490911861 0.44457655090881393 0.8049582214507847 0.19504177854921537 0.7643899236086393 0.23561007639136064 0.368678314289304 0.6313216857106961 0.7826490252561353 0.2173509747438647 0.5119313333282979 0.4880686666717021 0.4955227075083951 0.5044772924916049 0.32638868601015747 0.6736113139898424 0.5360688165838853 0.46393118341611483 0.26245531874992606 0.7375446812500739 0.2921664804339368 0.7078335195660632 0.446241931710605 0.553758068289395 0.07363050277321047 0.9263694972267895 0.5096533686394265 0.49034663136057355 0.5409882923584547 0.45901170764154525 0.19879754837945646 0.8012024516205436 0.5303534678751796 0.4696465321248204 0.029043530148111927 0.9709564698518881 0.47108414047197616 0.5289158595280238 0.8626713897225472 0.13732861027745283 0.40817138290508814 0.5918286170949119 0.5577430532343699 0.4422569467656301 0.7668149709350126 0.23318502906498745 0.04066780074559587 0.9593321992544042 0.5241395425134685 0.47586045748653155 0.6033510102240234 0.39664898977597657 0.20906550890296483 0.7909344910970352 0.7765377507490697 0.22346224925093028 0.8933392317160764 0.10666076828392351 0.0891614848486243 0.9108385151513757 0.2691089737739257 0.7308910262260744 0.7926677733452934 0.2073322266547066 0.576790059718448 0.42320994028155196 0.36302554948176285 0.6369744505182371 0.456706064605936 0.543293935394064 0.4069925239537662 0.5930074760462338 0.42401329989490294 0.5759867001050971 0.28820762362124197 0.7117923763787581 0.8876554205685651 0.11234457943143493 0.7249446711055046 0.27505532889449547 0.2612281112574287 0.7387718887425713 0.22147210030727446 0.7785278996927254 0.3938297480072543 0.6061702519927459 0.42866588430945285 0.5713341156905472 0.7480316854592188 0.2519683145407812 0.8194669601547767 0.18053303984522334 0.46723512751136986 0.5327648724886302 0.09224951916069023 0.9077504808393098 0.7454163339650598 0.2545836660349403 0.426381162182726 0.5736188378172741 0.5403431321200026 0.45965686787999743 0.5461969463340288 0.4538030536659712 0.545445728097601 0.45455427190239905 0.9005312319657228 0.0994687680342772 0.49575178414617566 0.5042482158538244 0.1788478298979362 0.8211521701020638 0.17371365553266668 0.8262863444673333 0.24970661070580272 0.7502933892941973 0.7397547893495648 0.26024521065043515 0.6042017500620099 0.39579824993799007 0.4407412131430772 0.5592587868569227 0.37589819993579776 0.6241018000642021 0.4775785056053253 0.5224214943946747 0.49761327356799323 0.5023867264320068 0.399873583980381 0.600126416019619 0.04140407747306079 0.9585959225269393 0.898999919534816 0.10100008046518408 0.30835067492984847 0.6916493250701515 0.4376953863733197 0.5623046136266804 0.6652358881740456 0.3347641118259544 0.32864310627583676 0.6713568937241633 0.656458706783016 0.343541293216984 0.1531104670515051 0.8468895329484949 0.3488363925863869 0.6511636074136131 0.41261173998559925 0.5873882600144007 0.35866479913747873 0.6413352008625213 0.702196229822321 0.297803770177679 0.26070061514632287 0.7392993848536771 0.30497715480402054 0.6950228451959793 0.5635370818585093 0.4364629181414908 0.4269425113850839 0.573057488614916 0.6338669318084671 0.36613306819153296 0.25605051240541843 0.7439494875945817 0.08746252902848152 0.9125374709715185 0.5823402309473669 0.41765976905263313 0.5295851929783258 0.47041480702167404 0.417704878919976 0.582295121080024 0.9047105049459007 0.09528949505409938 0.45961026933610455 0.5403897306638955 0.6242266515552138 0.3757733484447861 0.29163641479253216 0.7083635852074678 0.42801235370060264 0.5719876462993975 0.3868760690441817 0.6131239309558183 0.5395942092940913 0.46040579070590876 0.8718809110959138 0.1281190889040862 0.8668192034682993 0.1331807965317007 0.2699836595746939 0.7300163404253062 0.9836562206471625 0.01634377935283748 0.8473300149389534 0.15266998506104654 0.050676075875612486 0.9493239241243875 0.4885805600291237 0.5114194399708764 0.5288577024046188 0.4711422975953813 0.715820396837538 0.28417960316246205 0.39013671357813345 0.6098632864218666 0.042224174759168884 0.9577758252408312 0.3509931561553051 0.649006843844695 0.8089481485549543 0.19105185144504563 0.11528433058860175 0.8847156694113982 0.47323141025379256 0.5267685897462074 0.6201249119195327 0.37987508808046744 0.4691501214106441 0.5308498785893558 0.5291493426602797 0.47085065733972026 0.3341279982204276 0.6658720017795724 0.39960640722726104 0.600393592772739 0.4630462440804887 0.5369537559195113 0.7002551394992217 0.29974486050077837 0.9235859858036534 0.0764140141963466 0.13092113049325962 0.8690788695067404 0.13712377753208382 0.8628762224679162 0.48127081929444265 0.5187291807055573 0.9992970446558286 0.0007029553441714063 0.6563451203602529 0.343654879639747 0.39350528939487445 0.6064947106051255 0.3830071050217659 0.6169928949782342 0.9144887374795349 0.08551126252046513 0.1682768929268025 0.8317231070731975 0.4940986768399896 0.5059013231600104 0.6088331205388202 0.3911668794611798 0.4925413898463242 0.5074586101536759 0.5531486097512975 0.4468513902487025 0.9337338097727228 0.06626619022727723 0.6233464357895819 0.3766535642104181 0.343306211801663 0.656693788198337 0.6257638144739329 0.3742361855260671 0.6354066303455705 0.3645933696544294 0.0050755406056153625 0.9949244593943847 0.20975655182297198 0.7902434481770281 0.6757789824851076 0.32422101751489235 0.01761510849778678 0.9823848915022132 0.6861784491627275 0.3138215508372724 0.666067172834035 0.333932827165965 0.3420761652141289 0.657923834785871 0.8430760370831645 0.15692396291683555 0.7958153776760537 0.20418462232394632 0.47147151789144975 0.5285284821085502 0.583239118330599 0.416760881669401 0.7082102142405108 0.2917897857594892 0.07237540350636376 0.9276245964936363 0.19983751690370016 0.8001624830962998 0.5647271215838139 0.43527287841618606 0.7515026651418807 0.2484973348581193 0.5288933543749271 0.47110664562507293 0.25661982722554083 0.7433801727744592 0.5574533063747777 0.4425466936252223 0.5058280483374822 0.4941719516625178 0.04690176976971331 0.9530982302302867 0.47279608938983786 0.5272039106101623 0.406280993260236 0.5937190067397641 0.19055771791244824 0.8094422820875516 0.1745795040702869 0.8254204959297131 0.9738107234312402 0.026189276568759832 0.6971711761242463 0.30282882387575366 0.2886139443021545 0.7113860556978455 0.05808748285174546 0.9419125171482545 0.977630923236547 0.022369076763452955 0.33792891008682063 0.6620710899131794 0.5196848352023998 0.4803151647976001 0.8381403294402435 0.16185967055975647 0.3296734981855527 0.6703265018144473 0.3985266193820812 0.6014733806179188 0.40763876657455045 0.5923612334254496 0.3921569962760119 0.6078430037239881 0.2799211865256412 0.7200788134743589 0.5086351973241745 0.49136480267582544 0.8516716779013538 0.14832832209864621 0.7428289015850791 0.2571710984149209 0.4456143152530157 0.5543856847469844 0.5355863408431089 0.4644136591568911 0.6732534305498955 0.3267465694501045 0.3385805625201722 0.6614194374798278 0.6456355128961578 0.3543644871038423 0.0719257903888936 0.9280742096111064 0.2167425873161023 0.7832574126838977 0.2478663592822752 0.7521336407177247 0.6947284177899996 0.30527158221000034 0.5341521188085251 0.46584788119147486 0.5868865614410631 0.4131134385589369 0.40512330132971336 0.5948766986702867 0.9371484342081702 0.06285156579182988 0.843743488144919 0.15625651185508102 0.48900089412055303 0.5109991058794471 0.5646134744066041 0.43538652559339586 0.0340543885646587 0.9659456114353413 0.022800636797438663 0.9771993632025613 0.11013361335424346 0.8898663866457566 0.48227153914354864 0.5177284608564514 0.09252658659930559 0.9074734134006944 0.8674610046275281 0.13253899537247193 0.44360690608866793 0.5563930939113321 0.7084156465793436 0.29158435342065636 0.5089059318758593 0.49109406812414075 0.2581593557567232 0.7418406442432768 0.29700800540950156 0.7029919945904984 0.25362802996211314 0.7463719700378868 0.5043210291190724 0.49567897088092766 0.40193523391290764 0.5980647660870922 0.6325967607192313 0.36740323928076857 0.5846934565110095 0.4153065434889905 0.570896257375898 0.4291037426241021 0.3662159481305552 0.6337840518694449 0.9153268005635764 0.08467319943642362 0.8513134280919479 0.14868657190805215 0.5804398527819356 0.41956014721806456 0.19866746360641183 0.8013325363935881 0.7816282266869381 0.218371773313062 0.5424945121869756 0.45750548781302436 0.46879264694040135 0.5312073530595987 0.6365507272796704 0.3634492727203295 0.1437544074149969 0.856245592585003 0.6601953347642392 0.3398046652357607 0.8771092761968284 0.12289072380317156 0.8431885080507292 0.1568114919492709 0.8479907871579027 0.15200921284209729 0.5535274539695502 0.4464725460304498 0.47585738973045894 0.524142610269541 0.34290549242150886 0.6570945075784912 0.8087526506814896 0.19124734931851037 0.971842076710665 0.02815792328933499 0.9471763268075994 0.0528236731924006 0.6736426943949688 0.3263573056050312 0.373873101569503 0.626126898430497 0.7496880310772791 0.2503119689227208 0.4601751317804464 0.5398248682195537 0.59713918264413 0.40286081735587004 0.49592632581644697 0.5040736741835529 0.3543063772624538 0.6456936227375463 0.302759261943633 0.697240738056367 0.2800893209343788 0.7199106790656212 0.47425939416539237 0.5257406058346076 0.9090093163676962 0.09099068363230375 0.5864538856707173 0.41354611432928257 0.24177323589127603 0.7582267641087239 0.4527637653403294 0.5472362346596705 0.5920323364011497 0.4079676635988502 0.8362451109319935 0.16375488906800642 0.7214900444998202 0.2785099555001797 0.28218453111984937 0.7178154688801507 0.5396365348739071 0.46036346512609294 0.40957824395509085 0.5904217560449091 0.267132512294306 0.732867487705694 0.48077228536868816 0.5192277146313117 0.3141003663953445 0.6858996336046556 0.5886776734494134 0.41132232655058665 0.45144456882155326 0.5485554311784467 0.7263121206665853 0.27368787933341465 0.4989036754093938 0.5010963245906063 0.16439067107927613 0.8356093289207239 0.6244373118322619 0.37556268816773813 0.4856789751147507 0.5143210248852492 0.35267715520017756 0.6473228447998224 0.8337543828547318 0.16624561714526825 0.15678187685724856 0.8432181231427515 0.5064838653728295 0.4935161346271706 0.5768655899775594 0.4231344100224406 0.6116217640788358 0.3883782359211641 0.7816100002043737 0.21838999979562634 0.20091590627314757 0.7990840937268524 0.5116639724835617 0.4883360275164383 0.40285370999332837 0.5971462900066716 0.40086926183018523 0.5991307381698147 0.5464598777464991 0.4535401222535009 0.2783176652713447 0.7216823347286553 0.49083961420745953 0.5091603857925405 0.31302962147576585 0.6869703785242341 0.21839554691824586 0.7816044530817541 0.5589547213477437 0.4410452786522563 0.6208217989311369 0.3791782010688631 0.904833434585987 0.09516656541401304 0.3996608653319282 0.6003391346680718 0.5410773816840937 0.45892261831590625 0.8058437286324814 0.1941562713675186 0.26322289872609583 0.7367771012739042 0.5942479689558364 0.4057520310441635 0.032667398806683234 0.9673326011933168 0.11688972054115339 0.8831102794588466 0.9034849495001589 0.09651505049984113 0.3167436190130779 0.6832563809869221 0.8656578839554168 0.13434211604458318 0.1915912129981238 0.8084087870018762 0.5767211939254941 0.42327880607450596 0.013622602087290473 0.9863773979127095 0.5008545536537995 0.49914544634620056 0.8771603890763665 0.12283961092363345 0.31441754018646195 0.6855824598135382 0.3067689635913138 0.6932310364086862 0.8830145512169928 0.11698544878300708 0.6477489928366791 0.3522510071633209 0.40489189969873535 0.5951081003012647 0.1686107927832786 0.8313892072167213 0.6410606679242391 0.3589393320757609 0.4442235047176861 0.5557764952823139 0.6000134761544254 0.3999865238455746 0.5168815088646755 0.4831184911353244 0.8221014669540263 0.1778985330459738 0.06975262739430502 0.930247372605695 0.2405502518583249 0.7594497481416751 0.49580873561987393 0.5041912643801261 0.7230184256648168 0.2769815743351832 0.945999217185908 0.05400078281409201 0.44407782094716086 0.5559221790528391 0.9340016291450551 0.0659983708549449 0.4761713238106296 0.5238286761893705 0.4753687932592556 0.5246312067407444 0.6883605813871256 0.31163941861287425 0.8751718384655642 0.12482816153443577 0.1952151036413555 0.8047848963586445 0.7885173784654826 0.21148262153451733 0.30670218939486055 0.6932978106051395 0.15132562330297927 0.8486743766970206 0.039613663207651945 0.9603863367923481 0.8572094204050278 0.14279057959497224 0.8321355809537587 0.16786441904624133 0.579044738753434 0.4209552612465661 0.9849354770458906 0.015064522954109455 0.3758708615567835 0.6241291384432165 0.6353052232599168 0.36469477674008327 0.11073953885438684 0.8892604611456132 0.374422054569153 0.625577945430847 0.34995467780341616 0.6500453221965838 0.12187361030746625 0.8781263896925338 0.28091478638672024 0.7190852136132797 0.8632999465497939 0.13670005345020608 0.6529363569528367 0.3470636430471633 0.6599554965570846 0.34004450344291526 0.10710408093599591 0.8928959190640041 0.3805061730561854 0.6194938269438146 0.43026532028973147 0.5697346797102686 0.6373573470232043 0.36264265297679565 0.11717837290141511 0.8828216270985849 0.7159416478198578 0.2840583521801422 0.5533393804433028 0.44666061955669717 0.49994412215644274 0.5000558778435573 0.4753274414791811 0.5246725585208191 0.4812037503172372 0.5187962496827627 0.37298321414271657 0.6270167858572835 0.11162803764518091 0.8883719623548191 0.716511989725721 0.283488010274279 0.9624072458323841 0.03759275416761589 0.4886999820086631 0.5113000179913368 0.49002953765956153 0.5099704623404384 0.7260851007980046 0.27391489920199547 0.45324820105218055 0.5467517989478194 0.6651266882275465 0.3348733117724536 0.6158828415024657 0.3841171584975343 0.32080406385789495 0.679195936142105 0.3028839184000343 0.6971160815999656 0.6878857297491583 0.31211427025084165 0.5557041686877839 0.44429583131221606 0.5929756343044433 0.4070243656955568 0.13744325403244104 0.8625567459675589 0.21034334860044251 0.7896566513995574 0.9962174847799146 0.003782515220085451 0.4316259759763637 0.5683740240236362 0.6776749539878505 0.32232504601214945 0.8050079165173164 0.19499208348268365 0.435484764578208 0.5645152354217919 0.2491224933763386 0.7508775066236614 0.4278896347421533 0.5721103652578468 0.34432529575820875 0.6556747042417912 0.6079654718597622 0.3920345281402377 0.02567082048252307 0.9743291795174769 0.9505005169346148 0.049499483065385215 0.6674841519461477 0.33251584805385226 0.24332343996249828 0.7566765600375017 0.705001355258581 0.294998644741419 0.5406478378178934 0.4593521621821066 0.5345294154562229 0.46547058454377715 0.206781616374419 0.793218383625581 0.5715734860917309 0.4284265139082691 0.37058257541052336 0.6294174245894766 0.47711385924745187 0.5228861407525482 0.8057087841696281 0.19429121583037182 0.2974214940010571 0.7025785059989429 0.45895897888781706 0.5410410211121829 0.6273061097074433 0.37269389029255684 0.4380564549422698 0.5619435450577301 0.4493765163944823 0.5506234836055178 0.7646285539987405 0.2353714460012595 0.6880566741643167 0.31194332583568324 0.1382851134873808 0.8617148865126192 0.0914449161403147 0.9085550838596853 0.5309177578732596 0.46908224212674043 0.791617361377091 0.20838263862290898 0.7389900582912691 0.2610099417087308 0.6140144851224797 0.3859855148775203 0.3981238436925392 0.6018761563074608 0.10998731641495262 0.8900126835850474 0.8215716601645088 0.17842833983549117 0.4315403023792392 0.568459697620761 0.7108543038396443 0.2891456961603557 0.6042932860245993 0.3957067139754007 0.6606508896956882 0.3393491103043118 0.7604775986628759 0.23952240133712416 0.8519853063422873 0.14801469365771255 0.5064670019669927 0.49353299803300726 0.17528509431971318 0.8247149056802868 0.2444841833745967 0.7555158166254032 0.30756384904841155 0.6924361509515883 0.6312425147097378 0.36875748529026214 0.21946101087177197 0.7805389891282281 0.043646412344455064 0.9563535876555449 0.8380785492340009 0.1619214507659991 0.44785041920290974 0.5521495807970903 0.49927024133406905 0.500729758665931 0.6892891280365666 0.3107108719634334 0.3290323685104862 0.6709676314895139 0.8324623367287668 0.16753766327123318 0.0998062845771943 0.9001937154228057 0.3474648320177462 0.6525351679822537 0.4315431016076035 0.5684568983923964 0.46540025804419777 0.5345997419558022 0.6555177909447781 0.34448220905522187 0.1645902712644036 0.8354097287355963 0.264732340918187 0.735267659081813 0.42407949474452067 0.5759205052554793 0.8857345540785236 0.1142654459214763 0.5383777752113758 0.46162222478862414 0.47310145525155484 0.5268985447484452 0.5460424612762101 0.45395753872378974 0.26245036195084237 0.7375496380491576 0.5609473875108755 0.4390526124891245 0.1459881621267779 0.8540118378732221 0.7212675474727887 0.2787324525272113 0.3030778259275903 0.6969221740724096 0.8347842492593799 0.16521575074062012 0.6634184807116443 0.33658151928835567 0.44423669567674334 0.5557633043232567 0.2985481594394308 0.7014518405605692 0.5380299268776442 0.46197007312235594 0.4037720546053947 0.5962279453946053 0.5790423020448047 0.4209576979551954 0.028637430781625783 0.9713625692183743 0.48514821042483114 0.5148517895751689 0.5495734265702045 0.4504265734297956 0.6783435818574979 0.3216564181425022 0.38259777676826634 0.6174022232317337 0.948754894954364 0.05124510504563592 0.4436048524156903 0.5563951475843097 0.3946080590597058 0.6053919409402941 0.013978517821313345 0.9860214821786867 0.5144757067525242 0.4855242932474758 0.4632432768179961 0.536756723182004 0.3230554916822377 0.6769445083177623 0.646730342000145 0.35326965799985505 0.7208937710401718 0.27910622895982823 0.29908735293532407 0.7009126470646759 0.145335395052098 0.854664604947902 0.29202318200390337 0.7079768179960966 0.30818084791578076 0.6918191520842192 0.6257621177496591 0.37423788225034094 0.5881996881748421 0.41180031182515797 0.2935606254130298 0.7064393745869703 0.5087065355990039 0.49129346440099597 0.3725836716673026 0.6274163283326974 0.3494467436278666 0.6505532563721335 0.019736172011580778 0.9802638279884193 0.572871837368552 0.42712816263144804 0.06239548834681146 0.9376045116531886 0.53446035988107 0.46553964011892995 0.618276542296835 0.38172345770316496 0.7754530712558927 0.22454692874410728 0.5400474828284428 0.4599525171715571 0.6047655013125441 0.3952344986874559 0.2837831475954001 0.7162168524046 0.7359793931426921 0.2640206068573078 0.3966840114402645 0.6033159885597354 0.8139148349318426 0.1860851650681574 0.20485768656709402 0.7951423134329061 0.11020353743736037 0.8897964625626397 0.618060756746945 0.38193924325305484 0.7831173630161707 0.21688263698382926 0.41628041834919427 0.5837195816508057 0.3569930022060411 0.6430069977939589 0.043967644556710324 0.9560323554432897 0.6330436235172251 0.3669563764827748 0.48322011178311913 0.5167798882168809 0.6856244807075368 0.31437551929246327 0.038661910142102615 0.9613380898578974 0.5767962959647849 0.4232037040352151 0.49272804427142647 0.5072719557285735 0.47321263543484987 0.5267873645651502 0.5711210005493773 0.4288789994506227 0.10260684538567091 0.8973931546143291 0.9079863760851911 0.09201362391480891 0.046909997131455605 0.9530900028685444 0.8574000650462115 0.14259993495378856 0.5500511319824547 0.44994886801754536 0.20490249471750777 0.7950975052824922 0.3184383758677429 0.6815616241322572 0.5789863439564517 0.42101365604354835 0.9725487141634038 0.027451285836596187 0.6931966483544448 0.306803351645555 0.6627374443265542 0.33726255567344576 0.5136963966608838 0.4863036033391161 0.14709140001643697 0.852908599983563 0.7200453437960822 0.27995465620391785 0.4870029855320878 0.5129970144679121 0.14078620317728632 0.8592137968227137 0.41513721142769583 0.5848627885723041 0.8784593475562282 0.12154065244377177 0.9902099269371933 0.009790073062806647 0.033957025952468876 0.9660429740475311 0.6344231216771684 0.3655768783228316 0.9395273552976915 0.060472644702308564 0.6930365201024539 0.30696347989754613 0.22040193754619142 0.7795980624538086 0.7129725808188195 0.28702741918118047 0.5349139306947694 0.4650860693052305 0.46692826028253126 0.5330717397174687 0.828476035318732 0.17152396468126793 0.47763263183894356 0.5223673681610564 0.5955423919361563 0.4044576080638437 0.5118629685461291 0.4881370314538709 0.8167472346998919 0.18325276530010817 0.8557848903562933 0.14421510964370662 0.5057253241246744 0.4942746758753255 0.6772727631609652 0.3227272368390347 0.9980407743344791 0.0019592256655208617 0.7775183796491225 0.22248162035087746 0.7984634910816957 0.20153650891830424 0.6168433037101592 0.3831566962898408 0.49135737913790317 0.5086426208620969 0.5350271638659821 0.46497283613401785 0.4195122439569977 0.5804877560430023 0.1729555276919863 0.8270444723080138 0.5900467961217761 0.4099532038782238 0.6644700985651638 0.3355299014348362 0.8023702485152394 0.19762975148476067 0.4326082880858377 0.5673917119141624 0.6980519256594337 0.30194807434056625 0.05985721351517829 0.9401427864848217 0.041912487826786075 0.958087512173214 0.467674996235417 0.532325003764583 0.780801657077253 0.21919834292274698 0.6437099743652284 0.35629002563477163 0.9960716450327695 0.003928354967230521 0.3089712691868949 0.6910287308131051 0.3707440942357341 0.6292559057642659 0.657872727882493 0.342127272117507 0.41711039581620957 0.5828896041837904 0.8109224065390226 0.18907759346097747 0.7691845048419353 0.2308154951580647 0.6030291905163911 0.3969708094836089 0.8924537535894809 0.10754624641051913 0.051333552564542695 0.9486664474354572 0.7531602481509554 0.24683975184904464 0.673368202046352 0.32663179795364805 0.5886128826010681 0.4113871173989319 0.47200133079169126 0.5279986692083087 0.3584802314415592 0.6415197685584407 0.7692768983221663 0.23072310167783375 0.2622160802977907 0.7377839197022094 0.4589817816261048 0.5410182183738952 0.4505474266880952 0.5494525733119048 0.522244914932074 0.4777550850679259 0.379038207860553 0.620961792139447 0.6345032752056936 0.36549672479430645 0.44013537863388813 0.5598646213661119 0.7685610020567101 0.2314389979432899 0.36082972527074836 0.6391702747292518 0.16019713081859613 0.8398028691814039 0.5738195011896359 0.42618049881036413 0.896311981817294 0.10368801818270611 0.3373876778098633 0.6626123221901368 0.4737516348904849 0.5262483651095151 0.9479251167935072 0.05207488320649282 0.41546171010999927 0.5845382898900007 0.6525632497913564 0.3474367502086437 0.18202148988054787 0.8179785101194521 0.5329576076924673 0.4670423923075327 0.2954806503277541 0.7045193496722458 0.11635418522728211 0.8836458147727179 0.46989353831411923 0.5301064616858807 0.7810709812640106 0.21892901873598938 0.3174465845840918 0.6825534154159083 0.017133984099642192 0.9828660159003578 0.4986421277650623 0.5013578722349378 0.09852636571614573 0.9014736342838543 0.3995975519575677 0.6004024480424324 0.6528881041930751 0.34711189580692486 0.6647183436816988 0.3352816563183012 0.31876461880800877 0.6812353811919913 0.3222122755967214 0.6777877244032786 0.5311739858906641 0.4688260141093358 0.756165938614662 0.24383406138533803 0.41636851204989633 0.5836314879501037 0.34381193299882223 0.6561880670011777 0.9227408022289502 0.0772591977710497 0.056997562833510027 0.94300243716649 0.43973603085134094 0.5602639691486591 0.8054991377617535 0.19450086223824645 0.16314405017396313 0.8368559498260368 0.7596006013972746 0.2403993986027255 0.6120879080774767 0.38791209192252335 0.32096503034050317 0.6790349696594968 0.5162150268633304 0.48378497313666946 0.9283494517493551 0.07165054825064489 0.592216794663588 0.40778320533641205 0.6467950913707105 0.3532049086292896 0.5724493983231308 0.42755060167686926 0.04564223610650325 0.9543577638934967 0.513242120079413 0.486757879920587 0.4685115931030014 0.5314884068969986 0.781007925452212 0.21899207454778802 0.04657979996487689 0.9534202000351231 0.9508626829937581 0.049137317006241896 0.2860286645687456 0.7139713354312545 0.21232456797931146 0.7876754320206886 0.30718490358314876 0.6928150964168512 0.35155666378110473 0.6484433362188954 0.4989467801336358 0.5010532198663642 0.45364140998881 0.5463585900111901 0.3727175733961442 0.6272824266038558 0.6483667674771291 0.35163323252287104 0.17541876243449833 0.8245812375655017 0.762567969806185 0.23743203019381506 0.14107767056669007 0.8589223294333099 0.9652999027745601 0.034700097225439853 0.35761241849220715 0.6423875815077928 0.23445050121176822 0.7655494987882318 0.7094779896592337 0.2905220103407662 0.8686076940658698 0.1313923059341302 0.7496314403940982 0.25036855960590176 0.5448819154387504 0.45511808456124964 0.32056036880032174 0.6794396311996782 0.554141185044896 0.4458588149551041 0.4245709688813465 0.5754290311186535 0.4243242174399026 0.5756757825600973 0.224742496370724 0.775257503629276 0.2886153087764768 0.7113846912235232 0.17830137719269237 0.8216986228073078 0.7483720205771898 0.2516279794228103 0.8157688742854513 0.18423112571454864 0.5031588834899531 0.4968411165100468 0.27230055333175973 0.7276994466682403 0.6578555590864852 0.34214444091351487 0.1167593541803112 0.8832406458196888 0.2819750523394719 0.7180249476605282 0.16297029556261236 0.8370297044373877 0.18528386043144748 0.8147161395685525 0.4333971994911736 0.5666028005088265 0.86078443723117 0.13921556276883 0.510424087647714 0.4895759123522861 0.7718609904220801 0.22813900957791988 0.414270986841582 0.585729013158418 0.8209477541004928 0.17905224589950716 0.5526397499379333 0.44736025006206664 0.4150243336755024 0.5849756663244976 0.46105518849865973 0.5389448115013402 0.588392788982244 0.411607211017756 0.5759133599132402 0.42408664008675984 0.16952191538529768 0.8304780846147022 0.47895018600092015 0.5210498139990799 0.78290267536424 0.21709732463576 0.562224085598659 0.43777591440134095 0.3965653672660976 0.6034346327339024 0.13041764722229715 0.8695823527777029 0.3950050321740961 0.6049949678259038 0.23222885016028255 0.7677711498397174 0.9638527516080623 0.03614724839193777 0.011971656387398248 0.9880283436126017 0.6224526425154676 0.3775473574845324 0.7219222972044598 0.2780777027955403 0.3607562241331651 0.6392437758668349 0.9924953888725044 0.007504611127495574 0.7947267139720358 0.20527328602796413 0.8290382045183575 0.17096179548164248 0.6195737229828125 0.38042627701718734 0.17940804935967578 0.8205919506403242 0.21236086173732463 0.7876391382626754 0.9543032574148886 0.04569674258511137 0.24355914329107065 0.7564408567089294 0.6161095197973306 0.38389048020266925 0.06162014363845915 0.9383798563615409 0.44668523472977467 0.5533147652702254 0.5556692573442945 0.4443307426557055 0.10017600759016979 0.8998239924098302 0.5324757742685732 0.4675242257314268 0.5870489594060911 0.41295104059390886 0.10038120023491989 0.8996187997650802 0.352690980253068 0.647309019746932 0.4183182967290229 0.5816817032709771 0.32158690414054153 0.6784130958594584 0.4803308805441347 0.5196691194558654 0.46065785474983767 0.5393421452501624 0.8026838715265596 0.1973161284734404 0.4501852808401739 0.549814719159826 0.8729066704980003 0.12709332950199978 0.9687958248769778 0.031204175123022232 0.11674641188622562 0.8832535881137744 0.7844194900014034 0.2155805099985966 0.4439687264203056 0.5560312735796944 0.7685154430016758 0.23148455699832401 0.5066656556331045 0.4933343443668955 0.9163726985921111 0.08362730140788888 0.4980073060670954 0.5019926939329045 0.7250045289123735 0.27499547108762645 0.7121228268184813 0.28787717318151873 0.4959976169436529 0.5040023830563471 0.35152765191797425 0.6484723480820258 0.3175125214375019 0.6824874785624981 0.855168923078476 0.14483107692152408 0.08538274409738898 0.914617255902611 0.2677876616342347 0.7322123383657653 0.6706940011897818 0.3293059988102181 0.4256606473273548 0.5743393526726451 0.3439080409147263 0.6560919590852737 0.5533906983936051 0.44660930160639495 0.527395118518899 0.4726048814811009 0.32120889037862127 0.6787911096213787 0.6418283095888339 0.35817169041116614 0.7190591133341645 0.28094088666583555 0.8615600788786236 0.13843992112137643 0.15558993841059424 0.8444100615894058 0.7325962843815755 0.2674037156184244 0.964636706995526 0.03536329300447405 0.3144929594208476 0.6855070405791523 0.9825841185662632 0.01741588143373679 0.5115872274793914 0.4884127725206086 0.24578911131566267 0.7542108886843373 0.8420075045170919 0.1579924954829081 0.23667590032652305 0.7633240996734769 0.00019954823713171373 0.9998004517628682 0.6938907459016926 0.3061092540983073 0.5491973140403098 0.45080268595969025 0.8425652291269454 0.1574347708730546 0.14119475966642428 0.8588052403335757 0.7352288572590115 0.26477114274098856 0.3929018253763304 0.6070981746236696 0.5651023581180983 0.4348976418819018 0.19720885622833872 0.8027911437716613 0.323774860947333 0.6762251390526669 0.4532884306949303 0.5467115693050697 0.173922799924319 0.826077200075681 0.6126982249698112 0.3873017750301889 0.5304120785473306 0.4695879214526693 0.36178747512270415 0.6382125248772959 0.7363694928305576 0.26363050716944236 0.8485528793302232 0.1514471206697768 0.09508771179697752 0.9049122882030225 0.4739815979877037 0.5260184020122962 0.878246281637484 0.12175371836251606 0.6514201781098226 0.34857982189017755 0.497100584284837 0.502899415715163 0.7506296856726399 0.24937031432736015 0.04422771709067931 0.9557722829093207 0.29424078942967546 0.7057592105703245 0.8730350996991707 0.12696490030082927 0.24848720739909802 0.751512792600902 0.31307533999611714 0.6869246600038829 0.417947068156698 0.582052931843302 0.8828856850576233 0.11711431494237663 0.49126253544995235 0.5087374645500478 0.7758592887655484 0.2241407112344515 0.7737363357480093 0.22626366425199068 0.39387837817225163 0.6061216218277484 0.5196420381829336 0.48035796181706636 0.9352097336150705 0.06479026638492945 0.5419871022845097 0.45801289771549014 0.7475379247262997 0.25246207527370035 0.7720399732047271 0.227960026795273 0.8163793899187703 0.18362061008122965 0.8022942447979273 0.19770575520207265 0.49110015738494067 0.5088998426150594 0.31805578641889526 0.6819442135811047 0.005097019812461934 0.9949029801875381 0.03630681207841835 0.9636931879215817 0.9337319490362942 0.06626805096370575 0.499196173048968 0.5008038269510319 0.4410336443602938 0.5589663556397063 0.3317658102153711 0.6682341897846289 0.044335843552674344 0.9556641564473256 0.46474023598099495 0.535259764019005 0.8480251391314649 0.15197486086853504 0.03530610648230995 0.9646938935176901 0.44088952639457457 0.5591104736054254 0.7241918987708731 0.27580810122912686 0.44033138388199744 0.5596686161180026 0.6861388295583523 0.31386117044164785 0.3027856116209878 0.6972143883790122 0.9971926567131256 0.0028073432868743298 0.6768972425955172 0.32310275740448285 0.1859350809183169 0.8140649190816831 0.5232517817291055 0.47674821827089464 0.043896884783872984 0.956103115216127 0.25227821190268007 0.7477217880973199 0.07171561167212966 0.9282843883278703 0.553223273536061 0.44677672646393907 0.6699431193617036 0.3300568806382964 0.6670286809935897 0.3329713190064103 0.2332604112267603 0.7667395887732397 0.32682642613008195 0.673173573869918 0.694956523485448 0.30504347651455205 0.18032966419763813 0.8196703358023619 0.9697775407610729 0.03022245923892707 0.9557027793388243 0.04429722066117567 0.5938228140105595 0.4061771859894405 0.19558080513396453 0.8044191948660355 0.29701328015293 0.70298671984707 0.9867219485083009 0.013278051491699182 0.8870409015712686 0.1129590984287314 0.7081972678054836 0.2918027321945163 0.24924701036282568 0.7507529896371743 0.5455806408926459 0.45441935910735404 0.5039979926740492 0.4960020073259508 0.5987366042450949 0.40126339575490505 0.8085387435664189 0.19146125643358114 0.790400292336669 0.20959970766333097 0.5625960179959957 0.43740398200400427 0.03621895456265556 0.9637810454373444 0.19081359713494517 0.8091864028650548 0.6781920835319353 0.3218079164680647 0.1441490316679447 0.8558509683320553 0.4831014245718035 0.5168985754281964 0.9476373778641887 0.0523626221358113 0.5220643377478976 0.4779356622521024 0.28643443059824514 0.713565569401755 0.5102213031751518 0.48977869682484815 0.9320904535707787 0.06790954642922134 0.5007678277116444 0.4992321722883556 0.6087643634719042 0.3912356365280958 0.3099421539737173 0.6900578460262826 0.22008981482038062 0.7799101851796194 0.8044176293532765 0.1955823706467234 0.7404001900269185 0.25959980997308163 0.8061511524594539 0.19384884754054613 0.4992362347855537 0.5007637652144463 0.5377081540758409 0.462291845924159 0.8598082947367601 0.14019170526323982 0.6644731838564338 0.3355268161435661 0.20011848322332768 0.7998815167766723 0.6850983806510025 0.31490161934899746 0.47571018873226517 0.5242898112677348 0.050502987831756815 0.9494970121682432 0.6662513017334414 0.33374869826655856 0.6529593157410069 0.3470406842589932 0.9441479753780011 0.05585202462199894 0.8207925521551362 0.1792074478448638 0.329563619766856 0.670436380233144 0.4941666876493934 0.5058333123506065 0.3955573364327884 0.6044426635672117 0.45385195995111854 0.5461480400488814 0.5950948383502838 0.40490516164971624 0.13688017750547074 0.8631198224945292 0.6527213561007239 0.34727864389927615 0.727293810044662 0.272706189955338 0.3402934342880783 0.6597065657119218 0.8717923046364016 0.12820769536359847 0.35014034821266077 0.6498596517873392 0.4585856889918958 0.5414143110081041 0.544807959037035 0.455192040962965 0.042133139763776174 0.9578668602362238 0.38831251289557667 0.6116874871044233 0.9671356550825498 0.032864344917450154 0.35799114125582043 0.6420088587441796 0.5697367357882083 0.43026326421179173 0.6504153420044995 0.3495846579955005 0.5156120672640071 0.4843879327359929 0.31814719033941363 0.6818528096605864 0.8920532392416085 0.10794676075839157 0.4733363451266347 0.5266636548733653 0.10198372370419725 0.8980162762958027 0.3629919446848843 0.6370080553151157 0.094699958550595 0.905300041449405 0.2799552188087934 0.7200447811912065 0.4535823624274028 0.5464176375725972 0.9382345392346099 0.061765460765390176 0.6329520285729344 0.36704797142706547 0.7872532526189299 0.21274674738107016 0.8283284657123982 0.17167153428760187 0.5207706354212513 0.4792293645787487 0.6180198070715844 0.38198019292841545 0.577534477124745 0.4224655228752549 0.6684496942669601 0.33155030573303984 0.7356354790229686 0.26436452097703134 0.7924958740605794 0.2075041259394206 0.5613195791786458 0.4386804208213542 0.6472356622346305 0.3527643377653695 0.9893045133341184 0.010695486665881562 0.15326875225527628 0.8467312477447237 0.6026798497364299 0.3973201502635701 0.5456341590315342 0.4543658409684657 0.5777590852178056 0.4222409147821944 0.7523822929644118 0.2476177070355881 0.603836724857069 0.39616327514293104 0.5944104122971595 0.4055895877028405 0.554544566938325 0.44545543306167495 0.5773304731031469 0.4226695268968532 0.8305835599678941 0.16941644003210585 0.3587625109534812 0.6412374890465188 0.7106335026447895 0.2893664973552105 0.48735609978490785 0.5126439002150921 0.6598417055059825 0.34015829449401747 0.7792686554182053 0.22073134458179464 0.6311104164801027 0.3688895835198972 0.2568260585601225 0.7431739414398775 0.5920956130544389 0.40790438694556114 0.033878488844957984 0.9661215111550419 0.42046956744242414 0.5795304325575757 0.5687484317186545 0.43125156828134553 0.4334558299650446 0.5665441700349555 0.20987301925785262 0.7901269807421474 0.11452525271785374 0.8854747472821463 0.04149566030941622 0.9585043396905838 0.3757245811462039 0.6242754188537962 0.2145306599583434 0.7854693400416566 0.3407308812999433 0.6592691187000568 0.800250137253319 0.19974986274668105 0.2917344851162366 0.7082655148837633 0.24700627847845558 0.7529937215215444 0.5663675478624454 0.43363245213755475 0.6399373057561841 0.36006269424381593 0.3080529447557791 0.6919470552442208 0.7882404868069463 0.21175951319305375 0.03134946803509264 0.9686505319649074 0.506918112505171 0.49308188749482895 0.05074800994464802 0.949251990055352 0.6156245391047483 0.38437546089525165 0.623359030155552 0.3766409698444479 0.5088219340526475 0.49117806594735247 0.513692666574374 0.4863073334256261 0.46793525105074074 0.5320647489492593 0.44566490532310116 0.5543350946768989 0.0989118350695239 0.901088164930476 0.7836655833930593 0.21633441660694075 0.20546177563188991 0.7945382243681101 0.3290163050364363 0.6709836949635637 0.45518784726826617 0.5448121527317339 0.4530569100168261 0.546943089983174 0.42969139541233553 0.5703086045876644 0.31284807811768983 0.6871519218823102 0.8511216839156833 0.14887831608431654 0.8033204048162177 0.1966795951837823 0.9802201148329063 0.019779885167093714 0.5771686257471239 0.42283137425287604 0.6137708653062693 0.3862291346937307 0.9431770487842418 0.05682295121575823 0.6790811782361817 0.32091882176381825 0.4940804720455977 0.5059195279544023 </TABLE>
    </DEFINITION>
    <DEFINITION>
      <FOR>18</FOR>
      <GIVEN>5</GIVEN>
      <GIVEN>9</GIVEN>
      <GIVEN>10</GIVEN>
      <GIVEN>13</GIVEN>
      <GIVEN>16</GIVEN>
      <GIVEN>2</GIVEN>
      <GIVEN>7</GIVEN>
      <GIVEN>8</GIVEN>
