<?xml version='1.0' encoding='utf-8'?>
<BIF VERSION="0.3">
  <NETWORK>
    <NAME>UNTITLED</NAME>
    <VARIABLE TYPE="nature">
      <NAME>0</NAME>
      <OUTCOME>0</OUTCOME>
      <OUTCOME>1</OUTCOME>
      <PROPERTY>weight = None</PROPERTY>
    </VARIABLE>
    <VARIABLE TYPE="nature">
      <NAME>1</NAME>
      <OUTCOME>0</OUTCOME>
      <OUTCOME>1</OUTCOME>
      <PROPERTY>weight = None</PROPERTY>
    </VARIABLE>
    <VARIABLE TYPE="nature">
      <NAME>10</NAME>
      <OUTCOME>0</OUTCOME>
      <OUTCOME>1</OUTCOME>
      <PROPERTY>weight = None</PROPERTY>
    </VARIABLE>
    <VARIABLE TYPE="nature">
      <NAME>11</NAME>
      <OUTCOME>0</OUTCOME>
      <OUTCOME>1</OUTCOME>
      <PROPERTY>weight = None</PROPERTY>
    </VARIABLE>
    <VARIABLE TYPE="nature">
      <NAME>12</NAME>
      <OUTCOME>0</OUTCOME>
      <OUTCOME>1</OUTCOME>
      <PROPERTY>weight = None</PROPERTY>
    </VARIABLE>
    <VARIABLE TYPE="nature">
      <NAME>13</NAME>
      <OUTCOME>0</OUTCOME>
      <OUTCOME>1</OUTCOME>
      <PROPERTY>weight = None</PROPERTY>
    </VARIABLE>
    <VARIABLE TYPE="nature">
      <NAME>14</NAME>
      <OUTCOME>0</OUTCOME>
      <OUTCOME>1</OUTCOME>
      <PROPERTY>weight = None</PROPERTY>
    </VARIABLE>
    <VARIABLE TYPE="nature">
      <NAME>15</NAME>
      <OUTCOME>0</OUTCOME>
      <OUTCOME>1</OUTCOME>
      <PROPERTY>weight = None</PROPERTY>
    </VARIABLE>
    <VARIABLE TYPE="nature">
      <NAME>16</NAME>
      <OUTCOME>0</OUTCOME>
      <OUTCOME>1</OUTCOME>
      <PROPERTY>weight = None</PROPERTY>
    </VARIABLE>
    <VARIABLE TYPE="nature">
      <NAME>17</NAME>
      <OUTCOME>0</OUTCOME>
      <OUTCOME>1</OUTCOME>
      <PROPERTY>weight = None</PROPERTY>
    </VARIABLE>
    <VARIABLE TYPE="nature">
      <NAME>18</NAME>
      <OUTCOME>0</OUTCOME>
      <OUTCOME>1</OUTCOME>
      <PROPERTY>weight = None</PROPERTY>
    </VARIABLE>
    <VARIABLE TYPE="nature">
      <NAME>19</NAME>
      <OUTCOME>0</OUTCOME>
      <OUTCOME>1</OUTCOME>
      <PROPERTY>weight = None</PROPERTY>
    </VARIABLE>
    <VARIABLE TYPE="nature">
      <NAME>2</NAME>
      <OUTCOME>0</OUTCOME>
      <OUTCOME>1</OUTCOME>
      <PROPERTY>weight = None</PROPERTY>
    </VARIABLE>
    <VARIABLE TYPE="nature">
      <NAME>3</NAME>
      <OUTCOME>0</OUTCOME>
      <OUTCOME>1</OUTCOME>
      <PROPERTY>weight = None</PROPERTY>
    </VARIABLE>
    <VARIABLE TYPE="nature">
      <NAME>4</NAME>
      <OUTCOME>0</OUTCOME>
      <OUTCOME>1</OUTCOME>
      <PROPERTY>weight = None</PROPERTY>
    </VARIABLE>
    <VARIABLE TYPE="nature">
      <NAME>5</NAME>
      <OUTCOME>0</OUTCOME>
      <OUTCOME>1</OUTCOME>
      <PROPERTY>weight = None</PROPERTY>
    </VARIABLE>
    <VARIABLE TYPE="nature">
      <NAME>6</NAME>
      <OUTCOME>0</OUTCOME>
      <OUTCOME>1</OUTCOME>
      <PROPERTY>weight = None</PROPERTY>
    </VARIABLE>
    <VARIABLE TYPE="nature">
      <NAME>7</NAME>
      <OUTCOME>0</OUTCOME>
      <OUTCOME>1</OUTCOME>
      <PROPERTY>weight = None</PROPERTY>
    </VARIABLE>
    <VARIABLE TYPE="nature">
      <NAME>8</NAME>
      <OUTCOME>0</OUTCOME>
      <OUTCOME>1</OUTCOME>
      <PROPERTY>weight = None</PROPERTY>
    </VARIABLE>
    <VARIABLE TYPE="nature">
      <NAME>9</NAME>
      <OUTCOME>0</OUTCOME>
      <OUTCOME>1</OUTCOME>
      <PROPERTY>weight = None</PROPERTY>
    </VARIABLE>
    <DEFINITION>
      <FOR>0</FOR>
      <TABLE>0.27025853686803214 0.7297414631319679 </TABLE>
    </DEFINITION>
    <DEFINITION>
      <FOR>1</FOR>
      <GIVEN>0</GIVEN>
      <TABLE>0.05032452589147516 0.9496754741085248 0.5738239330186993 0.4261760669813008 </TABLE>
    </DEFINITION>
    <DEFINITION>
      <FOR>10</FOR>
      <GIVEN>0</GIVEN>
      <GIVEN>1</GIVEN>
      <GIVEN>2</GIVEN>
      <GIVEN>4</GIVEN>
      <GIVEN>7</GIVEN>
      <TABLE>0.5926720612868471 0.40732793871315287 0.477676477794589 0.5223235222054109 0.21173688592096476 0.7882631140790354 0.9520099772585154 0.04799002274148458 0.8708488378147405 0.1291511621852596 0.6736922979529807 0.32630770204701937 0.27119534837158277 0.7288046516284172 0.24659679946634017 0.75340320053366 0.4264875625211743 0.5735124374788256 0.7895376573194727 0.21046234268052738 0.49372167138391615 0.5062783286160838 0.39116425827832385 0.6088357417216761 0.7646102425953006 0.23538975740469942 0.4970609915371495 0.5029390084628504 0.870310954710753 0.12968904528924685 0.5010540919085359 0.49894590809146405 0.49533217087421405 0.5046678291257859 0.3853824528441711 0.614617547155829 0.5473214276343772 0.45267857236562287 0.8344054235163137 0.1655945764836861 0.7460391039519485 0.25396089604805144 0.759672992459386 0.24032700754061403 0.6149569873257342 0.3850430126742658 0.5246535342828819 0.47534646571711814 0.9050196330338655 0.0949803669661346 0.6670548898332719 0.33294511016672806 0.6959253471091454 0.30407465289085456 0.8081166442911957 0.19188335570880438 0.40196105363656925 0.5980389463634308 0.27930522591246704 0.720694774087533 0.4429790175942222 0.5570209824057778 0.8816353622084381 0.11836463779156196 </TABLE>
    </DEFINITION>
    <DEFINITION>
      <FOR>11</FOR>
      <GIVEN>0</GIVEN>
      <GIVEN>1</GIVEN>
      <GIVEN>2</GIVEN>
      <GIVEN>4</GIVEN>
      <GIVEN>7</GIVEN>
      <GIVEN>9</GIVEN>
      <GIVEN>8</GIVEN>
      <GIVEN>3</GIVEN>
      <TABLE>0.2247268580869229 0.775273141913077 0.6116384664979952 0.38836153350200475 0.2971684285775312 0.7028315714224688 0.3545199859854631 0.6454800140145368 0.1061188087228991 0.8938811912771009 0.4469528984717283 0.5530471015282717 0.42249810758644035 0.5775018924135596 0.28137121997789566 0.7186287800221043 0.28104003951514506 0.718959960484855 0.6621340161757411 0.33786598382425886 0.5213985182747299 0.47860148172527 0.8873586027820045 0.11264139721799545 0.49949488896739375 0.5005051110326062 0.5813291378002549 0.4186708621997452 0.3071534862654775 0.6928465137345226 0.8385898410211767 0.16141015897882333 0.6055327251135456 0.3944672748864544 0.49125661205695964 0.5087433879430403 0.9698753433427099 0.030124656657290166 0.33406735593726805 0.6659326440627319 0.4132772704849398 0.5867227295150602 0.7528417055647894 0.2471582944352107 0.5681417516590277 0.4318582483409724 0.026723448481522645 0.9732765515184774 0.3965822776650438 0.6034177223349563 0.31401952911267356 0.6859804708873265 0.5216715089448809 0.4783284910551191 0.8844717613165178 0.11552823868348208 0.49714919770665583 0.5028508022933442 0.6791536210689364 0.32084637893106355 0.459995071564762 0.540004928435238 0.9542116401744994 0.04578835982550061 0.694358138479879 0.305641861520121 0.41455170489417903 0.585448295105821 0.11347440870479261 0.8865255912952074 0.5112014461658845 0.48879855383411547 0.7164559013733433 0.2835440986266567 0.2065094522517289 0.793490547748271 0.3709081564075011 0.6290918435924989 0.989174438924837 0.010825561075162955 0.5939992469844797 0.4060007530155203 0.6282861155171733 0.3717138844828267 0.6564515799524917 0.34354842004750835 0.15525015306610684 0.8447498469338931 0.7270811866717448 0.2729188133282552 0.7200701263338549 0.279929873666145 0.4188657720849067 0.5811342279150933 0.4497824242180842 0.5502175757819158 0.7113428915419711 0.28865710845802905 0.3167328837268918 0.6832671162731081 0.25126367462595833 0.7487363253740417 0.23032045062383852 0.7696795493761615 0.4501053038663061 0.5498946961336938 0.7603186106694291 0.23968138933057095 0.43368259549795596 0.566317404502044 0.10489608659905603 0.8951039134009439 0.6032432160468335 0.39675678395316644 0.7227150511773198 0.2772849488226802 0.5170583839799306 0.4829416160200693 0.10133052759268578 0.8986694724073141 0.5684114581536965 0.4315885418463035 0.5802729178561784 0.4197270821438216 0.3398770825790824 0.6601229174209177 0.2976193627759647 0.7023806372240353 0.44188703538111757 0.5581129646188825 0.3403359241787617 0.6596640758212383 0.9776424076861329 0.022357592313867088 0.3188231274308325 0.6811768725691676 0.20809445066455273 0.7919055493354473 0.4941263611556073 0.5058736388443927 0.44706651396177094 0.552933486038229 0.4619288423583644 0.5380711576416356 0.4289184704278967 0.5710815295721032 0.6564814736638329 0.3435185263361672 0.4619273774611388 0.5380726225388612 0.9224934779954358 0.0775065220045641 0.07742817009062078 0.9225718299093792 0.6154733229296607 0.3845266770703393 0.47672408004209466 0.5232759199579053 0.4410877170847289 0.5589122829152712 0.8468297007953673 0.15317029920463263 0.43838793495354395 0.561612065046456 0.39708584999020485 0.6029141500097952 0.5617246762346827 0.4382753237653173 0.7912055784997917 0.20879442150020838 0.09980510697183022 0.9001948930281698 0.4558846365580855 0.5441153634419146 0.46120740069257904 0.538792599307421 0.3337327810654228 0.6662672189345772 0.17808825773456088 0.8219117422654391 0.24032697187666258 0.7596730281233374 0.6269091108732021 0.3730908891267978 0.8480786642168605 0.15192133578313954 0.7229121135842776 0.27708788641572235 0.7507952827561495 0.24920471724385054 0.5051238028009879 0.494876197199012 0.0808441038657101 0.9191558961342899 0.7503419034755656 0.2496580965244345 0.31656900849768643 0.6834309915023136 0.18567485572596215 0.8143251442740378 0.5281681777408063 0.47183182225919373 0.7164313080144961 0.283568691985504 0.39641694889805884 0.6035830511019412 0.5672599443389565 0.4327400556610434 0.6150831235878986 0.3849168764121014 0.25742666402380865 0.7425733359761914 0.6955259666748024 0.30447403332519757 0.8179264158265606 0.18207358417343947 0.7532011629291272 0.24679883707087286 0.6463702203349632 0.3536297796650368 0.7427019042122671 0.25729809578773294 0.1777246936155184 0.8222753063844815 0.4561216159591067 0.5438783840408933 0.4039534756482475 0.5960465243517525 0.20670522681682987 0.7932947731831701 0.3574184669734474 0.6425815330265525 0.7663890320077898 0.23361096799221015 0.27337412526424126 0.7266258747357587 0.1151639321175609 0.8848360678824391 0.4057066623523375 0.5942933376476626 0.3376510079210949 0.6623489920789051 0.5612115449418429 0.4387884550581572 0.6446816660618634 0.35531833393813667 0.48829770904594055 0.5117022909540596 0.5880614124563174 0.4119385875436826 0.5139190718699324 0.4860809281300676 0.6534503735187924 0.3465496264812076 0.6082400206360047 0.39175997936399537 0.45741408067053096 0.5425859193294691 0.9644337156204777 0.03556628437952222 0.7155981393796327 0.2844018606203672 0.755396897043074 0.24460310295692594 0.16790723197032353 0.8320927680296765 0.45451905388044245 0.5454809461195576 0.6844201644242521 0.3155798355757479 0.29898142959978735 0.7010185704002128 0.5159065572905949 0.48409344270940513 0.4414687970506244 0.5585312029493755 0.10820602457896038 0.8917939754210397 0.5184482463644702 0.4815517536355299 0.336903541898668 0.6630964581013319 0.26964408169876125 0.7303559183012388 0.6520613606371708 0.3479386393628292 0.12171552185170714 0.8782844781482928 0.5158091686351055 0.48419083136489455 0.38992037523500583 0.6100796247649942 0.42262243311885267 0.5773775668811474 0.5453536619288759 0.45464633807112403 0.9414801329323008 0.05851986706769917 0.49168894958538184 0.5083110504146182 0.4475017364661593 0.5524982635338408 0.5766641168728768 0.42333588312712317 0.15605408391086587 0.8439459160891342 0.7971105350578088 0.20288946494219115 0.8065346393944292 0.19346536060557093 0.5875477101783869 0.412452289821613 0.8276415253161553 0.17235847468384471 0.7273867239070253 0.27261327609297475 0.5649409091180112 0.43505909088198874 0.041687510678298 0.9583124893217021 0.874284419536549 0.12571558046345097 0.31289961917145265 0.6871003808285473 0.8365405168503409 0.16345948314965908 0.49326397415391016 0.5067360258460899 0.6139817837099065 0.3860182162900934 0.9139070254091697 0.08609297459083026 0.00705561862307335 0.9929443813769266 0.30910094842017993 0.6908990515798201 0.3504576714809196 0.6495423285190804 0.379215632979255 0.620784367020745 0.862617909490092 0.13738209050990802 0.5294069866621529 0.4705930133378471 0.5968730711650705 0.40312692883492934 0.2533382504594483 0.7466617495405516 0.8054441591232394 0.1945558408767605 0.40521213784705346 0.5947878621529465 0.4317578778388733 0.5682421221611267 0.0493591645749402 0.9506408354250598 0.6730866273390947 0.32691337266090525 0.5876567920348104 0.4123432079651896 0.8347046718840567 0.16529532811594325 0.26763477447992895 0.732365225520071 0.8795338767632023 0.12046612323679774 0.2675466460246843 0.7324533539753157 0.5733855589457759 0.426614441054224 0.7656120331888367 0.23438796681116325 0.11236233048177456 0.8876376695182253 0.255291196747078 0.744708803252922 0.5832096213452381 0.41679037865476193 0.5366060599136364 0.4633939400863636 0.4642941928936626 0.5357058071063374 0.5957112500661198 0.4042887499338802 0.4911024142335887 0.5088975857664112 0.523707060614347 0.476292939385653 0.6914268669387091 0.3085731330612908 0.693669390192146 0.30633060980785404 0.5769003785971936 0.42309962140280644 0.2211507309766296 0.7788492690233704 0.6193176554405772 0.38068234455942285 0.7225474075162535 0.2774525924837465 0.24184122035966407 0.7581587796403361 0.35695315452742493 0.6430468454725751 0.4581308173045676 0.5418691826954325 0.5397356942751421 0.4602643057248579 0.9095310706513647 0.09046892934863528 0.6004232484873675 0.3995767515126325 0.1956688049434775 0.8043311950565225 0.22752930394148055 0.7724706960585195 0.9683409690810899 0.03165903091891007 0.33395192320091494 0.666048076799085 0.803002509101195 0.1969974908988049 0.5814347585879582 0.4185652414120418 0.5286432305638857 0.4713567694361142 0.9373172026426183 0.06268279735738154 0.5178693894824007 0.48213061051759926 0.11868345677850314 0.8813165432214969 0.37530248831531615 0.6246975116846838 0.5292288651956631 0.4707711348043369 0.7471463044824751 0.2528536955175249 0.060018762979306764 0.9399812370206932 0.27249946774102785 0.7275005322589722 0.5088967050662145 0.4911032949337855 0.8963361339632505 0.10366386603674947 0.49707798619325905 0.502922013806741 0.29467609970572184 0.7053239002942783 0.5500394912050552 0.44996050879494487 0.5356837942129 0.46431620578710003 0.3415338185366701 0.6584661814633299 0.41982897682756176 0.5801710231724383 0.28663918017754414 0.7133608198224558 0.6306802856553309 0.36931971434466915 0.5399157811197548 0.46008421888024525 0.716401709373401 0.283598290626599 0.5862053201847595 0.41379467981524054 0.40474949946529487 0.5952505005347051 0.5084610748952018 0.49153892510479824 0.8317374310306206 0.16826256896937944 0.5990274013975395 0.4009725986024605 0.2848670622457829 0.7151329377542172 0.5488442776973412 0.4511557223026587 0.5877667442579517 0.4122332557420483 0.21965914331756428 0.7803408566824357 0.5991512504795911 0.4008487495204089 0.8823595859687343 0.11764041403126564 0.402267090926529 0.597732909073471 0.6744549103027982 0.3255450896972017 0.8588551008303581 0.1411448991696419 0.5188663729591086 0.48113362704089135 0.2372748622368386 0.7627251377631614 0.4748470305157214 0.5251529694842786 0.5513607504280269 0.4486392495719731 0.7341899421122361 0.26581005788776385 0.4122848577374096 0.5877151422625905 0.8480608712789707 0.1519391287210292 0.6664758315047912 0.3335241684952088 0.5558573393810357 0.4441426606189644 </TABLE>
    </DEFINITION>
    <DEFINITION>
      <FOR>12</FOR>
      <GIVEN>1</GIVEN>
      <GIVEN>2</GIVEN>
      <GIVEN>4</GIVEN>
      <GIVEN>9</GIVEN>
      <GIVEN>11</GIVEN>
      <GIVEN>3</GIVEN>
      <TABLE>0.43900498227787754 0.5609950177221225 0.9086451891210467 0.09135481087895328 0.4482466994771948 0.5517533005228052 0.33579627234787013 0.6642037276521299 0.2777528317965714 0.7222471682034286 0.5792886047603859 0.42071139523961415 0.2606430896208703 0.7393569103791297 0.8673216776257593 0.13267832237424076 0.5558439511512657 0.4441560488487344 0.18844999734681486 0.8115500026531851 0.6374681389484563 0.36253186105154367 0.09850603176695383 0.9014939682330462 0.6559576561267434 0.34404234387325655 0.5955670735094836 0.4044329264905164 0.5174286747700917 0.48257132522990837 0.35971940982421724 0.6402805901757828 0.08091300275144839 0.9190869972485516 0.8252826247018353 0.17471737529816467 0.4760045813400382 0.5239954186599618 0.5464914963415753 0.45350850365842466 0.5363272064239443 0.46367279357605573 0.05521444975641042 0.9447855502435896 0.5715603864717467 0.4284396135282534 0.9701620942376693 0.02983790576233074 0.14650000590475737 0.8534999940952426 0.7225866308903584 0.2774133691096416 0.4160626896481788 0.5839373103518213 0.3404357715808435 0.6595642284191565 0.6001053109026839 0.399894689097316 0.3056207859545453 0.6943792140454548 0.41410119151928565 0.5858988084807144 0.4539047477403847 0.5460952522596153 0.36500274207809363 0.6349972579219063 0.27396237282928726 0.7260376271707127 0.6896162829313945 0.31038371706860546 0.30187880301353803 0.698121196986462 0.5668379788786654 0.4331620211213346 0.37771516763310164 0.6222848323668984 0.2944118996156875 0.7055881003843125 0.8674844415445263 0.13251555845547372 0.591259147965952 0.40874085203404803 0.5158948718394405 0.48410512816055945 0.4636113984530189 0.5363886015469811 0.28776605449621356 0.7122339455037865 0.3478752562784203 0.6521247437215797 0.5082523688738205 0.4917476311261796 0.4219828826892845 0.5780171173107155 0.3459139022703779 0.6540860977296221 0.9779588036051209 0.02204119639487917 0.6195780284502579 0.38042197154974217 0.025779822088697498 0.9742201779113026 0.21014525712178742 0.7898547428782124 0.4094814409695893 0.5905185590304107 0.27807608307863096 0.721923916921369 0.605393823704976 0.39460617629502404 0.9067653431042524 0.09323465689574763 0.8611681908008291 0.13883180919917099 0.30910680341735847 0.6908931965826416 0.3993064412589712 0.6006935587410287 0.7353515631648567 0.26464843683514316 0.8687503068787711 0.1312496931212289 0.2012041939787699 0.7987958060212301 0.5477833285192976 0.45221667148070244 0.6435362980026627 0.3564637019973374 </TABLE>
    </DEFINITION>
    <DEFINITION>
      <FOR>13</FOR>
      <GIVEN>4</GIVEN>
      <GIVEN>5</GIVEN>
      <GIVEN>9</GIVEN>
      <GIVEN>11</GIVEN>
      <GIVEN>8</GIVEN>
      <GIVEN>12</GIVEN>
      <GIVEN>6</GIVEN>
      <TABLE>0.5283500945925301 0.47164990540747 0.027640172645349216 0.9723598273546508 0.4871811596492434 0.5128188403507565 0.6809395300817959 0.31906046991820414 0.5407784866433184 0.45922151335668154 0.8604458218418936 0.13955417815810645 0.9788245325339133 0.021175467466086652 0.48052533527261754 0.5194746647273825 0.4753947355504414 0.5246052644495585 0.39826499363994056 0.6017350063600595 0.46503580611956113 0.5349641938804388 0.7056184614371084 0.2943815385628917 0.5334965746410936 0.46650342535890643 0.7675429394268605 0.23245706057313947 0.8000425926152706 0.19995740738472942 0.8542156973136955 0.14578430268630446 0.3086898990307152 0.6913101009692848 0.45258974129573265 0.5474102587042674 0.7106960880486202 0.2893039119513798 0.09808747977118065 0.9019125202288194 0.8465651579206753 0.15343484207932456 0.7745838578200812 0.22541614217991873 0.36744696253702064 0.6325530374629794 0.795818457503233 0.204181542496767 0.0951007184133688 0.9048992815866312 0.5798009898133482 0.42019901018665173 0.438020596827973 0.561979403172027 0.4015604445018665 0.5984395554981335 0.6780082910986241 0.3219917089013758 0.12890631015989817 0.8710936898401018 0.2935719385438755 0.7064280614561245 0.5611258635211477 0.4388741364788524 0.03436433379534652 0.9656356662046535 0.5842256713443915 0.4157743286556084 0.3803144287556492 0.6196855712443509 0.4103383386624528 0.5896616613375473 0.5171622587933463 0.48283774120665374 0.6702002383117068 0.32979976168829317 0.557997168667656 0.44200283133234397 0.0793143922072834 0.9206856077927166 0.6592615683497423 0.3407384316502578 0.5836283089686362 0.4163716910313638 0.37808671163423624 0.6219132883657639 0.7336864505516256 0.2663135494483744 0.5713095507877028 0.42869044921229726 0.596644017920986 0.403355982079014 0.29446674985496835 0.7055332501450317 0.8704615243252352 0.12953847567476487 0.36163460180589263 0.6383653981941074 0.6444085296854707 0.3555914703145292 0.5737932849569124 0.42620671504308766 0.5727289213355897 0.4272710786644104 0.7665141817117493 0.23348581828825066 0.40597761123770376 0.5940223887622963 0.8663319143313601 0.1336680856686398 0.26274608465220806 0.7372539153477918 0.7542273144795236 0.24577268552047632 0.29500164644476834 0.7049983535552317 0.7813652285548661 0.21863477144513385 0.8405978997680561 0.15940210023194384 0.13997286028211156 0.8600271397178885 0.7468580710329072 0.25314192896709264 0.44009912803792883 0.5599008719620712 0.63545640205711 0.36454359794289004 0.9390683756270969 0.06093162437290306 0.44599215894357785 0.5540078410564222 0.47500997647368887 0.5249900235263111 0.6514982394997653 0.34850176050023474 0.6803222213257767 0.31967777867422337 0.42259217752676137 0.5774078224732386 0.6124018168664312 0.3875981831335687 0.4125262197529966 0.5874737802470034 0.611010676448345 0.3889893235516551 0.9170540734280009 0.08294592657199908 0.6948271454667424 0.3051728545332575 0.7661949218709608 0.2338050781290391 0.819675508209591 0.180324491790409 0.039559396904638694 0.9604406030953613 0.6362306650045673 0.3637693349954328 0.5089246881444817 0.49107531185551834 0.8790304896371129 0.12096951036288706 0.6938307478528669 0.3061692521471331 0.6251866300222242 0.37481336997777576 0.5296254625248076 0.47037453747519237 0.3873622020740679 0.6126377979259321 0.7644023626184205 0.23559763738157943 0.9340158484237603 0.06598415157623971 0.4822336776583013 0.5177663223416986 0.15068254373785744 0.8493174562621425 0.5804529461585726 0.41954705384142743 0.8535800026538043 0.14641999734619573 0.5131386539351728 0.4868613460648273 0.03940230566174141 0.9605976943382586 0.5222865974232396 0.47771340257676037 0.5353467611049346 0.46465323889506527 0.10509181169231677 0.8949081883076833 0.509860858932631 0.4901391410673689 0.44772926138392877 0.5522707386160712 0.5965553273780141 0.4034446726219858 0.5087340654582769 0.49126593454172296 0.46988875332562113 0.5301112466743788 0.14750169839157132 0.8524983016084287 0.74258237321746 0.25741762678254 0.15959535501971592 0.8404046449802841 0.5727615128082154 0.4272384871917845 0.4758224923529512 0.5241775076470487 0.0803760572966321 0.9196239427033679 0.9237337065698392 0.07626629343016075 0.6994146082178736 0.30058539178212645 0.4584971661190076 0.5415028338809924 0.17279129694204515 0.827208703057955 0.6379233556388881 0.3620766443611119 0.46725946484923725 0.5327405351507628 0.556217955717275 0.4437820442827251 0.7235407807217618 0.27645921927823836 0.5409495948162346 0.4590504051837654 0.5711270392466652 0.42887296075333475 0.529193475118933 0.47080652488106706 0.8939963560482749 0.10600364395172511 0.13254215504849368 0.8674578449515064 0.23316661313073261 0.7668333868692674 0.3146690147723547 0.6853309852276455 0.2897463528954004 0.7102536471045995 0.46817122567181585 0.5318287743281841 0.19601584433092895 0.8039841556690711 0.8666034483803783 0.13339655161962166 0.6227643724196329 0.37723562758036716 0.06796558324805749 0.9320344167519424 </TABLE>
    </DEFINITION>
    <DEFINITION>
      <FOR>14</FOR>
      <GIVEN>11</GIVEN>
      <GIVEN>8</GIVEN>
      <GIVEN>12</GIVEN>
      <GIVEN>13</GIVEN>
      <GIVEN>6</GIVEN>
      <TABLE>0.24753601544009168 0.7524639845599083 0.45081438017707176 0.5491856198229281 0.6342657990078514 0.3657342009921486 0.06545679452781657 0.9345432054721834 0.6817425006503197 0.31825749934968034 0.0069948914181597035 0.9930051085818403 0.9940066012808054 0.005993398719194532 0.5775561824134328 0.4224438175865672 0.466335160085327 0.5336648399146731 0.23256783086878813 0.7674321691312119 0.9434227216838491 0.05657727831615084 0.45542311931371554 0.5445768806862844 0.16419338089491511 0.8358066191050849 0.24804428354967917 0.7519557164503209 0.6886122498126722 0.3113877501873277 0.8447359114309992 0.1552640885690007 0.5160683169906451 0.48393168300935485 0.2786563441661201 0.7213436558338798 0.3335131616536279 0.6664868383463721 0.6209802035341535 0.37901979646584655 0.5350453849789373 0.4649546150210627 0.4531287570887527 0.5468712429112472 0.5865839096215836 0.4134160903784164 0.6700571208927263 0.32994287910727366 0.6065107798856867 0.3934892201143133 0.6050721890523428 0.39492781094765717 0.8594912754547723 0.14050872454522764 0.8357052182148628 0.1642947817851373 0.24597114460497543 0.7540288553950245 0.00439386504558852 0.9956061349544115 0.34968266402846265 0.6503173359715373 0.6387266171842686 0.36127338281573146 </TABLE>
    </DEFINITION>
    <DEFINITION>
      <FOR>15</FOR>
      <GIVEN>2</GIVEN>
      <GIVEN>4</GIVEN>
      <GIVEN>9</GIVEN>
      <GIVEN>10</GIVEN>
      <GIVEN>3</GIVEN>
      <GIVEN>13</GIVEN>
      <GIVEN>6</GIVEN>
      <GIVEN>14</GIVEN>
      <TABLE>0.4958234993226907 0.5041765006773093 0.30003865746727376 0.6999613425327263 0.6581629982385713 0.3418370017614287 0.31221717860305903 0.687782821396941 0.26634934968338214 0.7336506503166178 0.8264298066464401 0.17357019335356003 0.05628897751507336 0.9437110224849267 0.6779871629949499 0.3220128370050502 0.9433439154819964 0.056656084518003656 0.6271834220690974 0.3728165779309026 0.7870320511556979 0.21296794884430212 0.7915344720889951 0.20846552791100498 0.7371051921548833 0.26289480784511665 0.690553023164963 0.30944697683503697 0.8466862389094519 0.1533137610905481 0.1504266867914615 0.8495733132085385 0.19632527417007395 0.8036747258299262 0.44278210106995103 0.557217898930049 0.6832581750220496 0.3167418249779504 0.6611509947252144 0.33884900527478556 0.46931514435748195 0.530684855642518 0.66734515895613 0.33265484104387 0.7727078805578583 0.2272921194421417 0.492163017276519 0.507836982723481 0.23560603709511832 0.7643939629048817 0.7720355358552503 0.22796446414474966 0.8704506186745598 0.12954938132544028 0.49912395071799254 0.5008760492820075 0.43692638085163965 0.5630736191483603 0.8095966681377338 0.19040333186226618 0.7325752021018133 0.2674247978981868 0.4356581532780597 0.5643418467219402 0.19338612743869416 0.8066138725613058 0.9860733972849004 0.013926602715099603 0.28378382645845374 0.7162161735415462 0.38434131607425853 0.6156586839257414 0.07148062774713507 0.928519372252865 0.5000332033211466 0.49996679667885335 0.6491741473974949 0.3508258526025051 0.7832386546929423 0.21676134530705776 0.9072250482478523 0.09277495175214769 0.34654799099122274 0.6534520090087772 0.6166577794237729 0.38334222057622713 0.7021440094612342 0.2978559905387657 0.5896971089147351 0.41030289108526485 0.3694141173481676 0.6305858826518325 0.6580648235949135 0.3419351764050865 0.6397857532127569 0.3602142467872432 0.5524202701915891 0.44757972980841076 0.4999163762935572 0.5000836237064428 0.7367414415044339 0.2632585584955661 0.7195817472661713 0.28041825273382864 0.5588012064513399 0.44119879354866004 0.34811853706628243 0.6518814629337176 0.6958274362140291 0.3041725637859709 0.072415240884008 0.927584759115992 0.27782161093327484 0.7221783890667253 0.8709468276236184 0.1290531723763816 0.39098072157468466 0.6090192784253153 0.5230549579050624 0.47694504209493754 0.9440747542264077 0.055925245773592286 0.37355595352331217 0.6264440464766879 0.447732127208535 0.5522678727914649 0.060295425300488405 0.9397045746995116 0.6835756152028999 0.3164243847971001 0.9677879885736131 0.03221201142638688 0.40967687506480993 0.59032312493519 0.48512927211271173 0.5148707278872883 0.7263338312155123 0.2736661687844878 0.2255779674028394 0.7744220325971606 0.542501281209613 0.4574987187903869 0.586906618661698 0.4130933813383019 0.9401183444384351 0.059881655561564925 0.663295976085475 0.3367040239145251 0.5034854953598066 0.4965145046401935 0.2228746056858152 0.7771253943141848 0.5035440550194052 0.49645594498059475 0.4897914279586782 0.5102085720413218 0.593915117396813 0.406084882603187 0.9817158261073817 0.01828417389261825 0.352759420176675 0.647240579823325 0.40310351901512875 0.5968964809848712 0.27508596617056613 0.7249140338294339 0.27699697311396826 0.7230030268860317 0.13905718228084185 0.8609428177191583 0.33507464918434293 0.6649253508156571 0.4619250289527913 0.5380749710472086 0.680683352590238 0.319316647409762 0.49208547797254226 0.5079145220274577 0.1431074953194847 0.8568925046805153 0.48457402837724967 0.5154259716227504 0.49898142017180563 0.5010185798281943 0.5036342632884127 0.4963657367115874 0.661552511250868 0.33844748874913194 0.1143492955618626 0.8856507044381374 0.4611361381640327 0.5388638618359674 0.677451700648026 0.3225482993519741 0.4884198666663769 0.5115801333336231 0.40370769595966427 0.5962923040403358 0.3311478541541782 0.6688521458458218 0.24862535449418818 0.7513746455058118 0.6184067709064996 0.3815932290935003 0.5436883501379617 0.45631164986203837 0.35266145043430946 0.6473385495656906 0.5305939451913325 0.4694060548086675 0.3626939183471791 0.6373060816528209 0.276178748450023 0.7238212515499771 0.5406425795025146 0.4593574204974855 0.19467196864019168 0.8053280313598083 0.3495022147471626 0.6504977852528374 0.1554730786691006 0.8445269213308995 0.7284290092772095 0.2715709907227905 0.5857338724423512 0.4142661275576488 0.8707166229664022 0.1292833770335978 0.056240765563261345 0.9437592344367387 0.6328625109796041 0.36713748902039584 0.5361430830723745 0.4638569169276256 0.3634802144639277 0.6365197855360724 0.7062657033953885 0.2937342966046115 0.03704413438475777 0.9629558656152423 0.8810732045065325 0.11892679549346752 0.9345600235951114 0.06543997640488858 0.4189706895029912 0.5810293104970089 0.2707312489806563 0.7292687510193436 0.8318000138393338 0.1681999861606662 0.3484704012560111 0.6515295987439889 0.24273332678815562 0.7572666732118444 0.709308802409433 0.29069119759056705 0.0732959691324645 0.9267040308675355 0.3781554130992126 0.6218445869007875 0.7441714013722466 0.2558285986277534 0.50482321736799 0.4951767826320101 0.7335376868703437 0.26646231312965635 0.6659753572825404 0.3340246427174595 0.5847996165758754 0.4152003834241245 0.4610322823802828 0.5389677176197172 0.8262056569322778 0.1737943430677223 0.5150197395934468 0.4849802604065531 0.6687902432915408 0.33120975670845926 0.3452287055372286 0.6547712944627714 0.25509819488933927 0.7449018051106607 0.2917413656123726 0.7082586343876275 0.5942677442707914 0.40573225572920857 0.5522149458935863 0.4477850541064136 0.5752065123858273 0.4247934876141727 0.4050097607455803 0.5949902392544196 0.7711072586870975 0.22889274131290255 0.5039843299293826 0.4960156700706175 0.3926602195497002 0.6073397804502998 0.43557702135842225 0.5644229786415776 0.2620340339749966 0.7379659660250034 0.5438789173855351 0.456121082614465 0.2258199704351455 0.7741800295648544 0.17566942122606546 0.8243305787739346 0.9720793680689322 0.027920631931067735 0.24829288479929412 0.751707115200706 0.565002151664829 0.43499784833517097 0.4835175584251609 0.5164824415748391 0.45439382955921337 0.5456061704407867 0.714734740511614 0.28526525948838594 0.5675565471504617 0.4324434528495382 0.27934623785967616 0.7206537621403237 0.3377382034036156 0.6622617965963844 0.7959090993509009 0.20409090064909893 0.3364146001497762 0.6635853998502238 0.37022347578038717 0.6297765242196128 0.7715012823528195 0.22849871764718055 0.8059998018706958 0.19400019812930422 0.12644394075055904 0.8735560592494409 0.5523413487922957 0.4476586512077043 0.8893350881027037 0.11066491189729634 0.05555868236705511 0.9444413176329449 0.059097252585472194 0.9409027474145278 0.5616299729576792 0.4383700270423207 0.3051876045644705 0.6948123954355295 0.4090042917448708 0.5909957082551291 0.530057513423674 0.46994248657632604 0.5838172130704451 0.4161827869295549 0.664254269433564 0.335745730566436 0.5049568364227476 0.4950431635772524 0.48837556877767363 0.5116244312223264 0.4808037692891807 0.5191962307108192 0.0560748799399952 0.9439251200600048 0.654797751574242 0.345202248425758 0.12230822833996477 0.8776917716600352 0.3374061292949702 0.6625938707050297 0.5200503335274785 0.47994966647252146 0.30145312691895026 0.6985468730810497 0.5847154114298727 0.41528458857012734 0.4212490573140052 0.5787509426859948 0.11068847912500021 0.8893115208749998 0.37136048702658425 0.6286395129734157 0.9694855715516527 0.03051442844834731 0.31738223781542957 0.6826177621845704 0.13401186822515573 0.8659881317748442 0.5298956379388429 0.4701043620611572 0.3458890936679414 0.6541109063320585 0.2559732014316815 0.7440267985683187 0.3796191195398732 0.6203808804601267 0.6075238179669584 0.39247618203304163 0.5135178992165947 0.4864821007834053 0.700118182589262 0.29988181741073794 0.7620237537033976 0.23797624629660238 0.12066278808483491 0.8793372119151651 0.9311676095579772 0.06883239044202288 0.40632561645611426 0.5936743835438858 0.9491077794168207 0.050892220583179305 0.7521591076698619 0.24784089233013804 0.6369825457287319 0.3630174542712681 0.5373811245432989 0.4626188754567012 0.9363545220167049 0.06364547798329516 0.4427143391103647 0.5572856608896353 0.129934273490857 0.8700657265091429 0.6583753087521318 0.34162469124786826 0.9984586507999281 0.0015413492000718842 0.4531788213693472 0.5468211786306528 0.5634173432733056 0.4365826567266944 0.4996740620414918 0.5003259379585082 0.4815460049096859 0.5184539950903142 0.5461905791764521 0.45380942082354797 0.5084913855665886 0.4915086144334114 0.34995614488228555 0.6500438551177145 0.16242937078866843 0.8375706292113316 0.19348012478522023 0.8065198752147797 0.1593793602597111 0.8406206397402889 0.24540426967434933 0.7545957303256505 0.722287062758969 0.2777129372410309 0.5053647797442599 0.49463522025574 0.6432142872787967 0.3567857127212034 0.4091858197381969 0.5908141802618031 0.20782332191474673 0.7921766780852534 0.4666345891966909 0.5333654108033091 0.648744959663254 0.35125504033674615 0.5069097764334046 0.4930902235665953 0.4569122625234966 0.5430877374765034 0.6630307527718027 0.3369692472281973 0.2623736661153256 0.7376263338846742 0.11368638758881065 0.8863136124111893 0.6630713333457756 0.33692866665422444 0.39288425088549705 0.607115749114503 0.7208564864907353 0.2791435135092646 0.33415562685524297 0.6658443731447571 0.5273134565325682 0.47268654346743183 0.6279731071198913 0.3720268928801087 0.43488569754345546 0.5651143024565445 0.7027902628964046 0.29720973710359544 0.16689586137893953 0.8331041386210605 0.5124409401183634 0.4875590598816366 0.8841262112701647 0.11587378872983532 0.13864885004146085 0.8613511499585391 0.1524557175834689 0.8475442824165311 0.4137860202339677 0.5862139797660323 0.5588663692660099 0.44113363073399026 0.23681924850551575 0.7631807514944843 0.7287890670392032 0.27121093296079674 0.0200451684226499 0.9799548315773501 </TABLE>
    </DEFINITION>
    <DEFINITION>
      <FOR>16</FOR>
      <GIVEN>1</GIVEN>
      <GIVEN>2</GIVEN>
      <GIVEN>4</GIVEN>
      <GIVEN>9</GIVEN>
      <GIVEN>10</GIVEN>
      <GIVEN>11</GIVEN>
      <GIVEN>8</GIVEN>
      <GIVEN>12</GIVEN>
      <GIVEN>3</GIVEN>
      <GIVEN>15</GIVEN>
      <GIVEN>13</GIVEN>
      <GIVEN>6</GIVEN>
      <GIVEN>14</GIVEN>
      <TABLE>0.6217497167884546 0.37825028321154536 0.5417536140443777 0.45824638595562217 0.8535162794112064 0.1464837205887935 0.105842299109318 0.894157700890682 0.07435791195465881 0.9256420880453412 0.9499054274398891 0.05009457256011081 0.4775338132464083 0.5224661867535917 0.5363969389707061 0.463603061029294 0.9473323396445326 0.05266766035546742 0.12004792256252343 0.8799520774374767 0.2754766084326823 0.7245233915673178 0.49119585475382443 0.5088041452461757 0.8140463031961603 0.1859536968038396 0.34627545623563166 0.6537245437643684 0.5049823970376706 0.4950176029623295 0.534365533256934 0.4656344667430661 0.8900382949567808 0.10996170504321921 0.726639597220932 0.273360402779068 0.05872000161761362 0.9412799983823864 0.5106109364488289 0.4893890635511711 0.6295214155769456 0.37047858442305437 0.418762110302441 0.581237889697559 0.2512825457548339 0.7487174542451661 0.7706089686032462 0.2293910313967538 0.8170013487931205 0.18299865120687953 0.4683504630435101 0.53164953695649 0.41692599196076646 0.5830740080392336 0.8340660268733595 0.16593397312664043 0.474778437775518 0.525221562224482 0.16831777543431173 0.8316822245656883 0.8313028069463567 0.16869719305364325 0.2382884700950977 0.7617115299049023 0.8788862935932132 0.12111370640678672 0.8933712029583792 0.10662879704162073 0.9981530971874187 0.0018469028125812764 0.23957729395868804 0.760422706041312 0.8761742716890952 0.12382572831090481 0.9547789768019027 0.045221023198097295 0.4905230144319638 0.5094769855680362 0.36415340050208367 0.6358465994979163 0.8248777759822976 0.17512222401770244 0.06811412123792866 0.9318858787620713 0.5661880193496102 0.4338119806503899 0.5438053203242968 0.45619467967570326 0.5124433930270803 0.48755660697291975 0.545766175730538 0.45423382426946207 0.3515802353257502 0.6484197646742498 0.36847091880360017 0.6315290811963997 0.5950984858918209 0.4049015141081791 0.4732704328311782 0.5267295671688218 0.5514293085200218 0.44857069147997825 0.4958906155350367 0.5041093844649633 0.30309578373252877 0.6969042162674712 0.35728117221012395 0.642718827789876 0.07949434008899198 0.9205056599110081 0.2401560425012872 0.7598439574987128 0.41607234547480715 0.5839276545251928 0.5730975437522594 0.42690245624774065 0.7454146727049813 0.2545853272950187 0.29896017484256315 0.7010398251574369 0.2579527414956366 0.7420472585043634 0.03424908121224987 0.9657509187877501 0.5257628734705714 0.4742371265294285 0.5569399861333867 0.44306001386661337 0.5440050367711088 0.45599496322889116 0.18812229742573824 0.8118777025742618 0.5369023529637479 0.46309764703625206 0.019073505285692093 0.9809264947143079 0.45512903788320996 0.5448709621167901 0.6903276374052271 0.309672362594773 0.9811734170928346 0.018826582907165303 0.6057877719231552 0.39421222807684475 0.7291545263098772 0.2708454736901228 0.012981808194714726 0.9870181918052853 0.742816411944537 0.25718358805546304 0.21099398509561057 0.7890060149043894 0.42777168583592595 0.572228314164074 0.5355583299735902 0.46444167002640974 0.8517828665150149 0.14821713348498508 0.38791046749303215 0.6120895325069678 0.3573787664026418 0.6426212335973581 0.3648429526102367 0.6351570473897633 0.5942814835703197 0.40571851642968026 0.12902262478702933 0.8709773752129707 0.22537469207683342 0.7746253079231665 0.2950351904697198 0.7049648095302803 0.22940171798238923 0.7705982820176107 0.48376659735815164 0.5162334026418482 0.7341765691993857 0.2658234308006144 0.5465661863281718 0.4534338136718281 0.3945362688649571 0.6054637311350429 0.768124415026974 0.23187558497302593 0.5860072920907478 0.4139927079092523 0.26599464536093065 0.7340053546390694 0.2520690172781607 0.7479309827218392 0.5784761515376844 0.42152384846231555 0.6241573933587192 0.3758426066412809 0.9470130682307285 0.052986931769271474 0.7148915381630975 0.2851084618369026 0.021555964159188052 0.978444035840812 0.7177317354196212 0.28226826458037885 0.48035687188210874 0.5196431281178913 0.6293780352684908 0.3706219647315092 0.3867205321501791 0.6132794678498209 0.7542789536726163 0.24572104632738362 0.5592820870859649 0.44071791291403506 0.6980415063028748 0.30195849369712524 0.3312872921469609 0.668712707853039 0.39153581641208873 0.6084641835879113 0.696803404681871 0.30319659531812904 0.7172715436399463 0.28272845636005367 0.722214729875174 0.27778527012482607 0.6441734135302439 0.35582658646975607 0.7298457046121776 0.27015429538782243 0.5510720632903243 0.44892793670967573 0.5635023328839756 0.4364976671160244 0.9954197036113893 0.004580296388610728 0.8713599029827471 0.12864009701725287 0.5645662748615644 0.4354337251384356 0.8514319324071146 0.1485680675928854 0.24650964089626443 0.7534903591037356 0.38318871000846166 0.6168112899915383 0.82739277176417 0.1726072282358299 0.8860109966890283 0.11398900331097168 0.5383988798798902 0.46160112012010973 0.17163117950350723 0.8283688204964927 0.2940070541056504 0.7059929458943496 0.9835481515944592 0.016451848405540846 0.5352717441873257 0.46472825581267435 0.00260831147193325 0.9973916885280667 0.07670399608476292 0.9232960039152371 0.871946635565132 0.128053364434868 0.6084020026678492 0.39159799733215095 0.40918796479526975 0.5908120352047302 0.42074992868217415 0.5792500713178259 0.4641745496251797 0.5358254503748203 0.33937564295957506 0.660624357040425 0.22119410677743317 0.7788058932225668 0.23242570152311498 0.767574298476885 0.2978155503690539 0.7021844496309462 0.4183232634813506 0.5816767365186494 0.37739784449727226 0.6226021555027278 0.3385194286646151 0.661480571335385 0.6792545172614396 0.3207454827385604 0.03602757435740512 0.9639724256425949 0.45355082861465124 0.5464491713853488 0.35717476794976405 0.6428252320502359 0.41841515827626113 0.5815848417237389 0.1995117325265961 0.8004882674734038 0.6310671667048257 0.3689328332951744 0.5674496002395525 0.4325503997604475 0.5420541716485143 0.4579458283514858 0.2775261247883994 0.7224738752116006 0.5194105104971808 0.48058948950281927 0.3159670180487417 0.6840329819512583 0.5526098548207518 0.44739014517924824 0.9596201564093892 0.04037984359061079 0.4587952892089514 0.5412047107910486 0.1189406010509606 0.8810593989490394 0.5906011824995568 0.4093988175004431 0.4990525630573165 0.5009474369426835 0.7294076244411928 0.27059237555880716 0.4785431248543361 0.5214568751456639 0.5207447581742517 0.47925524182574836 0.5087226910646098 0.4912773089353903 0.20183100513004 0.79816899486996 0.3816448084791299 0.61835519152087 0.064656502809431 0.9353434971905691 0.36921725749645284 0.6307827425035472 0.33131023737372334 0.6686897626262768 0.318238204640676 0.6817617953593241 0.20373974273599327 0.7962602572640067 0.44407156255126273 0.5559284374487373 0.9376885759036863 0.06231142409631372 0.6648382276491275 0.33516177235087247 0.2444939726988241 0.7555060273011758 0.46759390673875484 0.532406093261245 0.5831122459935072 0.41688775400649275 0.3227653080861672 0.6772346919138328 0.5436267268456411 0.4563732731543588 0.45205002868067995 0.54794997131932 0.31645935963999705 0.683540640360003 0.2551471762119702 0.7448528237880297 0.8171024310429155 0.1828975689570846 0.607344091213613 0.392655908786387 0.5790008290497504 0.42099917095024975 0.5106447501338209 0.4893552498661791 0.8409207271449587 0.15907927285504128 0.18925809780913763 0.8107419021908624 0.746009003834872 0.2539909961651281 0.26392153449764144 0.7360784655023586 0.3603428629170301 0.6396571370829699 0.39522581789224753 0.6047741821077525 0.848924604783187 0.15107539521681304 0.9049053260400413 0.09509467395995878 0.5717925448414628 0.42820745515853714 0.07514508672701331 0.9248549132729867 0.7721470238292366 0.22785297617076342 0.6189438527275793 0.38105614727242065 0.2402651889547719 0.7597348110452281 0.6502201512085836 0.3497798487914165 0.5670494578285542 0.43295054217144585 0.531434786129032 0.46856521387096794 0.45031176590390076 0.5496882340960993 0.5465902848624192 0.45340971513758077 0.3740415126180775 0.6259584873819224 0.47382957294291295 0.526170427057087 0.5148252757431222 0.4851747242568778 0.054267901507698196 0.9457320984923018 0.9707197600771793 0.029280239922820653 0.2661439249156968 0.7338560750843033 0.3458521475927027 0.6541478524072973 0.6225274595995555 0.37747254040044453 0.5182885799479806 0.48171142005201945 0.7341320007613649 0.26586799923863513 0.2762965334548963 0.7237034665451038 0.5762478883263152 0.42375211167368476 0.7742893396638385 0.22571066033616152 0.4584954085929252 0.5415045914070747 0.256074091251117 0.743925908748883 0.8021928653855046 0.19780713461449537 0.02862629837211206 0.9713737016278879 0.13489041962123288 0.8651095803787672 0.05218173933033663 0.9478182606696633 0.557341281627716 0.44265871837228393 0.1714371043706698 0.8285628956293302 0.8464049919357746 0.15359500806422552 0.5245350048415331 0.4754649951584669 0.3904523243960537 0.6095476756039463 0.8020620519374247 0.19793794806257523 0.4844813510911653 0.5155186489088347 0.5905917037411255 0.4094082962588746 0.4082973183149915 0.5917026816850085 0.034172056067753864 0.9658279439322461 0.3455907567480741 0.6544092432519261 0.9317893374411694 0.06821066255883053 0.5405653948629816 0.4594346051370183 0.4199426723029667 0.5800573276970332 0.27026170334213984 0.7297382966578602 0.682177240771267 0.31782275922873304 0.6238795666896316 0.3761204333103684 0.2681287318674974 0.7318712681325026 0.5233615551786281 0.47663844482137174 0.9052747271121775 0.09472527288782254 0.4135311316623387 0.5864688683376613 0.7861158550887813 0.2138841449112186 0.3759737197557891 0.6240262802442108 0.6093456967632708 0.3906543032367293 0.46242264960078494 0.5375773503992151 0.487217706534234 0.512782293465766 0.6473359320527633 0.3526640679472367 0.6301927289927753 0.3698072710072246 0.5477998646349341 0.4522001353650659 0.9996882751555313 0.0003117248444687709 0.13887349442589636 0.8611265055741036 0.5442058836112308 0.45579411638876927 0.4784605172878731 0.5215394827121269 0.7615190040227073 0.2384809959772927 0.6897685274868266 0.31023147251317346 0.04446324715289015 0.9555367528471098 0.752597267450198 0.24740273254980202 0.3872354701359311 0.6127645298640688 0.542939320189781 0.457060679810219 0.7133164013518831 0.2866835986481168 0.6452735853934292 0.35472641460657084 0.07512695182682909 0.9248730481731708 0.17429080865386837 0.8257091913461316 0.6883317094348238 0.3116682905651762 0.6801761248673717 0.31982387513262833 0.9469057606691542 0.05309423933084579 0.7785178031790116 0.22148219682098846 0.436687187905086 0.563312812094914 0.5155236387622483 0.4844763612377518 0.295097758534665 0.7049022414653351 0.5415063946753482 0.4584936053246518 0.3601445823452536 0.6398554176547464 0.5823120526764718 0.41768794732352826 0.7482564242021923 0.25174357579780765 0.4898764992266855 0.5101235007733146 0.8285963279483588 0.1714036720516412 0.20442536225529961 0.7955746377447004 0.618546379090888 0.38145362090911195 0.7730325289336716 0.22696747106632845 0.9046424026462522 0.0953575973537478 0.8678884679842099 0.1321115320157901 0.7374442054523224 0.26255579454767763 0.5954022876354232 0.4045977123645767 0.5619771189845925 0.43802288101540754 0.5679305191233734 0.4320694808766266 0.3873482220472247 0.6126517779527753 0.20169257010874925 0.7983074298912507 0.3345176165629888 0.6654823834370113 0.2931747853984647 0.7068252146015352 0.2666016467095093 0.7333983532904907 0.4635876160953963 0.5364123839046037 0.5883206405972561 0.4116793594027439 0.44611285513144716 0.5538871448685527 0.5221952748356326 0.47780472516436756 0.7941649280228121 0.20583507197718792 0.28980152387061764 0.7101984761293825 0.8739433119347537 0.12605668806524628 0.6993022387725192 0.3006977612274809 0.31476956598883316 0.6852304340111669 0.9694980301033352 0.03050196989666481 0.4137196057423145 0.5862803942576856 0.6976165644141451 0.3023834355858549 0.3285820950549703 0.6714179049450296 0.33853664937820444 0.6614633506217956 0.6404235416690419 0.3595764583309581 0.8614642058351729 0.13853579416482703 0.05070572929527295 0.949294270704727 0.6276214461533846 0.3723785538466154 0.37321405280863396 0.626785947191366 0.6744684780948438 0.3255315219051561 0.6775992883487638 0.3224007116512362 0.32915003348961525 0.6708499665103849 0.30267223352691897 0.697327766473081 0.5046426323406032 0.49535736765939675 0.9429901833063042 0.05700981669369576 0.4205796985183184 0.5794203014816817 0.5279229488195274 0.47207705118047255 0.7906246390237983 0.20937536097620166 0.63507963231465 0.3649203676853499 0.8982435753998206 0.10175642460017943 0.42779647564154794 0.5722035243584521 0.4877519090705799 0.51224809092942 0.5506742911275171 0.4493257088724829 0.7826272274926936 0.21737277250730627 0.46557174791534317 0.5344282520846568 0.3142826576540499 0.6857173423459502 0.5841876333531787 0.4158123666468213 0.41834122235407006 0.58165877764593 0.40663613384890257 0.5933638661510974 0.3437122310752448 0.6562877689247553 0.5404398133700368 0.4595601866299631 0.34371728654668016 0.6562827134533198 0.6019062224045992 0.3980937775954008 0.384401283422038 0.6155987165779621 0.4244725429927398 0.5755274570072602 0.5844057017247646 0.41559429827523553 0.4492170702303478 0.5507829297696522 0.4406404161502495 0.5593595838497506 0.49546344778284607 0.504536552217154 0.5107103726739276 0.48928962732607245 0.39485634749959936 0.6051436525004007 0.9730690478017686 0.026930952198231377 0.4960713269421191 0.5039286730578809 0.7153362801652374 0.2846637198347626 0.9104063642335607 0.08959363576643935 0.5852930936029417 0.4147069063970582 0.9601343667226022 0.03986563327739783 0.8348965033615257 0.16510349663847432 0.4363265001531275 0.5636734998468724 0.6684638925192008 0.33153610748079926 0.27848643544632445 0.7215135645536755 0.5013163677257964 0.49868363227420365 0.34166757538209347 0.6583324246179066 0.27434460350564677 0.7256553964943532 0.15541854579338152 0.8445814542066185 0.1187215022764088 0.8812784977235912 0.759785121901592 0.24021487809840816 0.5973867488401244 0.4026132511598755 0.48142188616366755 0.5185781138363325 0.043427111825636244 0.9565728881743637 0.3917520846780727 0.6082479153219273 0.865757240980418 0.1342427590195821 0.2842164720459771 0.7157835279540229 0.565665894538416 0.43433410546158413 0.3080502766300299 0.6919497233699701 0.8207834531351593 0.17921654686484065 0.9641194336394373 0.03588056636056268 0.4108887994500382 0.5891112005499618 0.6622208396555262 0.33777916034447375 0.27974333432339576 0.7202566656766042 0.3576506605721628 0.6423493394278371 0.8319188320617195 0.16808116793828054 0.6773567622853037 0.3226432377146964 0.8985456247586682 0.10145437524133191 0.7023173473795197 0.2976826526204803 0.8003610461415018 0.19963895385849822 0.5225705614544762 0.4774294385455239 0.6625710362620316 0.3374289637379684 0.6329197205884985 0.36708027941150156 0.4747114024828881 0.5252885975171119 0.4752542222191548 0.5247457777808452 0.07126950460843352 0.9287304953915665 0.7452894616461951 0.25471053835380486 0.6480410800943079 0.35195891990569217 0.8372151058755399 0.16278489412446007 0.7812550172619991 0.21874498273800091 0.0018980643006272727 0.9981019356993728 0.3640953389098683 0.6359046610901316 0.7052638698016196 0.2947361301983804 0.3035330201287188 0.6964669798712813 0.6515967390252473 0.3484032609747527 0.4455145004469741 0.554485499553026 0.18335074369941015 0.8166492563005898 0.39135405888864966 0.6086459411113504 0.3705153088755849 0.6294846911244151 0.1223822222847904 0.8776177777152097 0.7955976366584864 0.2044023633415136 0.5946299018176465 0.4053700981823535 0.6759918112254679 0.32400818877453214 0.10405791608424117 0.8959420839157588 0.08270506819513064 0.9172949318048693 0.2803441030429136 0.7196558969570864 0.3876938213725419 0.6123061786274581 0.10611663382308409 0.8938833661769159 0.19094679098937034 0.8090532090106297 0.6096606874359118 0.3903393125640882 0.8263990075602349 0.17360099243976512 0.8187078756620761 0.1812921243379238 0.4509656139902504 0.5490343860097495 0.6964831354084329 0.30351686459156707 0.9110059438641505 0.08899405613584949 0.15384098530819512 0.8461590146918049 0.69093918046298 0.30906081953701997 0.1745672484162406 0.8254327515837594 0.7169725578160447 0.28302744218395526 0.45045496883136493 0.5495450311686351 0.48009738149420783 0.5199026185057922 0.4771579292889851 0.5228420707110149 0.45736614813456467 0.5426338518654353 0.4925714711045299 0.5074285288954701 0.36229132755476784 0.6377086724452322 0.47426617558824996 0.52573382441175 0.6887770149161121 0.3112229850838879 0.7254497684749462 0.2745502315250537 0.6608034499281236 0.3391965500718764 0.4307787559146362 0.5692212440853638 0.22901277465052242 0.7709872253494776 0.3760098379291527 0.6239901620708473 0.3161523595102807 0.6838476404897194 0.2071307758817258 0.7928692241182742 0.7137250623853805 0.28627493761461953 0.37729921638590375 0.6227007836140963 0.28457984468408726 0.7154201553159127 0.3746368394990748 0.6253631605009252 0.4470283405128589 0.5529716594871411 0.5564074438265937 0.4435925561734063 0.5792372682971373 0.4207627317028627 0.6895251731159449 0.3104748268840552 0.6850632151121638 0.3149367848878361 0.6454122414282812 0.35458775857171876 0.38841727730036296 0.611582722699637 7.064669357330748e-05 0.9999293533064267 0.3076833022695117 0.6923166977304883 0.30909894476320365 0.6909010552367963 0.6884656251178041 0.31153437488219593 0.742341439813389 0.25765856018661104 0.7474406553021777 0.2525593446978223 0.17464017019604317 0.8253598298039568 0.45949984407324607 0.5405001559267539 0.8212644038996693 0.17873559610033074 0.6304120146177232 0.3695879853822768 0.021519755751656305 0.9784802442483437 0.7594315005438526 0.24056849945614742 0.029127144514710473 0.9708728554852896 0.8321757874425016 0.16782421255749838 0.854844819839613 0.14515518016038703 0.8392614461589943 0.1607385538410057 0.6591614393169297 0.34083856068307017 0.3141893875067028 0.6858106124932972 0.7238160265660043 0.27618397343399564 0.9791244686932686 0.020875531306731317 0.6952443347810902 0.3047556652189099 0.953459888587494 0.046540111412505976 0.12886337318713464 0.8711366268128654 0.2372236324044709 0.7627763675955291 0.1868479687923621 0.8131520312076379 0.0680284655995286 0.9319715344004714 0.1141579583603964 0.8858420416396036 0.7274336107676189 0.272566389232381 0.7190146292413989 0.28098537075860114 0.24796273000547658 0.7520372699945234 0.44623101057430803 0.5537689894256919 0.45615095657736016 0.5438490434226398 0.4666557545128006 0.5333442454871993 0.8629933125560911 0.137006687443909 0.1433293721311063 0.8566706278688937 0.21070543054893998 0.78929456945106 0.710383014010262 0.2896169859897379 0.5670247829586509 0.43297521704134906 0.006696343908748974 0.993303656091251 0.5929605874973752 0.4070394125026247 0.9065405785818442 0.09345942141815579 0.8945404460642528 0.10545955393574726 0.550901946053995 0.449098053946005 0.2757547173348087 0.7242452826651913 0.6939546458478874 0.3060453541521125 0.5321188560886285 0.4678811439113716 0.1303803994263634 0.8696196005736366 0.678546621238649 0.32145337876135105 0.6068186348507046 0.39318136514929536 0.9245637924094496 0.0754362075905504 0.844951783965706 0.155048216034294 0.9029709658803592 0.0970290341196408 0.10628840059194414 0.893711599408056 0.26737093428276393 0.7326290657172361 0.27588167403857194 0.724118325961428 0.8357035440386982 0.16429645596130177 0.5291008792360259 0.4708991207639741 0.2932539552871252 0.7067460447128748 0.5668606926850006 0.4331393073149995 0.5677221346866893 0.4322778653133107 0.557774106080863 0.442225893919137 0.5723903408441012 0.4276096591558988 0.4431249779486568 0.5568750220513432 0.536336362934194 0.4636636370658061 0.300353212142106 0.699646787857894 0.8549556149425936 0.14504438505740644 0.4366718326140697 0.5633281673859303 0.31447218210703226 0.6855278178929679 0.45360347001123386 0.5463965299887661 0.6951085881405269 0.30489141185947316 0.6603155400364373 0.3396844599635627 0.7576524660735926 0.24234753392640734 0.7491016190647847 0.25089838093521527 0.27052590710092117 0.7294740928990788 0.5009765485760669 0.499023451423933 0.7420911654032627 0.25790883459673725 0.9502388407256519 0.049761159274348085 0.536536121962083 0.46346387803791705 0.6461994926666531 0.35380050733334684 0.7184180483721069 0.281581951627893 0.33894160339140655 0.6610583966085934 0.6648226305743358 0.3351773694256642 0.7754429536771329 0.22455704632286705 0.8890216540903891 0.11097834590961085 0.5159268560483675 0.4840731439516325 0.8914160959838583 0.10858390401614167 0.4647195920754552 0.5352804079245448 0.2933987236878185 0.7066012763121815 0.5251281496509352 0.4748718503490648 0.38374858569086895 0.616251414309131 0.7110924422647056 0.2889075577352944 0.8511588073497373 0.14884119265026274 0.5607074486587145 0.43929255134128553 0.6921282105834118 0.3078717894165882 0.13347926412446903 0.8665207358755309 0.47800357103756 0.52199642896244 0.700263840967701 0.29973615903229905 0.7257599416163566 0.2742400583836434 0.5086167009508347 0.49138329904916545 0.7222240571635227 0.27777594283647733 0.8856306661135137 0.11436933388648635 0.12255039870835945 0.8774496012916405 0.672538327532765 0.3274616724672351 0.36098540466113266 0.6390145953388673 0.744720601662473 0.255279398337527 0.878734405430329 0.12126559456967101 0.5503513013959009 0.4496486986040991 0.49798950764951605 0.5020104923504839 0.27303949249534853 0.7269605075046515 0.763068439195531 0.236931560804469 0.7828601028624638 0.21713989713753618 0.7474442252845301 0.25255577471546997 0.6841428500176739 0.3158571499823261 0.38091776479150197 0.6190822352084979 0.3464549754949683 0.6535450245050317 0.8274195287242486 0.1725804712757514 0.8298791743848406 0.17012082561515954 0.10701382265088877 0.8929861773491112 0.9157804558179307 0.08421954418206931 0.10505361963634212 0.8949463803636579 0.36352369175151833 0.6364763082484817 0.3641541350459739 0.6358458649540262 0.263526925693318 0.7364730743066821 0.500411131276239 0.4995888687237609 0.7143184761310497 0.28568152386895024 0.025841105176992837 0.9741588948230072 0.4348306351811356 0.5651693648188644 0.015273990319517742 0.9847260096804823 0.4194541540464519 0.5805458459535481 0.9278034320598962 0.07219656794010375 0.25009828696929925 0.7499017130307007 0.5018975425346528 0.49810245746534726 0.465077495502146 0.534922504497854 0.6847146840568367 0.31528531594316334 0.4848823199487829 0.515117680051217 0.481817077158248 0.5181829228417519 0.4109769682733658 0.5890230317266342 0.5713398948648071 0.42866010513519287 0.7139539366275143 0.2860460633724857 0.5969552727171986 0.40304472728280144 0.4782661112575696 0.5217338887424304 0.3863839359490867 0.6136160640509133 0.5944627208048026 0.4055372791951974 0.5829899480529739 0.41701005194702606 0.4092408394712959 0.590759160528704 0.08823683361607706 0.911763166383923 0.05242349658394341 0.9475765034160566 0.633871299872528 0.366128700127472 0.3639189091966997 0.6360810908033002 0.41073181319104485 0.5892681868089551 0.06777069752699783 0.9322293024730022 0.7631863833325774 0.2368136166674226 0.7853058968147653 0.21469410318523477 0.5276344671275364 0.47236553287246363 0.4869184474752885 0.5130815525247115 0.7549440940892039 0.2450559059107962 0.7632561551716628 0.23674384482833727 0.148554186258074 0.851445813741926 0.4300327823568064 0.5699672176431936 0.3854735584850443 0.6145264415149557 0.4395446090442694 0.5604553909557307 0.804504194929068 0.19549580507093195 0.24586080570117536 0.7541391942988246 0.5169923047358619 0.4830076952641381 0.8593957456760699 0.14060425432393006 0.41372259512363085 0.586277404876369 0.12400078594355363 0.8759992140564463 0.6765806131621767 0.3234193868378233 0.9708618807722927 0.029138119227707256 0.43891015724328997 0.5610898427567099 0.7883454557124033 0.21165454428759667 0.9016278804514659 0.0983721195485341 0.14552114755284065 0.8544788524471594 0.004926243263087933 0.9950737567369121 0.4686839931789164 0.5313160068210836 0.5280450601417975 0.47195493985820247 0.502058326479337 0.49794167352066293 0.4335732476125273 0.5664267523874726 0.5993537161511219 0.4006462838488782 0.5333273568682746 0.46667264313172535 0.5212161768685951 0.47878382313140483 0.39157979147916966 0.6084202085208303 0.5360967265391655 0.46390327346083443 0.4445393878113643 0.5554606121886357 0.695755618605119 0.304244381394881 0.34205733297540497 0.6579426670245949 0.8133111894522554 0.18668881054774453 0.8911458029326856 0.1088541970673144 0.7838183000099076 0.21618169999009243 0.5765285602240279 0.4234714397759721 0.9188976572951186 0.08110234270488134 0.5382034219962145 0.4617965780037855 0.7894472859723917 0.21055271402760842 0.2578861118927522 0.7421138881072478 0.1270558194704281 0.8729441805295719 0.5024147951854239 0.49758520481457613 0.32056486295315456 0.6794351370468454 0.9738884385940659 0.02611156140593406 0.5177153194154123 0.4822846805845878 0.7809918455029247 0.21900815449707534 0.2183378833828031 0.7816621166171969 0.8771023794966645 0.1228976205033355 0.2680621462526457 0.7319378537473543 0.25710940098412305 0.742890599015877 0.3074977245960786 0.6925022754039214 0.3319659456766326 0.6680340543233674 0.44679071762320494 0.553209282376795 0.13648982454564162 0.8635101754543584 0.5828801472234073 0.4171198527765928 0.5732389349600311 0.4267610650399689 0.1656198568946243 0.8343801431053757 0.4807621643038395 0.5192378356961606 0.49125441316870605 0.5087455868312939 0.17386442626805837 0.8261355737319416 0.7329705498645798 0.2670294501354201 0.540183364301667 0.459816635698333 0.3157931883767449 0.6842068116232551 0.593747209246266 0.406252790753734 0.4941470070161877 0.5058529929838123 0.7886828163416157 0.21131718365838428 0.7043887500525564 0.2956112499474435 0.6772313839761366 0.32276861602386353 0.5064295635582067 0.49357043644179327 0.4375312694564922 0.5624687305435078 0.5817611880651966 0.41823881193480344 0.45131110594880935 0.5486888940511907 0.4794641104964973 0.5205358895035027 0.4240336984743964 0.5759663015256036 0.3889226298620167 0.6110773701379832 0.6005002787704623 0.39949972122953775 0.42193885295842937 0.5780611470415707 0.518313892244913 0.4816861077550871 0.40465892919222607 0.5953410708077739 0.9712066407982701 0.02879335920172984 0.098223534066614 0.901776465933386 0.392819336972271 0.607180663027729 0.8672080087130917 0.1327919912869082 0.1323740262216526 0.8676259737783475 0.8484747385108079 0.15152526148919204 0.7054557604361373 0.29454423956386266 0.6767712838625274 0.32322871613747267 0.5116845626248561 0.48831543737514405 0.16418179705225994 0.8358182029477401 0.11613034626084856 0.8838696537391515 0.5003273406568443 0.4996726593431557 0.9166861952358133 0.08331380476418668 0.714623651537286 0.2853763484627139 0.313976112964255 0.686023887035745 0.30717986335629854 0.6928201366437015 0.5340638709204855 0.4659361290795145 0.3721172460028402 0.6278827539971598 0.039474981755366824 0.9605250182446332 0.9629306329992374 0.03706936700076259 0.7054792803861645 0.29452071961383547 0.3889037264308752 0.6110962735691249 0.37812613635805165 0.6218738636419483 0.3439843611352211 0.656015638864779 0.18036043863602097 0.8196395613639791 0.18283861349122787 0.8171613865087721 0.6906701433048081 0.3093298566951919 0.2982560995173346 0.7017439004826653 0.0990141151022613 0.9009858848977387 0.4161704967386346 0.5838295032613654 0.6021275051527413 0.3978724948472586 0.9057596941025762 0.09424030589742385 0.6593332670037542 0.3406667329962457 0.479379769080749 0.520620230919251 0.6049684583837149 0.39503154161628495 0.5499900389204468 0.45000996107955316 0.4118964257620128 0.5881035742379872 0.3266019122558792 0.6733980877441208 0.4603746741212541 0.5396253258787459 0.6638506655788199 0.33614933442118017 0.47048005871840437 0.5295199412815956 0.5585919480725495 0.4414080519274505 0.3770548300434774 0.6229451699565226 0.7572043106116774 0.2427956893883227 0.4361035831945287 0.5638964168054713 0.42409260755432315 0.5759073924456768 0.23558934112084093 0.7644106588791592 0.5811049802695579 0.41889501973044196 0.558265781461758 0.4417342185382421 0.359802721058026 0.640197278941974 0.34706292835439995 0.6529370716456001 0.7071988430080776 0.29280115699192244 0.39031984306631234 0.6096801569336876 0.8553267904973547 0.14467320950264534 0.8412769779103212 0.15872302208967884 0.3231089563734084 0.6768910436265916 0.41510394432668396 0.584896055673316 0.25014705033847795 0.7498529496615222 0.41011975719890587 0.5898802428010941 0.41880954069572207 0.5811904593042778 0.7329323826902139 0.2670676173097861 0.43662202898494834 0.5633779710150517 0.3942031351928822 0.6057968648071177 0.6799598798215044 0.32004012017849554 0.6877649205817108 0.31223507941828926 0.8706780563654921 0.1293219436345079 0.7117509586350029 0.288249041364997 0.09880857731150496 0.9011914226884951 0.4000592716079769 0.5999407283920233 0.4653397831605355 0.5346602168394645 0.5614988960685244 0.43850110393147546 0.31066466599715675 0.6893353340028433 0.5613028267408853 0.43869717325911484 0.5025298613190182 0.4974701386809817 0.8152801132182257 0.18471988678177442 0.21461017279782857 0.7853898272021714 0.6334755953607542 0.36652440463924574 0.8199249703651399 0.18007502963486 0.3380033857137795 0.6619966142862204 0.6424298667510366 0.35757013324896336 0.981669190769031 0.018330809230968918 0.30239671294054843 0.6976032870594516 0.8156087696318257 0.18439123036817426 0.9936406361895206 0.006359363810479419 0.4457323562983718 0.5542676437016281 0.7662733144042065 0.23372668559579343 0.9811404745213536 0.0188595254786465 0.6552933694412963 0.34470663055870365 0.3174136786378593 0.6825863213621407 0.33114587121133404 0.6688541287886659 0.19944139138276004 0.80055860861724 0.2073159050044403 0.7926840949955597 0.40852999019145925 0.5914700098085407 0.5990261867854181 0.40097381321458186 0.6117882568777157 0.3882117431222843 0.6770207730903993 0.3229792269096007 0.34103109285078154 0.6589689071492184 0.4884997777172725 0.5115002222827275 0.09855799105103843 0.9014420089489615 0.7908190962278787 0.20918090377212126 0.2999584506356497 0.7000415493643503 0.7415117674880676 0.2584882325119325 0.4601385675676531 0.539861432432347 0.619191833477427 0.380808166522573 0.40939974663342593 0.590600253366574 0.32313580506818523 0.6768641949318147 0.7868512442026321 0.21314875579736803 0.6216524099724283 0.3783475900275717 0.33049142375192125 0.6695085762480788 0.7371713888183544 0.2628286111816456 0.6707555927760964 0.3292444072239035 0.044454571170959675 0.9555454288290404 0.044594235159268525 0.9554057648407315 0.42249658581666816 0.5775034141833318 0.1683307823977866 0.8316692176022134 0.47932756166427476 0.5206724383357252 0.7210898712057823 0.27891012879421767 0.0851374838598916 0.9148625161401083 0.7721864051885677 0.2278135948114323 0.4290143753449501 0.5709856246550499 0.43958808005037997 0.5604119199496199 0.7339612525807359 0.26603874741926425 0.5858285543636695 0.4141714456363304 0.5661020412038826 0.4338979587961173 0.7505449450072429 0.2494550549927572 0.7106116580298907 0.2893883419701093 0.4542889624196764 0.5457110375803236 0.8072219696657259 0.19277803033427413 0.12749368166748656 0.8725063183325135 0.4966353367616144 0.5033646632383857 0.4962723676880268 0.503727632311973 0.7764154852440931 0.22358451475590693 0.5936572099324212 0.40634279006757873 0.1655190292340258 0.8344809707659742 0.5431030859529299 0.45689691404707006 0.11334677790549358 0.8866532220945064 0.8158654655925374 0.18413453440746264 0.618361856244116 0.381638143755884 0.33597905000866946 0.6640209499913305 0.7667878058069417 0.23321219419305828 0.5879541133841345 0.41204588661586555 0.7760936637344613 0.22390633626553874 0.1399413239155201 0.86005867608448 0.44318237481245115 0.5568176251875488 0.026011052573999893 0.9739889474260001 0.47979297619709926 0.5202070238029006 0.45869753838668376 0.5413024616133163 0.31740350090653635 0.6825964990934638 0.535894124947334 0.46410587505266604 0.2939726164715503 0.7060273835284496 0.37137955001947376 0.6286204499805264 0.569354149669678 0.430645850330322 0.9710726486340705 0.028927351365929506 0.452703724858006 0.547296275141994 0.44966625937740734 0.5503337406225927 0.034863933661562756 0.9651360663384373 0.527378842708859 0.4726211572911409 0.6256944023456675 0.3743055976543324 0.6365898308159079 0.3634101691840922 0.9883037139631196 0.01169628603688047 0.3819659162884764 0.6180340837115235 0.613423286782705 0.38657671321729503 0.16080645222390028 0.8391935477760998 0.18437682730202062 0.8156231726979793 0.6462638171296531 0.3537361828703469 0.4285860551596458 0.5714139448403542 0.22520194845964983 0.7747980515403502 0.26531351107515844 0.7346864889248417 0.395045377256167 0.6049546227438329 0.2278470814981856 0.7721529185018144 0.5150274084434961 0.4849725915565039 0.4592199084544081 0.5407800915455919 0.7193522053673257 0.28064779463267436 0.32408121501663606 0.675918784983364 0.7209842652903098 0.2790157347096902 0.4169790207512092 0.5830209792487908 0.9668397275794831 0.03316027242051694 0.049180596075422967 0.950819403924577 0.3898563191515713 0.6101436808484287 0.02859574589277118 0.9714042541072289 0.5678635038438162 0.43213649615618377 0.5779877738804687 0.4220122261195312 0.000937146711976388 0.9990628532880236 0.7686612169446435 0.23133878305535652 0.3916743597847496 0.6083256402152505 0.3356748376617238 0.6643251623382762 0.6262418167089395 0.37375818329106036 0.38238705514865434 0.6176129448513457 0.8048169437036928 0.19518305629630708 0.24967183582205446 0.7503281641779456 0.25540722769372254 0.7445927723062774 0.9248391922492043 0.07516080775079566 0.5398180263471467 0.4601819736528533 0.5605486335221458 0.43945136647785427 0.5154443122939931 0.4845556877060069 0.3612287521976962 0.6387712478023039 0.8738536448747706 0.1261463551252295 0.4156208315938865 0.5843791684061135 0.7129098262482184 0.2870901737517816 0.665443005201529 0.33455699479847106 0.6404383960225909 0.35956160397740905 0.38343143968757315 0.6165685603124268 0.7286800308810663 0.27131996911893363 0.9733638290934129 0.0266361709065871 0.5345329477232784 0.46546705227672164 0.6541708551030323 0.34582914489696776 0.7882576860356381 0.2117423139643619 0.2266771440197231 0.7733228559802768 0.28495039136436373 0.7150496086356362 0.2446923816890815 0.7553076183109185 0.41420430421924237 0.5857956957807576 0.475671877950693 0.524328122049307 0.5142562000022249 0.485743799997775 0.014192402925626912 0.985807597074373 0.24343170383896856 0.7565682961610314 0.3424174074400213 0.6575825925599786 0.4880203213740449 0.5119796786259551 0.47917361819800347 0.5208263818019966 0.45777513506394135 0.5422248649360587 0.4485476559643565 0.5514523440356435 0.5785513553919974 0.42144864460800247 0.8969047953274581 0.10309520467254182 0.2823997504156826 0.7176002495843173 0.4538516341264446 0.5461483658735554 0.31274100549520367 0.6872589945047964 0.5213654820618201 0.47863451793817996 0.7835502717822846 0.21644972821771535 0.46343771386218724 0.5365622861378126 0.3080403508201409 0.6919596491798591 0.5607236818546113 0.4392763181453887 0.3446314157241588 0.6553685842758412 0.6147148788617725 0.3852851211382275 0.8752658109340297 0.12473418906597031 0.5156308686120918 0.4843691313879081 0.27910201481456387 0.7208979851854361 0.6717644635334684 0.32823553646653153 0.899072235223757 0.100927764776243 0.5180946903806996 0.4819053096193005 0.6922679631857214 0.30773203681427863 0.9975711731921363 0.0024288268078637362 0.3875231841770365 0.6124768158229634 0.10958204340742418 0.8904179565925758 0.5026229997578384 0.4973770002421616 0.5251583088688786 0.4748416911311214 0.8605531569670953 0.13944684303290464 0.223429607819105 0.776570392180895 0.5820474660706635 0.4179525339293365 0.6362540544140364 0.3637459455859637 0.624649628495026 0.375350371504974 0.26351748844719186 0.7364825115528082 0.50555518510521 0.49444481489479003 0.39371041561281894 0.606289584387181 0.36402176074686826 0.6359782392531319 0.939272824908653 0.06072717509134693 0.5719257770730709 0.42807422292692915 0.2935572961922899 0.7064427038077101 0.4965613419010165 0.5034386580989836 0.20936709172855464 0.7906329082714453 0.656940535542038 0.343059464457962 0.8368804914446474 0.16311950855535265 0.49427606723591644 0.5057239327640836 0.35378918124577224 0.6462108187542277 0.5605575785853083 0.43944242141469175 0.15787684231273624 0.8421231576872639 0.6957806211042653 0.30421937889573464 0.5641023446764898 0.4358976553235102 0.5410448848310417 0.45895511516895826 0.8875519609110554 0.11244803908894467 0.4876525035198977 0.5123474964801024 0.5884275660632062 0.4115724339367937 0.5264227740852312 0.47357722591476886 0.5651251449017054 0.43487485509829465 0.22933970974006693 0.7706602902599331 0.32651359091491305 0.673486409085087 0.5831604325618125 0.41683956743818756 0.4414592180242821 0.558540781975718 0.7527640163707007 0.24723598362929933 0.7995790661560658 0.20042093384393425 0.7705944841347685 0.22940551586523147 0.439037443506505 0.560962556493495 0.19881966143587787 0.8011803385641221 0.5578172040538685 0.44218279594613147 0.7560895402795794 0.24391045972042058 0.5980996078535044 0.40190039214649564 0.886899395872753 0.11310060412724698 0.5798429269903034 0.4201570730096965 0.4752595630465017 0.5247404369534984 0.7816845107433962 0.21831548925660366 0.5142380935830312 0.4857619064169689 0.2942192164381957 0.7057807835618043 0.8314208893987044 0.1685791106012956 0.7055875089533329 0.2944124910466671 0.6352751990932138 0.3647248009067862 0.7495479215834033 0.25045207841659667 0.8575215973201848 0.14247840267981515 0.491780155387836 0.508219844612164 0.48873291153397347 0.5112670884660265 0.3995605084967777 0.6004394915032223 0.33250569470638247 0.6674943052936175 0.511005014198641 0.488994985801359 0.7449062783048683 0.2550937216951318 0.8131868538047545 0.18681314619524544 0.1266460972122133 0.8733539027877867 0.21356280040530512 0.7864371995946948 0.7202750411873476 0.2797249588126523 0.5870737737472627 0.41292622625273734 0.12922576912194994 0.8707742308780501 0.6543931175863018 0.34560688241369825 0.08440518367445472 0.9155948163255453 0.7416145955690063 0.2583854044309937 0.2787183306069497 0.7212816693930503 0.3025922790788778 0.6974077209211221 0.9942861386346643 0.00571386136533564 0.20478144249433594 0.7952185575056641 0.9593079280210225 0.04069207197897749 0.4148584326312573 0.5851415673687427 0.39259879569943823 0.6074012043005618 0.8544846716945325 0.1455153283054675 0.03566719386436167 0.9643328061356383 0.23496152322520253 0.7650384767747974 0.3198475558170489 0.6801524441829511 0.44837312665890916 0.5516268733410908 0.44485846047094646 0.5551415395290535 0.3800896620891796 0.6199103379108205 0.8202295679550059 0.17977043204499407 0.03415607656360017 0.9658439234363998 0.7356870424053912 0.26431295759460877 0.23089797504528853 0.7691020249547115 0.9492360157273904 0.05076398427260968 0.38433176069676833 0.6156682393032316 0.3044891744438366 0.6955108255561633 0.4550855281491953 0.5449144718508047 0.39735052691556333 0.6026494730844366 0.3492079373796117 0.6507920626203884 0.27668901955514247 0.7233109804448576 0.9560351979959902 0.0439648020040098 0.04880357995627709 0.951196420043723 0.8919349388801427 0.10806506111985727 0.5049359330897305 0.4950640669102694 0.9976807573670908 0.0023192426329091847 0.45501727840026707 0.5449827215997328 0.14230963158665633 0.8576903684133437 0.03571548196813141 0.9642845180318685 0.7585936520783263 0.24140634792167356 0.07237054429360511 0.9276294557063949 0.2643352833266194 0.7356647166733806 0.333901108407827 0.666098891592173 0.572766950161375 0.4272330498386249 0.6827447841070313 0.31725521589296873 0.02852492551777286 0.9714750744822271 0.5176425810772823 0.48235741892271766 0.9678997840156743 0.03210021598432572 0.5546112106129949 0.44538878938700505 0.32289819954897636 0.6771018004510236 0.1956686482067807 0.8043313517932192 0.8929154757833692 0.10708452421663085 0.766413554581795 0.23358644541820492 0.7551562224928747 0.2448437775071253 0.2399509768272086 0.7600490231727914 0.8643647023769686 0.13563529762303136 0.06469318015628368 0.9353068198437163 0.5050387819831298 0.4949612180168703 0.3439396910882076 0.6560603089117922 0.5790535985205459 0.42094640147945406 0.12533015063881883 0.8746698493611812 0.8621381452024968 0.13786185479750318 0.12076218711656281 0.8792378128834372 0.6410798690592782 0.35892013094072184 0.2687372069735679 0.731262793026432 0.6674593119515213 0.33254068804847875 0.7732929332584584 0.22670706674154165 0.8463113237960611 0.15368867620393886 0.7129784367717548 0.2870215632282453 0.010748798956443548 0.9892512010435565 0.6001293385519141 0.39987066144808603 0.43980972335363283 0.5601902766463672 0.814881014456444 0.18511898554355594 0.9805248816357043 0.01947511836429575 0.8482025594805181 0.1517974405194818 0.507701204135123 0.492298795864877 0.794998081204601 0.20500191879539895 0.4783098958161763 0.5216901041838238 0.7433432044260083 0.2566567955739918 0.9317153868474193 0.06828461315258073 0.26747474610065997 0.7325252538993401 0.9627462501813582 0.037253749818641775 0.6105387197066553 0.3894612802933447 0.1670166702408995 0.8329833297591005 0.8650560991598432 0.1349439008401568 0.0511798780789246 0.9488201219210755 0.7877330463789851 0.21226695362101494 0.0008031073218839973 0.999196892678116 0.630636686132401 0.3693633138675989 0.6609757759931773 0.3390242240068227 0.5442226321719302 0.45577736782806966 0.7019336195633425 0.2980663804366575 0.5174091208391465 0.48259087916085347 0.7485777040158751 0.2514222959841249 0.535417091999177 0.46458290800082297 0.325701164838978 0.6742988351610221 0.8523928550583372 0.14760714494166283 0.47400834856064245 0.5259916514393576 0.5466227282214221 0.453377271778578 0.6268134266523636 0.3731865733476364 0.6716203292806302 0.32837967071936985 0.4571428169565036 0.5428571830434964 0.8533078817066871 0.14669211829331283 0.07124033590134665 0.9287596640986533 0.6041780737900267 0.3958219262099732 0.44754087548094323 0.5524591245190569 0.33164422858780584 0.6683557714121943 0.3579576456208856 0.6420423543791144 0.9297536610383794 0.07024633896162058 0.4936812297477289 0.5063187702522711 0.40492571213835143 0.5950742878616486 0.07776682058960407 0.922233179410396 0.3089623143456015 0.6910376856543985 0.3378368870650221 0.662163112934978 0.5736870302844094 0.42631296971559074 0.3099868085168939 0.690013191483106 0.21582526154062506 0.784174738459375 0.6042170360073826 0.39578296399261753 0.6749845877876847 0.3250154122123152 0.6331610746897983 0.36683892531020174 0.011361587310373093 0.9886384126896269 0.6271467742972298 0.3728532257027702 0.20040481431968415 0.799595185680316 0.5586261460176799 0.4413738539823201 0.3383374609150249 0.6616625390849751 0.6678709136091049 0.3321290863908951 0.5838869436319829 0.41611305636801715 0.6432493405952007 0.35675065940479933 0.5239633771891303 0.47603662281086967 0.47895081338479856 0.5210491866152015 0.32038707393722515 0.6796129260627749 0.5842588207701139 0.415741179229886 0.02968214122191858 0.9703178587780814 0.5264669208524333 0.4735330791475667 0.4499246148217347 0.5500753851782654 0.22606009570479077 0.7739399042952092 0.8471385486909684 0.15286145130903164 0.9985793640183791 0.0014206359816209457 0.7157472491831985 0.28425275081680146 0.48702314350754916 0.5129768564924507 0.4344244130673799 0.5655755869326201 0.20233666354001686 0.7976633364599831 0.6817761054667869 0.318223894533213 0.26578097011295554 0.7342190298870445 0.4873027129992357 0.5126972870007643 0.22781392366209569 0.7721860763379044 0.021823567680490114 0.9781764323195099 0.714459147894981 0.28554085210501906 0.30796997666103254 0.6920300233389675 0.43291180899645065 0.5670881910035492 0.8714254796092826 0.12857452039071737 0.5006808947905692 0.49931910520943085 0.1676694518575025 0.8323305481424975 0.2066197413462433 0.7933802586537567 0.24329545686524617 0.7567045431347538 0.34783367253332803 0.652166327466672 0.9981642500195088 0.0018357499804911852 0.4330096126668416 0.5669903873331583 0.7823239419705295 0.2176760580294706 0.3403730312005082 0.6596269687994918 0.7199004982049305 0.2800995017950694 0.4892311436150918 0.5107688563849082 0.2554715130051885 0.7445284869948116 0.6345687554778698 0.36543124452213016 0.6452663164781247 0.3547336835218753 0.3006687598479291 0.6993312401520708 0.12728533264299743 0.8727146673570025 0.3838236016006772 0.6161763983993228 0.4196325701337953 0.5803674298662047 0.9510768482132521 0.0489231517867478 0.33409074551356316 0.6659092544864368 0.5012850107672774 0.4987149892327226 0.2849803476258943 0.7150196523741058 0.6520533500764956 0.3479466499235044 0.37740870609824717 0.6225912939017527 0.2552160231163433 0.7447839768836567 0.03586688001764309 0.964133119982357 0.4027141488771449 0.5972858511228551 0.2076296372050902 0.7923703627949098 0.9252636751700949 0.07473632482990517 0.4836727417215893 0.5163272582784108 0.18422745303850574 0.8157725469614943 0.7226087954994431 0.27739120450055693 0.7098561478643203 0.2901438521356798 0.824228519343239 0.17577148065676093 0.2416368297394345 0.7583631702605655 0.14455307633131106 0.8554469236686889 0.4860589458311527 0.5139410541688473 0.8322476234881973 0.16775237651180275 0.34130178015918344 0.6586982198408164 0.8824885580574379 0.11751144194256208 0.4285522866105607 0.5714477133894393 0.6458494011417032 0.35415059885829675 0.4341120557701137 0.5658879442298862 0.31605445579529645 0.6839455442047035 0.8842446174426816 0.11575538255731849 0.12389011964558287 0.8761098803544172 0.6543163264011788 0.34568367359882124 0.29362810097484265 0.7063718990251574 0.6555792467877789 0.3444207532122211 0.2555776092471949 0.744422390752805 0.5047965655562016 0.49520343444379844 0.3498347695753278 0.6501652304246722 0.4767849957550536 0.5232150042449464 0.6451153794139979 0.3548846205860022 0.489510907664449 0.5104890923355511 0.7533551290296372 0.2466448709703628 0.3965787371853088 0.6034212628146912 0.07007217250929976 0.9299278274907002 0.53570552263197 0.4642944773680299 0.864071076555892 0.13592892344410804 0.3820762955251269 0.6179237044748731 0.5222340453729164 0.4777659546270837 0.45118922506859277 0.5488107749314073 0.5462933137344679 0.4537066862655321 0.5382764673519059 0.461723532648094 0.3461499449738995 0.6538500550261004 0.12094209096314582 0.8790579090368542 0.6862720962159415 0.3137279037840584 0.6503555267476716 0.34964447325232834 0.8932957512778661 0.10670424872213398 0.6224473793051588 0.37755262069484113 0.617663423341339 0.382336576658661 0.01919599953170674 0.9808040004682933 0.5638932653123967 0.43610673468760325 0.5396370152831576 0.46036298471684245 0.42014963848156067 0.5798503615184394 0.5059869576323268 0.4940130423676732 0.3200586927503921 0.6799413072496079 0.0547340520366461 0.9452659479633538 0.19359173763605061 0.8064082623639494 0.14234721590292995 0.8576527840970699 0.43170880485795543 0.5682911951420445 0.5241407483248126 0.47585925167518744 0.650265777872123 0.3497342221278769 0.45247860853546185 0.5475213914645382 0.5131572686672394 0.48684273133276057 0.5108305447160836 0.4891694552839164 0.9488733616311692 0.05112663836883092 0.4880313083699267 0.5119686916300733 0.9320911285377581 0.0679088714622419 0.3523949097894979 0.647605090210502 0.46325051668563366 0.5367494833143663 0.5407518674773062 0.45924813252269386 0.606703841853744 0.3932961581462559 0.16769926911118352 0.8323007308888165 0.9849689215924695 0.015031078407530499 0.4221252886879651 0.5778747113120349 0.2253278691126714 0.7746721308873287 0.3981170888176399 0.6018829111823601 0.5037467530386419 0.4962532469613582 0.7045953669178839 0.2954046330821161 0.41053340339276573 0.5894665966072343 0.25654820694005015 0.7434517930599499 0.07385957956260993 0.9261404204373901 0.4512449099529903 0.5487550900470096 0.3079898002742084 0.6920101997257916 0.8982557084352563 0.10174429156474374 0.35182894393699726 0.6481710560630027 0.4325899066470927 0.5674100933529074 0.6082874003927914 0.3917125996072086 0.8286377923407782 0.17136220765922197 0.4647856312416996 0.5352143687583004 0.8316656120111788 0.16833438798882122 0.6602997099320923 0.33970029006790764 0.4470800437258629 0.552919956274137 0.5889444682823013 0.41105553171769876 0.20664894444092347 0.7933510555590766 0.3068692377986749 0.6931307622013252 0.45936507474479665 0.5406349252552034 0.2576166322371308 0.7423833677628692 0.7891983743108651 0.21080162568913483 0.5346648364565817 0.46533516354341836 0.3714024389132501 0.6285975610867499 0.5738336321977858 0.4261663678022142 0.5294656255810989 0.47053437441890106 0.6984293278805839 0.30157067211941607 0.510152545813479 0.48984745418652104 0.47423730905610656 0.5257626909438935 0.8507048688053791 0.14929513119462096 0.4851619465989692 0.5148380534010307 0.5728121822185368 0.42718781778146314 0.7993484024729922 0.20065159752700784 0.07998443075738587 0.9200155692426141 0.699346381148028 0.30065361885197184 0.469121839062092 0.530878160937908 0.5657175688744666 0.4342824311255335 0.3070049878190478 0.6929950121809522 0.423721861612666 0.576278138387334 0.054438750573953726 0.9455612494260462 0.32687854555751583 0.6731214544424843 0.18365549933110267 0.8163445006688973 0.8885814864077333 0.11141851359226679 0.5902178506166014 0.40978214938339863 0.7362391603996431 0.26376083960035684 0.5820467031580152 0.41795329684198484 0.11324756865957403 0.8867524313404259 0.07539597718901717 0.9246040228109829 0.6313552589272602 0.3686447410727398 0.08360631961896893 0.9163936803810311 0.19040683245391996 0.80959316754608 0.7272111107122722 0.2727888892877279 0.4653502299676723 0.5346497700323276 0.33945966947595874 0.6605403305240413 0.5464829155060673 0.4535170844939328 0.4341947624408967 0.5658052375591033 0.44017803790006393 0.559821962099936 0.38325513946285594 0.6167448605371441 0.47736509104213515 0.5226349089578649 0.7180672785386643 0.2819327214613357 0.48092451314816 0.51907548685184 0.2218554674199151 0.7781445325800849 0.9757844661336333 0.02421553386636664 0.922993607675058 0.07700639232494205 0.5007097123105232 0.4992902876894768 0.10968329876187911 0.8903167012381209 0.6496745483545651 0.35032545164543494 0.44872099621103856 0.5512790037889614 0.5112304806032454 0.4887695193967546 0.8691054381769154 0.1308945618230846 0.9171123209728935 0.0828876790271065 0.5406224901145673 0.45937750988543274 0.6655395113099059 0.33446048869009415 0.3133279582005364 0.6866720417994635 0.5347467623096744 0.46525323769032545 0.457985621868334 0.542014378131666 0.32371556367224286 0.6762844363277571 0.693681036524925 0.3063189634750751 0.6362422570094054 0.36375774299059455 0.48677919018584587 0.5132208098141541 0.680434954846734 0.31956504515326606 0.5022547212928645 0.49774527870713553 0.5034127488021104 0.49658725119788966 0.42291045784316217 0.5770895421568378 0.1628279896815276 0.8371720103184725 0.30415112308112113 0.6958488769188789 0.5949148938556443 0.4050851061443557 0.5008437030222829 0.4991562969777172 0.2511892404477124 0.7488107595522876 0.5485434136419649 0.45145658635803515 0.4953087297553617 0.5046912702446382 0.63762988077641 0.36237011922358997 0.4989128717503551 0.501087128249645 0.4854045155007614 0.5145954844992386 0.21917980487904912 0.7808201951209509 0.737631359238224 0.262368640761776 0.8363808202372163 0.16361917976278376 0.6579569952526698 0.3420430047473301 0.1545142324857695 0.8454857675142305 0.3101190285451762 0.6898809714548237 0.626760553903095 0.37323944609690496 0.007633316973902139 0.9923666830260979 0.8542138585726675 0.14578614142733254 0.6018129857556345 0.39818701424436553 0.6734742328624326 0.3265257671375675 0.4203709090479708 0.5796290909520292 0.5095735169445815 0.49042648305541847 0.16527791643683445 0.8347220835631656 0.5287697821850756 0.47123021781492425 0.6668808637757131 0.3331191362242869 0.6013476721528638 0.3986523278471362 0.587749682365217 0.412250317634783 0.6936871225077407 0.3063128774922594 0.7501015532766129 0.24989844672338718 0.03750542792796357 0.9624945720720365 0.3564173241930508 0.6435826758069493 0.4799126114125204 0.5200873885874796 0.8546575257857061 0.1453424742142939 0.566977672895983 0.43302232710401695 0.343669491542877 0.656330508457123 0.7241035299118985 0.27589647008810136 0.37211891334787395 0.627881086652126 0.6273576868648796 0.37264231313512025 0.4528791833923236 0.5471208166076763 0.096055577784743 0.9039444222152571 0.586316668459983 0.413683331540017 0.2197949211123646 0.7802050788876355 0.9722842763489591 0.027715723651040948 0.583512172298058 0.41648782770194204 0.5151124370071798 0.4848875629928202 0.7114300452374712 0.28856995476252884 0.27527408024305555 0.7247259197569446 0.8057265713371914 0.1942734286628086 0.7746109844790179 0.2253890155209821 0.6231796304451926 0.3768203695548074 0.5373202235104516 0.46267977648954844 0.3482456278608927 0.6517543721391073 0.9131574017792465 0.08684259822075352 0.7498610355921893 0.25013896440781064 0.549644733203499 0.4503552667965009 0.616776918337973 0.383223081662027 0.001500957562673744 0.9984990424373262 0.3704342050215345 0.6295657949784654 0.8173205457944988 0.18267945420550125 0.3101213448325306 0.6898786551674694 0.9580239628245537 0.04197603717544624 0.6366972685914908 0.3633027314085093 0.572957485483196 0.427042514516804 0.4253302636155233 0.5746697363844767 0.29121697787093254 0.7087830221290675 0.8923688949950043 0.10763110500499576 0.5476202525225564 0.45237974747744353 0.5727232289592088 0.4272767710407912 0.606440744726731 0.39355925527326885 0.00804579556800744 0.9919542044319926 0.44037741849973805 0.559622581500262 0.4776630937599126 0.5223369062400873 0.4558483412864454 0.5441516587135548 0.4765868426570476 0.5234131573429525 0.7128735326020387 0.2871264673979613 0.19702294527795433 0.8029770547220456 0.4314441973775929 0.5685558026224071 0.9646306619929291 0.03536933800707083 0.06246713737674825 0.9375328626232518 0.31488779385110355 0.6851122061488965 0.8003599434156009 0.19964005658439907 0.3379131844871407 0.6620868155128593 0.5952954736291762 0.40470452637082377 0.12373211276820216 0.8762678872317978 0.5210489243810572 0.47895107561894273 0.2022147231175341 0.7977852768824659 0.3987036649328456 0.6012963350671543 0.14151806902829348 0.8584819309717066 0.8694142519408052 0.1305857480591948 0.3084365378978398 0.6915634621021602 0.5782562822929163 0.4217437177070837 0.5207128849004449 0.4792871150995551 0.4585446848182022 0.5414553151817978 0.48256803556051386 0.5174319644394861 0.4216485966395268 0.5783514033604731 0.11232679933263803 0.887673200667362 0.5492731347729801 0.4507268652270199 0.44496301165692376 0.5550369883430761 0.4532791642892072 0.5467208357107928 0.5312726636379155 0.4687273363620845 0.47611632659653974 0.5238836734034603 0.8960318875633163 0.10396811243668375 0.35732691373729997 0.6426730862627 0.7730048225388889 0.2269951774611111 0.6295672457784232 0.3704327542215768 0.23482723911674697 0.765172760883253 0.2276696768787873 0.7723303231212127 0.7025111356706164 0.29748886432938365 0.027442372028918537 0.9725576279710815 0.23485876274355996 0.7651412372564401 0.10829259724680443 0.8917074027531956 0.18697453010853246 0.8130254698914675 0.7094525969582912 0.29054740304170873 0.2707789747489787 0.7292210252510213 0.21903577294914434 0.7809642270508557 0.45762445335761504 0.542375546642385 0.6882299716703594 0.3117700283296407 0.11407141838670362 0.8859285816132964 0.47501111990316053 0.5249888800968394 0.5242353301115469 0.47576466988845306 0.5550561906098445 0.44494380939015554 0.4271593061268806 0.5728406938731194 0.4203411782392307 0.5796588217607693 0.35044784417518593 0.649552155824814 0.09025175944703395 0.909748240552966 0.5084950997949915 0.4915049002050085 0.7695928458643403 0.23040715413565968 0.09496854473982771 0.9050314552601723 0.9237012273478392 0.0762987726521608 0.14046777598849067 0.8595322240115093 0.8141070896381902 0.1858929103618098 0.3193198453628919 0.6806801546371082 0.632039981440393 0.3679600185596069 0.7152265009517761 0.2847734990482239 0.6897643911128679 0.3102356088871321 0.5125161025523102 0.4874838974476898 0.45329823411844294 0.5467017658815571 0.10331674564490503 0.896683254355095 0.025579954049359355 0.9744200459506407 0.07400162721542212 0.9259983727845779 0.5558466758393119 0.44415332416068803 0.36045027942219837 0.6395497205778016 0.2486024992924185 0.7513975007075815 0.1083964606077149 0.8916035393922851 0.4830274945033804 0.5169725054966197 0.20510961732903488 0.7948903826709651 0.23323747663635713 0.7667625233636429 0.42131271789525654 0.5786872821047434 0.7571055773115765 0.24289442268842357 0.8960059793709352 0.10399402062906486 0.5948321691351824 0.40516783086481756 0.6441314106424215 0.35586858935757854 0.03775098472814811 0.9622490152718519 0.7296026865745631 0.2703973134254369 0.812815231698196 0.18718476830180397 0.25449322086197307 0.745506779138027 0.9903050375191953 0.009694962480804733 0.04920910485780435 0.9507908951421956 0.15008692979260035 0.8499130702073997 0.8190947504623153 0.18090524953768475 0.8006767783517431 0.19932322164825705 0.697920509958398 0.30207949004160195 0.46146704091547536 0.5385329590845246 0.49096393616929096 0.509036063830709 0.46575821349876045 0.5342417865012395 0.9544236874449179 0.04557631255508207 0.4848501806117959 0.5151498193882041 0.9452893239635418 0.054710676036458177 0.09195670831735663 0.9080432916826434 0.49145750282407386 0.5085424971759261 0.4312170435890115 0.5687829564109885 0.2954500222021451 0.7045499777978549 0.3294343624261604 0.6705656375738396 0.8699205077990527 0.13007949220094733 0.5770034357816485 0.42299656421835147 0.8447439614057973 0.15525603859420264 0.1856149257980374 0.8143850742019626 0.37975248648027005 0.6202475135197298 0.9920083907802447 0.007991609219755311 0.047642250939377295 0.9523577490606226 0.43557962064129047 0.5644203793587095 0.8589905944475096 0.14100940555249047 0.32304781248625636 0.6769521875137436 0.4042461639601264 0.5957538360398736 0.7003965370952512 0.29960346290474876 0.4628549550484038 0.5371450449515963 0.9621538363026436 0.03784616369735641 0.21856492404656866 0.7814350759534314 0.009912049557984907 0.9900879504420151 0.374645013623552 0.6253549863764479 0.4402879679004117 0.5597120320995883 0.5299934504290854 0.4700065495709146 0.4511698170022219 0.5488301829977781 0.5192845849668478 0.4807154150331521 0.462293845321194 0.537706154678806 0.06339889154248828 0.9366011084575118 0.38515599979485987 0.6148440002051401 0.23969573627114948 0.7603042637288505 0.4307117284684192 0.5692882715315808 0.5543623232981945 0.44563767670180554 0.4783834411228383 0.5216165588771617 0.7123869179726943 0.2876130820273057 0.3841568692254338 0.6158431307745662 0.7170144072678238 0.2829855927321762 0.4915870507571674 0.5084129492428325 0.13512704651662946 0.8648729534833706 0.26791144965158586 0.7320885503484141 0.6950568927180627 0.3049431072819374 0.9462965377607027 0.05370346223929731 0.32952642855485875 0.6704735714451412 0.9700174540140563 0.029982545985943788 0.5390502118758718 0.46094978812412823 0.4521168237133477 0.5478831762866524 0.7986260143487329 0.2013739856512671 0.4112565769275422 0.5887434230724579 0.46147185361461796 0.538528146385382 0.34826362778721237 0.6517363722127877 0.4290911824517507 0.5709088175482493 0.37964650345824036 0.6203534965417595 0.4611335766898928 0.5388664233101073 0.33952287020440947 0.6604771297955906 0.9079309564608927 0.09206904353910732 0.9006251850398058 0.09937481496019414 0.9213363545202083 0.07866364547979167 0.13268482958105304 0.867315170418947 0.3707690104463049 0.6292309895536949 0.7220110240114355 0.27798897598856454 0.763992833488147 0.2360071665118531 0.42796687594354443 0.5720331240564556 0.36860152729476475 0.6313984727052352 0.4879207837818993 0.5120792162181007 0.2776200530781267 0.7223799469218732 0.7961579615966231 0.2038420384033769 0.41070596358636463 0.5892940364136353 0.4107972195986102 0.5892027804013897 0.6792802564922096 0.3207197435077904 0.3226876688674982 0.6773123311325019 0.06816628273732636 0.9318337172626736 0.6996335018725407 0.3003664981274594 0.4441787036259992 0.5558212963740008 0.3018391669962666 0.6981608330037334 0.9403293760750158 0.059670623924984234 0.6244338286510568 0.3755661713489432 0.3886717251301036 0.6113282748698964 0.602887639001061 0.39711236099893904 0.24105117616561858 0.7589488238343814 0.5593737984543243 0.4406262015456756 0.5612304138122702 0.43876958618772977 0.18312624560097 0.81687375439903 0.04491187642227901 0.955088123577721 0.8756158185308331 0.12438418146916683 0.46421934373636997 0.53578065626363 0.7558326245145602 0.24416737548543982 0.25887641174225207 0.7411235882577479 0.3827583621824982 0.6172416378175019 0.3102015252843717 0.6897984747156283 0.5315456400059274 0.4684543599940726 0.4083925974874949 0.5916074025125051 0.5387021820989608 0.4612978179010392 0.055338775791603546 0.9446612242083966 0.9305622905533344 0.06943770944666558 0.14276916405754372 0.8572308359424563 0.1552463288769077 0.8447536711230924 0.6140307754161483 0.3859692245838518 0.674543917040637 0.325456082959363 0.8636756018960969 0.13632439810390307 0.5472421668841088 0.4527578331158913 0.4201512844160209 0.5798487155839791 0.6039004288981611 0.39609957110183885 0.23164632285793627 0.7683536771420637 0.4950499977973263 0.5049500022026736 0.5835132082296304 0.41648679177036957 0.5366812419813877 0.4633187580186124 0.5266479294909083 0.4733520705090917 0.4385177558806933 0.5614822441193066 0.3797081628562021 0.6202918371437979 0.41530624228301166 0.5846937577169884 0.07612145993433772 0.9238785400656623 0.8591921963809594 0.14080780361904055 0.13973289617523185 0.8602671038247681 0.9113206562643156 0.0886793437356844 0.5413215007194535 0.45867849928054644 0.5512351614037562 0.4487648385962437 0.7350876118711611 0.2649123881288389 0.5086563889947048 0.4913436110052952 0.5958888972003183 0.4041111027996817 0.7663525359999659 0.23364746400003408 0.06419015720275024 0.9358098427972498 0.3982079074389843 0.6017920925610158 0.5344544739826281 0.4655455260173719 0.6640241773873296 0.33597582261267045 0.5523840099383492 0.4476159900616507 0.5191665910980312 0.48083340890196885 0.3723930128536829 0.627606987146317 0.20642926134932602 0.793570738650674 0.8464863804103138 0.15351361958968635 0.5019697060600882 0.4980302939399118 0.5873121950250518 0.4126878049749481 0.7322256423972451 0.2677743576027549 0.1954349168504399 0.8045650831495601 0.4380072433803336 0.5619927566196665 0.34271018924097807 0.657289810759022 0.10632214513567517 0.8936778548643248 0.27929302690276603 0.720706973097234 0.7341363952976458 0.2658636047023543 0.3320196271763383 0.6679803728236617 0.09697279823827482 0.9030272017617251 0.6650450147056728 0.33495498529432727 0.49560950941084997 0.5043904905891501 0.8572146577892709 0.14278534221072914 0.5944540616030604 0.4055459383969397 0.823514803456877 0.17648519654312295 0.5953587703701281 0.404641229629872 0.6396614731128437 0.36033852688715623 0.5899580512253959 0.41004194877460404 0.49101306026669833 0.5089869397333016 0.16909305604709718 0.8309069439529029 0.10100542094788796 0.8989945790521121 0.946896548462341 0.053103451537659066 0.04391428770646984 0.9560857122935301 0.6091395402801575 0.39086045971984257 0.3602493687775959 0.6397506312224042 0.6607542074609596 0.33924579253904047 0.875556442901613 0.124443557098387 0.4326441338891175 0.5673558661108825 0.7222984562415893 0.2777015437584108 0.36733518640465324 0.6326648135953467 0.16187491904938792 0.8381250809506121 0.7739514836066004 0.22604851639339962 0.32757958965383466 0.6724204103461653 0.642651852205332 0.35734814779466806 0.17528695080068052 0.8247130491993195 0.5782469987346556 0.42175300126534443 0.6200201589473396 0.3799798410526603 0.3325786227243229 0.6674213772756771 0.3822216820255057 0.6177783179744943 0.3497580813549682 0.6502419186450318 0.8131643854159033 0.18683561458409673 0.4098997093606795 0.5901002906393206 0.5040531908779319 0.4959468091220682 0.08388618002025368 0.9161138199797463 0.7037874407110689 0.29621255928893103 0.6146669620470164 0.3853330379529836 0.3956767839305098 0.6043232160694901 0.5671393455300584 0.4328606544699416 0.5069364716624821 0.4930635283375179 0.7603548429612692 0.2396451570387307 0.527656494005546 0.472343505994454 0.46710424237384507 0.532895757626155 0.648675275823526 0.35132472417647403 0.13015149035758772 0.8698485096424122 0.5078744162839461 0.49212558371605386 0.3688899851203041 0.631110014879696 0.5498868757900907 0.45011312420990934 0.10493275104931046 0.8950672489506896 0.7400414477898295 0.2599585522101705 0.6733667977821248 0.3266332022178752 0.020882895579276205 0.9791171044207237 0.3144477559837552 0.6855522440162448 0.4041684383395347 0.5958315616604652 0.9826305551141843 0.01736944488581574 0.33005625754529777 0.6699437424547022 0.07063290198040595 0.929367098019594 0.65797432519753 0.3420256748024701 0.32662971181546546 0.6733702881845345 0.2814441348634068 0.7185558651365932 0.637654357153741 0.3623456428462591 0.0807568414689713 0.9192431585310287 0.559162771443679 0.440837228556321 0.5874177018894308 0.4125822981105692 0.45161832456813633 0.5483816754318637 0.6472231086167005 0.3527768913832996 0.39673141985615207 0.603268580143848 0.11234747473327711 0.8876525252667229 