<?xml version='1.0' encoding='utf-8'?>
<BIF VERSION="0.3">
  <NETWORK>
    <NAME>UNTITLED</NAME>
    <VARIABLE TYPE="nature">
      <NAME>0</NAME>
      <OUTCOME>0</OUTCOME>
      <OUTCOME>1</OUTCOME>
      <PROPERTY>weight = None</PROPERTY>
    </VARIABLE>
    <VARIABLE TYPE="nature">
      <NAME>1</NAME>
      <OUTCOME>0</OUTCOME>
      <OUTCOME>1</OUTCOME>
      <PROPERTY>weight = None</PROPERTY>
    </VARIABLE>
    <VARIABLE TYPE="nature">
      <NAME>10</NAME>
      <OUTCOME>0</OUTCOME>
      <OUTCOME>1</OUTCOME>
      <PROPERTY>weight = None</PROPERTY>
    </VARIABLE>
    <VARIABLE TYPE="nature">
      <NAME>11</NAME>
      <OUTCOME>0</OUTCOME>
      <OUTCOME>1</OUTCOME>
      <PROPERTY>weight = None</PROPERTY>
    </VARIABLE>
    <VARIABLE TYPE="nature">
      <NAME>12</NAME>
      <OUTCOME>0</OUTCOME>
      <OUTCOME>1</OUTCOME>
      <PROPERTY>weight = None</PROPERTY>
    </VARIABLE>
    <VARIABLE TYPE="nature">
      <NAME>13</NAME>
      <OUTCOME>0</OUTCOME>
      <OUTCOME>1</OUTCOME>
      <PROPERTY>weight = None</PROPERTY>
    </VARIABLE>
    <VARIABLE TYPE="nature">
      <NAME>14</NAME>
      <OUTCOME>0</OUTCOME>
      <OUTCOME>1</OUTCOME>
      <PROPERTY>weight = None</PROPERTY>
    </VARIABLE>
    <VARIABLE TYPE="nature">
      <NAME>15</NAME>
      <OUTCOME>0</OUTCOME>
      <OUTCOME>1</OUTCOME>
      <PROPERTY>weight = None</PROPERTY>
    </VARIABLE>
    <VARIABLE TYPE="nature">
      <NAME>16</NAME>
      <OUTCOME>0</OUTCOME>
      <OUTCOME>1</OUTCOME>
      <PROPERTY>weight = None</PROPERTY>
    </VARIABLE>
    <VARIABLE TYPE="nature">
      <NAME>17</NAME>
      <OUTCOME>0</OUTCOME>
      <OUTCOME>1</OUTCOME>
      <PROPERTY>weight = None</PROPERTY>
    </VARIABLE>
    <VARIABLE TYPE="nature">
      <NAME>18</NAME>
      <OUTCOME>0</OUTCOME>
      <OUTCOME>1</OUTCOME>
      <PROPERTY>weight = None</PROPERTY>
    </VARIABLE>
    <VARIABLE TYPE="nature">
      <NAME>19</NAME>
      <OUTCOME>0</OUTCOME>
      <OUTCOME>1</OUTCOME>
      <PROPERTY>weight = None</PROPERTY>
    </VARIABLE>
    <VARIABLE TYPE="nature">
      <NAME>2</NAME>
      <OUTCOME>0</OUTCOME>
      <OUTCOME>1</OUTCOME>
      <PROPERTY>weight = None</PROPERTY>
    </VARIABLE>
    <VARIABLE TYPE="nature">
      <NAME>3</NAME>
      <OUTCOME>0</OUTCOME>
      <OUTCOME>1</OUTCOME>
      <PROPERTY>weight = None</PROPERTY>
    </VARIABLE>
    <VARIABLE TYPE="nature">
      <NAME>4</NAME>
      <OUTCOME>0</OUTCOME>
      <OUTCOME>1</OUTCOME>
      <PROPERTY>weight = None</PROPERTY>
    </VARIABLE>
    <VARIABLE TYPE="nature">
      <NAME>5</NAME>
      <OUTCOME>0</OUTCOME>
      <OUTCOME>1</OUTCOME>
      <PROPERTY>weight = None</PROPERTY>
    </VARIABLE>
    <VARIABLE TYPE="nature">
      <NAME>6</NAME>
      <OUTCOME>0</OUTCOME>
      <OUTCOME>1</OUTCOME>
      <PROPERTY>weight = None</PROPERTY>
    </VARIABLE>
    <VARIABLE TYPE="nature">
      <NAME>7</NAME>
      <OUTCOME>0</OUTCOME>
      <OUTCOME>1</OUTCOME>
      <PROPERTY>weight = None</PROPERTY>
    </VARIABLE>
    <VARIABLE TYPE="nature">
      <NAME>8</NAME>
      <OUTCOME>0</OUTCOME>
      <OUTCOME>1</OUTCOME>
      <PROPERTY>weight = None</PROPERTY>
    </VARIABLE>
    <VARIABLE TYPE="nature">
      <NAME>9</NAME>
      <OUTCOME>0</OUTCOME>
      <OUTCOME>1</OUTCOME>
      <PROPERTY>weight = None</PROPERTY>
    </VARIABLE>
    <DEFINITION>
      <FOR>0</FOR>
      <TABLE>0.5810360317978065 0.4189639682021936 </TABLE>
    </DEFINITION>
    <DEFINITION>
      <FOR>1</FOR>
      <TABLE>0.00018115018628558015 0.9998188498137144 </TABLE>
    </DEFINITION>
    <DEFINITION>
      <FOR>10</FOR>
      <GIVEN>4</GIVEN>
      <GIVEN>6</GIVEN>
      <GIVEN>7</GIVEN>
      <GIVEN>5</GIVEN>
      <TABLE>0.5832242117741976 0.4167757882258024 0.08382839132144934 0.9161716086785506 0.4228456619548476 0.5771543380451524 0.9363942277181116 0.06360577228188838 0.00824419900339271 0.9917558009966073 0.8056546723945665 0.19434532760543347 0.9755014482454434 0.02449855175455667 0.5469361747167257 0.4530638252832742 0.7288466239122398 0.2711533760877602 0.6934052700636796 0.3065947299363205 0.4134029392760093 0.5865970607239906 0.5079879451953779 0.492012054804622 0.5067629598731185 0.4932370401268815 0.7223504641154957 0.27764953588450425 0.6372276487954561 0.3627723512045438 0.4147186889846458 0.5852813110153541 </TABLE>
    </DEFINITION>
    <DEFINITION>
      <FOR>11</FOR>
      <GIVEN>6</GIVEN>
      <GIVEN>7</GIVEN>
      <GIVEN>1</GIVEN>
      <GIVEN>10</GIVEN>
      <TABLE>0.08824034981535712 0.9117596501846429 0.15387340460615778 0.8461265953938422 0.3890926751891604 0.6109073248108395 0.6456346313598923 0.3543653686401077 0.3088770096160416 0.6911229903839584 0.5214104368218088 0.4785895631781912 0.09530677710533546 0.9046932228946646 0.6035463697360438 0.39645363026395625 0.21448716180309124 0.7855128381969088 0.6586372525201599 0.34136274747984 0.21283399897567373 0.7871660010243262 0.5973246671101505 0.4026753328898495 0.5934292773399099 0.4065707226600901 0.6540626889133935 0.3459373110866066 0.365667029197546 0.634332970802454 0.3059579851296433 0.6940420148703567 </TABLE>
    </DEFINITION>
    <DEFINITION>
      <FOR>12</FOR>
      <GIVEN>0</GIVEN>
      <GIVEN>6</GIVEN>
      <GIVEN>9</GIVEN>
      <GIVEN>3</GIVEN>
      <GIVEN>11</GIVEN>
      <GIVEN>5</GIVEN>
      <GIVEN>10</GIVEN>
      <TABLE>0.164779440425687 0.835220559574313 0.5684128665470265 0.43158713345297356 0.24537813316205634 0.7546218668379436 0.7199937679375344 0.28000623206246555 0.5612947935941254 0.43870520640587457 0.23871363106718385 0.7612863689328161 0.4488246861986041 0.551175313801396 0.6045039000763156 0.3954960999236843 0.4666209070120244 0.5333790929879757 0.6826692902945851 0.317330709705415 0.9178060570235127 0.0821939429764873 0.6773315029400718 0.32266849705992817 0.695714683325074 0.304285316674926 0.7176481698289261 0.282351830171074 0.7208785334950462 0.2791214665049538 0.3581660153807491 0.6418339846192509 0.6566844568785523 0.34331554312144785 0.5232258928658473 0.4767741071341527 0.7961254871506794 0.2038745128493206 0.8110076603744841 0.1889923396255159 0.5730005308722999 0.4269994691277001 0.0041497519323258816 0.9958502480676741 0.7376403076077849 0.2623596923922152 0.9419227445245676 0.05807725547543246 0.5701877526195245 0.4298122473804755 0.7495661432020186 0.2504338567979813 0.4963573863325822 0.5036426136674178 0.8541126002654044 0.1458873997345957 0.6457569692345332 0.3542430307654668 0.4427042157060578 0.5572957842939422 0.24441089313482017 0.7555891068651799 0.33887485791216393 0.6611251420878361 0.2187461207473677 0.7812538792526321 0.48387647614952045 0.5161235238504794 0.6466842109301972 0.3533157890698027 0.5623843033682898 0.43761569663171007 0.3769240743940751 0.6230759256059248 0.4650120927555152 0.5349879072444849 0.7001832679947977 0.2998167320052023 0.4551992302434903 0.5448007697565097 0.7654236654171931 0.2345763345828069 0.08834990173213925 0.9116500982678608 0.6060504981997125 0.39394950180028765 0.8411072924076968 0.15889270759230326 0.8537475222788545 0.14625247772114544 0.26241872245660186 0.7375812775433981 0.7325371546830147 0.26746284531698533 0.4680651935454812 0.5319348064545187 0.6639007214847125 0.3360992785152875 0.4045236045219427 0.5954763954780573 0.9036190052027768 0.09638099479722322 0.16527738635829123 0.8347226136417087 0.26946502120868343 0.7305349787913166 0.416416995919063 0.583583004080937 0.5020008229839679 0.4979991770160321 0.9192078845836317 0.08079211541636828 0.4978781446072239 0.5021218553927762 0.9169090501571036 0.08309094984289647 0.550934655129853 0.44906534487014715 0.5114186768250848 0.48858132317491515 0.6094131173613956 0.3905868826386044 0.2706349216337626 0.7293650783662374 0.6548962365365254 0.34510376346347466 0.32099642033939074 0.6790035796606092 0.525389642528146 0.474610357471854 0.6466629290136057 0.3533370709863943 0.8003092755722155 0.19969072442778443 0.9091528797323588 0.09084712026764116 0.7354992416268143 0.26450075837318565 0.5653458760545675 0.4346541239454325 0.4645687895538814 0.5354312104461186 0.28598344142908955 0.7140165585709104 0.5222623529573517 0.47773764704264826 0.10555829713307281 0.8944417028669271 0.4812060898523838 0.5187939101476161 0.6377220624936794 0.36227793750632076 0.30010580438964785 0.6998941956103523 0.26656241683523335 0.7334375831647666 0.700786850202167 0.29921314979783303 0.15227411820852163 0.8477258817914783 0.2871760712153285 0.7128239287846714 0.4009584624306817 0.5990415375693183 0.36773322282593995 0.6322667771740601 0.7764700177772499 0.2235299822227501 0.13381951005657863 0.8661804899434213 0.11972789614122263 0.8802721038587774 0.6249036016405349 0.3750963983594651 0.6194174357782973 0.3805825642217026 0.6686434343252984 0.3313565656747017 0.5546732077642461 0.4453267922357539 0.21810497658619168 0.7818950234138082 0.3149139528850933 0.6850860471149067 0.4194975398814996 0.5805024601185004 0.9636842066806045 0.03631579331939551 0.38392757151266343 0.6160724284873366 0.6339280199489092 0.36607198005109076 0.1760474179672521 0.8239525820327479 0.3381644941154792 0.6618355058845208 0.3891278395973337 0.6108721604026662 0.6924410351040093 0.30755896489599066 0.7398636882119788 0.2601363117880213 0.22615558394001614 0.7738444160599839 0.3706805765708047 0.6293194234291952 0.8403136034015175 0.1596863965984825 0.5087025230182974 0.49129747698170256 0.16109243037153562 0.8389075696284644 0.5454221933624641 0.4545778066375359 0.4618225621696101 0.53817743783039 0.27823287805856217 0.7217671219414378 0.5119994046869075 0.48800059531309253 0.0029888448716157167 0.9970111551283842 0.13046753467803857 0.8695324653219615 0.2671663486244051 0.7328336513755949 0.7115436208025615 0.28845637919743855 0.6208179647076648 0.37918203529233524 0.0892617525957931 0.910738247404207 0.7341818541182389 0.265818145881761 0.18431347758664135 0.8156865224133587 0.3171080684064595 0.6828919315935406 0.4770780147449758 0.5229219852550243 0.06700085895572923 0.9329991410442707 0.788307610609591 0.21169238939040896 0.7413954298346114 0.25860457016538857 0.8618716492627623 0.13812835073723773 0.7009034772888993 0.2990965227111007 0.8317801932752203 0.16821980672477968 0.8544805772721591 0.1455194227278409 0.915498044881704 0.08450195511829599 </TABLE>
    </DEFINITION>
    <DEFINITION>
      <FOR>13</FOR>
      <GIVEN>9</GIVEN>
      <GIVEN>1</GIVEN>
      <GIVEN>3</GIVEN>
      <GIVEN>11</GIVEN>
      <GIVEN>5</GIVEN>
      <TABLE>0.7529304174085439 0.24706958259145598 0.04956713690570498 0.950432863094295 0.831725780827394 0.16827421917260596 0.8339141088097238 0.16608589119027617 0.8382479726886596 0.16175202731134047 0.3631580043928599 0.6368419956071399 0.5160727127928602 0.4839272872071399 0.12470571335982654 0.8752942866401735 0.6567390090146565 0.3432609909853435 0.5295553607456218 0.4704446392543782 0.5428586334377874 0.4571413665622126 0.26926241681280955 0.7307375831871904 0.68895020178078 0.31104979821921996 0.1747848039116786 0.8252151960883214 0.5144149940154794 0.48558500598452053 0.13834958648563309 0.861650413514367 0.7076176255942198 0.2923823744057802 0.898913374821383 0.10108662517861712 0.8697494069335294 0.13025059306647055 0.36515730773085675 0.6348426922691432 0.5120588237874852 0.48794117621251487 0.41642161064348954 0.5835783893565104 0.4171135094795989 0.5828864905204011 0.1243507976975233 0.8756492023024767 0.2602532999098912 0.7397467000901088 0.6614862185202158 0.33851378147978417 0.6262813615571894 0.37371863844281056 0.5769601062857113 0.42303989371428885 0.21565840796237906 0.784341592037621 0.1449981359554581 0.8550018640445419 0.21785459380343955 0.7821454061965605 0.7956010281508324 0.2043989718491676 </TABLE>
    </DEFINITION>
    <DEFINITION>
      <FOR>14</FOR>
      <GIVEN>4</GIVEN>
      <GIVEN>1</GIVEN>
      <GIVEN>3</GIVEN>
      <GIVEN>8</GIVEN>
      <GIVEN>13</GIVEN>
      <GIVEN>10</GIVEN>
      <TABLE>0.7233888616743736 0.2766111383256265 0.7308225442100341 0.26917745578996594 0.19717156459177293 0.8028284354082271 0.5973225424569446 0.40267745754305534 0.3578527684790947 0.6421472315209054 0.25420973955738985 0.7457902604426102 0.1944897808257436 0.8055102191742564 0.6619665658599561 0.3380334341400439 0.7032756304127152 0.29672436958728465 0.5403192805605079 0.459680719439492 0.5340557124275963 0.46594428757240364 0.4151972982823218 0.5848027017176781 0.04025590971768818 0.9597440902823118 0.1052562271008017 0.8947437728991983 0.3384073085791135 0.6615926914208865 0.35935325751414776 0.6406467424858522 0.9212511311273449 0.07874886887265513 0.6921913699795891 0.3078086300204109 0.6083940998091091 0.39160590019089087 0.6899598036072296 0.3100401963927705 0.548713482573506 0.451286517426494 0.34534468907056237 0.6546553109294376 0.4883930359854761 0.5116069640145238 0.4249960987476892 0.5750039012523108 0.497390579082308 0.502609420917692 0.44553334666543176 0.5544666533345682 0.3770608136407081 0.6229391863592919 0.21390106009268733 0.7860989399073127 0.5345696972886751 0.4654303027113249 0.7550300811675157 0.2449699188324843 0.6658891285419689 0.3341108714580311 0.2826961213486472 0.7173038786513528 0.6673461915277984 0.33265380847220166 0.5562598429414467 0.44374015705855324 0.7491910027567812 0.25080899724321887 0.6126195043054413 0.3873804956945587 0.4562738029735667 0.5437261970264333 0.07643214541967724 0.9235678545803228 0.5071788746372423 0.4928211253627578 0.6583302549359693 0.3416697450640307 0.36689252658506966 0.6331074734149303 0.5202010217349148 0.4797989782650852 0.5093196232520035 0.4906803767479964 0.32160637222831817 0.6783936277716818 0.17841836174100836 0.8215816382589917 0.5307068393409183 0.4692931606590817 0.4912119080442797 0.5087880919557203 0.7480006852587083 0.2519993147412917 0.5980312298495348 0.4019687701504653 0.5783799531988678 0.4216200468011322 0.9470785751625765 0.0529214248374235 0.46641213054972974 0.5335878694502703 0.5316553052981012 0.4683446947018987 0.7256642322682588 0.2743357677317412 0.6226420976950401 0.37735790230496 0.9492296990370079 0.050770300962992086 0.6148722660302192 0.3851277339697808 0.65384519086094 0.34615480913906016 0.5499648252436145 0.4500351747563856 0.7881108147388182 0.2118891852611818 0.7416475165752694 0.25835248342473066 0.3863900590835435 0.6136099409164565 0.2997242267420597 0.7002757732579403 0.8538141215788438 0.14618587842115607 </TABLE>
    </DEFINITION>
    <DEFINITION>
      <FOR>15</FOR>
      <GIVEN>0</GIVEN>
      <GIVEN>4</GIVEN>
      <GIVEN>12</GIVEN>
      <GIVEN>3</GIVEN>
      <GIVEN>8</GIVEN>
      <GIVEN>5</GIVEN>
      <GIVEN>10</GIVEN>
      <TABLE>0.5512177182577709 0.4487822817422291 0.25315071531442207 0.746849284685578 0.1255512226738441 0.8744487773261559 0.2958301191402394 0.7041698808597606 0.9652327562780474 0.034767243721952626 0.1659058275815777 0.8340941724184222 0.2480992214774917 0.7519007785225083 0.5664997253988501 0.4335002746011499 0.3660035553586577 0.6339964446413423 0.1627650345582942 0.8372349654417058 0.5158241252621345 0.48417587473786555 0.9606517569625458 0.03934824303745416 0.4366670144487259 0.5633329855512742 0.030497667940931242 0.9695023320590688 0.5242179228672513 0.47578207713274856 0.6386397237099215 0.36136027629007855 0.461812241046419 0.5381877589535811 0.5643876754401697 0.4356123245598304 0.5469863999592892 0.4530136000407108 0.8774968977594598 0.12250310224054022 0.2390621224468519 0.7609378775531482 0.0416590100425562 0.9583409899574438 0.8397793301313726 0.1602206698686274 0.0018980059826727534 0.9981019940173272 0.11851833437469286 0.8814816656253072 0.14140378940742196 0.8585962105925781 0.46390279956774827 0.5360972004322517 0.31676912438107 0.68323087561893 0.5603372659012923 0.43966273409870765 0.5911083156762862 0.4088916843237138 0.3009625079003496 0.6990374920996504 0.6733273054480466 0.3266726945519533 0.9116953738229472 0.08830462617705283 0.914309178727929 0.085690821272071 0.6410942425236086 0.3589057574763914 0.11696322213481708 0.883036777865183 0.3143213833611487 0.6856786166388513 0.5238777874971685 0.47612221250283143 0.8492237110272476 0.15077628897275244 0.7130360748998863 0.28696392510011365 0.5762306428353903 0.4237693571646097 0.4103426388123339 0.5896573611876661 0.49183851664819284 0.5081614833518072 0.21160171152569776 0.7883982884743023 0.03313855345507307 0.9668614465449269 0.9466349448175918 0.05336505518240823 0.4098235823755601 0.5901764176244398 0.9870600352661201 0.012939964733879972 0.6733520435099476 0.3266479564900523 0.15602909161429093 0.8439709083857091 0.10226830378330573 0.8977316962166942 0.4345742852080392 0.5654257147919607 0.02166056203520423 0.9783394379647957 0.5550496647968057 0.4449503352031943 0.6861051738131754 0.3138948261868246 0.8960715396336251 0.10392846036637496 0.07268976431916144 0.9273102356808386 0.016047232614026817 0.9839527673859731 0.19362967230113207 0.806370327698868 0.37467199064311957 0.6253280093568805 0.8055749752988728 0.1944250247011272 0.18561913123820883 0.8143808687617912 0.9855071770016293 0.014492822998370708 0.20958097797936798 0.790419022020632 0.484649681592543 0.5153503184074569 0.5122656677368124 0.4877343322631876 0.3782932675733585 0.6217067324266414 0.7369386350332802 0.26306136496671984 0.7504394121720466 0.24956058782795348 0.529055166354586 0.4709448336454139 0.7125977255193467 0.2874022744806532 0.4428526912346982 0.5571473087653017 0.31911434039727654 0.6808856596027235 0.3434405909497065 0.6565594090502935 0.3965257857640122 0.6034742142359878 0.09057804911281578 0.9094219508871842 0.646400665970371 0.35359933402962895 0.8976567603693942 0.10234323963060578 0.23926545163419893 0.760734548365801 0.40949602014538544 0.5905039798546146 0.690628349249198 0.3093716507508019 0.6697388136217356 0.3302611863782644 0.4675528021347893 0.5324471978652108 0.4697822628073697 0.5302177371926303 0.6347645515564367 0.3652354484435633 0.8292095610471607 0.17079043895283932 0.40289295711115447 0.5971070428888455 0.07838424109120333 0.9216157589087967 0.49218952287553774 0.5078104771244624 0.9775232548591124 0.022476745140887554 0.7758793164566458 0.22412068354335427 0.5417766938991833 0.45822330610081674 0.3834493769418856 0.6165506230581145 0.3800845141261774 0.6199154858738226 0.36599760645056706 0.6340023935494329 0.7310186648597085 0.26898133514029143 0.5344681724261068 0.4655318275738933 0.972400645559273 0.027599354440727024 0.17333824514575116 0.8266617548542489 0.08543530684264211 0.9145646931573579 0.3892577041631713 0.6107422958368287 0.6356506460139218 0.3643493539860782 0.8228616490151306 0.1771383509848694 0.011412737876289806 0.9885872621237102 0.029984231583238454 0.9700157684167615 0.6660609233763408 0.3339390766236592 0.4933647499387259 0.5066352500612741 0.007051978905675751 0.9929480210943242 0.1915541464892064 0.8084458535107936 0.5496164514773904 0.4503835485226097 0.5792010999148498 0.42079890008515025 0.49115961375555994 0.5088403862444402 0.3031816451422714 0.6968183548577286 0.839875117472507 0.16012488252749305 0.02508896852085353 0.9749110314791465 0.6369161164377827 0.36308388356221727 0.363895182659715 0.636104817340285 0.5568213990020523 0.44317860099794776 0.5457384498954574 0.45426155010454267 0.9469638528441519 0.053036147155848146 0.5581618076119211 0.4418381923880789 0.11010655984984187 0.8898934401501581 0.7377482454918032 0.2622517545081968 0.5349633372827424 0.4650366627172575 0.4488275089042493 0.5511724910957506 0.29137339783805205 0.708626602161948 0.12342431358562045 0.8765756864143796 0.603709017713004 0.39629098228699594 </TABLE>
    </DEFINITION>
    <DEFINITION>
      <FOR>16</FOR>
      <GIVEN>0</GIVEN>
      <GIVEN>2</GIVEN>
      <GIVEN>6</GIVEN>
      <GIVEN>7</GIVEN>
      <GIVEN>9</GIVEN>
      <GIVEN>15</GIVEN>
      <GIVEN>3</GIVEN>
      <GIVEN>8</GIVEN>
      <GIVEN>11</GIVEN>
      <GIVEN>5</GIVEN>
      <GIVEN>10</GIVEN>
      <TABLE>0.131840485389138 0.868159514610862 0.6281586399011568 0.37184136009884305 0.14615671502447883 0.8538432849755212 0.5302500894718485 0.4697499105281517 0.721368882005831 0.278631117994169 0.23788614270122407 0.7621138572987759 0.8677465661978268 0.13225343380217322 0.04550878905265471 0.9544912109473452 0.7890551837884997 0.2109448162115003 0.7615681673511682 0.2384318326488318 0.6489085301591557 0.3510914698408443 0.7904614409667713 0.20953855903322874 0.39344994924596643 0.6065500507540336 0.05745632894508185 0.9425436710549182 0.20601140671608606 0.7939885932839139 0.7715575932244421 0.22844240677555794 0.9698918951414539 0.03010810485854611 0.036892140077245186 0.9631078599227548 0.5968750425341952 0.4031249574658048 0.8565282564909799 0.14347174350902014 0.7204927229769205 0.27950727702307954 0.5609677859975001 0.43903221400249987 0.5960671464284774 0.4039328535715227 0.22018163955049522 0.7798183604495048 0.7785285203962959 0.221471479603704 0.5995415512980918 0.4004584487019081 0.6028500218242854 0.3971499781757147 0.6972225005982865 0.3027774994017135 0.1787860255530787 0.8212139744469212 0.5150458333245499 0.48495416667545005 0.5695788731298491 0.430421126870151 0.1471891096848681 0.8528108903151319 0.4992745485446213 0.5007254514553787 0.22303565904721506 0.776964340952785 0.5575139294650096 0.44248607053499045 0.8519443186242598 0.14805568137574018 0.5463170079238643 0.45368299207613566 0.9159696033292233 0.08403039667077675 0.8559964909166884 0.1440035090833116 0.7190993575958466 0.2809006424041533 0.6107019824809721 0.3892980175190279 0.5131715074092513 0.4868284925907486 0.4999283161305027 0.5000716838694973 0.6417635201267556 0.35823647987324436 0.5146057131918583 0.4853942868081417 0.9001447162596927 0.09985528374030729 0.8929825094362592 0.10701749056374074 0.9705389586275652 0.02946104137243482 0.4912556520773912 0.5087443479226088 0.9643101936386339 0.0356898063613661 0.6911757989255486 0.3088242010744514 0.3309461451999399 0.6690538548000601 0.45103166724196625 0.5489683327580336 0.2660277801422369 0.7339722198577631 0.5647680279667213 0.4352319720332787 0.5219626370169101 0.4780373629830898 0.5415276970977115 0.4584723029022885 0.3739950830036678 0.6260049169963322 0.680565623285821 0.31943437671417896 0.7520770903726454 0.24792290962735478 0.02470377227949261 0.9752962277205074 0.7679768021522548 0.2320231978477451 0.8342500883974817 0.16574991160251829 0.7180355653851703 0.28196443461482973 0.4194632071506552 0.5805367928493448 0.8124933797768852 0.18750662022311482 0.38041495271879144 0.6195850472812086 0.8067647487054049 0.19323525129459504 0.03287561264192872 0.9671243873580713 0.014179853055729197 0.9858201469442708 0.6085788699890095 0.3914211300109905 0.3849843967593256 0.6150156032406745 0.818984874815624 0.18101512518437604 0.6228900279210846 0.3771099720789154 0.365719815454441 0.634280184545559 0.14651027141337128 0.8534897285866289 0.3979694521269868 0.6020305478730132 0.34494537424183963 0.6550546257581604 0.5847474184079907 0.4152525815920093 0.5593315477701797 0.4406684522298203 0.7063158480396666 0.2936841519603335 0.32274050779877794 0.6772594922012221 0.49226308740702274 0.5077369125929773 0.6118737741878928 0.3881262258121073 0.6913512807964434 0.3086487192035566 0.3031083334131215 0.6968916665868786 0.9796997415968891 0.020300258403110855 0.4691704197112425 0.5308295802887576 0.8703693224403267 0.12963067755967325 0.7759718988628423 0.2240281011371576 0.07100441362687206 0.928995586373128 0.8925541513832576 0.1074458486167424 0.47295166947614514 0.5270483305238549 0.6780311871055819 0.32196881289441814 0.29862725927337763 0.7013727407266224 0.5364658828191726 0.4635341171808274 0.058260926276377946 0.9417390737236221 0.7088799273085462 0.2911200726914538 0.34785436592924013 0.6521456340707599 0.5972520812263139 0.4027479187736861 0.6442982206335651 0.355701779366435 0.40760525458984226 0.5923947454101577 0.5430118494544008 0.4569881505455992 0.29591758314101374 0.7040824168589862 0.2220348098253107 0.7779651901746893 0.3621342284023909 0.637865771597609 0.6208440333691878 0.37915596663081214 0.5467456550067765 0.4532543449932236 0.5661719661703104 0.4338280338296896 0.5482924039869154 0.4517075960130847 0.012354180951515564 0.9876458190484845 0.44668257084435337 0.5533174291556466 0.6115395198811119 0.3884604801188882 0.30647595000578387 0.6935240499942161 0.676716276857946 0.32328372314205395 0.3389753665647875 0.6610246334352124 0.5224937463516862 0.4775062536483138 0.5405373095065581 0.45946269049344196 0.12489792690886506 0.875102073091135 0.5908591364730919 0.40914086352690815 0.38153265322169716 0.618467346778303 0.4213283253297338 0.5786716746702663 0.49305819435037945 0.5069418056496207 0.8369585191282723 0.16304148087172748 0.2330045277120098 0.7669954722879901 0.40553466184779485 0.594465338152205 0.8406607203346949 0.15933927966530517 0.4752078670716205 0.5247921329283795 0.49739259639721395 0.502607403602786 0.731662919593568 0.268337080406432 0.33003704130699957 0.6699629586930005 0.797192268147137 0.20280773185286294 0.2712902757298894 0.7287097242701106 0.21465156573610855 0.7853484342638916 0.39288368643290345 0.6071163135670965 0.44567281079523485 0.5543271892047651 0.5060026098358434 0.4939973901641566 0.515003313428712 0.4849966865712879 0.5073903382857636 0.4926096617142363 0.8634319066556134 0.13656809334438655 0.11541918251948018 0.8845808174805199 0.28607735505911275 0.7139226449408872 0.594914481598694 0.405085518401306 0.46943125816676934 0.5305687418332307 0.5089355146631235 0.49106448533687647 0.16841921035132632 0.8315807896486738 0.5072749881221829 0.4927250118778171 0.643553915596462 0.35644608440353803 0.3699339759997653 0.6300660240002347 0.5167151373794666 0.48328486262053333 0.14465100812927104 0.855348991870729 0.3164306042935739 0.683569395706426 0.517886661698857 0.482113338301143 0.8294123362581743 0.1705876637418256 0.7256137753506182 0.2743862246493819 0.9035577652863809 0.09644223471361917 0.32954408422216175 0.6704559157778383 0.7194713761236439 0.28052862387635613 0.8713703249253335 0.12862967507466644 0.3207289926845584 0.6792710073154417 0.5848675935985836 0.4151324064014163 0.35607668630497874 0.6439233136950213 0.6585405251396335 0.3414594748603666 0.387362798553742 0.612637201446258 0.26550054073659557 0.7344994592634044 0.1270737812089402 0.8729262187910598 0.2512614930344457 0.7487385069655542 0.4186714069626565 0.5813285930373435 0.4698131104237243 0.5301868895762757 0.017898575553724698 0.9821014244462754 0.21780438696506993 0.7821956130349301 0.7200439160343274 0.27995608396567273 0.7064350809625142 0.2935649190374859 0.48403115118041296 0.5159688488195872 0.5181891980541284 0.4818108019458715 0.23832348766950914 0.7616765123304909 0.5616206323313613 0.4383793676686388 0.24098971966576277 0.7590102803342372 0.5683260808238786 0.43167391917612147 0.4355373553016931 0.5644626446983069 0.2974158930287964 0.7025841069712037 0.3930517712921678 0.6069482287078323 0.023378197151164633 0.9766218028488354 0.5505548025335062 0.44944519746649375 0.5598534070387938 0.44014659296120623 0.9041154871000595 0.09588451289994045 0.2837453444324822 0.7162546555675178 0.8254583610162541 0.17454163898374583 0.535365324233886 0.464634675766114 0.2899886555087904 0.7100113444912096 0.8295028070397426 0.17049719296025748 0.6507492538690165 0.3492507461309835 0.5812244492617051 0.4187755507382949 0.9031258638034076 0.09687413619659234 0.4829868297104694 0.5170131702895308 0.1509522612840669 0.8490477387159331 0.4090680490642185 0.5909319509357814 0.031661894569928226 0.9683381054300718 0.7127493215298693 0.2872506784701308 0.579685383814669 0.42031461618533095 0.4626695618124307 0.5373304381875693 0.03272699948204597 0.967273000517954 0.6964688590543497 0.3035311409456501 0.5480080367720893 0.45199196322791074 0.2848243556551871 0.715175644344813 0.4392802704520948 0.5607197295479053 0.2046958780686026 0.7953041219313974 0.6030852285140056 0.3969147714859944 0.7556602199212898 0.24433978007871018 0.0493077360271352 0.9506922639728648 0.5786124338453595 0.42138756615464035 0.756285745569459 0.2437142544305409 0.37093721479433633 0.6290627852056636 0.27793138678029483 0.7220686132197051 0.2665580306905086 0.7334419693094915 0.5820065038413696 0.4179934961586304 0.34012474929316516 0.6598752507068348 0.5929236343033549 0.407076365696645 0.015477054295694502 0.9845229457043055 0.24835800072577519 0.7516419992742248 0.053142046947596104 0.9468579530524039 0.37062251465834534 0.6293774853416546 0.4763477773935495 0.5236522226064505 0.9015590676289337 0.09844093237106624 0.38175132712035065 0.6182486728796494 0.5282342703296787 0.4717657296703212 0.6374017106987342 0.3625982893012657 0.2180723037078406 0.7819276962921594 0.5338406746614555 0.4661593253385446 0.7122259084754363 0.2877740915245637 0.4656440805914085 0.5343559194085915 0.8837301810274379 0.11626981897256204 0.5585273499702649 0.4414726500297351 0.8587347765581138 0.14126522344188616 0.5643330993175857 0.4356669006824142 0.48238607584028187 0.5176139241597182 0.9766577756284966 0.02334222437150339 0.7849847769584339 0.2150152230415662 0.49946663561242977 0.5005333643875702 0.8191527463778967 0.18084725362210333 0.4958429347822882 0.5041570652177118 0.053434451300517 0.946565548699483 0.03331218980186387 0.9666878101981361 0.513998656927618 0.48600134307238196 0.7017132236232745 0.29828677637672546 0.8900277608196139 0.10997223918038619 0.3371191318782714 0.6628808681217286 0.682702928960491 0.3172970710395089 0.3797824967963023 0.6202175032036977 0.16845195980092526 0.8315480401990747 0.7379522478299532 0.2620477521700468 0.6187751044772261 0.38122489552277394 0.4201882463445563 0.5798117536554437 0.2432906839837381 0.7567093160162618 0.15366890273533532 0.8463310972646647 0.33964892956826154 0.6603510704317385 0.5810615151941586 0.41893848480584145 0.7287757298559989 0.27122427014400113 0.9248424821656543 0.07515751783434564 0.10457952880452856 0.8954204711954714 0.6398505560803939 0.36014944391960607 0.2723502995306213 0.7276497004693787 0.45662437409475676 0.5433756259052432 0.8081924240926167 0.19180757590738334 0.47968919248854813 0.5203108075114518 0.9539639065977743 0.04603609340222573 0.11991486384432701 0.880085136155673 0.7552823922823301 0.24471760771766993 0.256053871531094 0.743946128468906 0.6586055774084217 0.34139442259157826 0.7631585983349622 0.23684140166503773 0.5961865502045082 0.40381344979549194 0.5760115658112207 0.42398843418877924 0.11029947753550291 0.889700522464497 0.7073377472835644 0.29266225271643564 0.4470773998845742 0.5529226001154259 0.03840740731451174 0.9615925926854882 0.6962922110926284 0.3037077889073716 0.42663521351108846 0.5733647864889115 0.8612660985453092 0.13873390145469067 0.5426028453867494 0.4573971546132505 0.8535262578838609 0.1464737421161391 0.4570777648784642 0.5429222351215358 0.8079556353143521 0.19204436468564787 0.3131960734123208 0.6868039265876792 0.35516307229802185 0.6448369277019782 0.9618629516605737 0.038137048339426376 0.5253662865867039 0.4746337134132961 0.4527605678236404 0.5472394321763596 0.7223909294466729 0.2776090705533271 0.8380777793791857 0.16192222062081427 0.6422523775470835 0.3577476224529164 0.43255810541806144 0.5674418945819386 0.6692484967123468 0.33075150328765335 0.49344984192742036 0.5065501580725796 0.24963138470628277 0.7503686152937171 0.4982584739489418 0.5017415260510582 0.7781597456116672 0.22184025438833282 0.3503438786745051 0.6496561213254949 0.5747730612042288 0.4252269387957712 0.3010019263927227 0.6989980736072774 0.40888555660994147 0.5911144433900586 0.07577272085198088 0.9242272791480192 0.5479359604443872 0.45206403955561275 0.05016348947275231 0.9498365105272477 0.7011397064491034 0.2988602935508967 0.8403320458364943 0.15966795416350565 0.5112844312950148 0.4887155687049853 0.4726703740556474 0.5273296259443526 0.8809352869472339 0.11906471305276611 0.43466160763538325 0.5653383923646167 0.009294606666241328 0.9907053933337586 0.593608034505509 0.406391965494491 0.5598552376229081 0.4401447623770918 0.550586880151194 0.44941311984880605 0.23603980740456382 0.7639601925954361 0.206685320945441 0.793314679054559 0.3639968132441349 0.6360031867558651 0.3867543132304491 0.6132456867695509 0.27264126866571714 0.7273587313342829 0.1336904991913392 0.8663095008086608 0.1805396235082621 0.8194603764917379 0.19129894121667923 0.8087010587833208 0.4937649807020866 0.5062350192979135 0.8257419237704171 0.1742580762295829 0.5999824506479025 0.40001754935209755 0.85780096236935 0.14219903763065 0.4636260653969467 0.5363739346030533 0.49554537744118293 0.504454622558817 0.2775563312346951 0.7224436687653049 0.6018244636602321 0.3981755363397679 0.14649545026107844 0.8535045497389216 0.6690506694518986 0.33094933054810144 0.7759268665128924 0.22407313348710745 0.5144750526206983 0.48552494737930174 0.3129322966928168 0.6870677033071833 0.3551891343602411 0.6448108656397588 0.5363637256644206 0.46363627433557936 0.3878044713068429 0.6121955286931571 0.7194577055577193 0.2805422944422808 0.6420672060326519 0.3579327939673481 0.6614986799462075 0.3385013200537925 0.8870095013420471 0.1129904986579529 0.5357804602398183 0.46421953976018165 0.30527863204540767 0.6947213679545924 0.6927364325320896 0.30726356746791034 0.6184484727224658 0.3815515272775342 0.6338173363890707 0.36618266361092944 0.5571555121281869 0.4428444878718131 0.645109553580912 0.35489044641908807 0.5458213259195891 0.4541786740804109 0.6596526918728717 0.3403473081271284 0.7838633029338272 0.21613669706617283 0.975084936184863 0.024915063815137025 0.6090900060816025 0.3909099939183975 0.4700610194802064 0.5299389805197937 0.5768191080402343 0.4231808919597657 0.4393880359511874 0.5606119640488125 0.3647245061416887 0.6352754938583113 0.14280493092640426 0.8571950690735958 0.20770817988912865 0.7922918201108713 0.0501895083385426 0.9498104916614574 0.2565081203187617 0.7434918796812383 0.9040055738745502 0.09599442612544981 0.6710196958254974 0.32898030417450264 0.400423426211143 0.599576573788857 0.04109287497168496 0.958907125028315 0.7570258702928275 0.24297412970717244 0.47677746200543863 0.5232225379945613 0.3032192578537302 0.6967807421462698 0.45821798705555233 0.5417820129444477 0.07239819435758899 0.927601805642411 0.5597455173048822 0.4402544826951179 0.640727794858543 0.359272205141457 0.43235294542109776 0.5676470545789023 0.543819243669819 0.456180756330181 0.6747832477683463 0.3252167522316537 0.2252366683800402 0.7747633316199598 0.5406409445160858 0.4593590554839143 0.5362738573684928 0.4637261426315072 0.36355505334917243 0.6364449466508275 0.5105962829481446 0.48940371705185537 0.3547105883699255 0.6452894116300746 0.8408811939059534 0.1591188060940466 0.47242656623250334 0.5275734337674967 0.9404809483831308 0.059519051616869205 0.7311107674969504 0.26888923250304964 0.2435378415737494 0.7564621584262506 0.8575399228953361 0.1424600771046638 0.19377307093851293 0.8062269290614871 0.295295521970871 0.704704478029129 0.06821622303960483 0.9317837769603952 0.9135389510002145 0.08646104899978543 0.3555234379142225 0.6444765620857775 0.367076112591412 0.632923887408588 0.21538604655465007 0.7846139534453498 0.729426097156454 0.270573902843546 0.34356465607478504 0.6564353439252149 0.05636194029916858 0.9436380597008314 0.11000654541277066 0.8899934545872293 0.42199040673830857 0.5780095932616914 0.6071464093224548 0.39285359067754516 0.5811807091402146 0.4188192908597854 0.3179741655803863 0.6820258344196136 0.8805070927303706 0.11949290726962922 0.7123849410208097 0.2876150589791903 0.6959933678793058 0.3040066321206943 0.5347136959823398 0.46528630401766025 0.9563559339165195 0.0436440660834805 0.14234622776408706 0.857653772235913 0.7978442772279347 0.20215572277206528 0.6401987528229546 0.3598012471770454 0.7879243523230627 0.2120756476769373 0.3776416580150198 0.6223583419849802 0.6222968978343384 0.3777031021656616 0.5183584247950971 0.48164157520490297 0.8504499341874278 0.1495500658125722 0.31455841694802716 0.6854415830519728 0.7523631246706832 0.24763687532931675 0.7973167462844004 0.20268325371559964 0.30321966858797267 0.6967803314120273 0.7753494667523239 0.22465053324767628 0.3979515919324007 0.6020484080675993 0.4758061440434199 0.5241938559565802 0.6783375223072017 0.32166247769279843 0.20488804600881894 0.7951119539911811 0.3231929851350763 0.6768070148649237 0.6378397198210974 0.3621602801789026 0.39234072655680546 0.6076592734431945 0.6976611810197662 0.3023388189802339 0.2476384474028957 0.7523615525971044 0.4374513963649993 0.5625486036350006 0.6792379955989555 0.3207620044010445 0.3349187335891093 0.6650812664108907 0.00957157933366044 0.9904284206663395 0.018730750777050127 0.9812692492229499 0.31102217433171014 0.6889778256682899 0.08182854888680183 0.9181714511131982 0.3703675492344617 0.6296324507655383 0.4234926462957298 0.5765073537042702 0.6846090748136785 0.3153909251863215 0.7501083994180118 0.24989160058198817 0.6335233278916267 0.3664766721083733 0.6853316955240353 0.31466830447596483 0.570825858467006 0.4291741415329941 0.8677432335054585 0.13225676649454157 0.6710807349865621 0.328919265013438 0.5468350575330363 0.4531649424669637 0.7505855010184638 0.24941449898153628 0.06377385432069765 0.9362261456793024 0.11433010362180697 0.885669896378193 0.22034851153027935 0.7796514884697205 0.44966334140852715 0.5503366585914727 0.4651117991043578 0.5348882008956423 0.06992516815981936 0.9300748318401806 0.7914922137532171 0.20850778624678293 0.6662762423611008 0.33372375763889917 0.5009627951598292 0.4990372048401707 0.2464733804636285 0.7535266195363716 0.8069514510428348 0.19304854895716517 0.4177356438456769 0.582264356154323 0.4634077504111919 0.5365922495888081 0.40530645158806394 0.5946935484119361 0.30515975223675945 0.6948402477632406 0.5552745352850823 0.4447254647149177 0.4931491508549588 0.5068508491450412 0.453033098143625 0.546966901856375 0.7225185615826231 0.27748143841737677 0.5533435041085769 0.44665649589142303 0.07755274702286764 0.9224472529771324 0.615602385913489 0.38439761408651096 0.50897645956512 0.49102354043487995 0.9930330500723308 0.0069669499276692045 0.3065518460042881 0.6934481539957119 0.9578427051276416 0.04215729487235844 0.5101941573602922 0.48980584263970794 0.5066380628721122 0.4933619371278878 0.0688671247108327 0.9311328752891674 0.32929392442906186 0.6707060755709382 0.7948494998585066 0.20515050014149344 0.19565467086084623 0.8043453291391538 0.7187278629474431 0.281272137052557 0.5917729531047272 0.4082270468952728 0.4161828341195308 0.5838171658804692 0.8962833663612854 0.10371663363871464 0.579605041557687 0.420394958442313 0.33255479002303945 0.6674452099769606 0.6783729507547386 0.3216270492452614 0.22523002791264918 0.7747699720873509 0.769495234661423 0.23050476533857697 0.411088006678741 0.5889119933212591 0.6761740727393032 0.3238259272606968 0.46671565039402496 0.533284349605975 0.23569587188198696 0.7643041281180132 0.37478759457937616 0.6252124054206238 0.20685041698397935 0.7931495830160207 0.6999680889478032 0.30003191105219684 0.09765691773152954 0.9023430822684705 0.358949131253949 0.641050868746051 0.25532765832398757 0.7446723416760125 0.2115614020913901 0.78843859790861 0.40164918854296644 0.5983508114570335 0.802549681289573 0.19745031871042706 0.8630440758756162 0.13695592412438387 0.21345627209788207 0.7865437279021179 0.566013823041161 0.433986176958839 0.03179937569067129 0.9682006243093287 0.38505977898964694 0.6149402210103531 0.301261209799057 0.6987387902009429 0.4748753633006886 0.5251246366993115 0.8033827256237026 0.1966172743762974 0.6817411023440051 0.31825889765599485 0.594590987039367 0.40540901296063303 0.5537842386965575 0.4462157613034426 0.6694399346552622 0.3305600653447378 0.6910341265262739 0.3089658734737261 0.7378906119347001 0.26210938806529993 0.5468576537970502 0.4531423462029498 0.016493972187096678 0.9835060278129033 0.5878118218230584 0.4121881781769416 0.5589945026566208 0.4410054973433793 0.7768029187007119 0.22319708129928803 0.8326436460859781 0.16735635391402198 0.37808006777700104 0.6219199322229989 0.7954895969553649 0.20451040304463505 0.4460231987103286 0.5539768012896714 0.5721720875799255 0.42782791242007445 0.9997678659243177 0.00023213407568236928 0.20686091666491102 0.7931390833350889 0.8047436359574462 0.19525636404255373 0.21992023616910014 0.7800797638308998 0.29361866031894873 0.7063813396810513 0.43146197910193634 0.5685380208980637 0.469065654423051 0.5309343455769491 0.5692017473631886 0.4307982526368114 0.5306079997915447 0.46939200020845534 0.5852828471218571 0.414717152878143 0.4707392663926521 0.5292607336073479 0.06673441956686346 0.9332655804331366 0.13424319443410743 0.8657568055658926 0.34218993831657096 0.6578100616834291 0.43955779062401734 0.5604422093759828 0.13122932152513736 0.8687706784748628 0.8931956697560178 0.10680433024398221 0.4907473583919835 0.5092526416080164 0.6657389197891523 0.3342610802108477 0.42125875417609565 0.5787412458239044 0.36977160278415167 0.6302283972158484 0.5657409556615975 0.4342590443384024 0.6603012912616572 0.3396987087383429 0.05886675354688428 0.9411332464531157 0.5736523821271362 0.42634761787286374 0.5797997160692393 0.42020028393076064 0.6130626173751227 0.38693738262487737 0.3467762438569513 0.6532237561430486 0.3639044711040327 0.6360955288959673 0.3843473012324029 0.6156526987675971 0.5737171702432958 0.42628282975670423 0.8633603393431629 0.13663966065683705 0.49764108987694017 0.5023589101230599 0.14086585480041822 0.8591341451995818 0.18938008234869871 0.8106199176513013 0.365201239616104 0.634798760383896 0.31255814904309914 0.6874418509569009 0.3631486908009341 0.636851309199066 0.5825564768268631 0.4174435231731369 0.6231657054166139 0.37683429458338613 0.8041326705520246 0.19586732944797536 0.45091181431375316 0.5490881856862467 0.19672736616861472 0.8032726338313853 0.2993802607548557 0.7006197392451444 0.2871611229313537 0.7128388770686462 0.6222275836798689 0.3777724163201311 0.5514673445726868 0.4485326554273132 0.3719074154703055 0.6280925845296945 0.35257685013184364 0.6474231498681563 0.753778017503049 0.24622198249695101 0.4490939842286687 0.5509060157713312 0.33098522954281157 0.6690147704571885 0.7571495705972996 0.2428504294027005 0.8176929875966491 0.18230701240335087 0.6807274559395363 0.3192725440604637 0.45202881800626044 0.5479711819937395 0.18665776617341892 0.8133422338265811 0.5637867584569193 0.4362132415430806 0.05974349515048355 0.9402565048495166 0.5546162407162926 0.44538375928370744 0.5773607261174617 0.42263927388253825 0.7047642638599267 0.29523573614007326 0.551019044502893 0.44898095549710704 0.6937895067667975 0.30621049323320243 0.1944464049466685 0.8055535950533315 0.16355420193084427 0.8364457980691558 0.3413315096346926 0.6586684903653074 0.9565366061916176 0.043463393808382336 0.3791579870731625 0.6208420129268376 0.7843627832458369 0.21563721675416317 0.14369925608894496 0.856300743911055 0.5220625451959819 0.47793745480401806 0.48798651921007097 0.512013480789929 0.4200598433556773 0.5799401566443227 0.2996404820006177 0.7003595179993822 0.6155290013548623 0.3844709986451376 0.6610700395931632 0.3389299604068367 0.1751095246868006 0.8248904753131994 0.5987200707125495 0.40127992928745054 0.6075917343779623 0.3924082656220377 0.7965884274862641 0.2034115725137359 0.1888246287443743 0.8111753712556258 0.45337840536104923 0.5466215946389508 0.5182578508814524 0.48174214911854757 0.7779794145408044 0.2220205854591957 0.9033026092351402 0.09669739076485984 0.36619842245328654 0.6338015775467135 0.086713701819908 0.913286298180092 0.9578255847102289 0.042174415289771054 0.20400347478423997 0.79599652521576 0.5200528890567332 0.4799471109432668 0.7307006357001768 0.26929936429982326 0.6288280248989309 0.3711719751010691 0.48306186272735263 0.5169381372726474 0.4928767641900383 0.5071232358099617 0.48960431385962266 0.5103956861403772 0.6073356970526513 0.3926643029473487 0.2092522122254673 0.7907477877745327 0.4126547269210836 0.5873452730789164 0.6274625671435734 0.3725374328564266 0.0734147972226503 0.9265852027773497 0.6996153316394522 0.3003846683605479 0.3474200772103446 0.6525799227896554 0.7734944390412486 0.22650556095875138 0.7117538727250788 0.2882461272749212 0.4225219974027644 0.5774780025972357 0.8252669249043523 0.17473307509564762 0.3246001391214514 0.6753998608785486 0.21735889982611376 0.7826411001738862 0.9080822899581898 0.09191771004181018 0.6532026737788726 0.3467973262211274 0.7421934018919875 0.2578065981080125 0.898741666038312 0.10125833396168796 0.4198532330956069 0.580146766904393 0.3547500155966329 0.6452499844033671 0.04140188569461321 0.9585981143053868 0.5131288866072357 0.4868711133927644 0.7719328895890233 0.2280671104109767 0.21261285426111967 0.7873871457388804 0.4239408992202571 0.576059100779743 0.6193042870136167 0.3806957129863832 0.543037768965016 0.456962231034984 0.299839710769571 0.700160289230429 0.5045734683284175 0.49542653167158246 0.09027608347249329 0.9097239165275067 0.06837752293984056 0.9316224770601593 0.500336764205232 0.499663235794768 0.5910214874185978 0.40897851258140216 0.6056039175685997 0.3943960824314003 0.5140411307810805 0.4859588692189195 0.6961505584294755 0.3038494415705245 0.5366718402077986 0.4633281597922015 0.5912320733881292 0.40876792661187084 0.5393942912361404 0.4606057087638596 0.48228854895662443 0.5177114510433756 0.4819029376072219 0.5180970623927781 0.5687550245232955 0.43124497547670443 0.40053712656796464 0.5994628734320354 0.9221567599080707 0.07784324009192933 0.5362599061514499 0.46374009384855003 0.24140425523130649 0.7585957447686935 0.6823881965728926 0.3176118034271073 0.4032774083780203 0.5967225916219797 0.33470717427042057 0.6652928257295795 0.7883337523731726 0.21166624762682745 0.034095672314737646 0.9659043276852624 0.5619769099116717 0.4380230900883283 0.48050301646004334 0.5194969835399565 0.5797763882313479 0.4202236117686521 0.3851972340038705 0.6148027659961296 0.5050062403994641 0.49499375960053593 0.44544812102119385 0.5545518789788061 0.1202336693639462 0.8797663306360538 0.11832561299674427 0.8816743870032557 0.05743613426060245 0.9425638657393975 0.4338943863243572 0.5661056136756428 0.8796668864968634 0.12033311350313654 0.6968774705645403 0.30312252943545975 0.42571264373911866 0.5742873562608813 0.1541181722788983 0.8458818277211018 0.0838555866130986 0.9161444133869014 0.2731577963612925 0.7268422036387074 0.5941634626799299 0.40583653732007013 0.3648952955165909 0.6351047044834092 0.7833835399074625 0.21661646009253752 0.5118344019598866 0.48816559804011345 0.6195364360620944 0.3804635639379056 0.21624189400859092 0.783758105991409 0.29274531695215594 0.707254683047844 0.7750385485721938 0.22496145142780624 0.5071299143914569 0.4928700856085431 0.41127279971368325 0.5887272002863168 0.1607387600488615 0.8392612399511385 0.47926134085412975 0.5207386591458703 0.7325706665830156 0.2674293334169843 0.7059992141495179 0.29400078585048206 0.2598375291908327 0.7401624708091673 0.7674400991035191 0.2325599008964809 0.8983580812060611 0.10164191879393891 0.764223214581457 0.23577678541854294 0.45102798790628595 0.548972012093714 0.33969936673437723 0.6603006332656227 0.7821582508795942 0.21784174912040574 0.6025944422430908 0.39740555775690917 0.40894920462246365 0.5910507953775364 0.7982555544021914 0.20174444559780863 0.5605195508556463 0.4394804491443537 0.48419419818902126 0.5158058018109787 0.561079052107762 0.43892094789223796 0.7093101196330355 0.29068988036696447 0.527343553985918 0.4726564460140819 0.39657253996841924 0.6034274600315808 0.3843966546713115 0.6156033453286884 0.1292328224089408 0.8707671775910591 0.9140328086755319 0.08596719132446805 0.31985410334234426 0.6801458966576557 0.08336139961100104 0.9166386003889989 0.07746150123448718 0.9225384987655129 0.14932109303169405 0.850678906968306 0.7813863638882271 0.21861363611177284 0.03620572345777068 0.9637942765422293 0.8207871750931356 0.17921282490686438 0.015030036185529663 0.9849699638144703 0.1994798182755463 0.8005201817244538 0.9083263166721419 0.09167368332785807 0.4857581631512442 0.5142418368487558 0.4598795965706014 0.5401204034293986 0.5126577016488546 0.48734229835114534 0.8627969273586047 0.1372030726413953 0.6253890485678931 0.3746109514321069 0.7617734664692469 0.23822653353075296 0.35599789576556323 0.6440021042344368 0.3769601391622398 0.6230398608377602 0.6604194340230605 0.3395805659769395 0.2731201648880759 0.7268798351119241 0.40844241545439475 0.5915575845456053 0.6094341121541725 0.3905658878458274 0.6925343597938031 0.3074656402061969 0.24218201509260814 0.7578179849073919 0.32919596685617264 0.6708040331438273 0.5880856358049067 0.4119143641950934 0.2838471766282684 0.7161528233717316 0.6152213342424527 0.38477866575754716 0.5058576158207152 0.49414238417928474 0.29828516080436446 0.7017148391956355 0.5227340086384072 0.4772659913615928 0.011411943478462026 0.988588056521538 0.24858158013863674 0.7514184198613633 0.584832829968301 0.41516717003169906 0.3363444507191161 0.6636555492808839 0.41103075128925964 0.5889692487107404 0.3225222355209984 0.6774777644790017 0.612344412159522 0.38765558784047793 0.4066887036877853 0.5933112963122146 0.7483291061151048 0.2516708938848952 0.41780014039306596 0.5821998596069341 0.4957379862649525 0.5042620137350474 0.31948476327082986 0.68051523672917 0.4801162587175982 0.5198837412824018 0.4063461241809017 0.5936538758190982 0.5766056439935746 0.4233943560064255 0.1720597372425154 0.8279402627574846 0.8983491454507282 0.10165085454927177 0.6666423632494218 0.3333576367505782 0.8717022792601492 0.1282977207398508 0.01808092259601429 0.9819190774039858 0.5079565600623205 0.4920434399376795 0.6209602853632897 0.3790397146367103 0.2997762522541522 0.7002237477458477 0.26436827451241707 0.7356317254875829 0.7155841524833855 0.2844158475166146 0.62205703863043 0.37794296136956995 0.21291676608127008 0.7870832339187299 0.4950380099512938 0.5049619900487062 0.6751191027653715 0.32488089723462865 0.799975326944827 0.20002467305517313 0.38020737191419124 0.6197926280858087 0.0754661862853911 0.9245338137146089 0.3952639745142659 0.604736025485734 0.6560353840120865 0.3439646159879135 0.685826058989692 0.31417394101030804 0.20613754672211815 0.7938624532778819 0.5986377327343901 0.4013622672656099 0.6762874434626581 0.3237125565373418 0.12563379676279976 0.8743662032372003 0.4949907606567641 0.5050092393432359 0.501787936593605 0.498212063406395 0.15299622482216726 0.8470037751778328 0.5711404429612993 0.42885955703870077 0.45369915637498637 0.5463008436250137 0.5366001542503183 0.46339984574968157 0.5000922488506285 0.4999077511493715 0.7200751085736359 0.2799248914263642 0.37531694306194213 0.6246830569380578 0.1648286398307504 0.8351713601692495 0.8442916326323222 0.1557083673676778 0.5481807316331802 0.45181926836681985 0.46285511541972674 0.5371448845802733 0.5464684761362892 0.4535315238637109 0.4424178281827137 0.5575821718172863 0.7584878513432373 0.2415121486567627 0.6048039988181452 0.3951960011818548 0.2646017617861747 0.7353982382138253 0.5134951535002893 0.4865048464997108 0.5355411059480417 0.46445889405195834 0.26779236360794895 0.732207636392051 0.9534552389625764 0.04654476103742352 0.14664785435757838 0.8533521456424217 0.8875466028065744 0.1124533971934256 0.609378049659112 0.3906219503408879 0.6622896256665739 0.3377103743334261 0.110869558981904 0.889130441018096 0.32633193162181096 0.673668068378189 0.22208744170211392 0.7779125582978861 0.594180536066925 0.40581946393307494 0.08472653875115574 0.9152734612488442 0.3038972874016833 0.6961027125983167 0.6284841526584871 0.3715158473415129 0.44973482678619414 0.5502651732138059 0.45614872282163416 0.5438512771783658 0.5545213680915416 0.4454786319084583 0.1089211343496834 0.8910788656503166 0.5685161291229466 0.4314838708770534 0.45642521653837015 0.5435747834616298 0.6099770558774783 0.3900229441225217 0.36111513066106643 0.6388848693389336 0.8848121629599225 0.11518783704007746 0.5129530688461206 0.4870469311538795 0.5157245228473243 0.48427547715267566 0.6166050067819683 0.38339499321803167 0.5008770625452631 0.4991229374547369 0.611863573855107 0.38813642614489297 0.47631647936910515 0.5236835206308948 0.28438675948560244 0.7156132405143976 0.8215759255319214 0.17842407446807854 0.47426650061287656 0.5257334993871234 0.6656903238875438 0.3343096761124562 0.516334130474463 0.4836658695255371 0.27411032609639563 0.7258896739036044 0.6563890895279562 0.3436109104720438 0.8508775907566267 0.14912240924337333 0.07848187277185945 0.9215181272281405 0.5524268810105515 0.44757311898944846 0.13354157151307464 0.8664584284869253 0.8386758312636666 0.16132416873633343 0.657481203739361 0.342518796260639 0.6050961089831363 0.39490389101686374 0.2944789379707859 0.705521062029214 0.35893063442370526 0.6410693655762947 0.0769665608019782 0.9230334391980218 0.14572427939598748 0.8542757206040125 0.568655876550299 0.43134412344970097 1.4064266556737196e-05 0.9999859357334433 0.5094235772777288 0.4905764227222713 0.8998321311795262 0.10016786882047375 0.8627161195733011 0.1372838804266989 0.5016763994627771 0.49832360053722297 0.4944083288225186 0.5055916711774813 0.5262009166849877 0.4737990833150123 0.5495959024842867 0.4504040975157133 0.2682689004058891 0.731731099594111 0.5105982069974558 0.4894017930025442 0.8664098550519853 0.13359014494801466 0.8891921261004023 0.11080787389959772 0.15662240622999124 0.8433775937700088 0.5336362489875158 0.4663637510124842 0.05808244708738722 0.9419175529126128 0.9778081228774563 0.02219187712254366 0.3128161962230096 0.6871838037769905 0.29941646772581293 0.7005835322741871 0.6216294325405297 0.37837056745947023 0.4131966611758391 0.5868033388241609 0.16465191341927982 0.8353480865807202 0.5474463256006533 0.4525536743993467 0.18357648907156618 0.8164235109284338 0.6662012978033022 0.3337987021966978 0.5951536497314457 0.40484635026855437 0.8282763539476201 0.17172364605237994 0.4958828451393053 0.5041171548606947 0.36871993339178727 0.6312800666082127 0.26233585163525974 0.7376641483647403 0.05807845024265747 0.9419215497573425 0.19541149743922476 0.8045885025607753 0.4483341769709028 0.5516658230290973 0.45251753723177973 0.5474824627682202 0.5165717234979412 0.48342827650205883 0.8173783810139339 0.18262161898606613 0.3844051971133049 0.6155948028866951 0.7528276130392761 0.24717238696072388 0.5700082911198285 0.4299917088801714 0.9298661324838735 0.07013386751612649 0.6001192547031189 0.3998807452968812 0.577132135803424 0.422867864196576 0.6991890730780821 0.3008109269219179 0.6569302086503386 0.34306979134966137 0.5683767318094785 0.4316232681905214 0.6709039674858851 0.32909603251411484 0.40981423347740176 0.5901857665225982 0.42557108714388203 0.5744289128561179 0.041749458536095824 0.9582505414639042 0.4905444898681173 0.5094555101318827 0.5380870613693405 0.46191293863065963 0.44691638340448286 0.5530836165955171 0.4083032170266069 0.5916967829733932 0.6080460377288697 0.3919539622711303 0.32697004915799943 0.6730299508420006 0.15329069322290598 0.846709306777094 0.9862710276448651 0.013728972355134884 0.41789808316013977 0.5821019168398602 0.4375139169224942 0.5624860830775058 0.732909890557157 0.26709010944284295 0.6368838945772709 0.3631161054227291 0.21478625459118963 0.7852137454088103 0.32825016006847296 0.671749839931527 0.3452817054551616 0.6547182945448384 0.9394606162877979 0.060539383712202126 0.4879475789684423 0.5120524210315577 0.7079895498850822 0.29201045011491783 0.6035076638466328 0.3964923361533672 0.380392886326435 0.619607113673565 0.332298551710831 0.667701448289169 0.6664457167747156 0.33355428322528435 0.3855869549625246 0.6144130450374753 0.2586099069752769 0.741390093024723 0.18744250948381802 0.812557490516182 0.2996214222314673 0.7003785777685327 0.08227439795536882 0.9177256020446312 0.39739610996849506 0.6026038900315049 0.5547797019865008 0.44522029801349916 0.49782299707385413 0.5021770029261459 0.02733070328985508 0.9726692967101449 0.9870262588071705 0.012973741192829437 0.08273322708539337 0.9172667729146067 0.4933249843553736 0.5066750156446265 0.7395626694817748 0.2604373305182251 0.5267673388289699 0.4732326611710301 0.09766417672275433 0.9023358232772457 0.37205783335524467 0.6279421666447553 0.17345054159996123 0.8265494584000388 0.3815565787505686 0.6184434212494314 0.6185089822427323 0.3814910177572677 0.595655415691231 0.4043445843087689 0.4666578377668396 0.5333421622331603 0.5196850217438945 0.48031497825610536 0.4538473213754123 0.5461526786245876 0.8724247289884279 0.1275752710115721 0.2228209618517069 0.7771790381482931 0.453343192050444 0.5466568079495561 0.5492625014124052 0.4507374985875949 0.9205077304832593 0.07949226951674077 0.4708410675048992 0.5291589324951009 0.48574883456827317 0.5142511654317268 0.18671373343956674 0.8132862665604332 0.34174659725135453 0.6582534027486455 0.7355259427124646 0.26447405728753537 0.655674290592439 0.3443257094075611 0.47908982968111596 0.520910170318884 0.2990160695130521 0.7009839304869478 0.3187474907265843 0.6812525092734156 0.516509626603541 0.48349037339645895 0.7024563550580035 0.29754364494199653 0.9652425686443619 0.03475743135563812 0.3115446938537454 0.6884553061462546 0.13908856466103844 0.8609114353389615 0.8567032084658445 0.1432967915341555 0.46143024254048737 0.5385697574595126 0.7004937900131057 0.29950620998689426 0.9252045701464094 0.0747954298535906 0.6707320887685214 0.32926791123147864 0.6891091911582518 0.3108908088417483 0.6209398254575557 0.37906017454244434 0.25185746077560917 0.7481425392243909 0.4941533912589966 0.5058466087410034 0.08111357291167094 0.918886427088329 0.04489868943799506 0.955101310562005 0.8092444363055264 0.19075556369447355 0.3421653220398665 0.6578346779601335 0.5302851129908507 0.46971488700914926 0.21369328085705208 0.7863067191429479 0.6513869502634315 0.3486130497365685 0.08424723634251399 0.915752763657486 0.44883760470481465 0.5511623952951853 0.16641906835218406 0.833580931647816 0.2881947549504181 0.7118052450495818 0.265712811785676 0.734287188214324 0.3384605602666387 0.6615394397333613 0.6585908942176315 0.3414091057823686 0.447595741638115 0.552404258361885 0.4857871976673732 0.5142128023326268 0.5220140606337379 0.4779859393662621 0.42388521319488126 0.5761147868051187 0.1265399503102762 0.8734600496897238 0.738729986134657 0.261270013865343 0.7499539778930867 0.25004602210691323 0.25044328271340704 0.7495567172865929 0.03168037824060592 0.9683196217593941 0.6287100234317533 0.37128997656824675 0.18086554783039888 0.8191344521696011 0.32554410490842006 0.67445589509158 0.42399541858343326 0.5760045814165667 0.9640018405809266 0.03599815941907336 0.6285341848707369 0.37146581512926324 0.49626537236455115 0.5037346276354489 0.5192608720636217 0.48073912793637824 0.4560876533601682 0.5439123466398319 0.6540866148332135 0.3459133851667865 0.5513668113895522 0.44863318861044776 0.5646673431662592 0.43533265683374084 0.23900373018191773 0.7609962698180822 0.40329390058982145 0.5967060994101785 0.5322630829722744 0.4677369170277256 0.5864454263806662 0.4135545736193339 0.6630470819307892 0.33695291806921085 0.4504647170728697 0.5495352829271303 0.17274888446928738 0.8272511155307126 0.5145509813135332 0.48544901868646684 0.35720473490448496 0.6427952650955151 0.17330017971235806 0.8266998202876419 0.4181072341049908 0.5818927658950092 0.6158445938241157 0.3841554061758843 0.37826207808401163 0.6217379219159883 0.5092393435638292 0.49076065643617095 0.3389151610103474 0.6610848389896526 0.5229300974690264 0.47706990253097364 0.7756634022947533 0.22433659770524667 0.4743226167642918 0.5256773832357082 0.5195618597674213 0.48043814023257875 0.6485686446947946 0.3514313553052054 0.6192467684899496 0.3807532315100503 0.510423060715078 0.48957693928492196 0.38895180590609285 0.6110481940939072 0.4519458654754502 0.5480541345245499 0.8542401963651908 0.1457598036348092 0.5515710226985692 0.44842897730143083 0.6241421164541182 0.3758578835458819 0.037498172028403984 0.962501827971596 0.5660408760827809 0.43395912391721914 0.17603711203446426 0.8239628879655357 0.4818352797223379 0.518164720277662 0.5554552689546342 0.4445447310453659 0.48865457752960273 0.5113454224703972 0.5146203426782118 0.4853796573217882 0.07480955843888515 0.9251904415611149 0.002696277111912624 0.9973037228880873 0.9441467952119056 0.05585320478809439 0.6359674690815581 0.36403253091844207 0.26551299935188777 0.7344870006481122 0.3424953443991241 0.6575046556008759 0.6183999778804246 0.3816000221195755 0.3685588068667892 0.6314411931332108 0.39089535173510515 0.6091046482648949 0.11536773459124004 0.8846322654087598 0.24064123258127204 0.759358767418728 0.5115053091963732 0.48849469080362673 0.42365948332544257 0.5763405166745574 0.20848410798188396 0.791515892018116 0.5378373393508394 0.4621626606491605 0.38738205002123527 0.6126179499787646 0.09141302248940296 0.9085869775105971 0.4833915412325436 0.5166084587674565 0.6078047781641447 0.39219522183585537 0.007148417560421081 0.9928515824395789 0.6315288397323842 0.36847116026761584 0.003061137547870139 0.9969388624521298 0.8260999014732354 0.1739000985267646 0.5377034556034949 0.4622965443965051 0.2227207799174513 0.7772792200825487 0.22221568599872116 0.7777843140012789 0.4144863255145874 0.5855136744854126 0.454204750172876 0.545795249827124 0.7607297882417208 0.23927021175827937 0.9546330736662069 0.045366926333793085 0.779035964457996 0.22096403554200397 0.541026741220107 0.45897325877989303 0.2850635501574847 0.7149364498425153 0.29270117785904504 0.707298822140955 0.6059644155027283 0.3940355844972717 0.35132291423254447 0.6486770857674554 0.6688298813415364 0.33117011865846346 0.2762129871445788 0.7237870128554212 0.08570037438418543 0.9142996256158146 0.6305135596046731 0.36948644039532685 0.784884013380972 0.21511598661902792 0.8507108851980688 0.1492891148019312 0.4297545154642417 0.5702454845357583 0.8979645702039687 0.10203542979603132 0.2270375519989312 0.7729624480010688 0.07334875319331782 0.9266512468066821 0.3782593895487821 0.621740610451218 0.8458954499919845 0.15410455000801548 0.5049362771830077 0.4950637228169921 0.15458825734943502 0.845411742650565 0.9419751351212196 0.05802486487878048 0.7306558694101969 0.26934413058980317 0.24826948871123888 0.7517305112887611 0.5493009583732886 0.4506990416267113 0.456606281924879 0.5433937180751209 0.4570686500161868 0.5429313499838131 0.4324969640123272 0.5675030359876728 0.7063622913129045 0.29363770868709554 0.8692215175458275 0.13077848245417248 0.03052586349894959 0.9694741365010504 0.09208428472594798 0.907915715274052 0.8791990425491026 0.12080095745089732 0.7402559653666049 0.2597440346333951 0.6381189789378987 0.36188102106210135 0.2910216583877916 0.7089783416122084 0.3131994623169457 0.6868005376830544 0.2201357743050464 0.7798642256949536 0.6136821855974697 0.3863178144025304 0.8923301375979542 0.1076698624020458 0.8752440981236091 0.12475590187639073 0.7014368217578737 0.29856317824212636 0.20968805777173913 0.7903119422282608 0.3352281298367867 0.6647718701632133 0.5813458247445408 0.4186541752554592 0.5220868080824993 0.4779131919175007 0.3829259645637505 0.6170740354362495 0.4114002906539726 0.5885997093460275 0.850748560342127 0.1492514396578731 0.5097648525366631 0.49023514746333696 0.6507598161241918 0.3492401838758083 0.7409411103834826 0.2590588896165174 0.9546521349949 0.045347865005099984 0.4133248867652183 0.5866751132347817 0.43116047171111543 0.5688395282888846 0.6513452912704804 0.34865470872951965 0.5343256428077197 0.46567435719228034 0.31259548448473584 0.6874045155152642 0.4846396324379406 0.5153603675620594 0.6646611498389701 0.3353388501610299 0.5558898256447754 0.44411017435522454 0.2154792661111284 0.7845207338888716 0.45359769109194753 0.5464023089080525 0.8287378291793532 0.1712621708206467 0.4831697226772131 0.516830277322787 0.36111620970637587 0.6388837902936241 0.4240956167767227 0.5759043832232774 0.2572212910046275 0.7427787089953725 0.7461152273900572 0.2538847726099429 0.4429651029686412 0.5570348970313588 0.5472261781358975 0.4527738218641025 0.618272364117671 0.3817276358823291 0.48582604251272504 0.5141739574872749 0.528373474563113 0.471626525436887 0.921832098102188 0.078167901897812 0.33255796601666393 0.667442033983336 0.7525046086497666 0.24749539135023332 0.7032421152278303 0.29675788477216974 0.5622789150232472 0.43772108497675283 0.6529099611094072 0.3470900388905927 0.6696471827519234 0.3303528172480765 0.6536492419569573 0.3463507580430427 0.48923392331736776 0.5107660766826323 0.39314511324592916 0.606854886754071 0.45492418938840645 0.5450758106115936 0.5486834242695638 0.4513165757304362 0.9305103764404448 0.06948962355955522 0.3705288645122041 0.6294711354877959 0.26614835716389684 0.7338516428361033 0.4823194434163315 0.5176805565836685 0.8160631248059782 0.18393687519402177 0.5090037488615002 0.49099625113849976 0.643444595347079 0.35655540465292096 0.9491606613440423 0.050839338655957675 0.757395661506662 0.24260433849333796 0.1120948251764028 0.8879051748235972 0.9052932062481193 0.09470679375188075 0.20324520946185454 0.7967547905381455 0.5419174769431265 0.4580825230568734 0.2341204208111346 0.7658795791888653 0.6062016166641173 0.3937983833358827 0.10638060302649471 0.8936193969735053 0.9772936398275546 0.022706360172445407 0.9444044917718801 0.055595508228119914 0.19049496013423178 0.8095050398657683 0.5645044212694622 0.4354955787305378 0.7102586966861449 0.2897413033138551 0.15120458196003506 0.8487954180399649 0.6111762012163974 0.3888237987836026 0.2515290095848143 0.7484709904151857 0.643624530077233 0.35637546992276703 0.2100085748827643 0.7899914251172356 0.8696826809449705 0.13031731905502952 0.4530950624892226 0.5469049375107775 0.5740479903725357 0.4259520096274642 0.14346538930689914 0.8565346106931009 0.48353355571616874 0.5164664442838313 0.7405199191834035 0.2594800808165965 0.7045178134487445 0.2954821865512554 0.6645636775979779 0.3354363224020222 0.625639370215955 0.3743606297840451 0.42765822034135087 0.5723417796586492 0.11521993966992161 0.8847800603300784 0.716097210489044 0.283902789510956 0.3952662139690653 0.6047337860309348 0.6080763918125143 0.39192360818748573 0.3287076441733268 0.6712923558266732 0.7684316745985641 0.23156832540143593 0.6892762624649765 0.3107237375350234 0.9305396286518955 0.06946037134810444 0.18130742552697662 0.8186925744730232 0.761437090551667 0.238562909448333 0.4414146502155071 0.558585349784493 0.5850887474842915 0.4149112525157085 0.6142109040461836 0.3857890959538164 0.8480053548563052 0.15199464514369482 0.6476779959469894 0.3523220040530107 0.36315614158442205 0.636843858415578 0.5653329067380493 0.43466709326195074 0.03470596059887781 0.9652940394011222 0.5659887496508487 0.4340112503491514 0.931325339976056 0.06867466002394385 0.65823885923881 0.34176114076118996 0.5652015501792126 0.43479844982078747 0.21135337069314433 0.7886466293068557 0.6174977894431712 0.3825022105568287 0.15172960750642256 0.8482703924935774 0.6482996161845146 0.35170038381548535 0.8611531420539682 0.13884685794603183 0.5273665722499423 0.4726334277500576 0.26796745618898016 0.7320325438110197 0.3592990302258203 0.6407009697741797 0.31712034562966324 0.6828796543703368 0.2449616877514271 0.755038312248573 0.24670529979309355 0.7532947002069065 0.31791089008183393 0.682089109918166 0.18820937175378527 0.8117906282462147 0.24050631363712546 0.7594936863628745 0.5745210335054943 0.42547896649450573 0.2695067387255328 0.7304932612744671 0.4768369224162076 0.5231630775837924 0.656893761420696 0.34310623857930406 0.3966060307216668 0.6033939692783331 0.3953634770497966 0.6046365229502034 0.5230325773078301 0.4769674226921699 0.24706173350460234 0.7529382664953976 0.29476148458334234 0.7052385154166576 0.9482331647512385 0.0517668352487615 0.3092135335953616 0.6907864664046385 0.10235277782792361 0.8976472221720765 0.007631827584318397 0.9923681724156816 0.7192485912800599 0.28075140871994003 0.44090499999280247 0.5590950000071976 0.05500948366655931 0.9449905163334407 0.19730190140457948 0.8026980985954204 0.7130806406927943 0.28691935930720563 0.6416541947043443 0.3583458052956557 0.3262495969935723 0.6737504030064277 0.3434300547100717 0.6565699452899283 0.7512780721792861 0.24872192782071384 0.8260614130901041 0.173938586909896 0.6057920660741196 0.3942079339258804 0.8921008666599718 0.10789913334002812 0.5688909259781977 0.43110907402180226 0.21320993882105718 0.7867900611789428 0.6846141234532843 0.31538587654671574 0.5366167668055527 0.4633832331944472 0.3625536675780317 0.6374463324219684 0.395542278816877 0.6044577211831231 0.051856696064841515 0.9481433039351584 0.7170524803363563 0.28294751966364373 0.1877715891097106 0.8122284108902895 0.6321944490762379 0.36780555092376205 0.34061113675815696 0.6593888632418431 0.5495895368285717 0.4504104631714284 0.5468833967041873 0.45311660329581266 0.1490764553647039 0.850923544635296 0.5672396342401669 0.4327603657598331 0.40861277274828717 0.5913872272517128 0.8378595338368856 0.16214046616311442 0.27603933983506496 0.7239606601649351 0.35665502101960045 0.6433449789803996 0.42044684299430846 0.5795531570056917 0.9006242339256573 0.09937576607434273 0.21387438728807168 0.7861256127119284 0.483603211069668 0.5163967889303319 0.719256786094115 0.280743213905885 0.7414567719638242 0.25854322803617574 0.43198390148158455 0.5680160985184155 0.6410327562307107 0.35896724376928923 0.6907506144754172 0.3092493855245828 0.11554579103490728 0.8844542089650927 0.024417479501651566 0.9755825204983485 0.2637328360204254 0.7362671639795747 0.5264191399615834 0.4735808600384166 0.4718433978261701 0.5281566021738299 0.27274175970321557 0.7272582402967844 0.4553387680374351 0.5446612319625649 0.16128100533260764 0.8387189946673923 0.3270084957306897 0.6729915042693103 0.6573669315048377 0.34263306849516234 0.17737706021806157 0.8226229397819385 0.20960618704744688 0.7903938129525531 0.7422795666217249 0.25772043337827505 0.349761037162787 0.650238962837213 0.4844592734699791 0.5155407265300208 0.653700782017232 0.346299217982768 0.5315735700080985 0.4684264299919015 0.30760996064049667 0.6923900393595034 0.7226361116451673 0.2773638883548326 0.11641955121158437 0.8835804487884157 0.26417191893449415 0.7358280810655059 0.3832728251406197 0.6167271748593802 0.47888769602094783 0.5211123039790522 0.46195501858020543 0.5380449814197945 0.8277732830729524 0.1722267169270476 0.3822259002123338 0.6177740997876662 0.3940691401762479 0.605930859823752 0.3613935718296403 0.6386064281703596 0.3998120556498812 0.6001879443501188 0.45456376092062933 0.5454362390793707 0.9501134778306212 0.04988652216937868 0.806571295981272 0.19342870401872805 0.4583864625152603 0.5416135374847397 0.547677008169762 0.4523229918302381 0.5457980373856537 0.45420196261434626 0.5930388678410032 0.4069611321589968 0.13504511418688636 0.8649548858131136 0.5744049759693933 0.4255950240306067 0.47641381291241286 0.5235861870875871 0.9350650217595607 0.06493497824043931 0.4916598909100738 0.5083401090899262 0.5778400615258157 0.4221599384741843 0.580573963461716 0.41942603653828403 0.6753205404014109 0.32467945959858907 0.4699538163741954 0.5300461836258046 0.6779072417071101 0.32209275829288986 0.4382871960920234 0.5617128039079765 0.7185951615568686 0.2814048384431313 0.9491720278443408 0.050827972155659165 0.7007359805848965 0.29926401941510344 0.28131457616559 0.7186854238344099 0.4411691080460404 0.5588308919539596 0.47086132295980204 0.5291386770401979 0.11150838887115891 0.8884916111288411 0.26247410417404377 0.7375258958259563 0.6688545292011221 0.33114547079887796 0.5570687042201471 0.44293129577985296 0.47747407037702577 0.5225259296229742 0.11401721874928072 0.8859827812507193 0.8965125061146009 0.10348749388539916 0.46043061752796016 0.5395693824720399 0.8463498665944146 0.1536501334055854 0.4049276921708098 0.5950723078291901 0.8764819603801969 0.12351803961980312 0.5622257436086203 0.43777425639137973 0.5473017355542836 0.45269826444571637 0.5094638779393809 0.49053612206061914 0.32266943032128464 0.6773305696787154 0.42109478662307387 0.5789052133769261 0.21775610993708197 0.7822438900629181 0.2846505326590625 0.7153494673409375 0.4946226063566781 0.5053773936433219 0.5306234265409475 0.4693765734590525 0.6683648787475284 0.3316351212524716 0.34514096439070413 0.6548590356092958 0.8493158205161565 0.15068417948384347 0.4424939821235708 0.5575060178764293 0.15110436930758903 0.848895630692411 0.683531462886587 0.31646853711341294 0.46076009035661264 0.5392399096433874 0.2763909136382299 0.7236090863617701 0.802617204558116 0.19738279544188403 0.13557651730400375 0.8644234826959962 0.2764618919745543 0.7235381080254457 0.12060836720488513 0.8793916327951149 0.6313462949845114 0.36865370501548855 0.36981740101589106 0.6301825989841089 0.3110199967696916 0.6889800032303084 0.5155894976855738 0.48441050231442606 0.9432659958026766 0.05673400419732349 0.7791158536506713 0.22088414634932874 0.8342918774498393 0.16570812255016068 0.26928488249272214 0.7307151175072779 0.9488240450998481 0.05117595490015188 0.4423609844743776 0.5576390155256223 0.7594019253256248 0.24059807467437516 0.076384998121506 0.923615001878494 0.5520049989592786 0.44799500104072143 0.4042332152819238 0.5957667847180761 0.40003494231226105 0.5999650576877389 0.7622587706742324 0.23774122932576755 0.8072822979102131 0.19271770208978692 0.04042864813722257 0.9595713518627774 0.3281876026919843 0.6718123973080157 0.2980506710047866 0.7019493289952135 0.29328026951787883 0.7067197304821212 0.6028680674353282 0.3971319325646719 0.44358598896904977 0.5564140110309502 0.6732276701008296 0.32677232989917043 0.5441331121162628 0.4558668878837372 0.7914166911614872 0.20858330883851295 0.1456529095956696 0.8543470904043304 0.2688508935746828 0.7311491064253172 0.31605413572953356 0.6839458642704666 0.34940594458985186 0.6505940554101481 0.25351340275281614 0.7464865972471839 0.41966367256297915 0.5803363274370209 0.42370581569149407 0.5762941843085059 0.11105661552111136 0.8889433844788887 0.45225981441356816 0.5477401855864319 0.44250326908343174 0.5574967309165683 0.8583825941601757 0.14161740583982432 0.3650103128905571 0.6349896871094429 0.549818497256486 0.4501815027435139 0.5142276233642029 0.4857723766357971 0.8485969093135666 0.15140309068643346 0.5502450823754169 0.44975491762458303 0.7091691000764407 0.2908308999235594 0.731883201374424 0.268116798625576 0.9705701492730845 0.0294298507269155 0.7970372886397078 0.20296271136029218 0.5868278517510341 0.4131721482489659 0.6293596780464026 0.3706403219535974 0.0811480291095054 0.9188519708904946 0.5882960654446687 0.4117039345553313 0.4222129123087729 0.5777870876912271 0.04519523068848204 0.9548047693115179 0.5484015634595073 0.45159843654049264 0.457559512543586 0.5424404874564139 0.09432276640020683 0.9056772335997931 0.4903759020425668 0.5096240979574332 0.1408556903643366 0.8591443096356634 0.6359335171826469 0.3640664828173531 0.316340084768524 0.683659915231476 0.8262512045881157 0.1737487954118843 0.9247593443504519 0.07524065564954804 0.5909668503349986 0.40903314966500137 0.195461099149115 0.8045389008508851 0.78109492187906 0.2189050781209399 0.9617015921812487 0.038298407818751316 0.8310023593409093 0.1689976406590908 0.6604769226709649 0.3395230773290351 0.17365807232848732 0.8263419276715127 0.826102896396732 0.173897103603268 0.6063285907294208 0.39367140927057925 0.6661287330683672 0.3338712669316328 0.49626685835846024 0.5037331416415398 0.5191376970293031 0.4808623029706969 0.42537488720281585 0.5746251127971841 0.5593947705980227 0.4406052294019774 0.2509054968472164 0.7490945031527836 0.5954806831095009 0.4045193168904992 0.6654814683270254 0.33451853167297463 0.9784852110378386 0.02151478896216139 0.6393660754457229 0.36063392455427706 0.8263379208627651 0.17366207913723486 0.9808417757766132 0.019158224223386793 0.6265227049831469 0.3734772950168531 0.5534562231132503 0.4465437768867496 0.41387034127878186 0.5861296587212181 0.3628974906051108 0.6371025093948892 0.5673846337687555 0.43261536623124464 0.3546507907581282 0.6453492092418718 0.67111207130572 0.32888792869427996 0.3105830571224171 0.6894169428775829 0.44169633812052694 0.5583036618794731 0.4503466339663298 0.5496533660336701 0.22175054258648394 0.778249457413516 0.6919983283835943 0.3080016716164057 0.08802294469190677 0.9119770553080933 0.43879960832268877 0.5612003916773112 0.9719233488706732 0.028076651129326786 0.5275880499827214 0.47241195001727865 0.7827033453727443 0.21729665462725564 0.5825000817080378 0.4174999182919622 0.14566683664679508 0.854333163353205 0.6999276848889022 0.3000723151110979 0.5774192317248202 0.42258076827517976 0.4636620531015181 0.5363379468984819 0.32385902729800614 0.6761409727019938 0.4015433872956565 0.5984566127043435 0.3890885869518723 0.6109114130481277 0.7321901442091208 0.26780985579087924 0.5926525997318333 0.40734740026816674 0.2287180707644775 0.7712819292355224 0.2299209694350209 0.7700790305649791 0.651751576149321 0.348248423850679 0.5750081715633245 0.4249918284366755 0.49323853008474733 0.5067614699152527 0.3276538442394644 0.6723461557605356 0.18975285436206982 0.8102471456379302 0.5575874088232016 0.44241259117679843 0.3995262945984646 0.6004737054015354 0.23278054537456808 0.767219454625432 0.4658585995943307 0.5341414004056693 0.8741369476811729 0.12586305231882705 0.11274074011240039 0.8872592598875996 0.5330284616818505 0.46697153831814964 0.07258125709580537 0.9274187429041947 0.49000778058808336 0.5099922194119167 0.5211780433143084 0.47882195668569166 0.4703109942166596 0.5296890057833403 0.4521964166210698 0.5478035833789301 0.34397046242065926 0.6560295375793408 0.8500200060125261 0.14997999398747386 0.43526677848177914 0.5647332215182209 0.14090824746879158 0.8590917525312084 0.5078598904127182 0.4921401095872819 0.9865283462055056 0.013471653794494446 0.780794934150137 0.21920506584986307 0.007753133739629395 0.9922468662603706 0.3476716153505263 0.6523283846494736 0.9724167230792494 0.027583276920750587 0.45305427147668287 0.5469457285233171 0.6627942042284984 0.3372057957715015 0.809784419379935 0.19021558062006502 0.5919748688675432 0.4080251311324568 0.7867999478611257 0.21320005213887425 0.7781628775471731 0.22183712245282697 0.17332679224200598 0.826673207757994 0.3997181811765639 0.6002818188234361 0.4570634540778855 0.5429365459221145 0.1585466245187075 0.8414533754812925 0.7139409148108743 0.28605908518912576 0.34306837491296616 0.6569316250870338 0.4734202784723215 0.5265797215276785 0.5370238204993499 0.46297617950065006 0.1627904133672245 0.8372095866327756 0.9084022532715587 0.09159774672844137 0.7050816514671427 0.2949183485328572 0.7744860818580888 0.22551391814191127 0.24457384479816102 0.755426155201839 0.6265279701578288 0.37347202984217126 0.025601631395684533 0.9743983686043155 0.5757491366691571 0.42425086333084294 0.5686769136579792 0.4313230863420207 0.11541490110500688 0.8845850988949933 0.6158223506784146 0.3841776493215854 0.5055785151626713 0.49442148483732873 0.25077497419731143 0.7492250258026887 0.39339219893157445 0.6066078010684257 0.6508310401699944 0.3491689598300056 0.6994573282457586 0.3005426717542415 0.08117952561927064 0.9188204743807293 0.7998799879821233 0.20012001201787671 0.006731825928371349 0.9932681740716287 0.3004803302298915 0.6995196697701086 0.3664542184192801 0.63354578158072 0.0970783935295492 0.9029216064704508 0.4700720092710187 0.5299279907289813 0.6946955226908248 0.30530447730917526 0.6296747087134835 0.3703252912865165 0.8026994992384393 0.1973005007615607 0.49045663398671 0.50954336601329 0.2671421593476277 0.7328578406523724 0.21908929612503092 0.7809107038749691 0.4007262956523347 0.5992737043476652 0.32184961682328017 0.6781503831767198 0.974976193431842 0.02502380656815805 0.900892450990845 0.09910754900915501 0.5737653918468849 0.42623460815311515 0.8836443781754248 0.1163556218245751 0.8339062109961605 0.1660937890038395 0.6109868520607799 0.3890131479392201 0.8009376039702546 0.19906239602974535 0.45384450458184955 0.5461554954181504 0.6126909676970003 0.38730903230299973 0.7549374006295947 0.2450625993704053 0.8832827029831722 0.11671729701682772 0.43411311436691236 0.5658868856330876 0.39250915195124647 0.6074908480487535 0.7668681245635555 0.23313187543644448 0.9335602665161868 0.06643973348381316 0.43900718909585557 0.5609928109041445 0.9327261082848831 0.06727389171511693 0.4778585299397599 0.5221414700602401 0.24884944461253083 0.7511505553874692 0.7413194441950642 0.2586805558049357 0.5739148895142001 0.4260851104858 0.5191865639699031 0.48081343603009674 0.889983689837506 0.11001631016249401 0.3326679527420334 0.6673320472579666 0.30005330565176963 0.6999466943482303 0.5171445551017432 0.48285544489825694 0.4506279662017386 0.5493720337982614 0.6186437712584252 0.38135622874157477 0.34352606812827785 0.6564739318717221 0.20122945551146815 0.7987705444885318 0.5338224466664716 0.4661775533335284 0.2584271219344504 0.7415728780655496 0.5343686496542551 0.46563135034574493 0.3980653509700679 0.6019346490299321 0.484439125714662 0.5155608742853379 0.03539207494568274 0.9646079250543173 0.18306430433249368 0.8169356956675063 0.895402103520495 0.10459789647950507 0.11097064443280703 0.889029355567193 0.5453456466107598 0.4546543533892403 0.45866941251516885 0.5413305874848311 0.5718238881309106 0.42817611186908944 0.28904660255309894 0.710953397446901 0.6649766567711674 0.3350233432288327 0.6825296545067262 0.31747034549327374 0.9758725723111966 0.024127427688803344 0.5062775375282241 0.4937224624717759 0.5620212263516955 0.4379787736483045 0.9258525416288078 0.07414745837119215 0.608881961947038 0.391118038052962 0.12681449630814431 0.8731855036918557 0.6857458730563561 0.3142541269436439 0.2577380940866961 0.742261905913304 0.7114041755537528 0.28859582444624726 0.24487153500880318 0.7551284649911969 0.35911263163995266 0.6408873683600473 0.6516093899096856 0.3483906100903143 0.6691195398105891 0.3308804601894109 0.4065020446100642 0.5934979553899359 0.9889682308999657 0.01103176910003437 0.7764643512751213 0.22353564872487874 0.7003626483161423 0.29963735168385774 0.41115436936640454 0.5888456306335954 0.023407066270448494 0.9765929337295515 0.6419298234064982 0.35807017659350177 0.9044323740537721 0.0955676259462279 0.9829161274795091 0.01708387252049095 0.2737487238915507 0.7262512761084493 0.4282908985721248 0.5717091014278751 0.34225124632505843 0.6577487536749416 0.9578163688419769 0.04218363115802316 0.3767361640378271 0.6232638359621729 0.9539907097100645 0.046009290289935535 0.9773839433012503 0.022616056698749658 0.38512156809426895 0.6148784319057311 0.39459452434695813 0.6054054756530418 0.023262935840474334 0.9767370641595257 0.6107698285286419 0.389230171471358 0.2502937193497048 0.7497062806502951 0.6612506614250271 0.33874933857497286 0.37119448164236535 0.6288055183576345 0.9648228503836432 0.0351771496163568 0.5107150838512984 0.4892849161487016 0.8688407637446776 0.1311592362553224 0.6215328265624036 0.3784671734375964 0.5092190185372187 0.49078098146278126 0.615245221555874 0.3847547784441261 0.7766193636629766 0.2233806363370234 0.5672379217581419 0.43276207824185814 0.4086843583815247 0.5913156416184752 0.18517160881919018 0.8148283911808097 0.8839945879834584 0.11600541201654152 0.24673358811919086 0.7532664118808091 0.7074724063837823 0.2925275936162177 0.12283195519695354 0.8771680448030464 0.8584408457245737 0.14155915427542634 0.38198289499456944 0.6180171050054306 0.07216165638778423 0.9278383436122157 0.9928178062466482 0.007182193753351839 0.7353443506908576 0.2646556493091424 0.38489898045702836 0.6151010195429716 0.8784570758553246 0.12154292414467525 0.24417822266240044 0.7558217773375996 0.7239929467454614 0.2760070532545385 0.009757415221019807 0.9902425847789802 0.6306539419702105 0.3693460580297895 0.28200205599886125 0.7179979440011387 0.5056248300618804 0.4943751699381196 0.08146790136557958 0.9185320986344205 0.24630191329994752 0.7536980867000523 0.8009313398266168 0.1990686601733832 0.524637240012673 0.47536275998732713 0.6889805672292508 0.3110194327707492 0.21442893682825184 0.7855710631717481 0.2343026934182427 0.7656973065817573 0.4219215832308185 0.5780784167691815 0.8887204018255561 0.1112795981744439 0.498195506825683 0.5018044931743171 0.6590696097318125 0.34093039026818744 0.8985427124329864 0.10145728756701353 0.8126301016075114 0.18736989839248863 0.4396468819598807 0.5603531180401192 0.06580223527335331 0.9341977647266467 0.9392115343717343 0.060788465628265655 0.6715884028691638 0.32841159713083623 0.5731664554043393 0.42683354459566075 0.6500262836773808 0.34997371632261914 0.429296332362951 0.570703667637049 0.8344918775020678 0.16550812249793226 0.752904195130288 0.24709580486971205 0.22863093225797126 0.7713690677420287 0.0807780906129931 0.9192219093870069 0.004907117889846015 0.995092882110154 0.3215921230672542 0.6784078769327458 0.6088196018435964 0.39118039815640354 0.058227851274661305 0.9417721487253387 0.10622473639794527 0.8937752636020547 0.11867842429760525 0.8813215757023948 0.26367443893658304 0.736325561063417 0.5549507318334372 0.4450492681665628 0.40811459805324374 0.5918854019467563 0.7241187795974459 0.27588122040255414 0.34167910954796904 0.6583208904520309 0.4206830639435465 0.5793169360564536 0.4974730531281826 0.5025269468718174 0.10624546634254031 0.8937545336574597 0.19637271739408005 0.80362728260592 0.3676486122178329 0.632351387782167 0.5515738678190613 0.4484261321809388 0.28973687813123256 0.7102631218687674 0.8946351277975949 0.10536487220240513 0.5644733984937992 0.4355266015062008 0.38330798837858604 0.6166920116214141 0.16591099802931664 0.8340890019706834 0.412031726664025 0.587968273335975 0.28131847321223674 0.7186815267877632 0.7185708752096881 0.2814291247903119 0.4544543831380977 0.5455456168619024 0.4003737976687099 0.59962620233129 0.23689316848913408 0.763106831510866 0.10298660422665597 0.897013395773344 0.4082420281361378 0.5917579718638621 0.47898592238078525 0.5210140776192147 0.07008417046153419 0.9299158295384659 0.7280328798606182 0.27196712013938174 0.41176332139168736 0.5882366786083126 0.9151726155591531 0.08482738444084693 0.1327653967119314 0.8672346032880686 0.5283309954521741 0.4716690045478259 0.6097517373919704 0.39024826260802964 0.3789467613756315 0.6210532386243686 0.35649981659430396 0.643500183405696 0.565643839701795 0.43435616029820495 0.5968762818612607 0.40312371813873926 0.2620118125484069 0.7379881874515932 0.500799815817405 0.499200184182595 0.6402837100025547 0.35971628999744537 0.565343600018509 0.4346563999814909 0.7690984499719118 0.23090155002808813 0.4493330085657388 0.5506669914342612 0.9656437411525224 0.03435625884747758 0.5243983693170281 0.475601630682972 0.07355815398050515 0.9264418460194949 0.5852110580085066 0.4147889419914935 0.5209045449342041 0.4790954550657959 0.5680238039591426 0.43197619604085735 0.26031241616951056 0.7396875838304894 0.3989656256810943 0.6010343743189057 0.6936232262324268 0.3063767737675733 0.08902612100950073 0.9109738789904993 0.5440163856859255 0.4559836143140746 0.5344950247237891 0.4655049752762109 0.5731931952870156 0.42680680471298443 0.361476906793044 0.638523093206956 0.043482063585663845 0.9565179364143361 0.2069819129802412 0.7930180870197588 0.6818299674038097 0.31817003259619014 0.5410239231949322 0.45897607680506786 0.6941136035687999 0.3058863964312 0.8107812171472661 0.1892187828527339 0.5843550283356249 0.41564497166437503 0.4661440224894706 0.5338559775105293 0.5921846096886205 0.4078153903113795 0.20942473619510668 0.7905752638048933 0.8797513264676051 0.12024867353239489 0.6762073426928368 0.3237926573071633 0.27742728562799857 0.7225727143720015 0.5770092274597185 0.42299077254028145 0.6427249100461818 0.3572750899538181 0.6532649817411658 0.34673501825883435 0.49151836919745145 0.5084816308025485 0.7883834012581299 0.2116165987418701 0.6177828178690183 0.38221718213098166 0.5602357703491537 0.4397642296508463 0.18270944932183575 0.8172905506781643 0.7024032950369541 0.29759670496304597 0.6529734391192012 0.3470265608807988 0.769527771240544 0.23047222875945605 0.1500368808410382 0.8499631191589618 0.29496569301241327 0.7050343069875866 0.11502707217229378 0.8849729278277062 0.7945435890230753 0.2054564109769247 0.6361577150545381 0.3638422849454619 0.5837838566295129 0.41621614337048707 0.3404954606892675 0.6595045393107324 0.007659020789885993 0.992340979210114 0.36664707749195324 0.6333529225080469 0.21296503248933443 0.7870349675106655 0.8074310216974926 0.19256897830250747 0.16543032384819745 0.8345696761518026 0.8641131016241583 0.1358868983758417 0.8334827561981274 0.16651724380187266 0.4731772380371613 0.5268227619628387 0.8188815341380056 0.18111846586199445 0.33545025270271456 0.6645497472972854 0.5651505522975457 0.4348494477024543 0.8309780902547069 0.16902190974529313 0.6570352245939431 0.34296477540605685 0.7299721472004714 0.27002785279952857 0.3750977729517962 0.6249022270482038 0.7732492556348639 0.22675074436513612 0.7524233734187435 0.24757662658125648 0.46621744524082825 0.5337825547591717 0.9424837769607863 0.05751622303921364 0.7351959671398658 0.26480403286013415 0.48852135852878925 0.5114786414712107 0.15567930163821248 0.8443206983617875 0.016011386917121326 0.9839886130828787 0.6105813942466096 0.3894186057533903 0.3625708577468128 0.6374291422531871 0.3754164073668933 0.6245835926331067 0.7747672229200907 0.2252327770799093 0.058259679585592604 0.9417403204144074 0.35177704584069097 0.648222954159309 0.40000026101330255 0.5999997389866973 0.9129999496424019 0.08700005035759806 0.800778729170473 0.19922127082952704 0.05512339856813695 0.944876601431863 0.27408201935856824 0.7259179806414316 0.5747528961365526 0.42524710386344733 0.8129184911278188 0.18708150887218106 0.20920956933666468 0.7907904306633353 0.671943419783669 0.328056580216331 0.4376960597749263 0.5623039402250737 0.44225700540774343 0.5577429945922566 0.6032537697642413 0.39674623023575867 0.48744427225825593 0.5125557277417441 0.8481338519762536 0.15186614802374643 0.15009988927967324 0.8499001107203268 0.10191362198912617 0.8980863780108739 0.11142239121557411 0.8885776087844259 0.08573387305892656 0.9142661269410735 0.07561921591152566 0.9243807840884743 0.39267769820522197 0.607322301794778 0.4945096435049933 0.5054903564950067 0.4170318842626385 0.5829681157373615 0.71471504381779 0.28528495618220995 0.8252336479128837 0.17476635208711638 0.6491706921517838 0.35082930784821614 0.33770077381098196 0.662299226189018 0.5967722641584055 0.4032277358415946 0.8417782912990578 0.15822170870094215 0.4292583690768298 0.5707416309231702 0.42239587756694397 0.5776041224330559 0.5991464314621905 0.4008535685378096 0.1897200606618377 0.8102799393381623 0.5026577872915633 0.49734221270843665 0.47228671566833325 0.5277132843316668 0.6772051938382457 0.3227948061617543 0.49139640603304013 0.5086035939669599 0.644380014975424 0.355619985024576 0.26827138391907546 0.7317286160809245 0.45287925633065884 0.5471207436693412 0.011257598445424214 0.9887424015545758 0.5086782062297951 0.49132179377020485 0.458052362914507 0.541947637085493 0.16265534497007642 0.8373446550299236 0.4404430593303976 0.5595569406696024 0.3653010485060519 0.6346989514939482 0.49925224823679 0.5007477517632101 0.435149416157278 0.564850583842722 0.64054718291908 0.35945281708092 0.5154428941526685 0.4845571058473315 0.6378722707954508 0.36212772920454916 0.7650357372017189 0.23496426279828106 0.26308273435969115 0.7369172656403089 0.8224708190071941 0.1775291809928059 0.28726026287468265 0.7127397371253174 0.16284511564091922 0.8371548843590808 0.5372110273660787 0.4627889726339214 0.5237194774149752 0.4762805225850249 0.29433681639550185 0.7056631836044982 0.47479689659140245 0.5252031034085977 0.7546541828865397 0.24534581711346026 0.7939112500785916 0.2060887499214084 0.5158118362399664 0.48418816376003365 0.651882996140953 0.3481170038590469 0.5183721072903473 0.4816278927096527 0.30109857030053117 0.6989014296994688 0.3829386646695225 0.6170613353304775 0.42670698967720255 0.5732930103227974 0.6083486873654608 0.3916513126345392 0.7672367734375164 0.23276322656248355 0.1461694259236853 0.8538305740763147 0.16695989932062785 0.8330401006793722 0.4761627332239255 0.5238372667760746 0.4839708172234799 0.5160291827765201 0.10786712886381225 0.8921328711361878 0.2334797084366732 0.7665202915633268 0.01662986138793998 0.98337013861206 0.30552648555150547 0.6944735144484946 0.705586122900804 0.29441387709919603 0.785735443206448 0.2142645567935521 0.1110327248099677 0.8889672751900323 0.9046462337285832 0.09535376627141681 0.5122866099788281 0.487713390021172 0.2587476297999818 0.7412523702000182 0.3625643416282025 0.6374356583717976 0.01794159100592745 0.9820584089940726 0.7381572871109742 0.2618427128890259 0.9803361906556283 0.019663809344371754 0.39283369208090574 0.6071663079190943 0.5623366359904021 0.4376633640095979 0.8633598550789104 0.1366401449210895 0.39859444477745515 0.6014055552225448 0.5194651570384745 0.4805348429615255 0.12607205812567943 0.8739279418743205 0.9394570026434684 0.06054299735653159 0.37694454643035025 0.6230554535696499 0.5037329661197396 0.4962670338802604 0.7651679726877737 0.23483202731222622 0.3138377271337722 0.6861622728662278 0.9435837854769447 0.0564162145230554 0.07493806914321534 0.9250619308567847 0.9301936677240937 0.0698063322759063 0.12669672403385004 0.87330327596615 0.7287205629899993 0.2712794370100008 0.2854968050695309 0.7145031949304691 0.5131493031936226 0.48685069680637727 0.4596336194037084 0.5403663805962916 0.7318493438893927 0.26815065611060745 0.31860946671825074 0.6813905332817493 0.7615167172828649 0.23848328271713518 0.3844448534411756 0.6155551465588244 0.5810631589652201 0.41893684103477996 0.2609541533694955 0.7390458466305044 0.2925960552000738 0.7074039447999262 0.08346707999597702 0.916532920004023 0.5197878591214619 0.4802121408785382 0.2704389487398201 0.72956105126018 0.22814641409013303 0.771853585909867 0.00647493399854807 0.993525066001452 0.12977017217135997 0.87022982782864 0.6370923777186934 0.3629076222813066 0.16886889548557368 0.8311311045144263 0.2482121382329567 0.7517878617670433 0.35696132353721255 0.6430386764627873 0.5343851591649172 0.4656148408350828 0.9431757208353012 0.05682427916469876 0.10048525633974081 0.8995147436602592 0.347865111242223 0.6521348887577769 0.6593009130554176 0.34069908694458234 0.8924779702776523 0.1075220297223477 0.6365169803812976 0.3634830196187025 0.8025144198847517 0.19748558011524825 0.5553132203510226 0.4446867796489774 0.9737575221921296 0.026242477807870302 0.5873208063678887 0.41267919363211114 0.4998138754995843 0.5001861245004158 0.9668639750419489 0.033136024958051166 0.526312110113144 0.4736878898868559 0.5018007853054084 0.4981992146945915 0.06596903666459551 0.9340309633354045 0.7014993087704816 0.2985006912295184 0.6298512469668122 0.37014875303318784 0.5184282194027614 0.4815717805972386 0.41983334717052956 0.5801666528294704 0.8217987290640114 0.17820127093598856 0.2665186995047335 0.7334813004952665 0.4927266361724903 0.5072733638275098 0.8183510039857474 0.1816489960142525 0.21848271459724128 0.7815172854027587 0.4259895121897878 0.5740104878102122 0.22747422471136391 0.7725257752886361 0.29428408579902193 0.7057159142009781 0.32057450300271284 0.6794254969972872 0.32107529374484634 0.6789247062551537 0.49092567319494723 0.5090743268050528 0.38878178411835573 0.6112182158816442 0.20519956253715704 0.794800437462843 0.4810924948566405 0.5189075051433595 0.3083530554950009 0.6916469445049991 0.5270935635603355 0.4729064364396645 0.6412330956613723 0.35876690433862773 0.6307289798037147 0.36927102019628527 0.1642032395337189 0.8357967604662812 0.6134686231775428 0.3865313768224572 0.8577201007296045 0.1422798992703956 0.5592042362540055 0.4407957637459945 0.8169351124700404 0.1830648875299596 0.5588080836539223 0.4411919163460778 0.4684761003845373 0.5315238996154626 0.27949647313979875 0.7205035268602012 0.7693007800543105 0.23069921994568957 0.5441341163529577 0.45586588364704234 0.6895762644068345 0.3104237355931655 0.8199014506766331 0.1800985493233668 0.027159365052069215 0.9728406349479308 0.5081428944976843 0.49185710550231565 0.5646107746640522 0.4353892253359478 0.8288657093027563 0.17113429069724373 0.5706650089315802 0.4293349910684197 0.5176436151667916 0.48235638483320853 0.062062871928424655 0.9379371280715754 0.4203419082453422 0.5796580917546579 0.5000017971127352 0.4999982028872649 0.18267156244406452 0.8173284375559354 0.2812738093590994 0.7187261906409006 0.40506760007679443 0.5949323999232056 0.30031242601056035 0.6996875739894395 0.9422459231456773 0.05775407685432266 0.5016708679812695 0.4983291320187305 0.34426703028467703 0.655732969715323 0.6044406445862068 0.3955593554137931 0.2743600032566899 0.72563999674331 0.8403637141917466 0.15963628580825334 0.8059359997410784 0.19406400025892154 0.5920702808184806 0.4079297191815194 0.3612224629255583 0.6387775370744417 0.5572028804648235 0.44279711953517653 0.4021961316253832 0.5978038683746169 0.2778940026714768 0.7221059973285232 0.8731738070052927 0.1268261929947073 0.4888923273012028 0.5111076726987972 0.6715506736789797 0.3284493263210203 0.5573102017743202 0.4426897982256798 0.45514329996627095 0.5448567000337291 0.3924019432071931 0.6075980567928069 0.844084979536165 0.15591502046383499 0.026345731243467035 0.9736542687565329 0.4719360842305727 0.5280639157694272 0.39797475076848354 0.6020252492315165 0.12318833141764633 0.8768116685823537 0.9409975271017117 0.059002472898288326 0.6392948142279273 0.3607051857720727 0.08106608489901754 0.9189339151009824 0.4054583918432489 0.5945416081567511 0.2163855510165922 0.7836144489834078 0.29538213204786046 0.7046178679521395 0.6218701899407033 0.3781298100592967 0.5530325575376143 0.44696744246238573 0.5677434605140319 0.4322565394859679 0.12300468615775462 0.8769953138422454 0.3555377713150441 0.6444622286849558 0.40379943633870496 0.5962005636612951 0.7211886006415369 0.27881139935846305 0.5464840131021895 0.4535159868978105 0.19751525582117238 0.8024847441788276 0.31870546086139845 0.6812945391386015 0.5149951332561961 0.48500486674380394 0.24847967432044332 0.7515203256795566 0.6819877491526157 0.3180122508473843 0.20416174307261403 0.795838256927386 0.48868675197680106 0.511313248023199 0.4185598640689021 0.5814401359310979 0.28403550382618886 0.7159644961738111 0.8452063885044414 0.15479361149555854 0.6614719519422693 0.33852804805773073 0.7019179540169977 0.29808204598300225 0.5231164711542406 0.4768835288457593 0.6007691010869332 0.39923089891306685 </TABLE>
    </DEFINITION>
    <DEFINITION>
      <FOR>17</FOR>
      <GIVEN>2</GIVEN>
      <GIVEN>1</GIVEN>
      <GIVEN>8</GIVEN>
      <GIVEN>14</GIVEN>
      <GIVEN>5</GIVEN>
